{"learner":{"attributes":{"scikit_learn":"{\"_estimator_type\": \"regressor\"}"},"feature_names":[],"feature_types":[],"gradient_booster":{"model":{"gbtree_model_param":{"num_parallel_tree":"1","num_trees":"150"},"iteration_indptr":[0,1,2,3,4,5,6,7,8,9,10,11,12,13,14,15,16,17,18,19,20,21,22,23,24,25,26,27,28,29,30,31,32,33,34,35,36,37,38,39,40,41,42,43,44,45,46,47,48,49,50,51,52,53,54,55,56,57,58,59,60,61,62,63,64,65,66,67,68,69,70,71,72,73,74,75,76,77,78,79,80,81,82,83,84,85,86,87,88,89,90,91,92,93,94,95,96,97,98,99,100,101,102,103,104,105,106,107,108,109,110,111,112,113,114,115,116,117,118,119,120,121,122,123,124,125,126,127,128,129,130,131,132,133,134,135,136,137,138,139,140,141,142,143,144,145,146,147,148,149,150],"tree_info":[0,0,0,0,0,0,0,0,0,0,0,0,0,0,0,0,0,0,0,0,0,0,0,0,0,0,0,0,0,0,0,0,0,0,0,0,0,0,0,0,0,0,0,0,0,0,0,0,0,0,0,0,0,0,0,0,0,0,0,0,0,0,0,0,0,0,0,0,0,0,0,0,0,0,0,0,0,0,0,0,0,0,0,0,0,0,0,0,0,0,0,0,0,0,0,0,0,0,0,0,0,0,0,0,0,0,0,0,0,0,0,0,0,0,0,0,0,0,0,0,0,0,0,0,0,0,0,0,0,0,0,0,0,0,0,0,0,0,0,0,0,0,0,0,0,0,0,0,0,0],"trees":[{"base_weights":[3.7061542E-2,-4.0238523E0,2.1753275E0,-4.484019E0,-2.871706E0,8.4968084E-1,4.8494477E0,-2.3951514E-1,-2.0186439E-1,-1.5364651E-1,-6.391036E-2,1.2807569E-1,1.4557456E0,1.8944134E-1,2.6984832E-1,-2.6559576E-1,3.0356762E-1,1.1845715E0,9.821163E-2,-1.9436136E-2,-4.6755793E-3,1.05881635E-2,2.7889958E-2,4.934616E-2,6.691612E-2],"categories":[],"categories_nodes":[],"categories_segments":[],"categories_sizes":[],"default_left":[0,0,0,0,0,0,0,0,0,0,0,0,0,0,0,0,0,0,0,0,0,0,0,0,0],"id":0,"left_children":[1,3,5,7,9,11,13,-1,-1,-1,-1,15,17,-1,-1,19,21,23,-1,-1,-1,-1,-1,-1,-1],"loss_changes":[5.4879243E3,1.0270215E2,1.463484E3,1.7314453E0,1.691449E1,1.2139392E2,5.9108887E1,0E0,0E0,0E0,0E0,8.9236555E0,1.8494385E1,0E0,0E0,8.1117797E-1,1.9590998E0,1.7484283E0,0E0,0E0,0E0,0E0,0E0,0E0,0E0],"parents":[2147483647,0,0,1,1,2,2,3,3,4,4,5,5,6,6,11,11,12,12,15,15,16,16,17,17],"right_children":[2,4,6,8,10,12,14,-1,-1,-1,-1,16,18,-1,-1,20,22,24,-1,-1,-1,-1,-1,-1,-1],"split_conditions":[2.789E1,2.508E1,3.184E1,2.435E1,2.636E1,2.955E1,3.331E1,-2.3951514E-1,-2.0186439E-1,-1.5364651E-1,-6.391036E-2,2.879E1,3.046E1,1.8944134E-1,2.6984832E-1,2.843E1,2.923E1,3.002E1,9.821163E-2,-1.9436136E-2,-4.6755793E-3,1.05881635E-2,2.7889958E-2,4.934616E-2,6.691612E-2],"split_indices":[1,1,1,1,0,1,1,0,0,0,0,1,1,0,0,0,1,1,0,0,0,0,0,0,0],"split_type":[0,0,0,0,0,0,0,0,0,0,0,0,0,0,0,0,0,0,0,0,0,0,0,0,0],"sum_hessian":[6.3E2,2.17E2,4.13E2,1.53E2,6.4E1,2.77E2,1.36E2,8.5E1,6.8E1,5.6E1,8E0,1.27E2,1.5E2,4.9E1,8.7E1,3.9E1,8.8E1,1E2,5E1,2.2E1,1.7E1,6.6E1,2.2E1,4.7E1,5.3E1],"tree_param":{"num_deleted":"0","num_feature":"104","num_nodes":"25","size_leaf_vector":"1"}},{"base_weights":[4.690436E-2,-3.8549128E0,1.9440106E0,-4.2490416E0,-2.7086139E0,7.9487145E-1,4.6427927E0,-2.3141757E-1,-1.9344097E-1,-1.4572532E-1,-7.247342E-2,9.2111535E-2,1.3834599E0,3.8824735E0,2.6195157E-1,-2.3237889E-1,2.5682884E-1,1.1171703E0,9.3887635E-2,1.3796356E-1,2.024303E-1,-1.870225E-2,-4.90606E-3,6.0893493E-3,1.7949868E-2,4.331741E-2,6.1543703E-2],"categories":[],"categories_nodes":[],"categories_segments":[],"categories_sizes":[],"default_left":[0,0,0,0,0,0,0,0,0,0,0,0,0,0,0,0,0,0,0,0,0,0,0,0,0,0,0],"id":1,"left_children":[1,3,5,7,9,11,13,-1,-1,-1,-1,15,17,19,-1,21,23,25,-1,-1,-1,-1,-1,-1,-1,-1,-1],"loss_changes":[4.7966924E3,8.427026E1,1.3484661E3,4.5925293E0,1.0552673E1,1.2685893E2,3.8592773E1,0E0,0E0,0E0,0E0,7.596017E0,1.9883636E1,2.1136475E-1,0E0,8.762467E-1,1.2531991E0,2.099289E0,0E0,0E0,0E0,0E0,0E0,0E0,0E0,0E0,0E0],"parents":[2147483647,0,0,1,1,2,2,3,3,4,4,5,5,6,6,11,11,12,12,13,13,15,15,16,16,17,17],"right_children":[2,4,6,8,10,12,14,-1,-1,-1,-1,16,18,20,-1,22,24,26,-1,-1,-1,-1,-1,-1,-1,-1,-1],"split_conditions":[2.789E1,2.514E1,3.103E1,2.409E1,2.594E1,2.908E1,3.377E1,-2.3141757E-1,-1.9344097E-1,-1.4572532E-1,-7.247342E-2,2.879E1,3.053E1,3.208E1,2.6195157E-1,2.852E1,2.869E1,2.952E1,9.3887635E-2,1.3796356E-1,2.024303E-1,-1.870225E-2,-4.90606E-3,6.0893493E-3,1.7949868E-2,4.331741E-2,6.1543703E-2],"split_indices":[1,1,2,2,2,2,1,0,0,0,0,1,1,1,0,1,2,2,0,0,0,0,0,0,0,0,0],"split_type":[0,0,0,0,0,0,0,0,0,0,0,0,0,0,0,0,0,0,0,0,0,0,0,0,0,0,0],"sum_hessian":[6.46E2,2.11E2,4.35E2,1.55E2,5.6E1,3.06E2,1.29E2,7.2E1,8.3E1,4.7E1,9E0,1.4E2,1.66E2,6E1,6.9E1,4.7E1,9.3E1,1.1E2,5.6E1,1E1,5E1,2.2E1,2.5E1,4.1E1,5.2E1,3.7E1,7.3E1],"tree_param":{"num_deleted":"0","num_feature":"104","num_nodes":"27","size_leaf_vector":"1"}},{"base_weights":[3.7751906E-2,-3.6472938E0,1.9901204E0,-4.0320854E0,-2.5892491E0,8.0506897E-1,4.3714824E0,-2.189982E-1,-1.8388867E-1,-1.3820887E-1,-5.3148117E-2,1.101723E-1,1.2929347E0,3.6405373E0,2.4733408E-1,-2.1592933E-1,2.6369342E-1,1.0300035E0,8.739309E-2,1.3662975E-1,1.9525856E-1,-1.4838922E-2,-3.6087737E-3,7.599495E-3,2.176771E-2,3.9596096E-2,5.748219E-2],"categories":[],"categories_nodes":[],"categories_segments":[],"categories_sizes":[],"default_left":[0,0,0,0,0,0,0,0,0,0,0,0,0,0,0,0,0,0,0,0,0,0,0,0,0,0,0],"id":2,"left_children":[1,3,5,7,9,11,13,-1,-1,-1,-1,15,17,19,-1,21,23,25,-1,-1,-1,-1,-1,-1,-1,-1,-1],"loss_changes":[4.6117812E3,7.994214E1,1.1789138E3,3.7358398E0,1.3615204E1,9.5121124E1,4.0432373E1,0E0,0E0,0E0,0E0,5.9143677E0,1.7936096E1,4.946411E0,0E0,4.2023015E-1,1.4678397E0,2.1373825E0,0E0,0E0,0E0,0E0,0E0,0E0,0E0,0E0,0E0],"parents":[2147483647,0,0,1,1,2,2,3,3,4,4,5,5,6,6,11,11,12,12,13,13,15,15,16,16,17,17],"right_children":[2,4,6,8,10,12,14,-1,-1,-1,-1,16,18,20,-1,22,24,26,-1,-1,-1,-1,-1,-1,-1,-1,-1],"split_conditions":[2.789E1,2.514E1,3.184E1,2.41E1,2.636E1,2.906E1,3.377E1,-2.189982E-1,-1.8388867E-1,-1.3820887E-1,-5.3148117E-2,2.879E1,3.046E1,3.206E1,2.4733408E-1,2.83E1,2.912E1,2.952E1,8.739309E-2,1.3662975E-1,1.9525856E-1,-1.4838922E-2,-3.6087737E-3,7.599495E-3,2.176771E-2,3.9596096E-2,5.748219E-2],"split_indices":[1,1,1,2,0,2,1,0,0,0,0,1,1,2,0,2,1,2,0,0,0,0,0,0,0,0,0],"split_type":[0,0,0,0,0,0,0,0,0,0,0,0,0,0,0,0,0,0,0,0,0,0,0,0,0,0,0],"sum_hessian":[6.39E2,2.21E2,4.18E2,1.6E2,6.1E1,2.8E2,1.38E2,7.5E1,8.5E1,5.4E1,7E0,1.16E2,1.64E2,6.4E1,7.4E1,3.7E1,7.9E1,1.06E2,5.8E1,1.7E1,4.7E1,2.3E1,1.4E1,4.9E1,3E1,3.8E1,6.8E1],"tree_param":{"num_deleted":"0","num_feature":"104","num_nodes":"27","size_leaf_vector":"1"}},{"base_weights":[-6.9728956E-2,-3.5188391E0,1.7764374E0,-3.860106E0,-2.521271E0,6.840176E-1,4.126142E0,-2.0844088E-1,-1.7660432E-1,-1.422839E-1,-1.9025732E0,8.7705866E-2,1.2033169E0,3.4564474E0,2.340564E-1,-1.0221579E-1,-5.683131E-2,-1.3467121E-1,3.4345895E-1,9.9507666E-1,8.398253E-2,1.2892896E-1,1.8452372E-1,-3.292426E-2,-3.5058123E-3,1.16083585E-2,2.3092536E-2,4.009609E-2,5.5497784E-2],"categories":[],"categories_nodes":[],"categories_segments":[],"categories_sizes":[],"default_left":[0,0,0,0,0,0,0,0,0,0,0,0,0,0,0,0,0,0,0,0,0,0,0,0,0,0,0,0,0],"id":3,"left_children":[1,3,5,7,9,11,13,-1,-1,-1,15,17,19,21,-1,-1,-1,23,25,27,-1,-1,-1,-1,-1,-1,-1,-1,-1],"loss_changes":[4.1643145E3,6.788696E1,1.0906616E3,2.2875977E0,6.8292236E0,9.031644E1,3.399536E1,0E0,0E0,0E0,2.8199005E-1,7.837941E0,1.3802536E1,3.8377686E0,0E0,0E0,0E0,2.4561243E0,7.3603964E-1,1.5729294E0,0E0,0E0,0E0,0E0,0E0,0E0,0E0,0E0,0E0],"parents":[2147483647,0,0,1,1,2,2,3,3,4,4,5,5,6,6,10,10,11,11,12,12,13,13,17,17,18,18,19,19],"right_children":[2,4,6,8,10,12,14,-1,-1,-1,16,18,20,22,-1,-1,-1,24,26,28,-1,-1,-1,-1,-1,-1,-1,-1,-1],"split_conditions":[2.676E1,2.482E1,3.103E1,2.399E1,2.577E1,2.908E1,3.315E1,-2.0844088E-1,-1.7660432E-1,-1.422839E-1,2.636E1,2.864E1,3.01E1,3.206E1,2.340564E-1,-1.0221579E-1,-5.683131E-2,2.79E1,1.284551E5,2.957E1,8.398253E-2,1.2892896E-1,1.8452372E-1,-3.292426E-2,-3.5058123E-3,1.16083585E-2,2.3092536E-2,4.009609E-2,5.5497784E-2],"split_indices":[2,2,2,2,0,2,2,0,0,0,0,2,2,2,0,0,0,0,3,2,0,0,0,0,0,0,0,0,0],"split_type":[0,0,0,0,0,0,0,0,0,0,0,0,0,0,0,0,0,0,0,0,0,0,0,0,0,0,0,0,0],"sum_hessian":[6.52E2,2.27E2,4.25E2,1.67E2,6E1,2.91E2,1.34E2,8E1,8.7E1,3.7E1,2.3E1,1.36E2,1.55E2,6.4E1,7E1,1.8E1,5E0,7.3E1,6.3E1,1.1E2,4.5E1,1.6E1,4.8E1,7E0,6.6E1,3.4E1,2.9E1,4.4E1,6.6E1],"tree_param":{"num_deleted":"0","num_feature":"104","num_nodes":"29","size_leaf_vector":"1"}},{"base_weights":[-3.3949275E-2,-3.3204727E0,1.7609578E0,-3.6438985E0,-2.25454E0,7.408698E-1,3.968065E0,-1.9620234E-1,-1.653515E-1,-1.2336711E-1,-5.8951385E-2,6.254114E-2,1.1591381E0,3.325577E0,2.2524786E-1,-3.1401688E-1,1.9035923E-1,9.333171E-1,7.7783085E-2,1.2785353E-1,1.788078E-1,-1.1368618E-2,-3.8852047E-2,4.6519875E-3,1.9257834E-2,3.9255563E-2,5.31438E-2],"categories":[],"categories_nodes":[],"categories_segments":[],"categories_sizes":[],"default_left":[0,0,0,0,0,0,0,0,0,0,0,0,0,0,0,0,0,0,0,0,0,0,0,0,0,0,0],"id":4,"left_children":[1,3,5,7,9,11,13,-1,-1,-1,-1,15,17,19,-1,21,23,25,-1,-1,-1,-1,-1,-1,-1,-1,-1],"loss_changes":[3.7576138E3,6.9353516E1,9.246548E2,3.1608887E0,9.678864E0,8.022124E1,2.9861572E1,0E0,0E0,0E0,0E0,5.3060474E0,1.421814E1,2.9874878E0,0E0,9.466405E-1,1.518687E0,1.3544846E0,0E0,0E0,0E0,0E0,0E0,0E0,0E0,0E0,0E0],"parents":[2147483647,0,0,1,1,2,2,3,3,4,4,5,5,6,6,11,11,12,12,13,13,15,15,16,16,17,17],"right_children":[2,4,6,8,10,12,14,-1,-1,-1,-1,16,18,20,-1,22,24,26,-1,-1,-1,-1,-1,-1,-1,-1,-1],"split_conditions":[2.789E1,2.514E1,3.184E1,2.435E1,2.63E1,2.948E1,3.38E1,-1.9620234E-1,-1.653515E-1,-1.2336711E-1,-5.8951385E-2,2.864E1,3.046E1,3.281E1,2.2524786E-1,2.533746E5,2.912E1,3.002E1,7.7783085E-2,1.2785353E-1,1.788078E-1,-1.1368618E-2,-3.8852047E-2,4.6519875E-3,1.9257834E-2,3.9255563E-2,5.31438E-2],"split_indices":[1,1,1,1,1,1,1,0,0,0,0,1,1,1,0,3,1,1,0,0,0,0,0,0,0,0,0],"split_type":[0,0,0,0,0,0,0,0,0,0,0,0,0,0,0,0,0,0,0,0,0,0,0,0,0,0,0],"sum_hessian":[6.35E2,2.24E2,4.11E2,1.7E2,5.4E1,2.82E2,1.29E2,8.7E1,8.3E1,4.4E1,1E1,1.08E2,1.74E2,6.2E1,6.7E1,2.7E1,8.1E1,1.13E2,6.1E1,1.8E1,4.4E1,2.4E1,3E0,5.5E1,2.6E1,5.6E1,5.7E1],"tree_param":{"num_deleted":"0","num_feature":"104","num_nodes":"27","size_leaf_vector":"1"}},{"base_weights":[2.994181E-2,-3.1921587E0,1.6559787E0,-3.444038E0,-2.3097253E0,6.4917064E-1,3.7446E0,-1.8660036E-1,-1.5628573E-1,-1.2761758E-1,-8.615564E-2,9.467557E-2,1.0991061E0,1.4579855E-1,2.042691E-1,-1.9391105E-1,2.2829738E-1,9.173188E-1,7.5208284E-2,-1.8409831E-2,-3.033451E-3,6.1725783E-3,1.6755162E-2,3.773878E-2,5.1286943E-2],"categories":[],"categories_nodes":[],"categories_segments":[],"categories_sizes":[],"default_left":[0,0,0,0,0,0,0,0,0,0,0,0,0,0,0,0,0,0,0,0,0,0,0,0,0],"id":5,"left_children":[1,3,5,7,9,11,13,-1,-1,-1,-1,15,17,-1,-1,19,21,23,-1,-1,-1,-1,-1,-1,-1],"loss_changes":[3.3741267E3,4.0054688E1,8.9758484E2,3.5516357E0,2.8607483E0,7.224718E1,2.7338379E1,0E0,0E0,0E0,0E0,5.0958214E0,1.0401733E1,0E0,0E0,9.529928E-1,9.6646357E-1,1.2171936E0,0E0,0E0,0E0,0E0,0E0,0E0,0E0],"parents":[2147483647,0,0,1,1,2,2,3,3,4,4,5,5,6,6,11,11,12,12,15,15,16,16,17,17],"right_children":[2,4,6,8,10,12,14,-1,-1,-1,-1,16,18,-1,-1,20,22,24,-1,-1,-1,-1,-1,-1,-1],"split_conditions":[2.712E1,2.514E1,3.184E1,2.435E1,2.577E1,2.953E1,3.321E1,-1.8660036E-1,-1.5628573E-1,-1.2761758E-1,-8.615564E-2,2.879E1,3.054E1,1.4579855E-1,2.042691E-1,2.845E1,2.904E1,3.001E1,7.5208284E-2,-1.8409831E-2,-3.033451E-3,6.1725783E-3,1.6755162E-2,3.773878E-2,5.1286943E-2],"split_indices":[1,1,1,1,0,1,1,0,0,0,0,1,1,0,0,1,1,1,0,0,0,0,0,0,0],"split_type":[0,0,0,0,0,0,0,0,0,0,0,0,0,0,0,0,0,0,0,0,0,0,0,0,0],"sum_hessian":[6.42E2,2.15E2,4.27E2,1.65E2,5E1,2.89E2,1.38E2,8.1E1,8.4E1,3.3E1,1.7E1,1.3E2,1.59E2,4.3E1,9.5E1,4.1E1,8.9E1,1.12E2,4.7E1,1.7E1,2.4E1,4.6E1,4.3E1,4.8E1,6.4E1],"tree_param":{"num_deleted":"0","num_feature":"104","num_nodes":"25","size_leaf_vector":"1"}},{"base_weights":[-5.757984E-2,-2.966232E0,1.6417543E0,-3.2537532E0,-1.9974606E0,6.285471E-1,3.6327035E0,-1.7921947E-1,-1.4995961E-1,-1.101022E-1,-9.789413E-1,1.3131794E-1,1.070778E0,3.1080284E0,2.0874746E-1,-5.881977E-2,-3.0916516E-2,-7.925876E-2,3.3646774E-1,8.643323E-1,7.084179E-2,1.09710075E-1,1.6469912E-1,-1.5467973E-2,1.480402E-3,8.003239E-3,2.2415506E-2,3.4214593E-2,4.721401E-2],"categories":[],"categories_nodes":[],"categories_segments":[],"categories_sizes":[],"default_left":[0,0,0,0,0,0,0,0,0,0,0,0,0,0,0,0,0,0,0,0,0,0,0,0,0,0,0,0,0],"id":6,"left_children":[1,3,5,7,9,11,13,-1,-1,-1,15,17,19,21,-1,-1,-1,23,25,27,-1,-1,-1,-1,-1,-1,-1,-1,-1],"loss_changes":[3.0693884E3,5.7286743E1,7.8847644E2,3.979004E0,9.304779E0,5.725071E1,2.4578491E1,0E0,0E0,0E0,5.5844307E-2,5.3834395E0,8.634384E0,4.8373413E0,0E0,0E0,0E0,1.5622797E0,1.1711884E0,6.348953E-1,0E0,0E0,0E0,0E0,0E0,0E0,0E0,0E0,0E0],"parents":[2147483647,0,0,1,1,2,2,3,3,4,4,5,5,6,6,10,10,11,11,12,12,13,13,17,17,18,18,19,19],"right_children":[2,4,6,8,10,12,14,-1,-1,-1,16,18,20,22,-1,-1,-1,24,26,28,-1,-1,-1,-1,-1,-1,-1,-1,-1],"split_conditions":[2.79E1,2.503E1,3.09E1,2.399E1,2.617E1,2.927E1,3.355E1,-1.7921947E-1,-1.4995961E-1,-1.101022E-1,2.7865262E5,2.864E1,3E1,3.206E1,2.0874746E-1,-5.881977E-2,-3.0916516E-2,2.829E1,1.2515313E5,2.954E1,7.084179E-2,1.09710075E-1,1.6469912E-1,-1.5467973E-2,1.480402E-3,8.003239E-3,2.2415506E-2,3.4214593E-2,4.721401E-2],"split_indices":[0,2,2,2,0,2,2,0,0,0,3,2,2,2,0,0,0,2,3,2,0,0,0,0,0,0,0,0,0],"split_type":[0,0,0,0,0,0,0,0,0,0,0,0,0,0,0,0,0,0,0,0,0,0,0,0,0,0,0,0,0],"sum_hessian":[6.19E2,2.28E2,3.91E2,1.74E2,5.4E1,2.6E2,1.31E2,7E1,1.04E2,4.4E1,1E1,1.23E2,1.37E2,7E1,6.1E1,5E0,5E0,6.1E1,6.2E1,8.8E1,4.9E1,1.4E1,5.6E1,1.9E1,4.2E1,2.5E1,3.7E1,3E1,5.8E1],"tree_param":{"num_deleted":"0","num_feature":"104","num_nodes":"29","size_leaf_vector":"1"}},{"base_weights":[6.7893624E-2,-2.75138E0,1.5266602E0,-2.9799736E0,-1.4875358E0,6.3513094E-1,3.3821158E0,-1.6025612E-1,-1.2644424E-1,-8.762413E-2,-8.839773E-1,1.01275094E-1,1.0253869E0,1.1279602E-1,3.6092997E0,-5.0505854E-2,-2.400652E-2,-6.23153E-2,2.8850406E-1,7.960916E-1,6.882421E-2,1.6297816E-1,2.0762499E-1,-1.18437465E-2,2.0311023E-3,7.4402774E-3,1.913691E-2,3.5228092E-2,4.547755E-2],"categories":[],"categories_nodes":[],"categories_segments":[],"categories_sizes":[],"default_left":[0,0,0,0,0,0,0,0,0,0,0,0,0,0,0,0,0,0,0,0,0,0,0,0,0,0,0,0,0],"id":7,"left_children":[1,3,5,7,9,11,13,-1,-1,-1,15,17,19,-1,21,-1,-1,23,25,27,-1,-1,-1,-1,-1,-1,-1,-1,-1],"loss_changes":[2.677431E3,5.9704468E1,7.075006E2,1.0886597E1,4.2076416E0,6.05232E1,2.7421265E1,0E0,0E0,0E0,1.7724705E-1,3.815957E0,1.2429031E1,0E0,8.12207E0,0E0,0E0,1.2135255E0,7.0658016E-1,4.3920135E-1,0E0,0E0,0E0,0E0,0E0,0E0,0E0,0E0,0E0],"parents":[2147483647,0,0,1,1,2,2,3,3,4,4,5,5,6,6,10,10,11,11,12,12,14,14,17,17,18,18,19,19],"right_children":[2,4,6,8,10,12,14,-1,-1,-1,16,18,20,-1,22,-1,-1,24,26,28,-1,-1,-1,-1,-1,-1,-1,-1,-1],"split_conditions":[2.759E1,2.549E1,3.103E1,2.446E1,2.619E1,2.908E1,3.258E1,-1.6025612E-1,-1.2644424E-1,-8.762413E-2,3.5397756E5,2.868E1,3E1,1.1279602E-1,3.387E1,-5.0505854E-2,-2.400652E-2,2.83E1,1.2645609E5,2.969E1,6.882421E-2,1.6297816E-1,2.0762499E-1,-1.18437465E-2,2.0311023E-3,7.4402774E-3,1.913691E-2,3.5228092E-2,4.547755E-2],"split_indices":[2,2,2,2,2,2,2,0,0,0,3,2,2,0,2,0,0,2,3,2,0,0,0,0,0,0,0,0,0],"split_type":[0,0,0,0,0,0,0,0,0,0,0,0,0,0,0,0,0,0,0,0,0,0,0,0,0,0,0,0,0],"sum_hessian":[6.49E2,2.21E2,4.28E2,1.86E2,3.5E1,2.9E2,1.38E2,1.2E2,6.6E1,2.3E1,1.2E1,1.23E2,1.67E2,2.5E1,1.13E2,8E0,4E0,6.6E1,5.7E1,1.03E2,6.4E1,7.3E1,4E1,2.4E1,4.2E1,2.4E1,3.3E1,6.1E1,4.2E1],"tree_param":{"num_deleted":"0","num_feature":"104","num_nodes":"29","size_leaf_vector":"1"}},{"base_weights":[-2.5269467E-2,-2.6818118E0,1.4232388E0,-2.9055371E0,-1.6464999E0,5.6711626E-1,3.206854E0,-1.6048217E-1,-1.3103239E-1,-8.9921065E-2,-4.363751E-2,1.2339859E-1,9.7702116E-1,2.646045E0,1.8415014E-1,-1.8480697E-1,2.4236476E-1,8.287738E-1,6.6571824E-2,9.97E-2,1.4245102E-1,-1.3617164E-2,-3.3775542E-3,6.144961E-3,1.846127E-2,3.31949E-2,4.46664E-2],"categories":[],"categories_nodes":[],"categories_segments":[],"categories_sizes":[],"default_left":[0,0,0,0,0,0,0,0,0,0,0,0,0,0,0,0,0,0,0,0,0,0,0,0,0,0,0],"id":8,"left_children":[1,3,5,7,9,11,13,-1,-1,-1,-1,15,17,19,-1,21,23,25,-1,-1,-1,-1,-1,-1,-1,-1,-1],"loss_changes":[2.4973362E3,4.82583E1,6.395186E2,7.789795E0,3.4850311E0,5.171582E1,2.6570312E1,0E0,0E0,0E0,0E0,5.104704E0,6.6726227E0,3.0540466E0,0E0,3.8190472E-1,1.4701705E0,5.4576874E-1,0E0,0E0,0E0,0E0,0E0,0E0,0E0,0E0,0E0],"parents":[2147483647,0,0,1,1,2,2,3,3,4,4,5,5,6,6,11,11,12,12,13,13,15,15,16,16,17,17],"right_children":[2,4,6,8,10,12,14,-1,-1,-1,-1,16,18,20,-1,22,24,26,-1,-1,-1,-1,-1,-1,-1,-1,-1],"split_conditions":[2.789E1,2.516E1,3.151E1,2.431E1,2.619E1,2.965E1,3.38E1,-1.6048217E-1,-1.3103239E-1,-8.9921065E-2,-4.363751E-2,2.879E1,3.059E1,3.261E1,1.8415014E-1,2.83E1,2.875E1,2.956E1,6.6571824E-2,9.97E-2,1.4245102E-1,-1.3617164E-2,-3.3775542E-3,6.144961E-3,1.846127E-2,3.31949E-2,4.46664E-2],"split_indices":[1,2,1,1,2,1,1,0,0,0,0,1,1,1,0,2,2,2,0,0,0,0,0,0,0,0,0],"split_type":[0,0,0,0,0,0,0,0,0,0,0,0,0,0,0,0,0,0,0,0,0,0,0,0,0,0,0],"sum_hessian":[6.47E2,2.28E2,4.19E2,1.86E2,4.2E1,2.84E2,1.35E2,8.5E1,1.01E2,3.4E1,8E0,1.37E2,1.47E2,6.5E1,7E1,3.8E1,9.9E1,1.06E2,4.1E1,1.8E1,4.7E1,2.1E1,1.7E1,5.2E1,4.7E1,3.3E1,7.3E1],"tree_param":{"num_deleted":"0","num_feature":"104","num_nodes":"27","size_leaf_vector":"1"}},{"base_weights":[1.2406324E-2,-2.5702004E0,1.3651708E0,-2.7909987E0,-1.7208605E0,5.596321E-1,3.0802784E0,-1.547573E-1,-1.279724E-1,-9.1242634E-2,-4.255352E-2,1.13522895E-1,9.388121E-1,2.61685E0,1.7881231E-1,-2.1572138E-1,2.0740564E-1,7.634518E-1,1.2917997E0,1.0068267E-1,1.3958979E-1,-1.9250955E-2,-6.832886E-3,4.8307404E-3,1.6985668E-2,2.9954208E-2,4.269958E-2,5.1809616E-2,7.075183E-2],"categories":[],"categories_nodes":[],"categories_segments":[],"categories_sizes":[],"default_left":[0,0,0,0,0,0,0,0,0,0,0,0,0,0,0,0,0,0,0,0,0,0,0,0,0,0,0,0,0],"id":9,"left_children":[1,3,5,7,9,11,13,-1,-1,-1,-1,15,17,19,-1,21,23,25,27,-1,-1,-1,-1,-1,-1,-1,-1,-1,-1],"loss_changes":[2.2359568E3,3.6454224E1,5.785421E2,4.2617188E0,2.7885895E0,4.844111E1,2.1440796E1,0E0,0E0,0E0,0E0,4.155819E0,8.608276E0,2.0816956E0,0E0,3.489431E-1,1.4916606E0,1.0658569E0,1.0875702E-1,0E0,0E0,0E0,0E0,0E0,0E0,0E0,0E0,0E0,0E0],"parents":[2147483647,0,0,1,1,2,2,3,3,4,4,5,5,6,6,11,11,12,12,13,13,15,15,16,16,17,17,18,18],"right_children":[2,4,6,8,10,12,14,-1,-1,-1,-1,16,18,20,-1,22,24,26,28,-1,-1,-1,-1,-1,-1,-1,-1,-1,-1],"split_conditions":[2.789E1,2.528E1,3.184E1,2.399E1,2.636E1,2.965E1,3.344E1,-1.547573E-1,-1.279724E-1,-9.1242634E-2,-4.255352E-2,2.864E1,3.059E1,3.229E1,1.7881231E-1,2.801E1,2.875E1,2.957E1,3.079E1,1.0068267E-1,1.3958979E-1,-1.9250955E-2,-6.832886E-3,4.8307404E-3,1.6985668E-2,2.9954208E-2,4.269958E-2,5.1809616E-2,7.075183E-2],"split_indices":[1,1,1,2,0,1,2,0,0,0,0,1,1,2,0,2,2,2,1,0,0,0,0,0,0,0,0,0,0],"split_type":[0,0,0,0,0,0,0,0,0,0,0,0,0,0,0,0,0,0,0,0,0,0,0,0,0,0,0,0,0],"sum_hessian":[6.38E2,2.19E2,4.19E2,1.72E2,4.7E1,2.86E2,1.33E2,6.9E1,1.03E2,4.1E1,6E0,1.32E2,1.54E2,7.2E1,6.1E1,2.9E1,1.03E2,1.05E2,4.9E1,1.9E1,5.3E1,8E0,2.1E1,5.7E1,4.6E1,4E1,6.5E1,1.9E1,3E1],"tree_param":{"num_deleted":"0","num_feature":"104","num_nodes":"29","size_leaf_vector":"1"}},{"base_weights":[-3.669161E-2,-2.42956E0,1.2883254E0,-2.598202E0,-1.2943532E0,5.435555E-1,2.939825E0,-1.4174259E-1,-1.1464503E-1,-7.357225E-2,-2.895738E-2,7.575762E-2,8.780395E-1,2.3949215E0,1.6934212E-1,-1.7521714E-1,1.8285424E-1,6.974712E-1,1.2028706E0,8.5172005E-2,1.2805577E-1,-1.2946767E-2,-2.4576783E-3,4.398703E-3,1.2159972E-2,1.0076928E-2,3.546905E-2,4.9062293E-2,6.738746E-2],"categories":[],"categories_nodes":[],"categories_segments":[],"categories_sizes":[],"default_left":[0,0,0,0,0,0,0,0,0,0,0,0,0,0,0,0,0,0,0,0,0,0,0,0,0,0,0,0,0],"id":10,"left_children":[1,3,5,7,9,11,13,-1,-1,-1,-1,15,17,19,-1,21,23,25,27,-1,-1,-1,-1,-1,-1,-1,-1,-1,-1],"loss_changes":[2.0640144E3,4.1052002E1,5.137667E2,8.022095E0,3.2008438E0,4.5310036E1,2.3554321E1,0E0,0E0,0E0,0E0,3.3112216E0,9.073593E0,2.762329E0,0E0,3.777635E-1,4.7100353E-1,5.1265335E-1,5.7192993E-1,0E0,0E0,0E0,0E0,0E0,0E0,0E0,0E0,0E0,0E0],"parents":[2147483647,0,0,1,1,2,2,3,3,4,4,5,5,6,6,11,11,12,12,13,13,15,15,16,16,17,17,18,18],"right_children":[2,4,6,8,10,12,14,-1,-1,-1,-1,16,18,20,-1,22,24,26,28,-1,-1,-1,-1,-1,-1,-1,-1,-1,-1],"split_conditions":[2.759E1,2.578E1,3.184E1,2.43E1,2.697E1,2.908E1,3.38E1,-1.4174259E-1,-1.1464503E-1,-7.357225E-2,-2.895738E-2,2.879E1,3.05E1,3.174E1,1.6934212E-1,2.855E1,1.2515313E5,2.953E1,3.079E1,8.5172005E-2,1.2805577E-1,-1.2946767E-2,-2.4576783E-3,4.398703E-3,1.2159972E-2,1.0076928E-2,3.546905E-2,4.9062293E-2,6.738746E-2],"split_indices":[2,1,1,2,1,2,1,0,0,0,0,1,1,2,0,1,3,1,1,0,0,0,0,0,0,0,0,0,0],"split_type":[0,0,0,0,0,0,0,0,0,0,0,0,0,0,0,0,0,0,0,0,0,0,0,0,0,0,0,0,0],"sum_hessian":[6.49E2,2.31E2,4.18E2,2E2,3.1E1,2.89E2,1.29E2,1.08E2,9.2E1,2.4E1,7E0,1.21E2,1.68E2,6.1E1,6.8E1,3.6E1,8.5E1,1.1E2,5.8E1,1.4E1,4.7E1,2.1E1,1.5E1,3.4E1,5.1E1,3E0,1.07E2,2.6E1,3.2E1],"tree_param":{"num_deleted":"0","num_feature":"104","num_nodes":"29","size_leaf_vector":"1"}},{"base_weights":[-2.6404612E-2,-2.3408775E0,1.201193E0,-2.6302493E0,-1.8626354E0,5.034447E-1,2.8509474E0,-1.4728622E-1,-1.2239432E-1,-1.00626245E-1,-6.725085E-2,6.5124E-2,8.669889E-1,1.17910996E-1,1.6031815E-1,-1.9522998E-1,1.8906873E-1,7.0574003E-1,1.1944253E0,-1.6601397E-2,-4.5867E-3,5.0733197E-3,1.3913705E-2,2.8728655E-2,3.8355205E-2,5.0460692E-2,6.676995E-2],"categories":[],"categories_nodes":[],"categories_segments":[],"categories_sizes":[],"default_left":[0,0,0,0,0,0,0,0,0,0,0,0,0,0,0,0,0,0,0,0,0,0,0,0,0,0,0],"id":11,"left_children":[1,3,5,7,9,11,13,-1,-1,-1,-1,15,17,-1,-1,19,21,23,25,-1,-1,-1,-1,-1,-1,-1,-1],"loss_changes":[1.8609838E3,2.6515259E1,4.912412E2,7.859497E-1,4.198242E0,4.8066917E1,1.4679199E1,0E0,0E0,0E0,0E0,4.4901037E0,7.8688354E0,0E0,0E0,6.0665345E-1,7.0633626E-1,4.687729E-1,3.6125183E-2,0E0,0E0,0E0,0E0,0E0,0E0,0E0,0E0],"parents":[2147483647,0,0,1,1,2,2,3,3,4,4,5,5,6,6,11,11,12,12,15,15,16,16,17,17,18,18],"right_children":[2,4,6,8,10,12,14,-1,-1,-1,-1,16,18,-1,-1,20,22,24,26,-1,-1,-1,-1,-1,-1,-1,-1],"split_conditions":[2.697E1,2.47E1,3.198E1,2.397E1,2.577E1,2.96E1,3.38E1,-1.4728622E-1,-1.2239432E-1,-1.00626245E-1,-6.725085E-2,2.879E1,3.059E1,1.17910996E-1,1.6031815E-1,2.819E1,2.875E1,2.957E1,3.093E1,-1.6601397E-2,-4.5867E-3,5.0733197E-3,1.3913705E-2,2.8728655E-2,3.8355205E-2,5.0460692E-2,6.676995E-2],"split_indices":[1,1,1,1,0,1,1,0,0,0,0,1,1,0,0,2,2,2,1,0,0,0,0,0,0,0,0],"split_type":[0,0,0,0,0,0,0,0,0,0,0,0,0,0,0,0,0,0,0,0,0,0,0,0,0,0,0],"sum_hessian":[6.53E2,2.26E2,4.27E2,1.38E2,8.8E1,3.01E2,1.26E2,4.5E1,9.3E1,6.6E1,2.2E1,1.37E2,1.64E2,5.6E1,7E1,4.4E1,9.3E1,1.12E2,5.2E1,1.8E1,2.6E1,4.8E1,4.5E1,3.9E1,7.3E1,2.6E1,2.6E1],"tree_param":{"num_deleted":"0","num_feature":"104","num_nodes":"27","size_leaf_vector":"1"}},{"base_weights":[-3.2275572E-2,-2.2184343E0,1.1635162E0,-2.4270232E0,-1.5158051E0,4.733572E-1,2.6316981E0,-1.3898833E-1,-1.133758E-1,-8.335156E-2,-4.1119512E-2,5.3702045E-2,7.8028506E-1,2.2163422E0,1.4958288E-1,-1.5568253E-1,1.4803109E-1,6.07845E-1,5.665344E-2,8.576504E-2,1.17619514E-1,-1.353426E-2,-4.022682E-3,4.1610696E-3,1.0856694E-2,2.2382699E-2,3.32106E-2],"categories":[],"categories_nodes":[],"categories_segments":[],"categories_sizes":[],"default_left":[0,0,0,0,0,0,0,0,0,0,0,0,0,0,0,0,0,0,0,0,0,0,0,0,0,0,0],"id":12,"left_children":[1,3,5,7,9,11,13,-1,-1,-1,-1,15,17,19,-1,21,23,25,-1,-1,-1,-1,-1,-1,-1,-1,-1],"loss_changes":[1.7227189E3,3.0469727E1,4.3041107E2,3.7120361E0,4.501343E0,3.7440025E1,1.3703003E1,0E0,0E0,0E0,0E0,2.4721756E0,9.531387E0,5.32074E-1,0E0,3.156317E-1,3.670833E-1,7.410507E-1,0E0,0E0,0E0,0E0,0E0,0E0,0E0,0E0,0E0],"parents":[2147483647,0,0,1,1,2,2,3,3,4,4,5,5,6,6,11,11,12,12,13,13,15,15,16,16,17,17],"right_children":[2,4,6,8,10,12,14,-1,-1,-1,-1,16,18,20,-1,22,24,26,-1,-1,-1,-1,-1,-1,-1,-1,-1],"split_conditions":[2.789E1,2.523E1,3.184E1,2.401E1,2.617E1,2.948E1,3.38E1,-1.3898833E-1,-1.133758E-1,-8.335156E-2,-4.1119512E-2,2.879E1,3.05E1,3.281E1,1.4958288E-1,2.846E1,2.904E1,2.98E1,5.665344E-2,8.576504E-2,1.17619514E-1,-1.353426E-2,-4.022682E-3,4.1610696E-3,1.0856694E-2,2.2382699E-2,3.32106E-2],"split_indices":[1,1,1,1,0,1,1,0,0,0,0,1,1,1,0,1,1,1,0,0,0,0,0,0,0,0,0],"split_type":[0,0,0,0,0,0,0,0,0,0,0,0,0,0,0,0,0,0,0,0,0,0,0,0,0,0,0],"sum_hessian":[6.57E2,2.32E2,4.25E2,1.77E2,5.5E1,2.9E2,1.35E2,5E1,1.27E2,4.4E1,1.1E1,1.23E2,1.67E2,6.6E1,6.9E1,3.8E1,8.5E1,1.14E2,5.3E1,1.7E1,4.9E1,1.4E1,2.4E1,4.5E1,4E1,3.2E1,8.2E1],"tree_param":{"num_deleted":"0","num_feature":"104","num_nodes":"27","size_leaf_vector":"1"}},{"base_weights":[-1.047498E-2,-2.094228E0,1.0886178E0,-2.3255582E0,-1.4904091E0,4.680956E-1,2.5116446E0,-1.3158871E-1,-1.0775044E-1,-8.640145E-2,-1.1231825E0,6.557466E-2,7.5088316E-1,2.220344E0,1.5448573E-1,-6.0021754E-2,-3.1992532E-2,-1.1752692E-1,1.5970665E-1,6.3352764E-1,5.5519827E-2,7.4955806E-2,1.1740029E-1,-7.217535E-3,8.669329E-3,4.293339E-3,1.32254055E-2,2.4133516E-2,3.569929E-2],"categories":[],"categories_nodes":[],"categories_segments":[],"categories_sizes":[],"default_left":[0,0,0,0,0,0,0,0,0,0,0,0,0,0,0,0,0,0,0,0,0,0,0,0,0,0,0,0,0],"id":13,"left_children":[1,3,5,7,9,11,13,-1,-1,-1,15,17,19,21,-1,-1,-1,23,25,27,-1,-1,-1,-1,-1,-1,-1,-1,-1],"loss_changes":[1.465742E3,2.7403625E1,3.688096E2,2.579956E0,3.6437683E0,3.3302345E1,1.4525574E1,0E0,0E0,0E0,2.773819E-1,2.1215272E0,6.55336E0,4.582489E0,0E0,0E0,0E0,3.527711E-1,6.0410833E-1,1.2575531E0,0E0,0E0,0E0,0E0,0E0,0E0,0E0,0E0,0E0],"parents":[2147483647,0,0,1,1,2,2,3,3,4,4,5,5,6,6,10,10,11,11,12,12,13,13,17,17,18,18,19,19],"right_children":[2,4,6,8,10,12,14,-1,-1,-1,16,18,20,22,-1,-1,-1,24,26,28,-1,-1,-1,-1,-1,-1,-1,-1,-1],"split_conditions":[2.789E1,2.499E1,3.184E1,2.379E1,2.561E1,2.948E1,3.436E1,-1.3158871E-1,-1.0775044E-1,-8.640145E-2,2.697E1,2.879E1,3.043E1,3.281E1,1.5448573E-1,-6.0021754E-2,-3.1992532E-2,2.7261625E5,2.875E1,2.956E1,5.5519827E-2,7.4955806E-2,1.1740029E-1,-7.217535E-3,8.669329E-3,4.293339E-3,1.32254055E-2,2.4133516E-2,3.569929E-2],"split_indices":[1,1,1,2,2,1,1,0,0,0,1,1,2,1,0,0,0,3,2,2,0,0,0,0,0,0,0,0,0],"split_type":[0,0,0,0,0,0,0,0,0,0,0,0,0,0,0,0,0,0,0,0,0,0,0,0,0,0,0,0,0],"sum_hessian":[6.38E2,2.2E2,4.18E2,1.57E2,6.3E1,2.92E2,1.26E2,5.1E1,1.06E2,3.6E1,2.7E1,1.21E2,1.71E2,8.7E1,3.9E1,2.2E1,5E0,4.1E1,8E1,1.31E2,4E1,1.5E1,7.2E1,3.8E1,3E0,4.8E1,3.2E1,4.8E1,8.3E1],"tree_param":{"num_deleted":"0","num_feature":"104","num_nodes":"29","size_leaf_vector":"1"}},{"base_weights":[-9.728943E-3,-1.9957438E0,1.0600442E0,-2.2310083E0,-1.5178202E0,4.3511412E-1,2.3940115E0,-1.2546024E-1,-1.03924155E-1,-8.432744E-2,-1.0859046E0,7.109935E-2,7.349819E-1,2.1054509E0,1.474757E-1,-5.729744E-2,-2.4209261E-2,-3.5289954E-2,2.2739647E-1,5.8932143E-1,5.011731E-2,7.636689E-2,1.1315365E-1,-8.059567E-3,1.5944913E-3,1.359126E-2,2.3637773E-4,2.180545E-2,3.180824E-2],"categories":[],"categories_nodes":[],"categories_segments":[],"categories_sizes":[],"default_left":[0,0,0,0,0,0,0,0,0,0,0,0,0,0,0,0,0,0,0,0,0,0,0,0,0,0,0,0,0],"id":14,"left_children":[1,3,5,7,9,11,13,-1,-1,-1,15,17,19,21,-1,-1,-1,23,25,27,-1,-1,-1,-1,-1,-1,-1,-1,-1],"loss_changes":[1.3958435E3,2.247461E1,3.5492105E2,1.234314E0,3.9258118E0,3.1821388E1,1.5590149E1,0E0,0E0,0E0,3.483925E-1,2.2195942E0,5.640396E0,5.017975E0,0E0,0E0,0E0,6.8178254E-1,5.329311E-1,4.8332214E-1,0E0,0E0,0E0,0E0,0E0,0E0,0E0,0E0,0E0],"parents":[2147483647,0,0,1,1,2,2,3,3,4,4,5,5,6,6,10,10,11,11,12,12,13,13,17,17,18,18,19,19],"right_children":[2,4,6,8,10,12,14,-1,-1,-1,16,18,20,22,-1,-1,-1,24,26,28,-1,-1,-1,-1,-1,-1,-1,-1,-1],"split_conditions":[2.789E1,2.461E1,3.184E1,2.397E1,2.577E1,2.914E1,3.436E1,-1.2546024E-1,-1.03924155E-1,-8.432744E-2,2.712E1,2.869E1,3.054E1,3.258E1,1.474757E-1,-5.729744E-2,-2.4209261E-2,2.86E1,2.932E1,2.944E1,5.011731E-2,7.636689E-2,1.1315365E-1,-8.059567E-3,1.5944913E-3,1.359126E-2,2.3637773E-4,2.180545E-2,3.180824E-2],"split_indices":[1,2,1,1,0,2,1,0,0,0,1,2,1,2,0,0,0,1,0,2,0,0,0,0,0,0,0,0,0],"split_type":[0,0,0,0,0,0,0,0,0,0,0,0,0,0,0,0,0,0,0,0,0,0,0,0,0,0,0,0,0],"sum_hessian":[6.55E2,2.29E2,4.26E2,1.51E2,7.8E1,2.91E2,1.35E2,4.8E1,1.03E2,5.4E1,2.4E1,1.32E2,1.59E2,9.2E1,4.3E1,2.1E1,3E0,7.9E1,5.3E1,1.05E2,5.4E1,2.2E1,7E1,2.7E1,5.2E1,4.4E1,9E0,2.7E1,7.8E1],"tree_param":{"num_deleted":"0","num_feature":"104","num_nodes":"29","size_leaf_vector":"1"}},{"base_weights":[7.322962E-3,-1.900902E0,1.0334268E0,-1.08562164E-1,-1.411612E0,4.1385737E-1,2.2873113E0,-8.010593E-2,-9.9506104E-1,8.592304E-2,6.883447E-1,2.0065184E0,1.3763039E-1,-5.434928E-2,-2.7543573E-2,-1.1689381E-1,1.7635785E-1,5.925028E-1,5.1911075E-2,6.663308E-2,1.04125775E-1,-8.5460115E-3,-1.0897517E-3,6.2142E-3,1.4454267E-2,2.4022598E-2,3.3603918E-2],"categories":[],"categories_nodes":[],"categories_segments":[],"categories_sizes":[],"default_left":[0,0,0,0,0,0,0,0,0,0,0,0,0,0,0,0,0,0,0,0,0,0,0,0,0,0,0],"id":15,"left_children":[1,3,5,-1,7,9,11,-1,13,15,17,19,-1,-1,-1,21,23,25,-1,-1,-1,-1,-1,-1,-1,-1,-1],"loss_changes":[1.2766465E3,2.7093811E1,3.284456E2,0E0,5.0716705E0,2.5594791E1,1.2768127E1,0E0,5.853367E-1,2.4233782E0,4.582451E0,1.8848877E0,0E0,0E0,0E0,2.0692647E-1,4.9825573E-1,7.827492E-1,0E0,0E0,0E0,0E0,0E0,0E0,0E0,0E0,0E0],"parents":[2147483647,0,0,1,1,2,2,4,4,5,5,6,6,8,8,9,9,10,10,11,11,15,15,16,16,17,17],"right_children":[2,4,6,-1,8,10,12,-1,14,16,18,20,-1,-1,-1,22,24,26,-1,-1,-1,-1,-1,-1,-1,-1,-1],"split_conditions":[2.789E1,2.47E1,3.184E1,-1.08562164E-1,2.599E1,2.96E1,3.428E1,-8.010593E-2,2.697E1,2.879E1,3.076E1,3.208E1,1.3763039E-1,-5.434928E-2,-2.7543573E-2,2.86E1,2.921E1,3.006E1,5.1911075E-2,6.663308E-2,1.04125775E-1,-8.5460115E-3,-1.0897517E-3,6.2142E-3,1.4454267E-2,2.4022598E-2,3.3603918E-2],"split_indices":[1,1,1,0,1,1,1,0,1,1,1,1,0,0,0,1,1,1,0,0,0,0,0,0,0,0,0],"split_type":[0,0,0,0,0,0,0,0,0,0,0,0,0,0,0,0,0,0,0,0,0,0,0,0,0,0,0],"sum_hessian":[6.5E2,2.27E2,4.23E2,1.44E2,8.3E1,2.84E2,1.39E2,5.5E1,2.8E1,1.3E2,1.54E2,9E1,4.9E1,2.2E1,6E0,4E1,9E1,1.23E2,3.1E1,1.1E1,7.9E1,2.5E1,1.5E1,6.3E1,2.7E1,5.4E1,6.9E1],"tree_param":{"num_deleted":"0","num_feature":"104","num_nodes":"27","size_leaf_vector":"1"}},{"base_weights":[-1.4968193E-2,-1.7816356E0,9.5819604E-1,-2.0202801E0,-1.35793E0,4.017816E-1,2.1422374E0,-1.14779554E-1,-9.551545E-2,-7.646794E-2,-9.812367E-1,1.19512595E-1,6.812797E-1,1.8819035E0,1.3674025E-1,-5.3217597E-2,-3.3451993E-2,-4.288385E-3,2.9496878E-1,5.4954505E-1,4.6029232E-2,6.920844E-2,1.02233864E-1,-1.0229594E-2,1.8750535E-3,1.6524326E-2,2.8490492E-3,3.288955E-2,2.542374E-2],"categories":[],"categories_nodes":[],"categories_segments":[],"categories_sizes":[],"default_left":[0,0,0,0,0,0,0,0,0,0,0,0,0,0,0,0,0,0,0,0,0,0,0,0,0,0,0,0,0],"id":16,"left_children":[1,3,5,7,9,11,13,-1,-1,-1,15,17,19,21,-1,-1,-1,23,25,27,-1,-1,-1,-1,-1,-1,-1,-1,-1],"loss_changes":[1.1278208E3,2.0816467E1,2.7781918E2,6.524658E-2,4.117462E0,2.2718842E1,1.5679199E1,0E0,0E0,0E0,6.635475E-2,3.1509044E0,4.0651855E0,5.028595E0,0E0,0E0,0E0,7.275418E-1,4.883356E-1,9.231758E-2,0E0,0E0,0E0,0E0,0E0,0E0,0E0,0E0,0E0],"parents":[2147483647,0,0,1,1,2,2,3,3,4,4,5,5,6,6,10,10,11,11,12,12,13,13,17,17,18,18,19,19],"right_children":[2,4,6,8,10,12,14,-1,-1,-1,16,18,20,22,-1,-1,-1,24,26,28,-1,-1,-1,-1,-1,-1,-1,-1,-1],"split_conditions":[2.789E1,2.476E1,3.136E1,2.369E1,2.577E1,2.98E1,3.387E1,-1.14779554E-1,-9.551545E-2,-7.646794E-2,2.636E1,2.875E1,3.059E1,3.258E1,1.3674025E-1,-5.3217597E-2,-3.3451993E-2,2.846E1,2.2007862E5,2.969E1,4.6029232E-2,6.920844E-2,1.02233864E-1,-1.0229594E-2,1.8750535E-3,1.6524326E-2,2.8490492E-3,3.288955E-2,2.542374E-2],"split_indices":[1,1,0,2,0,1,2,0,0,0,0,2,1,2,0,0,0,1,3,0,0,0,0,0,0,0,0,0,0],"split_type":[0,0,0,0,0,0,0,0,0,0,0,0,0,0,0,0,0,0,0,0,0,0,0,0,0,0,0,0,0],"sum_hessian":[6.54E2,2.32E2,4.22E2,1.46E2,8.6E1,2.88E2,1.34E2,3.6E1,1.1E2,5.7E1,2.9E1,1.44E2,1.44E2,9.6E1,3.8E1,2.1E1,8E0,8.5E1,5.9E1,9.5E1,4.9E1,2.6E1,7E1,1.4E1,7.1E1,5.1E1,8E0,2.2E1,7.3E1],"tree_param":{"num_deleted":"0","num_feature":"104","num_nodes":"29","size_leaf_vector":"1"}},{"base_weights":[-4.4727065E-3,-1.7079223E0,9.3787175E-1,-1.8974587E0,-1.1748189E0,3.8636097E-1,2.0381532E0,-1.031188E-1,-8.466561E-2,-6.3169934E-2,-6.331709E-1,1.1817888E-1,6.556069E-1,1.6608062E0,1.1985824E-1,-4.1986248E-1,-4.0258426E-2,2.8725527E-2,3.0618432E-1,5.706595E-1,4.8200093E-2,5.9194442E-2,8.729119E-2,-2.9985046E-2,-6.7529203E-3,-4.897241E-3,4.7270968E-3,2.0544095E-2,5.170654E-3,2.1984415E-2,3.1309128E-2],"categories":[],"categories_nodes":[],"categories_segments":[],"categories_sizes":[],"default_left":[0,0,0,0,0,0,0,0,0,0,0,0,0,0,0,0,0,0,0,0,0,0,0,0,0,0,0,0,0,0,0],"id":17,"left_children":[1,3,5,7,9,11,13,-1,-1,-1,15,17,19,21,-1,23,-1,25,27,29,-1,-1,-1,-1,-1,-1,-1,-1,-1,-1,-1],"loss_changes":[1.0546367E3,2.1414795E1,2.5589612E2,2.2648926E0,2.2707062E0,2.0357082E1,1.51203E1,0E0,0E0,0E0,6.551409E-2,2.3961382E0,3.143711E0,8.52478E-1,0E0,2.775364E-1,0E0,8.2628465E-1,9.3407345E-1,5.46402E-1,0E0,0E0,0E0,0E0,0E0,0E0,0E0,0E0,0E0,0E0,0E0],"parents":[2147483647,0,0,1,1,2,2,3,3,4,4,5,5,6,6,10,10,11,11,12,12,13,13,15,15,17,17,18,18,19,19],"right_children":[2,4,6,8,10,12,14,-1,-1,-1,16,18,20,22,-1,24,-1,26,28,30,-1,-1,-1,-1,-1,-1,-1,-1,-1,-1,-1],"split_conditions":[2.79E1,2.514E1,3.136E1,2.435E1,2.636E1,2.98E1,3.386E1,-1.031188E-1,-8.466561E-2,-6.3169934E-2,2.692E1,2.923E1,3.084E1,3.208E1,1.1985824E-1,2.672E1,-4.0258426E-2,2.879E1,1.871111E5,3.006E1,4.8200093E-2,5.9194442E-2,8.729119E-2,-2.9985046E-2,-6.7529203E-3,-4.897241E-3,4.7270968E-3,2.0544095E-2,5.170654E-3,2.1984415E-2,3.1309128E-2],"split_indices":[0,1,0,1,0,1,1,0,0,0,0,1,1,1,0,0,0,1,3,1,0,0,0,0,0,0,0,0,0,0,0],"split_type":[0,0,0,0,0,0,0,0,0,0,0,0,0,0,0,0,0,0,0,0,0,0,0,0,0,0,0,0,0,0,0],"sum_hessian":[6.55E2,2.33E2,4.22E2,1.7E2,6.3E1,2.82E2,1.4E2,8.9E1,8.1E1,5.3E1,1E1,1.42E2,1.4E2,7.1E1,6.9E1,6E0,4E0,9.7E1,4.5E1,1.12E2,2.8E1,1.3E1,5.8E1,3E0,3E0,3.3E1,6.4E1,2.9E1,1.6E1,3.6E1,7.6E1],"tree_param":{"num_deleted":"0","num_feature":"104","num_nodes":"31","size_leaf_vector":"1"}},{"base_weights":[1.6072871E-2,-1.599809E0,9.049661E-1,-1.7306445E0,-8.648492E-1,3.369491E-1,1.936825E0,-9.483858E-2,-7.604031E-2,-5.0442327E-2,-1.947858E-2,3.869505E-2,5.797816E-1,1.7070705E0,1.2298131E-1,-4.1461587E-2,1.2801662E-1,1.8351842E-2,6.566E-1,5.6032803E-2,9.0438806E-2,-5.9758504E-3,2.620325E-4,7.3206904E-3,4.1758134E-3,2.9228974E-2,4.09783E-2],"categories":[],"categories_nodes":[],"categories_segments":[],"categories_sizes":[],"default_left":[0,0,0,0,0,0,0,0,0,0,0,0,0,0,0,0,0,0,0,0,0,0,0,0,0,0,0],"id":18,"left_children":[1,3,5,7,9,11,13,-1,-1,-1,-1,15,17,19,-1,21,23,-1,25,-1,-1,-1,-1,-1,-1,-1,-1],"loss_changes":[9.1065515E2,2.0138977E1,2.3906775E2,3.7387695E0,2.070776E0,1.9170393E1,1.3218079E1,0E0,0E0,0E0,0E0,8.6447376E-1,2.1450424E0,4.17572E0,0E0,2.339296E-1,3.443688E-2,0E0,7.6501083E-1,0E0,0E0,0E0,0E0,0E0,0E0,0E0,0E0],"parents":[2147483647,0,0,1,1,2,2,3,3,4,4,5,5,6,6,11,11,12,12,13,13,15,15,16,16,18,18],"right_children":[2,4,6,8,10,12,14,-1,-1,-1,-1,16,18,20,-1,22,24,-1,26,-1,-1,-1,-1,-1,-1,-1,-1],"split_conditions":[2.759E1,2.527E1,3.09E1,2.43E1,2.662E1,2.906E1,3.393E1,-9.483858E-2,-7.604031E-2,-5.0442327E-2,-1.947858E-2,2.862E1,2.956E1,3.174E1,1.2298131E-1,2.83E1,2.887E1,1.8351842E-2,3.043E1,5.6032803E-2,9.0438806E-2,-5.9758504E-3,2.620325E-4,7.3206904E-3,4.1758134E-3,2.9228974E-2,4.09783E-2],"split_indices":[2,2,2,2,2,2,2,0,0,0,0,2,2,2,0,2,2,0,2,0,0,0,0,0,0,0,0],"split_type":[0,0,0,0,0,0,0,0,0,0,0,0,0,0,0,0,0,0,0,0,0,0,0,0,0,0,0],"sum_hessian":[6.32E2,2.24E2,4.08E2,1.89E2,3.5E1,2.64E2,1.44E2,1.01E2,8.8E1,2.6E1,9E0,1.19E2,1.45E2,1.03E2,4.1E1,6.3E1,5.6E1,4E1,1.05E2,1.7E1,8.6E1,2.3E1,4E1,3.8E1,1.8E1,7.6E1,2.9E1],"tree_param":{"num_deleted":"0","num_feature":"104","num_nodes":"27","size_leaf_vector":"1"}},{"base_weights":[2.6193159E-2,-1.5481883E0,8.4359753E-1,-1.6989261E0,-1.0979036E0,3.4263408E-1,1.8613068E0,-9.831024E-2,-7.8691475E-2,-5.870949E-2,-2.8028924E-2,6.0400374E-2,5.3609335E-1,1.6388623E0,1.17109016E-1,-8.2259685E-2,1.1881551E-1,4.3449304E-1,7.3877376E-1,5.715037E-2,8.649719E-2,-5.854216E-3,1.0409809E-2,3.2905352E-3,9.075108E-3,1.6757961E-2,2.5134549E-2,3.069894E-2,4.294884E-2],"categories":[],"categories_nodes":[],"categories_segments":[],"categories_sizes":[],"default_left":[0,0,0,0,0,0,0,0,0,0,0,0,0,0,0,0,0,0,0,0,0,0,0,0,0,0,0,0,0],"id":19,"left_children":[1,3,5,7,9,11,13,-1,-1,-1,-1,15,17,19,-1,21,23,25,27,-1,-1,-1,-1,-1,-1,-1,-1,-1,-1],"loss_changes":[8.1334393E2,1.2795654E1,2.1145364E2,2.255249E0,1.6782303E0,1.5255821E1,1.0816071E1,0E0,0E0,0E0,0E0,9.6812713E-1,3.0973473E0,2.4035034E0,0E0,3.6828715E-1,2.6051617E-1,5.970211E-1,2.8264618E-1,0E0,0E0,0E0,0E0,0E0,0E0,0E0,0E0,0E0,0E0],"parents":[2147483647,0,0,1,1,2,2,3,3,4,4,5,5,6,6,11,11,12,12,13,13,15,15,16,16,17,17,18,18],"right_children":[2,4,6,8,10,12,14,-1,-1,-1,-1,16,18,20,-1,22,24,26,28,-1,-1,-1,-1,-1,-1,-1,-1,-1,-1],"split_conditions":[2.789E1,2.514E1,3.141E1,2.379E1,2.636E1,2.953E1,3.393E1,-9.831024E-2,-7.8691475E-2,-5.870949E-2,-2.8028924E-2,2.879E1,3.046E1,3.281E1,1.17109016E-1,2.7865262E5,2.875E1,2.957E1,3.079E1,5.715037E-2,8.649719E-2,-5.854216E-3,1.0409809E-2,3.2905352E-3,9.075108E-3,1.6757961E-2,2.5134549E-2,3.069894E-2,4.294884E-2],"split_indices":[1,1,1,2,0,1,2,0,0,0,0,1,1,1,0,3,2,2,1,0,0,0,0,0,0,0,0,0,0],"split_type":[0,0,0,0,0,0,0,0,0,0,0,0,0,0,0,0,0,0,0,0,0,0,0,0,0,0,0,0,0],"sum_hessian":[6.3E2,2.15E2,4.15E2,1.59E2,5.6E1,2.79E2,1.36E2,4.6E1,1.13E2,4.8E1,8E0,1.14E2,1.65E2,9.6E1,4E1,3.3E1,8.1E1,1.12E2,5.3E1,1.7E1,7.9E1,3E1,3E0,4.5E1,3.6E1,4.8E1,6.4E1,2.9E1,2.4E1],"tree_param":{"num_deleted":"0","num_feature":"104","num_nodes":"29","size_leaf_vector":"1"}},{"base_weights":[-2.0566525E-2,-1.4794289E0,7.63666E-1,-1.59825E0,-9.32142E-1,3.3512682E-1,1.7830904E0,-9.491754E-2,-7.469575E-2,-5.1850498E-2,-5.8355457E-1,3.754228E-2,5.367213E-1,7.291056E-2,1.0183256E-1,-1.6761342E-2,-3.3290755E-2,-2.1093976E-1,7.54093E-2,3.5739538E-1,6.4300007E-1,-3.1049966E-3,-1.5990203E-2,1.3216174E-3,9.494474E-3,2.7875293E-2,1.5625373E-2,2.8760824E-2,4.2251647E-2],"categories":[],"categories_nodes":[],"categories_segments":[],"categories_sizes":[],"default_left":[0,0,0,0,0,0,0,0,0,0,0,0,0,0,0,0,0,0,0,0,0,0,0,0,0,0,0,0,0],"id":20,"left_children":[1,3,5,7,9,11,13,-1,-1,-1,15,17,19,-1,-1,-1,-1,21,23,25,27,-1,-1,-1,-1,-1,-1,-1,-1],"loss_changes":[7.2648114E2,1.2946686E1,1.7982695E2,2.8313293E0,9.301872E-1,1.7497337E1,7.0801086E0,0E0,0E0,0E0,2.1931648E-2,1.1356106E0,3.0863838E0,0E0,0E0,0E0,0E0,2.3939365E-1,5.7809746E-1,4.2760563E-1,9.9292755E-1,0E0,0E0,0E0,0E0,0E0,0E0,0E0,0E0],"parents":[2147483647,0,0,1,1,2,2,3,3,4,4,5,5,6,6,10,10,11,11,12,12,17,17,18,18,19,19,20,20],"right_children":[2,4,6,8,10,12,14,-1,-1,-1,16,18,20,-1,-1,-1,-1,22,24,26,28,-1,-1,-1,-1,-1,-1,-1,-1],"split_conditions":[2.789E1,2.542E1,3.184E1,2.397E1,2.592E1,2.948E1,3.38E1,-9.491754E-2,-7.469575E-2,-5.1850498E-2,1.8403378E5,2.846E1,3.006E1,7.291056E-2,1.0183256E-1,-1.6761342E-2,-3.3290755E-2,9.802263E4,2.875E1,2.935E1,3.093E1,-3.1049966E-3,-1.5990203E-2,1.3216174E-3,9.494474E-3,2.7875293E-2,1.5625373E-2,2.8760824E-2,4.2251647E-2],"split_indices":[1,1,1,1,2,1,1,0,0,0,3,1,1,0,0,0,0,3,2,0,1,0,0,0,0,0,0,0,0],"split_type":[0,0,0,0,0,0,0,0,0,0,0,0,0,0,0,0,0,0,0,0,0,0,0,0,0,0,0,0,0],"sum_hessian":[6.33E2,2.21E2,4.12E2,1.8E2,4.1E1,2.91E2,1.21E2,4.2E1,1.38E2,3E1,1.1E1,1.18E2,1.73E2,5.6E1,6.5E1,4E0,7E0,1.5E1,1.03E2,6.6E1,1.07E2,7E0,8E0,7.3E1,3E1,1E1,5.6E1,8.3E1,2.4E1],"tree_param":{"num_deleted":"0","num_feature":"104","num_nodes":"29","size_leaf_vector":"1"}},{"base_weights":[3.5311321E-3,-1.4033343E0,7.4110246E-1,-8.0123775E-2,-1.1377152E0,3.1098387E-1,1.7729498E0,-6.1414044E-2,-3.9843213E-2,6.656812E-2,5.722619E-1,8.02868E-2,1.1033056E-1,-2.7238343E-2,2.0317812E-1,4.6123508E-1,7.9886955E-1,-5.8155493E-3,9.2373055E-4,1.1853457E-3,1.1279444E-2,2.1258445E-2,3.406365E-2,2.7889902E-2,4.2590506E-2],"categories":[],"categories_nodes":[],"categories_segments":[],"categories_sizes":[],"default_left":[0,0,0,0,0,0,0,0,0,0,0,0,0,0,0,0,0,0,0,0,0,0,0,0,0],"id":21,"left_children":[1,3,5,-1,7,9,11,-1,-1,13,15,-1,-1,17,19,21,23,-1,-1,-1,-1,-1,-1,-1,-1],"loss_changes":[6.51655E2,9.602295E0,1.8230112E2,0E0,1.9846954E0,1.860916E1,5.230957E0,0E0,0E0,1.9533992E0,3.1790314E0,0E0,0E0,3.726802E-1,2.4402142E-1,4.8012924E-1,9.91745E-2,0E0,0E0,0E0,0E0,0E0,0E0,0E0,0E0],"parents":[2147483647,0,0,1,1,2,2,4,4,5,5,6,6,9,9,10,10,13,13,14,14,15,15,16,16],"right_children":[2,4,6,-1,8,10,12,-1,-1,14,16,-1,-1,18,20,22,24,-1,-1,-1,-1,-1,-1,-1,-1],"split_conditions":[2.672E1,2.441E1,3.174E1,-8.0123775E-2,2.577E1,2.938E1,3.413E1,-6.1414044E-2,-3.9843213E-2,2.875E1,3.043E1,8.02868E-2,1.1033056E-1,2.83E1,8.061643E4,4.443329E5,1.4358512E5,-5.8155493E-3,9.2373055E-4,1.1853457E-3,1.1279444E-2,2.1258445E-2,3.406365E-2,2.7889902E-2,4.2590506E-2],"split_indices":[0,2,2,0,0,2,2,0,0,2,2,0,0,2,3,3,3,0,0,0,0,0,0,0,0],"split_type":[0,0,0,0,0,0,0,0,0,0,0,0,0,0,0,0,0,0,0,0,0,0,0,0,0],"sum_hessian":[6.26E2,2.15E2,4.11E2,1.2E2,9.5E1,2.91E2,1.2E2,7.3E1,2.2E1,1.51E2,1.4E2,9E1,3E1,9E1,6.1E1,9.6E1,4.4E1,3E1,6E1,7E0,5.4E1,8.5E1,1.1E1,1E1,3.4E1],"tree_param":{"num_deleted":"0","num_feature":"104","num_nodes":"25","size_leaf_vector":"1"}},{"base_weights":[3.455733E-2,-1.2944871E0,7.2313106E-1,-1.4464873E0,-8.706477E-1,2.752848E-1,1.6039554E0,-8.499522E-2,-6.823385E-2,-4.7863055E-2,-4.9053428E-1,6.46676E-2,4.932236E-1,1.4053464E0,1.9875977E0,-2.974919E-2,-1.3475626E-2,-1.2992775E-1,1.0569509E-1,4.2841518E-1,2.9911295E-2,5.074937E-2,7.512039E-2,7.849117E-2,1.1438705E-1,4.6304893E-3,-8.836292E-3,2.2635006E-3,8.649377E-3,2.0376442E-2,3.7996244E-2],"categories":[],"categories_nodes":[],"categories_segments":[],"categories_sizes":[],"default_left":[0,0,0,0,0,0,0,0,0,0,0,0,0,0,0,0,0,0,0,0,0,0,0,0,0,0,0,0,0,0,0],"id":22,"left_children":[1,3,5,7,9,11,13,-1,-1,-1,15,17,19,21,23,-1,-1,25,27,29,-1,-1,-1,-1,-1,-1,-1,-1,-1,-1,-1],"loss_changes":[5.738169E2,1.2527283E1,1.6247615E2,9.143982E-1,1.4728813E0,1.2591064E1,7.797821E0,0E0,0E0,0E0,1.3975787E-1,1.1394427E0,6.6239166E-1,2.074524E0,2.0513E0,0E0,0E0,2.7672485E-1,4.6790862E-1,2.9269886E-1,0E0,0E0,0E0,0E0,0E0,0E0,0E0,0E0,0E0,0E0,0E0],"parents":[2147483647,0,0,1,1,2,2,3,3,4,4,5,5,6,6,10,10,11,11,12,12,13,13,14,14,17,17,18,18,19,19],"right_children":[2,4,6,8,10,12,14,-1,-1,-1,16,18,20,22,24,-1,-1,26,28,30,-1,-1,-1,-1,-1,-1,-1,-1,-1,-1,-1],"split_conditions":[2.79E1,2.507E1,3.136E1,2.378E1,2.617E1,2.952E1,3.401E1,-8.499522E-2,-6.823385E-2,-4.7863055E-2,2.7865262E5,2.843E1,3.036E1,3.245E1,2.4238594E5,-2.974919E-2,-1.3475626E-2,2.813E1,2.893E1,5.1672112E5,2.9911295E-2,5.074937E-2,7.512039E-2,7.849117E-2,1.1438705E-1,4.6304893E-3,-8.836292E-3,2.2635006E-3,8.649377E-3,2.0376442E-2,3.7996244E-2],"split_indices":[0,0,0,0,0,0,0,0,0,0,3,0,0,0,3,0,0,0,0,3,0,0,0,0,0,0,0,0,0,0,0],"split_type":[0,0,0,0,0,0,0,0,0,0,0,0,0,0,0,0,0,0,0,0,0,0,0,0,0,0,0,0,0,0,0],"sum_hessian":[6.25E2,2.13E2,4.12E2,1.55E2,5.8E1,2.74E2,1.38E2,3.3E1,1.22E2,4.6E1,1.2E1,1.4E2,1.34E2,9.4E1,4.4E1,7E0,5E0,2.4E1,1.16E2,8.6E1,4.8E1,2.1E1,7.3E1,2.1E1,2.3E1,4E0,2E1,6.2E1,5.4E1,8.3E1,3E0],"tree_param":{"num_deleted":"0","num_feature":"104","num_nodes":"31","size_leaf_vector":"1"}},{"base_weights":[1.3527921E-2,-1.2496631E0,6.53824E-1,-1.3530958E0,-7.349347E-1,2.5771743E-1,1.5198684E0,-7.988756E-2,-6.228258E-2,-3.9424676E-2,-1.5447283E-2,2.7525747E-2,4.2986366E-1,1.3604122E0,1.0189666E-1,-8.27954E-2,7.8038566E-2,3.5010076E-1,6.2131214E-1,4.936657E-2,7.2540574E-2,-5.6316527E-3,1.1068058E-2,5.0186045E-3,-1.5861949E-2,3.943479E-3,1.8289411E-2,7.652068E-3,3.242623E-2],"categories":[],"categories_nodes":[],"categories_segments":[],"categories_sizes":[],"default_left":[0,0,0,0,0,0,0,0,0,0,0,0,0,0,0,0,0,0,0,0,0,0,0,0,0,0,0,0,0],"id":23,"left_children":[1,3,5,7,9,11,13,-1,-1,-1,-1,15,17,19,-1,21,23,25,27,-1,-1,-1,-1,-1,-1,-1,-1,-1,-1],"loss_changes":[5.2897406E2,1.0718292E1,1.4849023E2,2.7939758E0,6.462021E-1,1.1836529E1,8.462372E0,0E0,0E0,0E0,0E0,7.253308E-1,2.393732E0,2.1762695E0,0E0,3.9702064E-1,8.175286E-1,4.945078E-1,5.251446E-1,0E0,0E0,0E0,0E0,0E0,0E0,0E0,0E0,0E0,0E0],"parents":[2147483647,0,0,1,1,2,2,3,3,4,4,5,5,6,6,11,11,12,12,13,13,15,15,16,16,17,17,18,18],"right_children":[2,4,6,8,10,12,14,-1,-1,-1,-1,16,18,20,-1,22,24,26,28,-1,-1,-1,-1,-1,-1,-1,-1,-1,-1],"split_conditions":[2.789E1,2.529E1,3.184E1,2.405E1,2.697E1,2.906E1,3.463E1,-7.988756E-2,-6.228258E-2,-3.9424676E-2,-1.5447283E-2,2.879E1,3.01E1,3.258E1,1.0189666E-1,2.7865262E5,2.935E1,2.953E1,3.054E1,4.936657E-2,7.2540574E-2,-5.6316527E-3,1.1068058E-2,5.0186045E-3,-1.5861949E-2,3.943479E-3,1.8289411E-2,7.652068E-3,3.242623E-2],"split_indices":[1,0,1,1,1,2,1,0,0,0,0,1,2,2,0,3,0,1,1,0,0,0,0,0,0,0,0,0,0],"split_type":[0,0,0,0,0,0,0,0,0,0,0,0,0,0,0,0,0,0,0,0,0,0,0,0,0,0,0,0,0],"sum_hessian":[6.52E2,2.19E2,4.33E2,1.81E2,3.8E1,2.98E2,1.35E2,5.1E1,1.3E2,3.3E1,5E0,1.28E2,1.7E2,1.06E2,2.9E1,4E1,8.8E1,1.22E2,4.8E1,2.3E1,8.3E1,3.7E1,3E0,8.4E1,4E0,7E0,1.15E2,3E0,4.5E1],"tree_param":{"num_deleted":"0","num_feature":"104","num_nodes":"29","size_leaf_vector":"1"}},{"base_weights":[-3.386528E-3,-1.21005E0,6.437547E-1,-1.3905313E0,-9.455233E-1,2.5974676E-1,1.4814755E0,-8.530658E-2,-6.5839075E-2,-5.195511E-2,-6.536146E-1,2.7353937E-2,4.4634864E-1,1.3109142E0,9.0597235E-2,-3.4474812E-2,-1.8250618E-2,-3.4139894E-2,1.01715535E-1,2.8974977E-1,5.3009135E-1,8.335985E-1,6.860458E-2,-2.9328675E-3,6.3092904E-3,6.2219016E-3,2.278487E-5,1.3133727E-2,2.9818272E-2,2.2957584E-2,3.215431E-2,4.8543952E-2,2.0988693E-2],"categories":[],"categories_nodes":[],"categories_segments":[],"categories_sizes":[],"default_left":[0,0,0,0,0,0,0,0,0,0,0,0,0,0,0,0,0,0,0,0,0,0,0,0,0,0,0,0,0,0,0,0,0],"id":24,"left_children":[1,3,5,7,9,11,13,-1,-1,-1,15,17,19,21,-1,-1,-1,23,25,27,29,31,-1,-1,-1,-1,-1,-1,-1,-1,-1,-1,-1],"loss_changes":[5.122565E2,9.618134E0,1.3697746E2,8.7231445E-1,1.9432144E0,1.2737083E1,5.177643E0,0E0,0E0,0E0,1.7568588E-2,6.070794E-1,1.9839897E0,1.5427094E0,0E0,0E0,0E0,2.943485E-1,1.379959E-1,3.331499E-1,5.463848E-1,3.309803E-1,0E0,0E0,0E0,0E0,0E0,0E0,0E0,0E0,0E0,0E0,0E0],"parents":[2147483647,0,0,1,1,2,2,3,3,4,4,5,5,6,6,10,10,11,11,12,12,13,13,17,17,18,18,19,19,20,20,21,21],"right_children":[2,4,6,8,10,12,14,-1,-1,-1,16,18,20,22,-1,-1,-1,24,26,28,30,32,-1,-1,-1,-1,-1,-1,-1,-1,-1,-1,-1],"split_conditions":[2.676E1,2.446E1,3.132E1,2.343E1,2.561E1,2.906E1,3.393E1,-8.530658E-2,-6.5839075E-2,-5.195511E-2,2.619E1,2.864E1,2.966E1,3.206E1,9.0597235E-2,-3.4474812E-2,-1.8250618E-2,4.1270922E5,2.2410923E5,3.608022E5,3.043E1,3.17E1,6.860458E-2,-2.9328675E-3,6.3092904E-3,6.2219016E-3,2.278487E-5,1.3133727E-2,2.9818272E-2,2.2957584E-2,3.215431E-2,4.8543952E-2,2.0988693E-2],"split_indices":[2,2,2,2,2,2,2,0,0,0,2,2,2,2,0,0,0,3,3,3,2,2,0,0,0,0,0,0,0,0,0,0,0],"split_type":[0,0,0,0,0,0,0,0,0,0,0,0,0,0,0,0,0,0,0,0,0,0,0,0,0,0,0,0,0,0,0,0,0],"sum_hessian":[6.54E2,2.28E2,4.26E2,1.33E2,9.5E1,2.93E2,1.33E2,2.1E1,1.12E2,7E1,2.5E1,1.31E2,1.62E2,9.1E1,4.2E1,2.1E1,4E0,7.2E1,5.9E1,5.8E1,1.04E2,1.2E1,7.9E1,6.3E1,9E0,4.8E1,1.1E1,5.5E1,3E0,6.7E1,3.7E1,8E0,4E0],"tree_param":{"num_deleted":"0","num_feature":"104","num_nodes":"33","size_leaf_vector":"1"}},{"base_weights":[1.1671128E-3,-1.1386993E0,6.1200184E-1,-1.2242526E0,-5.6656945E-1,2.3573229E-1,1.3574818E0,-7.7557616E-2,-1.1573966E0,-3.236968E-2,-2.9706657E-1,9.115622E-3,3.6830273E-1,9.827935E-1,1.5303848E0,-6.1340045E-2,-5.0410282E-2,-2.1496296E-3,-2.0846909E-2,-1.09996185E-1,4.6224117E-2,3.047045E-1,5.182062E-1,1.0108942E0,2.1399355E-2,7.052677E-2,1.057243E-1,1.1435668E-3,-7.217832E-3,6.46817E-4,4.7875764E-3,1.11521585E-2,1.7365916E-2,2.1131646E-2,3.0405823E-2,4.2909723E-2,5.8332343E-2],"categories":[],"categories_nodes":[],"categories_segments":[],"categories_sizes":[],"default_left":[0,0,0,0,0,0,0,0,0,0,0,0,0,0,0,0,0,0,0,0,0,0,0,0,0,0,0,0,0,0,0,0,0,0,0,0,0],"id":25,"left_children":[1,3,5,7,9,11,13,-1,15,-1,17,19,21,23,25,-1,-1,-1,-1,27,29,31,33,35,-1,-1,-1,-1,-1,-1,-1,-1,-1,-1,-1,-1,-1],"loss_changes":[4.4700595E2,1.0270599E1,1.16929565E2,2.444641E0,4.82934E-1,8.37855E0,7.565796E0,0E0,4.7161865E-1,0E0,2.5618106E-1,4.647707E-1,1.5200119E0,3.0010605E-1,3.5978394E0,0E0,0E0,0E0,0E0,1.1743632E-1,1.3065395E-1,3.6100197E-1,1.812334E-1,4.525757E-2,0E0,0E0,0E0,0E0,0E0,0E0,0E0,0E0,0E0,0E0,0E0,0E0,0E0],"parents":[2147483647,0,0,1,1,2,2,3,3,4,4,5,5,6,6,8,8,10,10,11,11,12,12,13,13,14,14,19,19,20,20,21,21,22,22,23,23],"right_children":[2,4,6,8,10,12,14,-1,16,-1,18,20,22,24,26,-1,-1,-1,-1,28,30,32,34,36,-1,-1,-1,-1,-1,-1,-1,-1,-1,-1,-1,-1,-1],"split_conditions":[2.79E1,2.599E1,3.095E1,2.378E1,2.697E1,2.921E1,3.319E1,-7.7557616E-2,2.47E1,-3.236968E-2,2.692E1,2.86E1,3.046E1,3.305E1,3.522E1,-6.1340045E-2,-5.0410282E-2,-2.1496296E-3,-2.0846909E-2,2.826E1,2.9E1,2.98E1,3.079E1,3.281E1,2.1399355E-2,7.052677E-2,1.057243E-1,1.1435668E-3,-7.217832E-3,6.46817E-4,4.7875764E-3,1.11521585E-2,1.7365916E-2,2.1131646E-2,3.0405823E-2,4.2909723E-2,5.8332343E-2],"split_indices":[0,1,0,1,1,1,1,0,1,0,0,1,1,0,1,0,0,0,0,0,1,1,1,1,0,0,0,0,0,0,0,0,0,0,0,0,0],"split_type":[0,0,0,0,0,0,0,0,0,0,0,0,0,0,0,0,0,0,0,0,0,0,0,0,0,0,0,0,0,0,0,0,0,0,0,0,0],"sum_hessian":[6.4E2,2.23E2,4.17E2,1.93E2,3E1,2.78E2,1.39E2,2.9E1,1.64E2,2.2E1,8E0,1.03E2,1.75E2,4.6E1,9.3E1,1.07E2,5.7E1,3E0,5E0,2.4E1,7.9E1,1.25E2,5E1,4.3E1,3E0,8E1,1.3E1,5E0,1.9E1,4.8E1,3.1E1,4.5E1,8E1,2.7E1,2.3E1,2.5E1,1.8E1],"tree_param":{"num_deleted":"0","num_feature":"104","num_nodes":"37","size_leaf_vector":"1"}},{"base_weights":[-1.3633231E-2,-1.0851092E0,5.8051115E-1,-1.2401177E0,-8.2265115E-1,2.3268045E-1,1.3275002E0,-7.720067E-2,-5.8420327E-2,-4.6846405E-2,-5.9338754E-1,2.2705253E-2,3.8490206E-1,5.2710284E-2,1.557791E0,-3.197839E-2,-1.685456E-2,-9.0914026E-2,5.991265E-2,3.112222E-1,5.466677E-1,7.011828E-2,9.1304615E-2,-6.6670175E-3,1.0909605E-2,5.060938E-4,5.3154966E-3,1.6386762E-2,5.2530863E-3,2.3158057E-2,3.1996552E-2],"categories":[],"categories_nodes":[],"categories_segments":[],"categories_sizes":[],"default_left":[0,0,0,0,0,0,0,0,0,0,0,0,0,0,0,0,0,0,0,0,0,0,0,0,0,0,0,0,0,0,0],"id":26,"left_children":[1,3,5,7,9,11,13,-1,-1,-1,15,17,19,-1,21,-1,-1,23,25,27,29,-1,-1,-1,-1,-1,-1,-1,-1,-1,-1],"loss_changes":[4.086978E2,8.296265E0,1.0699916E2,1.2905273E0,1.7495918E0,9.036723E0,6.602539E0,0E0,0E0,0E0,1.631546E-1,5.127442E-1,1.7845573E0,0E0,3.164978E-1,0E0,0E0,4.2252082E-1,2.091482E-1,3.5706615E-1,9.301281E-2,0E0,0E0,0E0,0E0,0E0,0E0,0E0,0E0,0E0,0E0],"parents":[2147483647,0,0,1,1,2,2,3,3,4,4,5,5,6,6,10,10,11,11,12,12,14,14,17,17,18,18,19,19,20,20],"right_children":[2,4,6,8,10,12,14,-1,-1,-1,16,18,20,-1,22,-1,-1,24,26,28,30,-1,-1,-1,-1,-1,-1,-1,-1,-1,-1],"split_conditions":[2.789E1,2.47E1,3.141E1,2.373E1,2.563E1,2.948E1,3.377E1,-7.720067E-2,-5.8420327E-2,-4.6846405E-2,2.672E1,2.864E1,3.046E1,5.2710284E-2,3.479E1,-3.197839E-2,-1.685456E-2,2.7865262E5,1.2645609E5,3.019E1,3.089E1,7.011828E-2,9.1304615E-2,-6.6670175E-3,1.0909605E-2,5.060938E-4,5.3154966E-3,1.6386762E-2,5.2530863E-3,2.3158057E-2,3.1996552E-2],"split_indices":[1,1,1,1,1,1,1,0,0,0,0,1,1,0,1,0,0,3,3,0,1,0,0,0,0,0,0,0,0,0,0],"split_type":[0,0,0,0,0,0,0,0,0,0,0,0,0,0,0,0,0,0,0,0,0,0,0,0,0,0,0,0,0,0,0],"sum_hessian":[6.4E2,2.28E2,4.12E2,1.41E2,8.7E1,2.82E2,1.3E2,2.3E1,1.18E2,5.6E1,3.1E1,1.19E2,1.63E2,6.2E1,6.8E1,2.5E1,6E0,2.9E1,9E1,1.14E2,4.9E1,4.7E1,2.1E1,2.6E1,3E0,4.4E1,4.6E1,1.05E2,9E0,2.9E1,2E1],"tree_param":{"num_deleted":"0","num_feature":"104","num_nodes":"31","size_leaf_vector":"1"}},{"base_weights":[-2.950199E-2,-1.0244694E0,5.267919E-1,-1.1393398E0,-7.182903E-1,1.9833168E-1,1.2140976E0,-7.505518E-2,-5.4137725E-2,-4.16899E-2,-5.317515E-1,5.068042E-2,3.7058023E-1,4.8684005E-2,1.4199983E0,-2.8739626E-2,-3.2051522E-1,-2.292582E-2,1.4302537E-1,3.2704046E-1,2.847277E-2,6.429902E-2,8.560238E-2,-7.6165437E-3,-2.0428538E-2,-5.633957E-3,6.8174023E-4,1.0968718E-2,-1.9148644E-3,3.3284713E-2,1.5558789E-2],"categories":[],"categories_nodes":[],"categories_segments":[],"categories_sizes":[],"default_left":[0,0,0,0,0,0,0,0,0,0,0,0,0,0,0,0,0,0,0,0,0,0,0,0,0,0,0,0,0,0,0],"id":27,"left_children":[1,3,5,7,9,11,13,-1,-1,-1,15,17,19,-1,21,-1,23,25,27,29,-1,-1,-1,-1,-1,-1,-1,-1,-1,-1,-1],"loss_changes":[3.58097E2,7.341263E0,9.3446526E1,1.7932587E0,9.7870636E-1,7.153242E0,5.2506714E0,0E0,0E0,0E0,7.034111E-2,1.0432452E0,9.3943405E-1,0E0,5.3811646E-1,0E0,4.1428983E-2,2.8373998E-1,9.4977987E-1,3.784685E-1,0E0,0E0,0E0,0E0,0E0,0E0,0E0,0E0,0E0,0E0,0E0],"parents":[2147483647,0,0,1,1,2,2,3,3,4,4,5,5,6,6,10,10,11,11,12,12,14,14,16,16,17,17,18,18,19,19],"right_children":[2,4,6,8,10,12,14,-1,-1,-1,16,18,20,-1,22,-1,24,26,28,30,-1,-1,-1,-1,-1,-1,-1,-1,-1,-1,-1],"split_conditions":[2.789E1,2.514E1,3.136E1,2.373E1,2.577E1,2.98E1,3.377E1,-7.505518E-2,-5.4137725E-2,-4.16899E-2,2.697E1,2.904E1,3.093E1,4.8684005E-2,3.485E1,-2.8739626E-2,2.7261625E5,2.86E1,1.7195138E5,2.914E1,2.847277E-2,6.429902E-2,8.560238E-2,-7.6165437E-3,-2.0428538E-2,-5.633957E-3,6.8174023E-4,1.0968718E-2,-1.9148644E-3,3.3284713E-2,1.5558789E-2],"split_indices":[1,1,0,1,0,1,1,0,0,0,1,1,1,0,1,0,3,1,3,0,0,0,0,0,0,0,0,0,0,0,0],"split_type":[0,0,0,0,0,0,0,0,0,0,0,0,0,0,0,0,0,0,0,0,0,0,0,0,0,0,0,0,0,0,0],"sum_hessian":[6.45E2,2.31E2,4.14E2,1.66E2,6.5E1,2.81E2,1.33E2,1.9E1,1.47E2,3.8E1,2.7E1,1.52E2,1.29E2,6.4E1,6.9E1,2.1E1,6E0,8.5E1,6.7E1,1.08E2,2.1E1,5.1E1,1.8E1,3E0,3E0,2.4E1,6.1E1,4.7E1,2E1,3E0,1.05E2],"tree_param":{"num_deleted":"0","num_feature":"104","num_nodes":"31","size_leaf_vector":"1"}},{"base_weights":[-1.2646863E-2,-9.7415984E-1,5.3348583E-1,-1.1247014E0,-7.460406E-1,2.0995596E-1,1.2031229E0,-7.184033E-2,-5.4194886E-2,-4.181091E-2,-2.785022E-2,5.315896E-2,3.816793E-1,1.0712316E0,7.662018E-2,-3.4905435E-3,1.1902369E-1,3.2981503E-1,2.7084513E-2,7.3231304E-1,1.1230348E0,1.349289E-2,-1.0714029E-3,1.4047705E-2,4.941074E-3,3.1192902E-2,1.5259765E-2,4.5808043E-2,2.1697259E-2,2.6205182E-2,5.6937348E-2],"categories":[],"categories_nodes":[],"categories_segments":[],"categories_sizes":[],"default_left":[0,0,0,0,0,0,0,0,0,0,0,0,0,0,0,0,0,0,0,0,0,0,0,0,0,0,0,0,0,0,0],"id":28,"left_children":[1,3,5,7,9,11,13,-1,-1,-1,-1,15,17,19,-1,21,23,25,-1,27,29,-1,-1,-1,-1,-1,-1,-1,-1,-1,-1],"loss_changes":[3.3921802E2,7.1968384E0,8.90062E1,2.1279907E-1,1.170723E0,7.4919806E0,4.177948E0,0E0,0E0,0E0,0E0,5.489025E-1,9.250908E-1,9.157486E-1,0E0,3.980377E-1,1.9468749E-1,5.552454E-1,0E0,4.801054E-1,1.9365692E-1,0E0,0E0,0E0,0E0,0E0,0E0,0E0,0E0,0E0,0E0],"parents":[2147483647,0,0,1,1,2,2,3,3,4,4,5,5,6,6,11,11,12,12,13,13,15,15,16,16,17,17,19,19,20,20],"right_children":[2,4,6,8,10,12,14,-1,-1,-1,-1,16,18,20,-1,22,24,26,-1,28,30,-1,-1,-1,-1,-1,-1,-1,-1,-1,-1],"split_conditions":[2.79E1,2.47E1,3.184E1,2.36E1,2.578E1,2.98E1,3.4E1,-7.184033E-2,-5.4194886E-2,-4.181091E-2,-2.785022E-2,2.871E1,3.076E1,3.261E1,7.662018E-2,2.813E1,2.883E1,2.949E1,2.7084513E-2,3.184E1,4.367434E4,1.349289E-2,-1.0714029E-3,1.4047705E-2,4.941074E-3,3.1192902E-2,1.5259765E-2,4.5808043E-2,2.1697259E-2,2.6205182E-2,5.6937348E-2],"split_indices":[0,1,1,1,1,1,2,0,0,0,0,2,1,1,0,0,0,0,0,0,3,0,0,0,0,0,0,0,0,0,0],"split_type":[0,0,0,0,0,0,0,0,0,0,0,0,0,0,0,0,0,0,0,0,0,0,0,0,0,0,0,0,0,0,0],"sum_hessian":[6.44E2,2.33E2,4.11E2,1.38E2,9.5E1,2.78E2,1.33E2,1.2E1,1.26E2,6.2E1,3.3E1,1.46E2,1.32E2,9.8E1,3.5E1,7.9E1,6.7E1,1.02E2,3E1,1.5E1,8.3E1,4E0,7.5E1,6E0,6.1E1,6E0,9.6E1,8E0,7E0,3E0,8E1],"tree_param":{"num_deleted":"0","num_feature":"104","num_nodes":"31","size_leaf_vector":"1"}},{"base_weights":[4.8181484E-3,-9.3921524E-1,5.085936E-1,-1.0595819E0,-7.365473E-1,2.1141179E-1,1.1909057E0,-6.708639E-2,-5.013905E-2,-4.070009E-2,-2.5127003E-2,5.406025E-2,3.7613937E-1,1.045352E0,7.148361E-2,-2.6683517E-2,1.269652E-1,3.2033548E-1,6.019584E-1,4.3683406E-2,5.662891E-2,-5.80775E-4,-1.1313591E-2,1.341499E-3,7.0544356E-3,2.060554E-2,1.4660354E-2,3.1495452E-2,1.4188242E-2],"categories":[],"categories_nodes":[],"categories_segments":[],"categories_sizes":[],"default_left":[0,0,0,0,0,0,0,0,0,0,0,0,0,0,0,0,0,0,0,0,0,0,0,0,0,0,0,0,0],"id":29,"left_children":[1,3,5,7,9,11,13,-1,-1,-1,-1,15,17,19,-1,21,23,25,27,-1,-1,-1,-1,-1,-1,-1,-1,-1,-1],"loss_changes":[3.0342267E2,4.635132E0,8.4100845E1,8.501282E-1,1.1496735E0,7.5224276E0,2.8844147E0,0E0,0E0,0E0,0E0,8.863809E-1,1.5965958E0,2.3847961E-1,0E0,2.1390451E-1,1.0794127E-1,1.6797352E-1,6.13842E-2,0E0,0E0,0E0,0E0,0E0,0E0,0E0,0E0,0E0,0E0],"parents":[2147483647,0,0,1,1,2,2,3,3,4,4,5,5,6,6,11,11,12,12,13,13,15,15,16,16,17,17,18,18],"right_children":[2,4,6,8,10,12,14,-1,-1,-1,-1,16,18,20,-1,22,24,26,28,-1,-1,-1,-1,-1,-1,-1,-1,-1,-1],"split_conditions":[2.79E1,2.473E1,3.198E1,2.373E1,2.599E1,2.981E1,3.436E1,-6.708639E-2,-5.013905E-2,-4.070009E-2,-2.5127003E-2,2.9E1,3.093E1,3.319E1,7.148361E-2,2.898E1,2.885E1,2.978E1,3.18E1,4.3683406E-2,5.662891E-2,-5.80775E-4,-1.1313591E-2,1.341499E-3,7.0544356E-3,2.060554E-2,1.4660354E-2,3.1495452E-2,1.4188242E-2],"split_indices":[0,1,1,1,1,1,1,0,0,0,0,1,1,1,0,1,0,0,0,0,0,0,0,0,0,0,0,0,0],"split_type":[0,0,0,0,0,0,0,0,0,0,0,0,0,0,0,0,0,0,0,0,0,0,0,0,0,0,0,0,0],"sum_hessian":[6.36E2,2.21E2,4.15E2,1.36E2,8.5E1,2.9E2,1.25E2,1.9E1,1.17E2,6.2E1,2.3E1,1.49E2,1.41E2,8.1E1,4.4E1,7.1E1,7.8E1,1.15E2,2.6E1,3.1E1,5E1,6.7E1,4E0,1E1,6.8E1,2.3E1,9.2E1,2.3E1,3E0],"tree_param":{"num_deleted":"0","num_feature":"104","num_nodes":"29","size_leaf_vector":"1"}},{"base_weights":[6.530201E-3,-8.529756E-1,4.9050793E-1,-9.4642746E-1,-4.0768322E-1,2.0783433E-1,1.0689727E0,-1.0797992E0,-4.146459E-2,-2.479872E-2,-2.4866833E-1,6.6665746E-2,3.5474077E-1,9.351455E-1,1.3859752E0,-6.991839E-2,-5.0721545E-2,-7.705689E-5,-3.5150957E-1,-1.4162306E-2,1.2870897E-1,3.1522313E-1,2.7806818E-2,6.737739E-1,9.816831E-1,5.3521175E-2,8.0822535E-2,-2.2448255E-2,-1.0888032E-2,-2.9078857E-3,4.95286E-3,7.3063592E-3,-8.263664E-3,1.1384986E-2,1.7747175E-2,3.7759367E-2,1.5553074E-2,2.3260666E-2,4.977915E-2],"categories":[],"categories_nodes":[],"categories_segments":[],"categories_sizes":[],"default_left":[0,0,0,0,0,0,0,0,0,0,0,0,0,0,0,0,0,0,0,0,0,0,0,0,0,0,0,0,0,0,0,0,0,0,0,0,0,0,0],"id":30,"left_children":[1,3,5,7,9,11,13,15,-1,-1,17,19,21,23,25,-1,-1,-1,27,29,31,33,-1,35,37,-1,-1,-1,-1,-1,-1,-1,-1,-1,-1,-1,-1,-1,-1],"loss_changes":[2.6789462E2,9.268463E0,6.7146736E1,2.08844E0,4.6633053E-1,5.7416754E0,4.431076E0,3.7234497E-1,0E0,0E0,4.3151116E-1,7.1894383E-1,9.07074E-1,5.3060913E-1,1.0333328E0,0E0,0E0,0E0,5.864775E-2,3.1957266E-1,4.3892324E-1,3.2244968E-1,0E0,2.9662418E-1,1.1833191E-1,0E0,0E0,0E0,0E0,0E0,0E0,0E0,0E0,0E0,0E0,0E0,0E0,0E0,0E0],"parents":[2147483647,0,0,1,1,2,2,3,3,4,4,5,5,6,6,7,7,10,10,11,11,12,12,13,13,14,14,18,18,19,19,20,20,21,21,23,23,24,24],"right_children":[2,4,6,8,10,12,14,16,-1,-1,18,20,22,24,26,-1,-1,-1,28,30,32,34,-1,36,38,-1,-1,-1,-1,-1,-1,-1,-1,-1,-1,-1,-1,-1,-1],"split_conditions":[2.801E1,2.578E1,3.184E1,2.421E1,2.697E1,2.944E1,3.4E1,2.36E1,-4.146459E-2,-2.479872E-2,1.8403378E5,2.871E1,3.093E1,3.281E1,2.4238594E5,-6.991839E-2,-5.0721545E-2,-7.705689E-5,2.7865262E5,1.8197181E5,3.01E1,3.01E1,2.7806818E-2,3.196E1,4.367434E4,5.3521175E-2,8.0822535E-2,-2.2448255E-2,-1.0888032E-2,-2.9078857E-3,4.95286E-3,7.3063592E-3,-8.263664E-3,1.1384986E-2,1.7747175E-2,3.7759367E-2,1.5553074E-2,2.3260666E-2,4.977915E-2],"split_indices":[2,1,1,2,1,2,2,1,0,0,3,2,1,1,3,0,0,0,3,3,1,1,0,0,3,0,0,0,0,0,0,0,0,0,0,0,0,0,0],"split_type":[0,0,0,0,0,0,0,0,0,0,0,0,0,0,0,0,0,0,0,0,0,0,0,0,0,0,0,0,0,0,0,0,0,0,0,0,0,0,0],"sum_hessian":[6.42E2,2.31E2,4.11E2,1.9E2,4.1E1,2.77E2,1.34E2,8.5E1,1.05E2,2.5E1,1.6E1,1.42E2,1.35E2,9.7E1,3.7E1,1.1E1,7.4E1,5E0,1.1E1,6.2E1,8E1,1.15E2,2E1,1.7E1,8E1,1.8E1,1.9E1,5E0,6E0,4.5E1,1.7E1,7.6E1,4E0,3.8E1,7.7E1,1.3E1,4E0,3E0,7.7E1],"tree_param":{"num_deleted":"0","num_feature":"104","num_nodes":"39","size_leaf_vector":"1"}},{"base_weights":[1.117435E-2,-8.621863E-1,4.699248E-1,-5.0652124E-2,-7.130452E-1,2.0362498E-1,1.1004608E0,-3.791068E-2,-2.3255078E-2,4.6873733E-2,3.7695462E-1,1.0314462E0,8.025443E-2,-1.6322082E-2,1.2587608E-1,3.018507E-1,4.8287916E-1,2.2402955E-2,1.0435027E0,-1.6672121E-3,5.90415E-3,6.9330833E-3,-5.827761E-3,1.3929595E-2,2.3235967E-2,2.19478E-2,3.638167E-2,3.666339E-2,5.355623E-2],"categories":[],"categories_nodes":[],"categories_segments":[],"categories_sizes":[],"default_left":[0,0,0,0,0,0,0,0,0,0,0,0,0,0,0,0,0,0,0,0,0,0,0,0,0,0,0,0,0],"id":31,"left_children":[1,3,5,-1,7,9,11,-1,-1,13,15,17,-1,19,21,23,25,-1,27,-1,-1,-1,-1,-1,-1,-1,-1,-1,-1],"loss_changes":[2.5361887E2,4.1824036E0,6.9459236E1,0E0,9.128647E-1,7.943034E0,2.628128E0,0E0,0E0,7.759103E-1,9.600353E-1,3.1317902E-1,0E0,2.0298167E-1,2.3003614E-1,1.8873549E-1,2.8262234E-1,0E0,1.400528E-1,0E0,0E0,0E0,0E0,0E0,0E0,0E0,0E0,0E0,0E0],"parents":[2147483647,0,0,1,1,2,2,4,4,5,5,6,6,9,9,10,10,11,11,13,13,14,14,15,15,16,16,18,18],"right_children":[2,4,6,-1,8,10,12,-1,-1,14,16,18,-1,20,22,24,26,-1,28,-1,-1,-1,-1,-1,-1,-1,-1,-1,-1],"split_conditions":[2.676E1,2.432E1,3.174E1,-5.0652124E-2,2.561E1,2.944E1,3.457E1,-3.791068E-2,-2.3255078E-2,2.876E1,3.01E1,4.578134E4,8.025443E-2,4.1270922E5,2.943E1,4.2388847E5,4.9443634E5,2.2402955E-2,3.258E1,-1.6672121E-3,5.90415E-3,6.9330833E-3,-5.827761E-3,1.3929595E-2,2.3235967E-2,2.19478E-2,3.638167E-2,3.666339E-2,5.355623E-2],"split_indices":[2,2,2,0,2,2,2,0,0,2,2,3,0,3,2,3,3,0,2,0,0,0,0,0,0,0,0,0,0],"split_type":[0,0,0,0,0,0,0,0,0,0,0,0,0,0,0,0,0,0,0,0,0,0,0,0,0,0,0,0,0],"sum_hessian":[6.31E2,2.17E2,4.14E2,1.05E2,1.12E2,2.92E2,1.22E2,9.3E1,1.9E1,1.54E2,1.38E2,1.1E2,1.2E1,8.6E1,6.8E1,8.3E1,5.5E1,3E0,1.07E2,7.7E1,9E0,6.5E1,3E0,7.5E1,8E0,4.9E1,6E0,1.1E1,9.6E1],"tree_param":{"num_deleted":"0","num_feature":"104","num_nodes":"29","size_leaf_vector":"1"}},{"base_weights":[-4.5865052E-3,-7.9097396E-1,4.1844627E-1,-8.928515E-1,-5.7577217E-1,1.6382177E-1,9.213412E-1,-6.1340023E-2,-4.244679E-2,-3.2046102E-2,-1.8420836E-2,1.2730316E-2,2.7660856E-1,7.1805954E-1,1.0712432E0,-1.2955678E-1,3.480509E-2,2.1967323E-1,3.7614092E-1,5.5205697E-1,4.0728632E-2,4.992358E-2,7.06269E-2,-9.574529E-3,5.9800385E-3,9.825748E-4,6.0828566E-3,1.4450739E-2,7.2489777E-3,9.1291275E-3,1.9534092E-2,3.1329762E-2,9.3370285E-3],"categories":[],"categories_nodes":[],"categories_segments":[],"categories_sizes":[],"default_left":[0,0,0,0,0,0,0,0,0,0,0,0,0,0,0,0,0,0,0,0,0,0,0,0,0,0,0,0,0,0,0,0,0],"id":32,"left_children":[1,3,5,7,9,11,13,-1,-1,-1,-1,15,17,19,21,23,25,27,29,31,-1,-1,-1,-1,-1,-1,-1,-1,-1,-1,-1,-1,-1],"loss_changes":[2.2255298E2,4.6161957E0,5.5550537E1,1.2610245E0,8.175907E-1,4.938404E0,3.679741E0,0E0,0E0,0E0,0E0,3.971286E-1,8.5807896E-1,5.917015E-1,6.262207E-1,2.8523412E-1,1.410664E-1,5.174713E-1,9.47237E-2,6.1820126E-1,0E0,0E0,0E0,0E0,0E0,0E0,0E0,0E0,0E0,0E0,0E0,0E0,0E0],"parents":[2147483647,0,0,1,1,2,2,3,3,4,4,5,5,6,6,11,11,12,12,13,13,14,14,15,15,16,16,17,17,18,18,19,19],"right_children":[2,4,6,8,10,12,14,-1,-1,-1,-1,16,18,20,22,24,26,28,30,32,-1,-1,-1,-1,-1,-1,-1,-1,-1,-1,-1,-1,-1],"split_conditions":[2.789E1,2.466E1,3.133E1,2.363E1,2.605E1,2.948E1,3.336E1,-6.1340023E-2,-4.244679E-2,-3.2046102E-2,-1.8420836E-2,2.846E1,3E1,3.206E1,3.522E1,2.7865262E5,2.921E1,1.4071127E5,3.038E1,3.17E1,4.0728632E-2,4.992358E-2,7.06269E-2,-9.574529E-3,5.9800385E-3,9.825748E-4,6.0828566E-3,1.4450739E-2,7.2489777E-3,9.1291275E-3,1.9534092E-2,3.1329762E-2,9.3370285E-3],"split_indices":[1,2,1,1,1,1,1,0,0,0,0,1,2,2,1,3,1,3,1,2,0,0,0,0,0,0,0,0,0,0,0,0,0],"split_type":[0,0,0,0,0,0,0,0,0,0,0,0,0,0,0,0,0,0,0,0,0,0,0,0,0,0,0,0,0,0,0,0,0],"sum_hessian":[6.67E2,2.33E2,4.34E2,1.56E2,7.7E1,2.89E2,1.45E2,1.5E1,1.41E2,5.7E1,2E1,1.24E2,1.65E2,6.4E1,8.1E1,1.6E1,1.08E2,1.07E2,5.8E1,2.6E1,3.8E1,7E1,1.1E1,1.3E1,3E0,9.3E1,1.5E1,5.4E1,5.3E1,5E0,5.3E1,2.1E1,5E0],"tree_param":{"num_deleted":"0","num_feature":"104","num_nodes":"33","size_leaf_vector":"1"}},{"base_weights":[1.9409342E-2,-7.637027E-1,4.053787E-1,-8.423988E-1,-5.442974E-1,1.6778518E-1,9.296933E-1,-4.9241967E-2,-3.876243E-2,-2.883034E-2,-1.6577587E-2,1.8239915E-2,2.8050652E-1,8.2354355E-1,1.2356753E0,-3.6680136E-2,8.017864E-2,2.431229E-1,2.0727493E-2,5.9371454E-1,8.7645227E-1,4.1721713E-2,7.030572E-2,-2.816033E-3,5.883193E-3,5.8338707E-3,-1.8548075E-3,1.1257425E-2,3.2911893E-2,3.714875E-2,2.37264E-2,1.9791031E-2,4.4501882E-2],"categories":[],"categories_nodes":[],"categories_segments":[],"categories_sizes":[],"default_left":[0,0,0,0,0,0,0,0,0,0,0,0,0,0,0,0,0,0,0,0,0,0,0,0,0,0,0,0,0,0,0,0,0],"id":33,"left_children":[1,3,5,7,9,11,13,-1,-1,-1,-1,15,17,19,21,23,25,27,-1,29,31,-1,-1,-1,-1,-1,-1,-1,-1,-1,-1,-1,-1],"loss_changes":[1.9133618E2,3.150154E0,5.266327E1,6.90361E-1,2.0749855E-1,4.9339685E0,3.269722E0,0E0,0E0,0E0,0E0,4.3495408E-1,7.360544E-1,7.077942E-1,1.0150795E0,2.1276188E-1,2.611514E-1,8.441701E-1,0E0,3.8814068E-2,1.7007446E-1,0E0,0E0,0E0,0E0,0E0,0E0,0E0,0E0,0E0,0E0,0E0,0E0],"parents":[2147483647,0,0,1,1,2,2,3,3,4,4,5,5,6,6,11,11,12,12,13,13,14,14,15,15,16,16,17,17,19,19,20,20],"right_children":[2,4,6,8,10,12,14,-1,-1,-1,-1,16,18,20,22,24,26,28,-1,30,32,-1,-1,-1,-1,-1,-1,-1,-1,-1,-1,-1,-1],"split_conditions":[2.662E1,2.487E1,3.132E1,2.379E1,2.592E1,2.906E1,3.413E1,-4.9241967E-2,-3.876243E-2,-2.883034E-2,-1.6577587E-2,2.862E1,3.043E1,3.258E1,2.4238594E5,4.1270922E5,2.893E1,5.6147256E5,2.0727493E-2,3.17E1,4.367434E4,4.1721713E-2,7.030572E-2,-2.816033E-3,5.883193E-3,5.8338707E-3,-1.8548075E-3,1.1257425E-2,3.2911893E-2,3.714875E-2,2.37264E-2,1.9791031E-2,4.4501882E-2],"split_indices":[2,2,2,2,2,2,2,0,0,0,0,2,2,2,3,3,2,3,0,2,3,0,0,0,0,0,0,0,0,0,0,0,0],"split_type":[0,0,0,0,0,0,0,0,0,0,0,0,0,0,0,0,0,0,0,0,0,0,0,0,0,0,0,0,0,0,0,0,0],"sum_hessian":[6.31E2,2.08E2,4.23E2,1.51E2,5.7E1,2.92E2,1.31E2,4.4E1,1.07E2,4.8E1,9E0,1.26E2,1.66E2,1E2,3.1E1,6.7E1,5.9E1,1.32E2,3.4E1,2.1E1,7.9E1,1.1E1,2E1,6E1,7E0,4.5E1,1.4E1,1.28E2,4E0,7E0,1.4E1,3E0,7.6E1],"tree_param":{"num_deleted":"0","num_feature":"104","num_nodes":"33","size_leaf_vector":"1"}},{"base_weights":[1.9256108E-2,-7.2440845E-1,4.107063E-1,-8.3454293E-1,-5.718694E-1,1.467109E-1,8.54294E-1,-5.2457053E-2,-3.9901238E-2,-3.202085E-2,-4.0200245E-1,6.181535E-2,3.029112E-1,6.7692924E-1,1.0392889E0,-2.088767E-2,-9.759164E-3,-3.5873193E-2,1.14943154E-1,-3.91516E-2,3.272313E-1,5.343085E-1,7.4488574E-1,4.3353472E-2,5.9849538E-2,9.555235E-3,-3.6869876E-3,6.9562355E-3,-1.3475193E-3,-7.436085E-3,4.0103197E-3,2.4389133E-2,1.51065355E-2,2.864331E-2,1.1347332E-2,3.83276E-2,1.4391757E-2],"categories":[],"categories_nodes":[],"categories_segments":[],"categories_sizes":[],"default_left":[0,0,0,0,0,0,0,0,0,0,0,0,0,0,0,0,0,0,0,0,0,0,0,0,0,0,0,0,0,0,0,0,0,0,0,0,0],"id":34,"left_children":[1,3,5,7,9,11,13,-1,-1,-1,15,17,19,21,23,-1,-1,25,27,29,31,33,35,-1,-1,-1,-1,-1,-1,-1,-1,-1,-1,-1,-1,-1,-1],"loss_changes":[1.8485976E2,3.201912E0,4.85904E1,1.4234924E-1,8.487282E-1,3.4555812E0,4.382263E0,0E0,0E0,0E0,1.6188622E-2,8.916095E-1,7.781601E-1,3.967476E-1,9.719162E-1,0E0,0E0,5.383792E-1,3.8461328E-1,1.034749E-1,1.9919968E-1,2.255249E-1,3.041973E-1,0E0,0E0,0E0,0E0,0E0,0E0,0E0,0E0,0E0,0E0,0E0,0E0,0E0,0E0],"parents":[2147483647,0,0,1,1,2,2,3,3,4,4,5,5,6,6,10,10,11,11,12,12,13,13,14,14,17,17,18,18,19,19,20,20,21,21,22,22],"right_children":[2,4,6,8,10,12,14,-1,-1,-1,16,18,20,22,24,-1,-1,26,28,30,32,34,36,-1,-1,-1,-1,-1,-1,-1,-1,-1,-1,-1,-1,-1,-1],"split_conditions":[2.789E1,2.465E1,3.133E1,2.363E1,2.578E1,3.01E1,3.334E1,-5.2457053E-2,-3.9901238E-2,-3.202085E-2,2.692E1,2.864E1,2.956E1,3.281E1,2.2007862E5,-2.088767E-2,-9.759164E-3,2.813E1,2.2410923E5,3.032E1,2.996E1,3.232E1,3.355E1,4.3353472E-2,5.9849538E-2,9.555235E-3,-3.6869876E-3,6.9562355E-3,-1.3475193E-3,-7.436085E-3,4.0103197E-3,2.4389133E-2,1.51065355E-2,2.864331E-2,1.1347332E-2,3.83276E-2,1.4391757E-2],"split_indices":[1,1,1,1,1,1,2,0,0,0,0,2,2,1,3,0,0,0,3,1,0,0,0,0,0,0,0,0,0,0,0,0,0,0,0,0,0],"split_type":[0,0,0,0,0,0,0,0,0,0,0,0,0,0,0,0,0,0,0,0,0,0,0,0,0,0,0,0,0,0,0,0,0,0,0,0,0],"sum_hessian":[6.33E2,2.18E2,4.15E2,1.24E2,9.4E1,2.61E2,1.54E2,1.4E1,1.1E2,6.5E1,2.9E1,1.7E2,9.1E1,8.1E1,7.3E1,2.6E1,3E0,6E1,1.1E2,6E0,8.5E1,2.9E1,5.2E1,3.8E1,3.5E1,8E0,5.2E1,9.4E1,1.6E1,3E0,3E0,9E0,7.6E1,2.5E1,4E0,4.9E1,3E0],"tree_param":{"num_deleted":"0","num_feature":"104","num_nodes":"37","size_leaf_vector":"1"}},{"base_weights":[-7.889344E-3,-6.9958E-1,3.6136556E-1,-8.607867E-1,-5.905092E-1,1.3663901E-1,8.624214E-1,-5.4175735E-2,-4.0161453E-2,-3.2145426E-2,-3.67308E-1,3.233181E-2,3.1713024E-1,7.6313514E-1,1.1044353E0,-2.0240774E-2,-8.115563E-3,-2.8549843E-2,9.9839725E-2,-2.3356543E-3,3.43502E-1,6.324114E-1,4.18448E-2,4.000025E-2,6.463789E-2,1.0402155E-2,-1.9156954E-3,8.015874E-3,-7.290963E-4,1.2463331E-2,-8.484062E-3,1.5305E-2,2.2225615E-2,3.348272E-2,1.263384E-2],"categories":[],"categories_nodes":[],"categories_segments":[],"categories_sizes":[],"default_left":[0,0,0,0,0,0,0,0,0,0,0,0,0,0,0,0,0,0,0,0,0,0,0,0,0,0,0,0,0,0,0,0,0,0,0],"id":35,"left_children":[1,3,5,7,9,11,13,-1,-1,-1,15,17,19,21,23,-1,-1,25,27,29,31,33,-1,-1,-1,-1,-1,-1,-1,-1,-1,-1,-1,-1,-1],"loss_changes":[1.6218286E2,3.3775253E0,4.649878E1,2.4500275E-1,1.3427582E0,5.392962E0,2.2328339E0,0E0,0E0,0E0,1.4958382E-1,7.549792E-1,8.854151E-1,3.7711334E-1,9.723778E-1,0E0,0E0,2.3205146E-1,6.043746E-1,4.212366E-1,2.3040009E-1,3.6820793E-1,0E0,0E0,0E0,0E0,0E0,0E0,0E0,0E0,0E0,0E0,0E0,0E0,0E0],"parents":[2147483647,0,0,1,1,2,2,3,3,4,4,5,5,6,6,10,10,11,11,12,12,13,13,14,14,17,17,18,18,19,19,20,20,21,21],"right_children":[2,4,6,8,10,12,14,-1,-1,-1,16,18,20,22,24,-1,-1,26,28,30,32,34,-1,-1,-1,-1,-1,-1,-1,-1,-1,-1,-1,-1,-1],"split_conditions":[2.789E1,2.418E1,3.19E1,2.36E1,2.578E1,3.006E1,3.4E1,-5.4175735E-2,-4.0161453E-2,-3.2145426E-2,2.697E1,2.913E1,2.956E1,3.319E1,2.4238594E5,-2.0240774E-2,-8.115563E-3,2.816E1,1.7195138E5,2.942E1,3.093E1,3.313E1,4.18448E-2,4.000025E-2,6.463789E-2,1.0402155E-2,-1.9156954E-3,8.015874E-3,-7.290963E-4,1.2463331E-2,-8.484062E-3,1.5305E-2,2.2225615E-2,3.348272E-2,1.263384E-2],"split_indices":[1,2,1,1,1,1,2,0,0,0,1,1,2,1,3,0,0,1,3,2,1,1,0,0,0,0,0,0,0,0,0,0,0,0,0],"split_type":[0,0,0,0,0,0,0,0,0,0,0,0,0,0,0,0,0,0,0,0,0,0,0,0,0,0,0,0,0,0,0,0,0,0,0],"sum_hessian":[6.33E2,2.2E2,4.13E2,8.6E1,1.34E2,2.86E2,1.27E2,1.4E1,7.2E1,1.07E2,2.7E1,1.82E2,1.04E2,9.3E1,3.4E1,2.2E1,5E0,9.6E1,8.6E1,8E0,9.6E1,3.7E1,5.6E1,1.5E1,1.9E1,3E0,9.3E1,5.6E1,3E1,3E0,5E0,7.3E1,2.3E1,3.3E1,4E0],"tree_param":{"num_deleted":"0","num_feature":"104","num_nodes":"35","size_leaf_vector":"1"}},{"base_weights":[3.916295E-3,-6.589838E-1,3.6171317E-1,-7.180317E-1,-3.9373505E-1,1.6862537E-1,8.349822E-1,-5.120809E-2,-6.8028396E-1,-2.1625264E-2,-2.7099565E-1,4.9633436E-2,2.7951565E-1,7.5482696E-1,1.1402097E0,-3.731383E-2,-3.143754E-2,-8.2559587E-4,-3.456896E-1,-1.5458352E-2,1.0972399E-1,2.3443803E-1,4.0526977E-1,6.1164737E-1,4.1233122E-2,2.487236E-2,6.2467337E-2,-8.554864E-3,-1.9803619E-2,1.2715379E-2,-1.7830472E-3,7.362522E-3,-4.181385E-5,2.180854E-2,9.749643E-3,2.2984266E-2,6.847441E-3,3.199967E-2,1.53951645E-2],"categories":[],"categories_nodes":[],"categories_segments":[],"categories_sizes":[],"default_left":[0,0,0,0,0,0,0,0,0,0,0,0,0,0,0,0,0,0,0,0,0,0,0,0,0,0,0,0,0,0,0,0,0,0,0,0,0,0,0],"id":36,"left_children":[1,3,5,7,9,11,13,-1,15,-1,17,19,21,23,25,-1,-1,-1,27,29,31,33,35,37,-1,-1,-1,-1,-1,-1,-1,-1,-1,-1,-1,-1,-1,-1,-1],"loss_changes":[1.5156151E2,3.2256546E0,3.778293E1,1.4064178E0,8.741474E-2,3.891861E0,2.0752106E0,0E0,9.1911316E-2,0E0,2.4140096E-1,5.6493807E-1,7.7229977E-1,4.754982E-1,9.919472E-1,0E0,0E0,0E0,2.019763E-2,3.9056683E-1,3.1129318E-1,8.3004856E-1,5.064788E-1,1.1290169E-1,0E0,0E0,0E0,0E0,0E0,0E0,0E0,0E0,0E0,0E0,0E0,0E0,0E0,0E0,0E0],"parents":[2147483647,0,0,1,1,2,2,3,3,4,4,5,5,6,6,8,8,10,10,11,11,12,12,13,13,14,14,18,18,19,19,20,20,21,21,22,22,23,23],"right_children":[2,4,6,8,10,12,14,-1,16,-1,18,20,22,24,26,-1,-1,-1,28,30,32,34,36,38,-1,-1,-1,-1,-1,-1,-1,-1,-1,-1,-1,-1,-1,-1,-1],"split_conditions":[2.79E1,2.529E1,3.206E1,2.363E1,2.617E1,2.98E1,3.4420697E5,-5.120809E-2,2.418E1,-2.1625264E-2,1.8403378E5,2.868E1,3.093E1,3.305E1,3.331E1,-3.731383E-2,-3.143754E-2,-8.2559587E-4,2.672E1,2.813E1,1.7195138E5,2.972E1,3.184E1,3.301E1,4.1233122E-2,2.487236E-2,6.2467337E-2,-8.554864E-3,-1.9803619E-2,1.2715379E-2,-1.7830472E-3,7.362522E-3,-4.181385E-5,2.180854E-2,9.749643E-3,2.2984266E-2,6.847441E-3,3.199967E-2,1.53951645E-2],"split_indices":[0,0,2,1,0,1,3,0,2,0,3,2,1,2,1,0,0,0,0,0,3,0,0,2,0,0,0,0,0,0,0,0,0,0,0,0,0,0,0],"split_type":[0,0,0,0,0,0,0,0,0,0,0,0,0,0,0,0,0,0,0,0,0,0,0,0,0,0,0,0,0,0,0,0,0,0,0,0,0,0,0],"sum_hessian":[6.37E2,2.23E2,4.14E2,1.81E2,4.2E1,2.95E2,1.19E2,1.7E1,1.64E2,3E1,1.2E1,1.43E2,1.52E2,9.7E1,2.2E1,6.6E1,9.8E1,3E0,9E0,6.9E1,7.4E1,1.14E2,3.8E1,3.5E1,6.2E1,4E0,1.8E1,3E0,6E0,4E0,6.5E1,5.5E1,1.9E1,1.7E1,9.7E1,3.1E1,7E0,3.1E1,4E0],"tree_param":{"num_deleted":"0","num_feature":"104","num_nodes":"39","size_leaf_vector":"1"}},{"base_weights":[1.39839E-2,-6.392178E-1,3.4896562E-1,-7.5729036E-1,-5.2585405E-1,1.4705798E-1,8.0406183E-1,-5.1483493E-2,-3.5380494E-2,-2.7920632E-2,-1.8567054E-2,3.4070943E-2,2.621191E-1,6.957832E-1,1.0507494E0,9.404078E-3,1.6420794E-1,2.0262216E-1,3.4267837E-1,1.5121507E-2,3.5271373E-2,4.3856557E-2,6.17327E-2,9.639578E-3,-3.0428302E-4,1.4806676E-2,6.5629915E-3,2.5797019E-2,8.861273E-3,7.0788227E-3,1.7905287E-2],"categories":[],"categories_nodes":[],"categories_segments":[],"categories_sizes":[],"default_left":[0,0,0,0,0,0,0,0,0,0,0,0,0,0,0,0,0,0,0,0,0,0,0,0,0,0,0,0,0,0,0],"id":37,"left_children":[1,3,5,7,9,11,13,-1,-1,-1,-1,15,17,19,21,23,25,27,29,-1,-1,-1,-1,-1,-1,-1,-1,-1,-1,-1,-1],"loss_changes":[1.4135593E2,2.5331268E0,3.9117676E1,6.922531E-1,3.7117004E-1,3.8521934E0,2.7680435E0,0E0,0E0,0E0,0E0,4.8317653E-1,6.351414E-1,1.4325714E-1,1.3035965E-1,3.6477312E-1,6.545037E-2,6.008434E-1,1.3855219E-1,0E0,0E0,0E0,0E0,0E0,0E0,0E0,0E0,0E0,0E0,0E0,0E0],"parents":[2147483647,0,0,1,1,2,2,3,3,4,4,5,5,6,6,11,11,12,12,13,13,14,14,15,15,16,16,17,17,18,18],"right_children":[2,4,6,8,10,12,14,-1,-1,-1,-1,16,18,20,22,24,26,28,30,-1,-1,-1,-1,-1,-1,-1,-1,-1,-1,-1,-1],"split_conditions":[2.712E1,2.432E1,3.198E1,2.36E1,2.578E1,2.98E1,3.4E1,-5.1483493E-2,-3.5380494E-2,-2.7920632E-2,-1.8567054E-2,2.922E1,3.05E1,4.367434E4,3.1929022E5,2.813E1,2.958E1,2.935E1,1.0254463E5,1.5121507E-2,3.5271373E-2,4.3856557E-2,6.17327E-2,9.639578E-3,-3.0428302E-4,1.4806676E-2,6.5629915E-3,2.5797019E-2,8.861273E-3,7.0788227E-3,1.7905287E-2],"split_indices":[1,2,1,1,1,1,2,0,0,0,0,2,1,3,3,0,1,0,3,0,0,0,0,0,0,0,0,0,0,0,0],"split_type":[0,0,0,0,0,0,0,0,0,0,0,0,0,0,0,0,0,0,0,0,0,0,0,0,0,0,0,0,0,0,0],"sum_hessian":[6.44E2,2.18E2,4.26E2,1.04E2,1.14E2,2.96E2,1.3E2,1.3E1,9.1E1,9.2E1,2.2E1,1.5E2,1.46E2,9.3E1,3.7E1,1.27E2,2.3E1,8.6E1,6E1,3E0,9E1,2.2E1,1.5E1,9E0,1.18E2,3E0,2E1,5E0,8.1E1,5E0,5.5E1],"tree_param":{"num_deleted":"0","num_feature":"104","num_nodes":"31","size_leaf_vector":"1"}},{"base_weights":[8.169177E-3,-5.976346E-1,3.1392282E-1,-7.54281E-1,-5.0703496E-1,1.385387E-1,7.391368E-1,-4.56723E-2,-3.3626016E-2,-2.7362535E-2,-3.6792654E-1,2.0443609E-2,2.2048928E-1,6.762605E-1,5.238546E-2,-9.122062E-3,-1.8999577E-2,3.6551602E-2,-1.8511849E-2,1.62667E-1,3.277797E-1,1.4554453E-2,3.4236763E-2,-9.820027E-4,5.2797003E-3,7.176935E-3,1.52326E-2,1.7370807E-2,1.9184303E-3],"categories":[],"categories_nodes":[],"categories_segments":[],"categories_sizes":[],"default_left":[0,0,0,0,0,0,0,0,0,0,0,0,0,0,0,0,0,0,0,0,0,0,0,0,0,0,0,0,0],"id":38,"left_children":[1,3,5,7,9,11,13,-1,-1,-1,15,17,19,21,-1,-1,-1,23,-1,25,27,-1,-1,-1,-1,-1,-1,-1,-1],"loss_changes":[1.1762135E2,2.64048E0,3.1368587E1,3.7471008E-1,5.706711E-1,2.8988805E0,1.6779022E0,0E0,0E0,0E0,6.761551E-3,7.9387474E-1,1.0447493E0,1.4342499E-1,0E0,0E0,0E0,4.676267E-1,0E0,2.7403474E-1,3.3333302E-1,0E0,0E0,0E0,0E0,0E0,0E0,0E0,0E0],"parents":[2147483647,0,0,1,1,2,2,3,3,4,4,5,5,6,6,10,10,11,11,12,12,13,13,17,17,19,19,20,20],"right_children":[2,4,6,8,10,12,14,-1,-1,-1,16,18,20,22,-1,-1,-1,24,-1,26,28,-1,-1,-1,-1,-1,-1,-1,-1],"split_conditions":[2.676E1,2.409E1,3.174E1,2.351E1,2.529E1,2.906E1,3.428E1,-4.56723E-2,-3.3626016E-2,-2.7362535E-2,2.523E1,2.935E1,3.01E1,4.367434E4,5.238546E-2,-9.122062E-3,-1.8999577E-2,1.284551E5,-1.8511849E-2,4.2388847E5,3.184E1,1.4554453E-2,3.4236763E-2,-9.820027E-4,5.2797003E-3,7.176935E-3,1.52326E-2,1.7370807E-2,1.9184303E-3],"split_indices":[2,2,2,2,0,2,2,0,0,0,2,0,2,3,0,0,0,3,0,3,0,0,0,0,0,0,0,0,0],"split_type":[0,0,0,0,0,0,0,0,0,0,0,0,0,0,0,0,0,0,0,0,0,0,0,0,0,0,0,0,0],"sum_hessian":[6.33E2,2.12E2,4.21E2,7.5E1,1.37E2,2.99E2,1.22E2,2.2E1,5.3E1,1.04E2,3.3E1,1.23E2,1.76E2,1.04E2,1.8E1,3E0,3E1,1.19E2,4E0,1.16E2,6E1,3E0,1.01E2,6.6E1,5.3E1,1.04E2,1.2E1,5.6E1,4E0],"tree_param":{"num_deleted":"0","num_feature":"104","num_nodes":"29","size_leaf_vector":"1"}},{"base_weights":[-2.3296406E-3,-5.660685E-1,2.9972878E-1,-6.689269E-1,-4.5801678E-1,1.1216971E-1,6.867852E-1,-4.3049794E-2,-3.094062E-2,-2.5672466E-2,-1.8983083E-2,2.6853088E-2,2.247336E-1,6.212361E-1,5.4683138E-2,-2.3731079E-2,7.223814E-2,1.8802394E-1,1.7688634E-2,4.953865E-1,6.9402266E-1,-5.0501217E-4,-1.0627137E-2,8.242552E-3,2.2027662E-3,1.8960714E-2,7.905831E-3,2.5904689E-2,6.371832E-3,5.1254656E-2,3.3217084E-2],"categories":[],"categories_nodes":[],"categories_segments":[],"categories_sizes":[],"default_left":[0,0,0,0,0,0,0,0,0,0,0,0,0,0,0,0,0,0,0,0,0,0,0,0,0,0,0,0,0,0,0],"id":39,"left_children":[1,3,5,7,9,11,13,-1,-1,-1,-1,15,17,19,-1,21,23,25,-1,27,29,-1,-1,-1,-1,-1,-1,-1,-1,-1,-1],"loss_changes":[1.05914825E2,2.1053696E0,2.9324322E1,5.163765E-1,2.784958E-1,2.6253438E0,2.8410873E0,0E0,0E0,0E0,0E0,3.6214945E-1,4.9244547E-1,7.1876526E-1,0E0,1.908778E-1,2.0937502E-1,4.775312E-1,0E0,3.183136E-1,1.6670227E-2,0E0,0E0,0E0,0E0,0E0,0E0,0E0,0E0,0E0,0E0],"parents":[2147483647,0,0,1,1,2,2,3,3,4,4,5,5,6,6,11,11,12,12,13,13,15,15,16,16,17,17,19,19,20,20],"right_children":[2,4,6,8,10,12,14,-1,-1,-1,-1,16,18,20,-1,22,24,26,-1,28,30,-1,-1,-1,-1,-1,-1,-1,-1,-1,-1],"split_conditions":[2.789E1,2.446E1,3.184E1,2.373E1,2.528E1,2.994E1,3.491E1,-4.3049794E-2,-3.094062E-2,-2.5672466E-2,-1.8983083E-2,2.9E1,3.093E1,3.331E1,5.4683138E-2,2.898E1,2.897E1,2.978E1,1.7688634E-2,3.313E1,3.307E1,-5.0501217E-4,-1.0627137E-2,8.242552E-3,2.2027662E-3,1.8960714E-2,7.905831E-3,2.5904689E-2,6.371832E-3,5.1254656E-2,3.3217084E-2],"split_indices":[1,0,1,1,1,1,1,0,0,0,0,1,1,1,0,1,0,0,0,0,0,0,0,0,0,0,0,0,0,0,0],"split_type":[0,0,0,0,0,0,0,0,0,0,0,0,0,0,0,0,0,0,0,0,0,0,0,0,0,0,0,0,0,0,0],"sum_hessian":[6.2E2,2.16E2,4.04E2,1.08E2,1.08E2,2.73E2,1.31E2,1.9E1,8.9E1,6E1,4.8E1,1.56E2,1.17E2,1.15E2,1.6E1,7.4E1,8.2E1,9.3E1,2.4E1,4.5E1,7E1,7E1,4E0,1.8E1,6.4E1,1.1E1,8.2E1,4.2E1,3E0,3E0,6.7E1],"tree_param":{"num_deleted":"0","num_feature":"104","num_nodes":"31","size_leaf_vector":"1"}},{"base_weights":[9.882223E-3,-5.251582E-1,3.18935E-1,-5.764155E-1,-2.1139723E-1,1.3084236E-1,6.7951846E-1,-4.2772885E-2,-5.379848E-1,-1.43515365E-2,-1.3259898E-1,3.626059E-2,2.1717596E-1,6.2741834E-1,5.0033964E-2,-2.9275909E-2,-2.3118181E-2,3.453391E-3,-1.9565803E-1,2.2186374E-2,1.8778056E-1,2.3982001E-2,2.0409594E-1,4.8883313E-1,3.4621984E-2,7.2077513E-3,-6.9055795E-3,-1.4469052E-2,-3.6991935E-3,-1.4018343E-3,2.6681838E-3,1.1830437E-2,2.1589517E-3,1.2620396E-3,1.1461171E-2,2.6020605E-2,2.5417567E-3],"categories":[],"categories_nodes":[],"categories_segments":[],"categories_sizes":[],"default_left":[0,0,0,0,0,0,0,0,0,0,0,0,0,0,0,0,0,0,0,0,0,0,0,0,0,0,0,0,0,0,0,0,0,0,0,0,0],"id":40,"left_children":[1,3,5,7,9,11,13,-1,15,-1,17,19,21,23,-1,-1,-1,25,27,29,31,-1,33,35,-1,-1,-1,-1,-1,-1,-1,-1,-1,-1,-1,-1,-1],"loss_changes":[1.07483376E2,3.7057877E0,2.7854206E1,1.7274323E0,1.7053258E-1,2.2131634E0,1.7314377E0,0E0,3.8347626E-1,0E0,1.63683E-1,2.7519456E-1,3.895979E-1,7.7887726E-1,0E0,0E0,0E0,1.5933846E-1,1.2683818E-1,1.9096029E-1,6.7450374E-2,0E0,6.099167E-1,5.683012E-1,0E0,0E0,0E0,0E0,0E0,0E0,0E0,0E0,0E0,0E0,0E0,0E0,0E0],"parents":[2147483647,0,0,1,1,2,2,3,3,4,4,5,5,6,6,8,8,10,10,11,11,12,12,13,13,17,17,18,18,19,19,20,20,22,22,23,23],"right_children":[2,4,6,8,10,12,14,-1,16,-1,18,20,22,24,-1,-1,-1,26,28,30,32,-1,34,36,-1,-1,-1,-1,-1,-1,-1,-1,-1,-1,-1,-1,-1],"split_conditions":[2.846E1,2.58E1,3.136E1,2.351E1,2.697E1,2.98E1,3.491E1,-4.2772885E-2,2.441E1,-1.43515365E-2,2.734E1,2.938E1,2.935E1,3.319E1,5.0033964E-2,-2.9275909E-2,-2.3118181E-2,3.4420697E5,2.801E1,1.1309803E5,2.976E1,2.3982001E-2,2.956E1,3.305E1,3.4621984E-2,7.2077513E-3,-6.9055795E-3,-1.4469052E-2,-3.6991935E-3,-1.4018343E-3,2.6681838E-3,1.1830437E-2,2.1589517E-3,1.2620396E-3,1.1461171E-2,2.6020605E-2,2.5417567E-3],"split_indices":[1,2,0,2,1,1,1,0,2,0,2,2,0,1,0,0,0,3,2,3,1,0,2,0,0,0,0,0,0,0,0,0,0,0,0,0,0],"split_type":[0,0,0,0,0,0,0,0,0,0,0,0,0,0,0,0,0,0,0,0,0,0,0,0,0,0,0,0,0,0,0,0,0,0,0,0,0],"sum_hessian":[6.48E2,2.37E2,4.11E2,2.03E2,3.4E1,2.71E2,1.4E2,2.2E1,1.81E2,1.6E1,1.8E1,1.3E2,1.41E2,1.23E2,1.7E1,1.07E2,7.4E1,6E0,1.2E1,1.2E2,1E1,5E0,1.36E2,4.2E1,8.1E1,3E0,3E0,6E0,6E0,4.6E1,7.4E1,7E0,3E0,1.7E1,1.19E2,3.9E1,3E0],"tree_param":{"num_deleted":"0","num_feature":"104","num_nodes":"37","size_leaf_vector":"1"}},{"base_weights":[-1.4076627E-2,-5.0606906E-1,2.875449E-1,-5.6384295E-1,-2.4832115E-1,1.4753027E-1,6.595123E-1,-7.0220405E-1,-2.5440866E-2,-3.0682424E-1,-8.0711655E-2,9.887425E-2,3.456646E-1,5.6076866E-1,4.7653046E-2,-4.178532E-2,-3.0982781E-2,-2.5814608E-1,-2.4142584E-2,3.350417E-3,-1.814127E-1,1.6575113E-2,1.4530152E-1,3.235674E-3,3.7246543E-1,4.4156122E-1,6.3760895E-1,-1.4959507E-2,3.1457902E-3,-2.210331E-3,-1.2744752E-2,-1.4124092E-3,3.9427076E-3,2.200467E-2,6.5814853E-3,1.9488841E-2,3.7970066E-3,2.439539E-2,3.2950211E-3,2.7884E-2,3.930893E-2],"categories":[],"categories_nodes":[],"categories_segments":[],"categories_sizes":[],"default_left":[0,0,0,0,0,0,0,0,0,0,0,0,0,0,0,0,0,0,0,0,0,0,0,0,0,0,0,0,0,0,0,0,0,0,0,0,0,0,0,0,0],"id":41,"left_children":[1,3,5,7,9,11,13,15,-1,17,19,21,23,25,-1,-1,-1,27,-1,-1,29,31,33,-1,35,37,39,-1,-1,-1,-1,-1,-1,-1,-1,-1,-1,-1,-1,-1,-1],"loss_changes":[9.215074E1,3.3742867E0,1.995384E1,1.1044807E0,4.1649103E-1,2.6747832E0,2.5090866E0,5.5210114E-2,0E0,1.5812063E-1,2.055384E-1,8.649416E-1,3.9003134E-1,4.6041107E-1,0E0,0E0,0E0,3.8779902E-1,0E0,0E0,6.938973E-2,2.3392627E-1,5.264697E-1,0E0,2.2706318E-1,5.772171E-1,1.1968994E-1,0E0,0E0,0E0,0E0,0E0,0E0,0E0,0E0,0E0,0E0,0E0,0E0,0E0,0E0],"parents":[2147483647,0,0,1,1,2,2,3,3,4,4,5,5,6,6,7,7,9,9,10,10,11,11,12,12,13,13,17,17,20,20,21,21,22,22,24,24,25,25,26,26],"right_children":[2,4,6,8,10,12,14,16,-1,18,20,22,24,26,-1,-1,-1,28,-1,-1,30,32,34,-1,36,38,40,-1,-1,-1,-1,-1,-1,-1,-1,-1,-1,-1,-1,-1,-1],"split_conditions":[2.846E1,2.563E1,3.258E1,2.379E1,2.785E1,3.076E1,3.1929022E5,2.363E1,-2.5440866E-2,3.4420697E5,2.827E1,2.921E1,1.396278E5,3.315E1,4.7653046E-2,-4.178532E-2,-3.0982781E-2,2.7865262E5,-2.4142584E-2,3.350417E-3,3.71084E4,1.2515313E5,2.897E1,3.235674E-3,3.269E1,3.361E1,2.2007862E5,-1.4959507E-2,3.1457902E-3,-2.210331E-3,-1.2744752E-2,-1.4124092E-3,3.9427076E-3,2.200467E-2,6.5814853E-3,1.9488841E-2,3.7970066E-3,2.439539E-2,3.2950211E-3,2.7884E-2,3.930893E-2],"split_indices":[1,1,2,2,2,1,3,1,0,3,0,1,3,2,0,0,0,3,0,0,3,3,0,0,0,1,3,0,0,0,0,0,0,0,0,0,0,0,0,0,0],"split_type":[0,0,0,0,0,0,0,0,0,0,0,0,0,0,0,0,0,0,0,0,0,0,0,0,0,0,0,0,0,0,0,0,0,0,0,0,0,0,0,0,0],"sum_hessian":[6.19E2,2.35E2,3.84E2,1.91E2,4.4E1,2.8E2,1.04E2,5.1E1,1.4E2,3.2E1,1.2E1,2.26E2,5.4E1,8E1,2.4E1,1.6E1,3.5E1,2.7E1,5E0,5E0,7E0,8.2E1,1.44E2,5E0,4.9E1,3.4E1,4.6E1,2.4E1,3E0,3E0,4E0,4.8E1,3.4E1,5E0,1.39E2,4.6E1,3E0,3E1,4E0,3.3E1,1.3E1],"tree_param":{"num_deleted":"0","num_feature":"104","num_nodes":"41","size_leaf_vector":"1"}},{"base_weights":[-5.921266E-3,-4.8891938E-1,2.5850815E-1,-5.677573E-1,-3.750595E-1,1.17396094E-1,6.163587E-1,-3.3393588E-2,-2.5820587E-2,-1.9879451E-2,-2.1631077E-1,4.6219383E-3,1.9213052E-1,5.5660117E-1,8.921418E-1,-8.6722374E-2,-1.6675513E-2,1.7651854E-1,-9.357263E-3,1.565896E-1,2.851249E-1,3.8884467E-1,5.799315E-1,2.5130996E-2,4.812532E-2,-1.017437E-2,4.045725E-3,1.19413E-2,3.9453697E-3,-1.8147297E-2,3.6265116E-4,2.0627137E-2,6.7163156E-3,1.51867E-2,2.2456647E-4,3.258322E-2,9.613419E-3,1.3954696E-2,2.9574234E-2],"categories":[],"categories_nodes":[],"categories_segments":[],"categories_sizes":[],"default_left":[0,0,0,0,0,0,0,0,0,0,0,0,0,0,0,0,0,0,0,0,0,0,0,0,0,0,0,0,0,0,0,0,0,0,0,0,0,0,0],"id":42,"left_children":[1,3,5,7,9,11,13,-1,-1,-1,15,17,19,21,23,25,-1,27,29,31,33,35,37,-1,-1,-1,-1,-1,-1,-1,-1,-1,-1,-1,-1,-1,-1,-1,-1],"loss_changes":[8.12279E1,1.8067589E0,2.0681921E1,3.2849884E-1,2.5376797E-1,2.493833E0,1.4151306E0,0E0,0E0,0E0,1.8370491E-1,2.8760606E-1,5.4366064E-1,1.5805054E-1,3.698635E-2,1.7305808E-1,0E0,3.589198E-2,6.545587E-1,6.910696E-1,2.4930811E-1,6.4966774E-1,1.2687302E-1,0E0,0E0,0E0,0E0,0E0,0E0,0E0,0E0,0E0,0E0,0E0,0E0,0E0,0E0,0E0,0E0],"parents":[2147483647,0,0,1,1,2,2,3,3,4,4,5,5,6,6,10,10,11,11,12,12,13,13,14,14,15,15,17,17,18,18,19,19,20,20,21,21,22,22],"right_children":[2,4,6,8,10,12,14,-1,-1,-1,16,18,20,22,24,26,-1,28,30,32,34,36,38,-1,-1,-1,-1,-1,-1,-1,-1,-1,-1,-1,-1,-1,-1,-1,-1],"split_conditions":[2.789E1,2.469E1,3.208E1,2.394E1,2.592E1,2.948E1,3.485E1,-3.3393588E-2,-2.5820587E-2,-1.9879451E-2,1.9274755E5,2.813E1,3.043E1,3.258E1,2.8717788E5,1.7042242E5,-1.6675513E-2,3.4420697E5,2.801E1,2.938E1,3.154E1,3.232E1,4.961852E4,2.5130996E-2,4.812532E-2,-1.017437E-2,4.045725E-3,1.19413E-2,3.9453697E-3,-1.8147297E-2,3.6265116E-4,2.0627137E-2,6.7163156E-3,1.51867E-2,2.2456647E-4,3.258322E-2,9.613419E-3,1.3954696E-2,2.9574234E-2],"split_indices":[1,1,1,1,2,1,1,0,0,0,3,0,2,2,3,3,0,3,2,0,2,0,3,0,0,0,0,0,0,0,0,0,0,0,0,0,0,0,0],"split_type":[0,0,0,0,0,0,0,0,0,0,0,0,0,0,0,0,0,0,0,0,0,0,0,0,0,0,0,0,0,0,0,0,0,0,0,0,0,0,0],"sum_hessian":[6.34E2,2.24E2,4.1E2,1.3E2,9.4E1,2.95E2,1.15E2,4E1,9E1,8.1E1,1.3E1,1.18E2,1.77E2,9.7E1,1.8E1,7E0,6E0,8E0,1.1E2,1.3E2,4.7E1,1.4E1,8.3E1,4E0,1.4E1,4E0,3E0,4E0,4E0,4E0,1.06E2,9E0,1.21E2,4.4E1,3E0,5E0,9E0,4E0,7.9E1],"tree_param":{"num_deleted":"0","num_feature":"104","num_nodes":"39","size_leaf_vector":"1"}},{"base_weights":[-4.1575865E-3,-4.7120982E-1,2.496852E-1,-5.267821E-1,-3.1994808E-1,1.1108047E-1,6.0057855E-1,-3.7997697E-2,-5.015075E-1,-3.5876617E-1,-1.7181244E-1,1.5240458E-2,2.05541E-1,5.170973E-1,8.061663E-1,-2.7331753E-2,-2.287092E-2,-7.002902E-3,-3.69985E-1,-7.6197386E-2,-2.4595094E-1,-5.728029E-2,3.9709635E-2,1.5733962E-1,2.933563E-1,1.0670795E-2,5.2930844E-1,6.8011147E-1,4.9249407E-2,-2.0195028E-2,-1.4418513E-2,-9.811573E-3,4.644728E-3,-1.45366285E-2,-6.424308E-3,-4.113478E-3,6.205139E-3,3.1705394E-3,-3.006597E-3,1.3071223E-2,6.706269E-3,1.6458718E-2,8.0363406E-4,2.760755E-2,1.7502373E-2,3.6299445E-2,1.4608288E-2],"categories":[],"categories_nodes":[],"categories_segments":[],"categories_sizes":[],"default_left":[0,0,0,0,0,0,0,0,0,0,0,0,0,0,0,0,0,0,0,0,0,0,0,0,0,0,0,0,0,0,0,0,0,0,0,0,0,0,0,0,0,0,0,0,0,0,0],"id":43,"left_children":[1,3,5,7,9,11,13,-1,15,17,19,21,23,25,27,-1,-1,-1,29,31,33,35,37,39,41,-1,43,45,-1,-1,-1,-1,-1,-1,-1,-1,-1,-1,-1,-1,-1,-1,-1,-1,-1,-1,-1],"loss_changes":[7.575756E1,1.7227974E0,2.0068375E1,5.7948685E-1,3.00632E-1,2.6946905E0,1.5911713E0,0E0,4.8404694E-2,6.840944E-2,8.7590516E-2,2.666785E-1,5.887666E-1,2.0594978E-1,5.142212E-2,0E0,0E0,0E0,1.0854721E-2,1.8060319E-1,4.727006E-3,1.8244982E-1,2.6884538E-1,2.041452E-1,5.111604E-1,0E0,1.424923E-1,1.7944527E-1,0E0,0E0,0E0,0E0,0E0,0E0,0E0,0E0,0E0,0E0,0E0,0E0,0E0,0E0,0E0,0E0,0E0,0E0,0E0],"parents":[2147483647,0,0,1,1,2,2,3,3,4,4,5,5,6,6,8,8,9,9,10,10,11,11,12,12,13,13,14,14,18,18,19,19,20,20,21,21,22,22,23,23,24,24,26,26,27,27],"right_children":[2,4,6,8,10,12,14,-1,16,18,20,22,24,26,28,-1,-1,-1,30,32,34,36,38,40,42,-1,44,46,-1,-1,-1,-1,-1,-1,-1,-1,-1,-1,-1,-1,-1,-1,-1,-1,-1,-1,-1],"split_conditions":[2.789E1,2.487E1,3.206E1,2.36E1,2.592E1,2.944E1,3.4E1,-3.7997697E-2,2.41E1,2.496E1,1.9274755E5,2.879E1,3.079E1,3.281E1,3.1929022E5,-2.7331753E-2,-2.287092E-2,-7.002902E-3,2.578E1,1.4358512E5,2.712E1,2.7865262E5,2.949E1,2.972E1,3.183E1,1.0670795E-2,3.428E1,2.7261625E5,4.9249407E-2,-2.0195028E-2,-1.4418513E-2,-9.811573E-3,4.644728E-3,-1.45366285E-2,-6.424308E-3,-4.113478E-3,6.205139E-3,3.1705394E-3,-3.006597E-3,1.3071223E-2,6.706269E-3,1.6458718E-2,8.0363406E-4,2.760755E-2,1.7502373E-2,3.6299445E-2,1.4608288E-2],"split_indices":[1,2,2,1,2,2,2,0,2,0,3,1,1,1,3,0,0,0,1,3,1,3,0,0,0,0,1,3,0,0,0,0,0,0,0,0,0,0,0,0,0,0,0,0,0,0,0],"split_type":[0,0,0,0,0,0,0,0,0,0,0,0,0,0,0,0,0,0,0,0,0,0,0,0,0,0,0,0,0,0,0,0,0,0,0,0,0,0,0,0,0,0,0,0,0,0,0],"sum_hessian":[6.37E2,2.24E2,4.13E2,1.62E2,6.2E1,2.97E2,1.16E2,1.3E1,1.49E2,4.8E1,1.4E1,1.48E2,1.49E2,8.5E1,3.1E1,6.8E1,8.1E1,3E0,4.5E1,7E0,7E0,3.7E1,1.11E2,9.8E1,5.1E1,4E0,8.1E1,2.1E1,1E1,2.9E1,1.6E1,4E0,3E0,4E0,3E0,3.3E1,4E0,9E1,2.1E1,1.6E1,8.2E1,4.5E1,6E0,7E1,1.1E1,1.8E1,3E0],"tree_param":{"num_deleted":"0","num_feature":"104","num_nodes":"47","size_leaf_vector":"1"}},{"base_weights":[-9.115365E-4,-4.2045286E-1,2.6143965E-1,-4.9594307E-1,-2.4574874E-1,1.0708267E-1,5.5542153E-1,-3.3346336E-2,-4.61387E-1,-3.0273184E-1,-1.03755124E-1,3.268515E-2,1.8299216E-1,4.9250317E-1,7.11271E-1,-2.5422199E-2,-2.1356136E-2,-1.4872225E-1,-3.1922835E-1,3.8262606E-2,-1.6827929E-1,2.5248716E-2,1.303103E-2,1.7411165E-1,1.65792E-2,5.0431633E-1,8.595734E-3,5.595328E-1,4.023424E-2,-9.225345E-3,-3.7878514E-3,-1.8009333E-2,-1.2815637E-2,7.293491E-3,-5.2906037E-3,-1.5161157E-2,-5.6906776E-3,1.7921942E-3,-6.841743E-3,1.37950005E-2,7.910752E-3,2.5663732E-2,8.721853E-3,3.0136913E-2,1.34215355E-2],"categories":[],"categories_nodes":[],"categories_segments":[],"categories_sizes":[],"default_left":[0,0,0,0,0,0,0,0,0,0,0,0,0,0,0,0,0,0,0,0,0,0,0,0,0,0,0,0,0,0,0,0,0,0,0,0,0,0,0,0,0,0,0,0,0],"id":44,"left_children":[1,3,5,7,9,11,13,-1,15,17,19,21,23,25,27,-1,-1,29,31,33,35,37,-1,39,-1,41,-1,43,-1,-1,-1,-1,-1,-1,-1,-1,-1,-1,-1,-1,-1,-1,-1,-1,-1],"loss_changes":[6.923211E1,3.0697289E0,1.7501867E1,6.8492126E-1,5.754328E-1,1.4341259E0,9.5386887E-1,0E0,1.3399124E-2,8.717632E-2,2.1720104E-1,2.1377313E-1,1.0853386E-1,2.844448E-1,6.00338E-2,0E0,0E0,4.2995363E-3,2.8794765E-2,1.3946259E-1,8.308616E-2,2.2300209E-1,0E0,1.5213704E-1,0E0,1.8824768E-1,0E0,5.201912E-2,0E0,0E0,0E0,0E0,0E0,0E0,0E0,0E0,0E0,0E0,0E0,0E0,0E0,0E0,0E0,0E0,0E0],"parents":[2147483647,0,0,1,1,2,2,3,3,4,4,5,5,6,6,8,8,9,9,10,10,11,11,12,12,13,13,14,14,17,17,18,18,19,19,20,20,21,21,23,23,25,25,27,27],"right_children":[2,4,6,8,10,12,14,-1,16,18,20,22,24,26,28,-1,-1,30,32,34,36,38,-1,40,-1,42,-1,44,-1,-1,-1,-1,-1,-1,-1,-1,-1,-1,-1,-1,-1,-1,-1,-1,-1],"split_conditions":[2.829E1,2.487E1,3.136E1,2.351E1,2.676E1,2.944E1,3.393E1,-3.3346336E-2,2.409E1,2.514E1,2.811E1,6.521511E5,5.6147256E5,3.42E1,2.4238594E5,-2.5422199E-2,-2.1356136E-2,1.1309803E5,2.577E1,3.4420697E5,2.801E1,2.941E1,1.303103E-2,2.972E1,1.65792E-2,5.103184E5,8.595734E-3,3.459E1,4.023424E-2,-9.225345E-3,-3.7878514E-3,-1.8009333E-2,-1.2815637E-2,7.293491E-3,-5.2906037E-3,-1.5161157E-2,-5.6906776E-3,1.7921942E-3,-6.841743E-3,1.37950005E-2,7.910752E-3,2.5663732E-2,8.721853E-3,3.0136913E-2,1.34215355E-2],"split_indices":[2,2,0,2,2,2,2,0,2,0,0,3,3,0,3,0,0,3,0,3,2,2,0,0,0,3,0,0,0,0,0,0,0,0,0,0,0,0,0,0,0,0,0,0,0],"split_type":[0,0,0,0,0,0,0,0,0,0,0,0,0,0,0,0,0,0,0,0,0,0,0,0,0,0,0,0,0,0,0,0,0,0,0,0,0,0,0,0,0,0,0,0,0],"sum_hessian":[6.27E2,2.41E2,3.86E2,1.67E2,7.4E1,2.54E2,1.32E2,2.5E1,1.42E2,5.2E1,2.2E1,1.29E2,1.25E2,9.7E1,3.5E1,5.4E1,8.8E1,6E0,4.6E1,7E0,1.5E1,1.26E2,3E0,1.2E2,5E0,9.3E1,4E0,1.6E1,1.9E1,3E0,3E0,2.5E1,2.1E1,4E0,3E0,3E0,1.2E1,1.19E2,7E0,1.4E1,1.06E2,9E1,3E0,1.3E1,3E0],"tree_param":{"num_deleted":"0","num_feature":"104","num_nodes":"45","size_leaf_vector":"1"}},{"base_weights":[-9.814305E-4,-4.302311E-1,2.1972E-1,-5.5047494E-1,-3.6331666E-1,9.5804624E-2,5.256761E-1,-3.496834E-2,-4.991144E-1,-1.985791E-2,-2.593557E-1,-2.4379524E-3,1.5181044E-1,4.707874E-1,3.8362306E-2,-1.3675729E-2,-2.5517223E-2,-2.8248495E-1,-7.672045E-3,-1.4717524E-2,1.5750122E-1,1.0249596E-1,1.8656023E-1,4.6774386E-3,4.8127395E-1,-6.9749258E-3,-1.4955877E-2,-2.0241738E-5,-1.4901391E-2,1.4932767E-2,-2.9158355E-3,1.7668193E-2,3.902054E-3,-1.122129E-3,1.0035374E-2,2.4589248E-2,9.265499E-3],"categories":[],"categories_nodes":[],"categories_segments":[],"categories_sizes":[],"default_left":[0,0,0,0,0,0,0,0,0,0,0,0,0,0,0,0,0,0,0,0,0,0,0,0,0,0,0,0,0,0,0,0,0,0,0,0,0],"id":45,"left_children":[1,3,5,7,9,11,13,-1,15,-1,17,19,21,23,-1,-1,-1,25,-1,27,29,31,33,-1,35,-1,-1,-1,-1,-1,-1,-1,-1,-1,-1,-1,-1],"loss_changes":[6.082032E1,1.554039E0,1.6024607E1,2.3212051E-1,4.000969E-1,1.6675231E0,1.2564468E0,0E0,1.2422562E-2,0E0,4.9744844E-2,2.2032031E-1,3.1161642E-1,3.5848427E-1,0E0,0E0,0E0,2.9620409E-2,0E0,4.2159227E-1,2.611253E-1,4.7548866E-1,3.3566785E-1,0E0,2.1684265E-1,0E0,0E0,0E0,0E0,0E0,0E0,0E0,0E0,0E0,0E0,0E0,0E0],"parents":[2147483647,0,0,1,1,2,2,3,3,4,4,5,5,6,6,8,8,10,10,11,11,12,12,13,13,17,17,19,19,20,20,21,21,22,22,24,24],"right_children":[2,4,6,8,10,12,14,-1,16,-1,18,20,22,24,-1,-1,-1,26,-1,28,30,32,34,-1,36,-1,-1,-1,-1,-1,-1,-1,-1,-1,-1,-1,-1],"split_conditions":[2.697E1,2.399E1,3.198E1,2.36E1,2.542E1,2.921E1,3.428E1,-3.496834E-2,2.338E1,-1.985791E-2,2.592E1,4.443329E5,3.006E1,4.961852E4,3.8362306E-2,-1.3675729E-2,-2.5517223E-2,2.526E1,-7.672045E-3,3.4420697E5,6.178645E5,2.897E1,2.956E1,4.6774386E-3,5.103184E5,-6.9749258E-3,-1.4955877E-2,-2.0241738E-5,-1.4901391E-2,1.4932767E-2,-2.9158355E-3,1.7668193E-2,3.902054E-3,-1.122129E-3,1.0035374E-2,2.4589248E-2,9.265499E-3],"split_indices":[1,2,1,1,1,1,2,0,2,0,2,3,1,3,0,0,0,0,0,3,3,0,2,0,3,0,0,0,0,0,0,0,0,0,0,0,0],"split_type":[0,0,0,0,0,0,0,0,0,0,0,0,0,0,0,0,0,0,0,0,0,0,0,0,0,0,0,0,0,0,0,0,0,0,0,0,0],"sum_hessian":[6.4E2,2.17E2,4.23E2,7.5E1,1.42E2,3.02E2,1.21E2,1.6E1,5.9E1,1.05E2,3.7E1,1.1E2,1.92E2,1.01E2,2E1,4E0,5.5E1,2.9E1,8E0,1.03E2,7E0,8.1E1,1.11E2,3E0,9.8E1,4E0,2.5E1,9.9E1,4E0,4E0,3E0,6E0,7.5E1,7E0,1.04E2,9.4E1,4E0],"tree_param":{"num_deleted":"0","num_feature":"104","num_nodes":"37","size_leaf_vector":"1"}},{"base_weights":[3.2551007E-3,-3.9430332E-1,2.1914627E-1,-4.368915E-1,-2.0724587E-1,1.0377291E-1,5.334362E-1,-3.2982625E-2,-4.1466618E-1,-2.3499195E-1,-8.941002E-2,2.5773833E-2,1.8524012E-1,4.4352156E-1,7.644188E-1,-4.5966256E-1,-1.9008104E-2,-5.2517126E-3,-2.4837248E-1,2.857944E-2,-1.36769535E-2,3.3135515E-2,-1.0306034E-2,1.4889836E-1,2.8843427E-1,6.3301087E-3,4.538235E-1,3.2697242E-1,4.300783E-2,-9.629011E-3,-2.344424E-2,-5.038853E-3,-1.3325299E-2,7.55682E-3,-5.056119E-3,6.278114E-4,6.070318E-3,6.930228E-3,1.717619E-2,1.6193023E-2,4.264055E-3,8.283568E-3,2.3144932E-2,2.9473616E-2,-8.635283E-4],"categories":[],"categories_nodes":[],"categories_segments":[],"categories_sizes":[],"default_left":[0,0,0,0,0,0,0,0,0,0,0,0,0,0,0,0,0,0,0,0,0,0,0,0,0,0,0,0,0,0,0,0,0,0,0,0,0,0,0,0,0,0,0,0,0],"id":46,"left_children":[1,3,5,7,9,11,13,-1,15,17,19,21,23,25,27,29,-1,-1,31,33,-1,35,-1,37,39,-1,41,43,-1,-1,-1,-1,-1,-1,-1,-1,-1,-1,-1,-1,-1,-1,-1,-1,-1],"loss_changes":[5.5360508E1,1.7178421E0,1.5101608E1,6.374359E-1,1.2284672E-1,1.9460163E0,1.9870567E0,0E0,8.919144E-2,3.4774065E-2,2.2507045E-1,2.7655697E-1,5.1959133E-1,2.135315E-1,9.751568E-1,7.96566E-2,0E0,0E0,5.6111455E-2,1.2655431E-1,0E0,2.7822444E-1,0E0,1.7877436E-1,2.4586463E-1,0E0,1.3251305E-1,6.4272666E-1,0E0,0E0,0E0,0E0,0E0,0E0,0E0,0E0,0E0,0E0,0E0,0E0,0E0,0E0,0E0,0E0,0E0],"parents":[2147483647,0,0,1,1,2,2,3,3,4,4,5,5,6,6,8,8,9,9,10,10,11,11,12,12,13,13,14,14,15,15,18,18,19,19,21,21,23,23,24,24,26,26,27,27],"right_children":[2,4,6,8,10,12,14,-1,16,18,20,22,24,26,28,30,-1,-1,32,34,-1,36,-1,38,40,-1,42,44,-1,-1,-1,-1,-1,-1,-1,-1,-1,-1,-1,-1,-1,-1,-1,-1,-1],"split_conditions":[2.759E1,2.542E1,3.261E1,2.36E1,2.697E1,2.944E1,3.1929022E5,-3.2982625E-2,2.418E1,7.279917E4,2.734E1,3.01E1,3.093E1,3.292E1,3.331E1,2.338E1,-1.9008104E-2,-5.2517126E-3,2.547E1,3.4420697E5,-1.36769535E-2,2.908E1,-1.0306034E-2,5.6147256E5,3.17E1,6.3301087E-3,4.578134E4,3.301E1,4.300783E-2,-9.629011E-3,-2.344424E-2,-5.038853E-3,-1.3325299E-2,7.55682E-3,-5.056119E-3,6.278114E-4,6.070318E-3,6.930228E-3,1.717619E-2,1.6193023E-2,4.264055E-3,8.283568E-3,2.3144932E-2,2.9473616E-2,-8.635283E-4],"split_indices":[2,1,1,1,1,2,3,0,2,3,2,1,1,1,1,2,0,0,1,3,0,2,0,3,2,0,3,1,0,0,0,0,0,0,0,0,0,0,0,0,0,0,0,0,0],"split_type":[0,0,0,0,0,0,0,0,0,0,0,0,0,0,0,0,0,0,0,0,0,0,0,0,0,0,0,0,0,0,0,0,0,0,0,0,0,0,0,0,0,0,0,0,0],"sum_hessian":[6.43E2,2.26E2,4.17E2,1.83E2,4.3E1,3.06E2,1.11E2,1.4E1,1.69E2,3.4E1,9E0,1.57E2,1.49E2,8.2E1,2.9E1,6.8E1,1.01E2,4E0,3E1,6E0,3E0,1.53E2,4E0,1.12E2,3.7E1,3E0,7.9E1,6E0,2.3E1,3E0,6.5E1,4E0,2.6E1,3E0,3E0,1.25E2,2.8E1,1.08E2,4E0,3.1E1,6E0,3E0,7.6E1,3E0,3E0],"tree_param":{"num_deleted":"0","num_feature":"104","num_nodes":"45","size_leaf_vector":"1"}},{"base_weights":[4.704265E-3,-3.459778E-1,2.1408069E-1,-3.8674936E-1,-1.651207E-1,1.048692E-1,4.6983072E-1,-3.415921E-2,-3.675518E-1,-2.2002198E-1,-9.826627E-2,3.7790116E-2,1.8267927E-1,4.2675418E-1,3.6561646E-2,-1.9932514E-2,-1.6307594E-2,-1.9238411E-1,-1.5851235E-2,1.0403014E-2,-1.5461826E-1,1.3286634E-3,8.308751E-2,1.6113101E-1,3.0462235E-1,4.025338E-1,5.6062424E-1,-1.0105454E-2,-4.9047233E-3,-4.1054617E-4,-1.2576945E-2,-1.6258219E-3,2.0459897E-3,1.6884109E-2,2.697149E-3,1.149657E-2,5.5467314E-3,9.534963E-3,1.8506961E-2,2.1586135E-2,1.1571551E-2,4.5702323E-2,1.6392536E-2],"categories":[],"categories_nodes":[],"categories_segments":[],"categories_sizes":[],"default_left":[0,0,0,0,0,0,0,0,0,0,0,0,0,0,0,0,0,0,0,0,0,0,0,0,0,0,0,0,0,0,0,0,0,0,0,0,0,0,0,0,0,0,0],"id":47,"left_children":[1,3,5,7,9,11,13,-1,15,17,19,21,23,25,-1,-1,-1,27,-1,-1,29,31,33,35,37,39,41,-1,-1,-1,-1,-1,-1,-1,-1,-1,-1,-1,-1,-1,-1,-1,-1],"loss_changes":[4.8314007E1,1.7501011E0,1.1458233E1,8.8706017E-1,1.5088761E-1,1.5067306E0,1.0729618E0,0E0,1.1459923E-1,6.0333014E-3,4.2919847E-1,2.5919223E-1,3.0302238E-1,1.24506E-1,0E0,0E0,0E0,3.4743547E-4,0E0,0E0,2.8173253E-1,1.1924756E-1,5.0118744E-1,3.7510228E-1,7.122874E-2,3.7454414E-1,8.5207224E-1,0E0,0E0,0E0,0E0,0E0,0E0,0E0,0E0,0E0,0E0,0E0,0E0,0E0,0E0,0E0,0E0],"parents":[2147483647,0,0,1,1,2,2,3,3,4,4,5,5,6,6,8,8,9,9,10,10,11,11,12,12,13,13,17,17,20,20,21,21,22,22,23,23,24,24,25,25,26,26],"right_children":[2,4,6,8,10,12,14,-1,16,18,20,22,24,26,-1,-1,-1,28,-1,-1,30,32,34,36,38,40,42,-1,-1,-1,-1,-1,-1,-1,-1,-1,-1,-1,-1,-1,-1,-1,-1],"split_conditions":[2.846E1,2.578E1,3.261E1,2.36E1,2.636E1,2.996E1,3.522E1,-3.415921E-2,2.446E1,3.3136806E5,2.692E1,2.921E1,4.443329E5,3.6856388E5,3.6561646E-2,-1.9932514E-2,-1.6307594E-2,2.1345616E5,-1.5851235E-2,1.0403014E-2,9.802263E4,1.2645609E5,2.897E1,1.506915E5,3.076E1,2.6597872E5,3.8581753E5,-1.0105454E-2,-4.9047233E-3,-4.1054617E-4,-1.2576945E-2,-1.6258219E-3,2.0459897E-3,1.6884109E-2,2.697149E-3,1.149657E-2,5.5467314E-3,9.534963E-3,1.8506961E-2,2.1586135E-2,1.1571551E-2,4.5702323E-2,1.6392536E-2],"split_indices":[1,1,1,1,0,1,1,0,0,3,0,1,3,3,0,0,0,3,0,0,3,3,0,3,1,3,3,0,0,0,0,0,0,0,0,0,0,0,0,0,0,0,0],"split_type":[0,0,0,0,0,0,0,0,0,0,0,0,0,0,0,0,0,0,0,0,0,0,0,0,0,0,0,0,0,0,0,0,0,0,0,0,0,0,0,0,0,0,0],"sum_hessian":[6.56E2,2.45E2,4.11E2,1.99E2,4.6E1,2.89E2,1.22E2,1E1,1.89E2,2.4E1,2.2E1,1.56E2,1.33E2,1.07E2,1.5E1,1.03E2,8.6E1,2.1E1,3E0,3E0,1.9E1,8.7E1,6.9E1,1.15E2,1.8E1,9.4E1,1.3E1,1.8E1,3E0,8E0,1.1E1,4.7E1,4E1,6E0,6.3E1,4.7E1,6.8E1,8E0,1E1,7.9E1,1.5E1,4E0,9E0],"tree_param":{"num_deleted":"0","num_feature":"104","num_nodes":"43","size_leaf_vector":"1"}},{"base_weights":[1.22146895E-2,-3.349577E-1,2.2439288E-1,-3.9644545E-1,-1.8896663E-1,1.00792445E-1,4.8012915E-1,-5.5819595E-1,-3.731669E-1,-2.3072825E-1,-6.860388E-2,4.4624865E-2,1.760977E-1,4.1300228E-1,6.876756E-1,-1.6864412E-2,-3.0467302E-2,-1.9806985E-2,-1.5827091E-2,-2.5640267E-1,-1.6723582E-1,2.229953E-3,-8.994876E-2,5.0030842E-2,-6.6483305E-3,1.5925068E-1,1.9391907E-2,3.3596963E-1,4.6053344E-1,1.1762047E-2,7.277493E-1,-6.474701E-3,-1.3585359E-2,1.4751053E-3,-1.1083304E-2,-1.0630532E-2,-1.985802E-3,2.3982696E-4,3.7307949E-3,3.8552035E-3,8.934512E-3,1.9335119E-2,9.457382E-3,2.0640844E-2,2.7987594E-2,2.8777255E-2,4.2954843E-2],"categories":[],"categories_nodes":[],"categories_segments":[],"categories_sizes":[],"default_left":[0,0,0,0,0,0,0,0,0,0,0,0,0,0,0,0,0,0,0,0,0,0,0,0,0,0,0,0,0,0,0,0,0,0,0,0,0,0,0,0,0,0,0,0,0,0,0],"id":48,"left_children":[1,3,5,7,9,11,13,15,17,19,21,23,25,27,29,-1,-1,-1,-1,31,33,-1,35,37,-1,39,-1,41,43,-1,45,-1,-1,-1,-1,-1,-1,-1,-1,-1,-1,-1,-1,-1,-1,-1,-1],"loss_changes":[4.8545025E1,2.1692505E0,1.2879736E1,4.506302E-1,3.6618853E-1,1.1637726E0,1.5689373E0,2.0463943E-2,7.753563E-2,4.8407793E-2,5.475399E-2,1.6026133E-1,3.591659E-1,2.2240639E-1,3.9085674E-1,0E0,0E0,0E0,0E0,3.8621902E-2,2.1000099E-1,0E0,1.02465466E-1,1.7312777E-1,0E0,1.6347766E-1,0E0,2.4714947E-1,5.7720184E-2,0E0,6.5317154E-2,0E0,0E0,0E0,0E0,0E0,0E0,0E0,0E0,0E0,0E0,0E0,0E0,0E0,0E0,0E0,0E0],"parents":[2147483647,0,0,1,1,2,2,3,3,4,4,5,5,6,6,7,7,8,8,9,9,10,10,11,11,12,12,13,13,14,14,19,19,20,20,22,22,23,23,25,25,27,27,28,28,30,30],"right_children":[2,4,6,8,10,12,14,16,18,20,22,24,26,28,30,-1,-1,-1,-1,32,34,-1,36,38,-1,40,-1,42,44,-1,46,-1,-1,-1,-1,-1,-1,-1,-1,-1,-1,-1,-1,-1,-1,-1,-1],"split_conditions":[2.86E1,2.528E1,3.208E1,2.351E1,2.785E1,2.967E1,3.1929022E5,5.838728E4,2.441E1,2.592E1,2.839E1,2.963E1,4.9443634E5,3.305E1,3.206E1,-1.6864412E-2,-3.0467302E-2,-1.9806985E-2,-1.5827091E-2,2.539E1,1.8403378E5,2.229953E-3,2.816E1,2.869E1,-6.6483305E-3,1.0353567E5,1.9391907E-2,3.291E1,2.2007862E5,1.1762047E-2,