{"learner":{"attributes":{"scikit_learn":"{\"_estimator_type\": \"regressor\"}"},"feature_names":[],"feature_types":[],"gradient_booster":{"model":{"gbtree_model_param":{"num_parallel_tree":"1","num_trees":"150"},"iteration_indptr":[0,1,2,3,4,5,6,7,8,9,10,11,12,13,14,15,16,17,18,19,20,21,22,23,24,25,26,27,28,29,30,31,32,33,34,35,36,37,38,39,40,41,42,43,44,45,46,47,48,49,50,51,52,53,54,55,56,57,58,59,60,61,62,63,64,65,66,67,68,69,70,71,72,73,74,75,76,77,78,79,80,81,82,83,84,85,86,87,88,89,90,91,92,93,94,95,96,97,98,99,100,101,102,103,104,105,106,107,108,109,110,111,112,113,114,115,116,117,118,119,120,121,122,123,124,125,126,127,128,129,130,131,132,133,134,135,136,137,138,139,140,141,142,143,144,145,146,147,148,149,150],"tree_info":[0,0,0,0,0,0,0,0,0,0,0,0,0,0,0,0,0,0,0,0,0,0,0,0,0,0,0,0,0,0,0,0,0,0,0,0,0,0,0,0,0,0,0,0,0,0,0,0,0,0,0,0,0,0,0,0,0,0,0,0,0,0,0,0,0,0,0,0,0,0,0,0,0,0,0,0,0,0,0,0,0,0,0,0,0,0,0,0,0,0,0,0,0,0,0,0,0,0,0,0,0,0,0,0,0,0,0,0,0,0,0,0,0,0,0,0,0,0,0,0,0,0,0,0,0,0,0,0,0,0,0,0,0,0,0,0,0,0,0,0,0,0,0,0,0,0,0,0,0,0],"trees":[{"base_weights":[1.07070395E-4,-3.936339E-3,5.81682E-3,-8.992397E-3,-2.350228E-3,3.280254E-3,9.3472265E-3,-1.0375817E-3,-8.033989E-3,-3.494346E-3,-7.895547E-4,1.8215589E-3,4.792459E-3,3.9207793E-4,5.583294E-4,-4.7453996E-4,-3.387004E-4,-4.373222E-3,-2.656594E-3,-1.3275421E-3,8.5734944E-5,1.3142267E-3,2.0996737E-3,1.974928E-4,2.68023E-4,-2.421483E-4,-1.915593E-4,-1.503389E-4,-1.17216296E-4,-5.9039867E-5,-1.4091532E-4,2.023913E-5,-1.184425E-5,7.16657E-5,3.5058387E-5,1.1250866E-4,5.1414037E-5],"categories":[],"categories_nodes":[],"categories_segments":[],"categories_sizes":[],"default_left":[0,0,0,0,0,0,0,0,0,0,0,0,0,0,0,0,0,0,0,0,0,0,0,0,0,0,0,0,0,0,0,0,0,0,0,0,0],"id":0,"left_children":[1,3,5,7,9,11,13,-1,15,17,19,21,23,-1,-1,-1,-1,25,27,29,31,33,35,-1,-1,-1,-1,-1,-1,-1,-1,-1,-1,-1,-1,-1,-1],"loss_changes":[1.4590704E-2,2.9460695E-3,2.3155762E-3,8.25054E-4,5.0256436E-4,3.3097062E-4,2.1102745E-4,0E0,8.8060275E-5,1.083957E-4,5.709209E-5,8.528295E-6,1.4721765E-5,0E0,0E0,0E0,0E0,1.3059471E-6,2.3553148E-6,1.3079276E-5,4.93365E-6,1.2582423E-6,5.7483994E-6,0E0,0E0,0E0,0E0,0E0,0E0,0E0,0E0,0E0,0E0,0E0,0E0,0E0,0E0],"parents":[2147483647,0,0,1,1,2,2,3,3,4,4,5,5,6,6,8,8,9,9,10,10,11,11,12,12,17,17,18,18,19,19,20,20,21,21,22,22],"right_children":[2,4,6,8,10,12,14,-1,16,18,20,22,24,-1,-1,-1,-1,26,28,30,32,34,36,-1,-1,-1,-1,-1,-1,-1,-1,-1,-1,-1,-1,-1,-1],"split_conditions":[3.411E-1,3.343E-1,3.466E-1,3.272E-1,3.383E-1,3.435E-1,3.497E-1,-1.0375817E-3,3.314E-1,3.366E-1,3.397E-1,3.418E-1,3.448E-1,3.9207793E-4,5.583294E-4,-4.7453996E-4,-3.387004E-4,3.355E-1,3.373E-1,3.0710506E7,1.1117328E7,1.8821172E7,1.4857493E7,1.974928E-4,2.68023E-4,-2.421483E-4,-1.915593E-4,-1.503389E-4,-1.17216296E-4,-5.9039867E-5,-1.4091532E-4,2.023913E-5,-1.184425E-5,7.16657E-5,3.5058387E-5,1.1250866E-4,5.1414037E-5],"split_indices":[1,1,1,1,1,1,1,0,0,1,1,1,1,0,0,0,0,1,1,3,3,3,3,0,0,0,0,0,0,0,0,0,0,0,0,0,0],"split_type":[0,0,0,0,0,0,0,0,0,0,0,0,0,0,0,0,0,0,0,0,0,0,0,0,0,0,0,0,0,0,0,0,0,0,0,0,0],"sum_hessian":[6.3E2,3.69E2,2.61E2,8.7E1,2.82E2,1.53E2,1.08E2,5E0,8.2E1,1.62E2,1.2E2,7.9E1,7.4E1,6.2E1,4.6E1,3.5E1,4.7E1,7.7E1,8.5E1,7.4E1,4.6E1,3E1,4.9E1,3.3E1,4.1E1,3.7E1,4E1,3.6E1,4.9E1,6.9E1,5E0,2.3E1,2.3E1,2.4E1,6E0,4.2E1,7E0],"tree_param":{"num_deleted":"0","num_feature":"104","num_nodes":"37","size_leaf_vector":"1"}},{"base_weights":[1.4592263E-4,-3.5062025E-3,6.232197E-3,-8.228777E-3,-1.9101208E-3,3.9014397E-3,9.2583215E-3,-9.350674E-4,-7.2602574E-3,-3.004485E-3,-2.9729787E-4,1.9139542E-3,4.895982E-3,3.9294502E-4,5.3486374E-4,-4.3536542E-4,-2.7647722E-4,-3.9477036E-3,-2.4155083E-3,-1.014577E-3,4.8470945E-4,9.9324585E-5,3.0970947E-5,1.987979E-4,2.8111038E-4,-2.1190783E-4,-1.5975795E-4,-1.3576452E-4,-9.5666204E-5,-5.759087E-5,-2.161786E-5,-7.2419647E-7,4.4678964E-5],"categories":[],"categories_nodes":[],"categories_segments":[],"categories_sizes":[],"default_left":[0,0,0,0,0,0,0,0,0,0,0,0,0,0,0,0,0,0,0,0,0,0,0,0,0,0,0,0,0,0,0,0,0],"id":1,"left_children":[1,3,5,7,9,11,13,-1,15,17,19,21,23,-1,-1,-1,-1,25,27,29,31,-1,-1,-1,-1,-1,-1,-1,-1,-1,-1,-1,-1],"loss_changes":[1.440326E-2,3.0370154E-3,1.6777981E-3,8.9879846E-4,5.356717E-4,2.65382E-4,1.2736954E-4,0E0,1.8977327E-4,9.101594E-5,7.0045535E-5,3.2768585E-6,3.9115548E-5,0E0,0E0,0E0,0E0,1.3217796E-6,1.1967029E-5,4.6957794E-6,1.2259248E-5,0E0,0E0,0E0,0E0,0E0,0E0,0E0,0E0,0E0,0E0,0E0,0E0],"parents":[2147483647,0,0,1,1,2,2,3,3,4,4,5,5,6,6,8,8,9,9,10,10,11,11,12,12,17,17,18,18,19,19,20,20],"right_children":[2,4,6,8,10,12,14,-1,16,18,20,22,24,-1,-1,-1,-1,26,28,30,32,-1,-1,-1,-1,-1,-1,-1,-1,-1,-1,-1,-1],"split_conditions":[3.405E-1,3.339E-1,3.461E-1,3.272E-1,3.376E-1,3.435E-1,3.493E-1,-9.350674E-4,3.329E-1,3.366E-1,3.4E-1,3.428E-1,3.443E-1,3.9294502E-4,5.3486374E-4,-4.3536542E-4,-2.7647722E-4,3.361E-1,3.366E-1,3.386E-1,3.395E-1,9.9324585E-5,3.0970947E-5,1.987979E-4,2.8111038E-4,-2.1190783E-4,-1.5975795E-4,-1.3576452E-4,-9.5666204E-5,-5.759087E-5,-2.161786E-5,-7.2419647E-7,4.4678964E-5],"split_indices":[2,2,2,1,2,1,2,0,1,1,1,0,2,0,0,0,0,1,2,2,2,0,0,0,0,0,0,0,0,0,0,0,0],"split_type":[0,0,0,0,0,0,0,0,0,0,0,0,0,0,0,0,0,0,0,0,0,0,0,0,0,0,0,0,0,0,0,0,0],"sum_hessian":[6.46E2,4.04E2,2.42E2,1.01E2,3.03E2,1.38E2,1.04E2,7E0,9.4E1,1.8E2,1.23E2,4.7E1,9.1E1,5.6E1,4.8E1,4.9E1,4.5E1,6.7E1,1.13E2,6.4E1,5.9E1,4.4E1,3E0,4.3E1,4.8E1,4.5E1,2.2E1,6.8E1,4.5E1,5.1E1,1.3E1,2.7E1,3.2E1],"tree_param":{"num_deleted":"0","num_feature":"104","num_nodes":"33","size_leaf_vector":"1"}},{"base_weights":[1.2069549E-4,-3.3166558E-3,5.8634332E-3,-7.369571E-3,-1.8726395E-3,3.6407532E-3,8.686491E-3,-5.537777E-4,-6.3672746E-3,-3.0367305E-3,-4.5323613E-4,9.738058E-5,4.6024914E-3,3.606295E-4,4.972472E-4,-3.6468546E-4,-2.6691201E-4,-1.9296585E-4,-2.3918606E-3,-1.2421064E-3,3.6594717E-4,1.9545782E-4,2.668907E-4,-1.3907367E-4,-9.1018694E-5,-6.745321E-5,-1.895792E-5,-1.4447297E-5,3.5742232E-5],"categories":[],"categories_nodes":[],"categories_segments":[],"categories_sizes":[],"default_left":[0,0,0,0,0,0,0,0,0,0,0,0,0,0,0,0,0,0,0,0,0,0,0,0,0,0,0,0,0],"id":2,"left_children":[1,3,5,7,9,11,13,-1,15,17,19,-1,21,-1,-1,-1,-1,-1,23,25,27,-1,-1,-1,-1,-1,-1,-1,-1],"loss_changes":[1.2652923E-2,2.3330417E-3,1.4743162E-3,3.1950092E-4,4.893611E-4,2.1249312E-4,1.2302864E-4,0E0,4.2097876E-5,7.723423E-5,8.769551E-5,0E0,2.2978638E-5,0E0,0E0,0E0,0E0,0E0,1.5866593E-5,5.857117E-6,1.5515416E-5,0E0,0E0,0E0,0E0,0E0,0E0,0E0,0E0],"parents":[2147483647,0,0,1,1,2,2,3,3,4,4,5,5,6,6,8,8,9,9,10,10,12,12,18,18,19,19,20,20],"right_children":[2,4,6,8,10,12,14,-1,16,18,20,-1,22,-1,-1,-1,-1,-1,24,26,28,-1,-1,-1,-1,-1,-1,-1,-1],"split_conditions":[3.407E-1,3.348E-1,3.458E-1,3.289E-1,3.371E-1,3.435E-1,3.497E-1,-5.537777E-4,3.329E-1,3.352E-1,3.385E-1,9.738058E-5,3.444E-1,3.606295E-4,4.972472E-4,-3.6468546E-4,-2.6691201E-4,-1.9296585E-4,3.375E-1,1.7660672E7,3.404E-1,1.9545782E-4,2.668907E-4,-1.3907367E-4,-9.1018694E-5,-6.745321E-5,-1.895792E-5,-1.4447297E-5,3.5742232E-5],"split_indices":[2,1,2,2,2,1,1,0,1,2,2,0,2,0,0,0,0,0,1,3,1,0,0,0,0,0,0,0,0],"split_type":[0,0,0,0,0,0,0,0,0,0,0,0,0,0,0,0,0,0,0,0,0,0,0,0,0,0,0,0,0],"sum_hessian":[6.39E2,4E2,2.39E2,1.04E2,2.96E2,1.35E2,1.04E2,2E1,8.4E1,1.62E2,1.34E2,5E1,8.5E1,5.1E1,5.3E1,4.1E1,4.3E1,6.9E1,9.3E1,6.8E1,6.6E1,4.7E1,3.8E1,5.3E1,4E1,6E1,8E0,2.3E1,4.3E1],"tree_param":{"num_deleted":"0","num_feature":"104","num_nodes":"29","size_leaf_vector":"1"}},{"base_weights":[-1.5932217E-4,-3.2818299E-3,5.4458594E-3,-7.5791893E-3,-1.8795975E-3,3.4193462E-3,8.034883E-3,-1.1677597E-2,-6.043655E-3,-3.2166431E-3,-6.6666E-4,1.9850135E-3,4.468977E-3,3.5254878E-4,4.7864017E-4,-8.1314746E-4,-4.948123E-4,-3.4230188E-4,-2.5431532E-4,-4.0804474E-3,-2.6645013E-3,-1.0392299E-3,6.3526945E-4,7.700653E-5,1.1744499E-4,1.8796287E-4,2.5398846E-4,-2.167602E-4,-1.4423579E-4,-1.4416217E-4,-9.486272E-5,-7.567091E-5,-2.8882616E-5,3.631494E-5,1.436472E-6],"categories":[],"categories_nodes":[],"categories_segments":[],"categories_sizes":[],"default_left":[0,0,0,0,0,0,0,0,0,0,0,0,0,0,0,0,0,0,0,0,0,0,0,0,0,0,0,0,0,0,0,0,0,0,0],"id":3,"left_children":[1,3,5,7,9,11,13,15,17,19,21,23,25,-1,-1,-1,-1,-1,-1,27,29,31,33,-1,-1,-1,-1,-1,-1,-1,-1,-1,-1,-1,-1],"loss_changes":[1.1446824E-2,2.5166306E-3,1.2002522E-3,5.776291E-4,5.1357294E-4,1.9136316E-4,8.684583E-5,5.959696E-5,2.432731E-5,6.114598E-5,8.215023E-5,5.771828E-6,1.3849232E-5,0E0,0E0,0E0,0E0,0E0,0E0,4.8575457E-6,1.0473537E-5,2.7798349E-5,2.0772277E-6,0E0,0E0,0E0,0E0,0E0,0E0,0E0,0E0,0E0,0E0,0E0,0E0],"parents":[2147483647,0,0,1,1,2,2,3,3,4,4,5,5,6,6,7,7,8,8,9,9,10,10,11,11,12,12,19,19,20,20,21,21,22,22],"right_children":[2,4,6,8,10,12,14,16,18,20,22,24,26,-1,-1,-1,-1,-1,-1,28,30,32,34,-1,-1,-1,-1,-1,-1,-1,-1,-1,-1,-1,-1],"split_conditions":[3.407E-1,3.332E-1,3.458E-1,3.289E-1,3.366E-1,3.426E-1,3.493E-1,3.21E-1,3.314E-1,3.348E-1,3.395E-1,3.414E-1,3.444E-1,3.5254878E-4,4.7864017E-4,-8.1314746E-4,-4.948123E-4,-3.4230188E-4,-2.5431532E-4,1.7660672E7,1.4779981E7,3.379E-1,1.8821172E7,7.700653E-5,1.1744499E-4,1.8796287E-4,2.5398846E-4,-2.167602E-4,-1.4423579E-4,-1.4416217E-4,-9.486272E-5,-7.567091E-5,-2.8882616E-5,3.631494E-5,1.436472E-6],"split_indices":[2,2,2,2,2,2,2,2,2,2,2,2,2,0,0,0,0,0,0,3,3,2,3,0,0,0,0,0,0,0,0,0,0,0,0],"split_type":[0,0,0,0,0,0,0,0,0,0,0,0,0,0,0,0,0,0,0,0,0,0,0,0,0,0,0,0,0,0,0,0,0,0,0],"sum_hessian":[6.52E2,4.19E2,2.33E2,1.02E2,3.17E2,1.32E2,1.01E2,2.6E1,7.6E1,1.5E2,1.67E2,5.7E1,7.5E1,6.5E1,3.6E1,5E0,2.1E1,3.8E1,3.8E1,5.6E1,9.4E1,1.3E2,3.7E1,2.8E1,2.9E1,3.8E1,3.7E1,4.4E1,1.2E1,7.1E1,2.3E1,6.3E1,6.7E1,3.2E1,5E0],"tree_param":{"num_deleted":"0","num_feature":"104","num_nodes":"35","size_leaf_vector":"1"}},{"base_weights":[-1.18424774E-4,-3.4294624E-3,4.809793E-3,-8.577596E-3,-2.2431377E-3,2.2026342E-3,6.9542774E-3,-8.004207E-4,-7.379899E-3,-3.544866E-3,-1.0547295E-3,1.4351696E-3,1.7694679E-4,2.6565048E-4,4.1939327E-4,-4.2800253E-4,-3.1891098E-4,-4.090915E-3,-1.3607302E-4,-1.5660607E-3,2.909912E-4,9.921759E-4,8.3645624E-5,-2.3414764E-4,-1.8485797E-4,-7.352704E-5,-1.7249047E-4,-1.17229565E-5,1.878351E-5,6.907069E-5,3.8905655E-5],"categories":[],"categories_nodes":[],"categories_segments":[],"categories_sizes":[],"default_left":[0,0,0,0,0,0,0,0,0,0,0,0,0,0,0,0,0,0,0,0,0,0,0,0,0,0,0,0,0,0,0],"id":4,"left_children":[1,3,5,7,9,11,13,-1,15,17,19,21,-1,-1,-1,-1,-1,23,-1,25,27,29,-1,-1,-1,-1,-1,-1,-1,-1,-1],"loss_changes":[1.0394434E-2,2.3076632E-3,1.415981E-3,5.137501E-4,4.7737337E-4,1.1491199E-4,2.8484128E-4,0E0,1.987652E-5,5.541055E-5,1.1330556E-4,6.3443877E-6,0E0,0E0,0E0,0E0,0E0,2.9676594E-6,0E0,1.6339269E-5,2.1348314E-6,1.3414228E-6,0E0,0E0,0E0,0E0,0E0,0E0,0E0,0E0,0E0],"parents":[2147483647,0,0,1,1,2,2,3,3,4,4,5,5,6,6,8,8,9,9,10,10,11,11,17,17,19,19,20,20,21,21],"right_children":[2,4,6,8,10,12,14,-1,16,18,20,22,-1,-1,-1,-1,-1,24,-1,26,28,30,-1,-1,-1,-1,-1,-1,-1,-1,-1],"split_conditions":[3.411E-1,3.335E-1,3.454E-1,3.272E-1,3.373E-1,3.435E-1,3.482E-1,-8.004207E-4,3.314E-1,3.361E-1,3.398E-1,3.419E-1,1.7694679E-4,2.6565048E-4,4.1939327E-4,-4.2800253E-4,-3.1891098E-4,3.347E-1,-1.3607302E-4,3.359114E7,3.4E-1,3.414E-1,8.3645624E-5,-2.3414764E-4,-1.8485797E-4,-7.352704E-5,-1.7249047E-4,-1.17229565E-5,1.878351E-5,6.907069E-5,3.8905655E-5],"split_indices":[1,1,1,1,1,1,1,0,1,1,1,1,0,0,0,0,0,1,0,3,1,1,0,0,0,0,0,0,0,0,0],"split_type":[0,0,0,0,0,0,0,0,0,0,0,0,0,0,0,0,0,0,0,0,0,0,0,0,0,0,0,0,0,0,0],"sum_hessian":[6.35E2,3.8E2,2.55E2,7E1,3.1E2,1.16E2,1.39E2,8E0,6.2E1,1.47E2,1.63E2,7.5E1,4.1E1,6.7E1,7.2E1,2.5E1,3.7E1,8.6E1,6.1E1,1.18E2,4.5E1,2.8E1,4.7E1,3E1,5.6E1,1.14E2,4E0,6E0,3.9E1,8E0,2E1],"tree_param":{"num_deleted":"0","num_feature":"104","num_nodes":"31","size_leaf_vector":"1"}},{"base_weights":[6.0512342E-5,-3.1669773E-3,4.6762032E-3,-7.3018256E-3,-1.8914844E-3,2.7611055E-3,7.3917457E-3,-9.0467784E-4,-6.581114E-3,-3.1243805E-3,-1.0324894E-3,1.4653432E-3,4.0219175E-3,3.0728316E-4,4.273548E-4,-4.346082E-4,-5.7526105E-3,-1.8244401E-4,-1.273904E-4,-1.408279E-3,1.3636918E-4,1.5983375E-3,2.5334954E-4,1.756857E-4,2.2519159E-4,-3.0900427E-4,-2.3278045E-4,-6.290705E-5,-1.242735E-4,-8.376293E-6,1.6132992E-5,4.5420016E-5,9.2554474E-5,-1.8067285E-5,3.104607E-5],"categories":[],"categories_nodes":[],"categories_segments":[],"categories_sizes":[],"default_left":[0,0,0,0,0,0,0,0,0,0,0,0,0,0,0,0,0,0,0,0,0,0,0,0,0,0,0,0,0,0,0,0,0,0,0],"id":5,"left_children":[1,3,5,7,9,11,13,-1,15,17,19,21,23,-1,-1,-1,25,-1,-1,27,29,31,33,-1,-1,-1,-1,-1,-1,-1,-1,-1,-1,-1,-1],"loss_changes":[9.593641E-3,1.9850235E-3,1.357731E-3,5.731415E-4,3.0495808E-4,2.5059935E-4,1.0439521E-4,0E0,9.8663615E-5,2.6690424E-5,7.6181415E-5,1.2328921E-5,3.5227276E-6,0E0,0E0,0E0,1.240056E-6,0E0,0E0,1.8059189E-5,2.4884043E-6,1.06996595E-5,2.2578695E-6,0E0,0E0,0E0,0E0,0E0,0E0,0E0,0E0,0E0,0E0,0E0,0E0],"parents":[2147483647,0,0,1,1,2,2,3,3,4,4,5,5,6,6,8,8,9,9,10,10,11,11,12,12,16,16,19,19,20,20,21,21,22,22],"right_children":[2,4,6,8,10,12,14,-1,16,18,20,22,24,-1,-1,-1,26,-1,-1,28,30,32,34,-1,-1,-1,-1,-1,-1,-1,-1,-1,-1,-1,-1],"split_conditions":[3.411E-1,3.345E-1,3.47E-1,3.267E-1,3.373E-1,3.439E-1,3.497E-1,-9.0467784E-4,3.302E-1,3.361E-1,3.398E-1,1.9772506E7,3.454E-1,3.0728316E-4,4.273548E-4,-4.346082E-4,3.335E-1,-1.8244401E-4,-1.273904E-4,2.6402184E7,3.403E-1,3.417E-1,2.3712772E7,1.756857E-4,2.2519159E-4,-3.0900427E-4,-2.3278045E-4,-6.290705E-5,-1.242735E-4,-8.376293E-6,1.6132992E-5,4.5420016E-5,9.2554474E-5,-1.8067285E-5,3.104607E-5],"split_indices":[1,1,1,1,1,1,1,0,0,1,1,3,1,0,0,0,1,0,0,3,1,1,3,0,0,0,0,0,0,0,0,0,0,0,0],"split_type":[0,0,0,0,0,0,0,0,0,0,0,0,0,0,0,0,0,0,0,0,0,0,0,0,0,0,0,0,0,0,0,0,0,0,0],"sum_hessian":[6.42E2,3.78E2,2.64E2,8.8E1,2.9E2,1.56E2,1.08E2,4E0,8.4E1,1.18E2,1.72E2,7.8E1,7.8E1,5.5E1,5.3E1,2.1E1,6.3E1,5.9E1,5.9E1,1.3E2,4.2E1,7E1,8E0,4.2E1,3.6E1,4.2E1,2.1E1,1.16E2,1.4E1,1.6E1,2.6E1,2E1,5E1,3E0,5E0],"tree_param":{"num_deleted":"0","num_feature":"104","num_nodes":"35","size_leaf_vector":"1"}},{"base_weights":[-2.4237268E-5,-2.8260897E-3,5.011634E-3,-6.647206E-3,-1.438796E-3,3.100664E-3,7.3545496E-3,-1.0465626E-2,-5.40199E-3,-2.478268E-3,-3.3880252E-4,1.7211842E-3,3.9789747E-3,3.067924E-4,4.2130804E-4,-7.4238627E-4,-4.3138574E-4,-3.001947E-4,-2.2110902E-4,-3.1490955E-3,-1.9755668E-3,-9.0287556E-4,4.435079E-4,1.1795893E-3,1.0075391E-4,1.645924E-4,2.1819536E-4,-1.6273696E-4,-8.015111E-5,-1.1002575E-4,-5.9523707E-5,-5.3622953E-5,-5.755853E-6,-3.0581357E-6,3.862574E-5,6.7045934E-5,9.952113E-6],"categories":[],"categories_nodes":[],"categories_segments":[],"categories_sizes":[],"default_left":[0,0,0,0,0,0,0,0,0,0,0,0,0,0,0,0,0,0,0,0,0,0,0,0,0,0,0,0,0,0,0,0,0,0,0,0,0],"id":6,"left_children":[1,3,5,7,9,11,13,15,17,19,21,23,25,-1,-1,-1,-1,-1,-1,27,29,31,33,35,-1,-1,-1,-1,-1,-1,-1,-1,-1,-1,-1,-1,-1],"loss_changes":[8.76222E-3,2.1055394E-3,9.711436E-4,4.4746883E-4,3.3532362E-4,1.4339131E-4,7.758988E-5,7.324573E-5,2.1809246E-5,4.4699816E-5,6.394478E-5,5.5816054E-6,5.471986E-6,0E0,0E0,0E0,0E0,0E0,0E0,5.072565E-6,1.3098179E-5,1.1098171E-5,1.0175697E-5,2.8969189E-6,0E0,0E0,0E0,0E0,0E0,0E0,0E0,0E0,0E0,0E0,0E0,0E0,0E0],"parents":[2147483647,0,0,1,1,2,2,3,3,4,4,5,5,6,6,7,7,8,8,9,9,10,10,11,11,12,12,19,19,20,20,21,21,22,22,23,23],"right_children":[2,4,6,8,10,12,14,16,18,20,22,24,26,-1,-1,-1,-1,-1,-1,28,30,32,34,36,-1,-1,-1,-1,-1,-1,-1,-1,-1,-1,-1,-1,-1],"split_conditions":[3.406E-1,3.332E-1,3.462E-1,3.283E-1,3.371E-1,3.426E-1,3.487E-1,3.21E-1,3.316E-1,3.353E-1,3.386E-1,3.412E-1,3.443E-1,3.067924E-4,4.2130804E-4,-7.4238627E-4,-4.3138574E-4,-3.001947E-4,-2.2110902E-4,3.0710506E7,1.3973861E7,1.608938E7,3.394E-1,3.417E-1,1.0075391E-4,1.645924E-4,2.1819536E-4,-1.6273696E-4,-8.015111E-5,-1.1002575E-4,-5.9523707E-5,-5.3622953E-5,-5.755853E-6,-3.0581357E-6,3.862574E-5,6.7045934E-5,9.952113E-6],"split_indices":[2,2,2,2,2,2,2,2,2,2,2,2,2,0,0,0,0,0,0,3,3,3,2,0,0,0,0,0,0,0,0,0,0,0,0,0,0],"split_type":[0,0,0,0,0,0,0,0,0,0,0,0,0,0,0,0,0,0,0,0,0,0,0,0,0,0,0,0,0,0,0,0,0,0,0,0,0],"sum_hessian":[6.19E2,3.98E2,2.21E2,1.05E2,2.93E2,1.23E2,9.8E1,2.4E1,8.1E1,1.5E2,1.43E2,4.9E1,7.4E1,4.9E1,4.9E1,5E0,1.9E1,4.7E1,3.4E1,6.2E1,8.8E1,8.3E1,6E1,1.9E1,3E1,3E1,4.4E1,5.7E1,5E0,6.7E1,2.1E1,6.8E1,1.5E1,2.4E1,3.6E1,1.6E1,3E0],"tree_param":{"num_deleted":"0","num_feature":"104","num_nodes":"37","size_leaf_vector":"1"}},{"base_weights":[6.909792E-5,-2.5371443E-3,4.4447263E-3,-5.82857E-3,-1.3177664E-3,2.8158266E-3,6.6688345E-3,-7.8379567E-4,-5.3090863E-3,-2.3306913E-3,-3.6168983E-4,1.681795E-3,3.6490872E-3,2.8402018E-4,3.9728158E-4,-3.489046E-4,-2.2949376E-4,-2.8982656E-3,-1.8959533E-3,-8.993064E-4,2.7055293E-4,6.14676E-5,1.9170985E-3,1.5335697E-4,2.0710165E-4,-1.5029167E-4,-5.461693E-5,-1.0645342E-4,-5.874938E-5,-5.4129283E-5,-1.0766011E-5,2.101714E-6,4.7688685E-5,6.6777495E-5,1.0630499E-4],"categories":[],"categories_nodes":[],"categories_segments":[],"categories_sizes":[],"default_left":[0,0,0,0,0,0,0,0,0,0,0,0,0,0,0,0,0,0,0,0,0,0,0,0,0,0,0,0,0,0,0,0,0,0,0],"id":7,"left_children":[1,3,5,7,9,11,13,-1,15,17,19,21,23,-1,-1,-1,-1,25,27,29,31,-1,33,-1,-1,-1,-1,-1,-1,-1,-1,-1,-1,-1,-1],"loss_changes":[7.423843E-3,1.6298236E-3,8.6157396E-4,4.794842E-4,2.8871873E-4,1.2804498E-4,8.3592255E-5,0E0,9.5210504E-5,3.0283176E-5,5.292846E-5,4.2438187E-6,1.0532211E-5,0E0,0E0,0E0,0E0,8.56648E-6,1.178417E-5,1.0297175E-5,1.1201173E-5,0E0,1.900713E-6,0E0,0E0,0E0,0E0,0E0,0E0,0E0,0E0,0E0,0E0,0E0,0E0],"parents":[2147483647,0,0,1,1,2,2,3,3,4,4,5,5,6,6,8,8,9,9,10,10,11,11,12,12,17,17,18,18,19,19,20,20,22,22],"right_children":[2,4,6,8,10,12,14,-1,16,18,20,22,24,-1,-1,-1,-1,26,28,30,32,-1,34,-1,-1,-1,-1,-1,-1,-1,-1,-1,-1,-1,-1],"split_conditions":[3.407E-1,3.339E-1,3.458E-1,3.21E-1,3.369E-1,3.426E-1,3.493E-1,-7.8379567E-4,3.305E-1,3.353E-1,3.386E-1,3.412E-1,3.444E-1,2.8402018E-4,3.9728158E-4,-3.489046E-4,-2.2949376E-4,3.0710506E7,1.3973861E7,1.608938E7,1.6259784E7,6.14676E-5,6.4662495E6,1.5335697E-4,2.0710165E-4,-1.5029167E-4,-5.461693E-5,-1.0645342E-4,-5.874938E-5,-5.4129283E-5,-1.0766011E-5,2.101714E-6,4.7688685E-5,6.6777495E-5,1.0630499E-4],"split_indices":[2,2,2,2,2,2,2,0,2,2,2,2,2,0,0,0,0,3,3,3,3,0,3,0,0,0,0,0,0,0,0,0,0,0,0],"split_type":[0,0,0,0,0,0,0,0,0,0,0,0,0,0,0,0,0,0,0,0,0,0,0,0,0,0,0,0,0,0,0,0,0,0,0],"sum_hessian":[6.49E2,4.07E2,2.42E2,1.09E2,2.98E2,1.41E2,1.01E2,4E0,1.05E2,1.44E2,1.54E2,6.1E1,8E1,6E1,4.1E1,2.9E1,7.6E1,6E1,8.4E1,8.3E1,7.1E1,2.3E1,3.8E1,4E1,4E1,5.6E1,4E0,6.2E1,2.2E1,6.5E1,1.8E1,5.4E1,1.7E1,1.2E1,2.6E1],"tree_param":{"num_deleted":"0","num_feature":"104","num_nodes":"35","size_leaf_vector":"1"}},{"base_weights":[-1.0898636E-4,-2.9155468E-3,3.8061014E-3,-6.1809537E-3,-1.7663458E-3,1.992577E-3,5.8772797E-3,-7.1000605E-4,-5.503616E-3,-2.3873725E-3,-5.6370354E-4,1.1919435E-3,2.9719518E-3,2.2360844E-4,3.543447E-4,-3.607356E-4,-4.7936006E-3,-1.5285087E-4,-1.8594577E-3,-8.1578124E-4,-5.010493E-5,3.3568178E-4,1.4107246E-3,7.493913E-5,1.5219915E-4,-2.634962E-4,-2.0275443E-4,-1.4644892E-4,-8.9440015E-5,-4.584124E-5,9.3784183E-7,-1.8312443E-5,2.6683385E-5,2.572494E-5,-1.16071105E-5,7.4097225E-5,-2.2932888E-6],"categories":[],"categories_nodes":[],"categories_segments":[],"categories_sizes":[],"default_left":[0,0,0,0,0,0,0,0,0,0,0,0,0,0,0,0,0,0,0,0,0,0,0,0,0,0,0,0,0,0,0,0,0,0,0,0,0],"id":8,"left_children":[1,3,5,7,9,11,13,-1,15,17,19,21,23,-1,-1,-1,25,-1,27,29,31,33,35,-1,-1,-1,-1,-1,-1,-1,-1,-1,-1,-1,-1,-1,-1],"loss_changes":[7.1312753E-3,1.4075686E-3,1.0062009E-3,4.5415387E-4,2.0852557E-4,1.10939145E-4,1.8246146E-4,0E0,7.718662E-5,5.9716054E-5,1.2517405E-5,1.48878025E-5,2.3351167E-6,0E0,0E0,0E0,2.5504269E-6,0E0,2.771034E-6,5.4982993E-6,6.285809E-6,1.9470954E-6,6.8109657E-6,0E0,0E0,0E0,0E0,0E0,0E0,0E0,0E0,0E0,0E0,0E0,0E0,0E0,0E0],"parents":[2147483647,0,0,1,1,2,2,3,3,4,4,5,5,6,6,8,8,9,9,10,10,11,11,12,12,16,16,18,18,19,19,20,20,21,21,22,22],"right_children":[2,4,6,8,10,12,14,-1,16,18,20,22,24,-1,-1,-1,26,-1,28,30,32,34,36,-1,-1,-1,-1,-1,-1,-1,-1,-1,-1,-1,-1,-1,-1],"split_conditions":[3.396E-1,3.345E-1,3.448E-1,3.272E-1,3.373E-1,3.435E-1,3.474E-1,-7.1000605E-4,3.298E-1,3.365E-1,3.398E-1,3.411E-1,3.421E-1,2.2360844E-4,3.543447E-4,-3.607356E-4,3.329E-1,-1.5285087E-4,3.341E-1,3.386E-1,1.8716902E7,1.2494567E7,1.9772506E7,7.493913E-5,1.5219915E-4,-2.634962E-4,-2.0275443E-4,-1.4644892E-4,-8.9440015E-5,-4.584124E-5,9.3784183E-7,-1.8312443E-5,2.6683385E-5,2.572494E-5,-1.16071105E-5,7.4097225E-5,-2.2932888E-6],"split_indices":[2,1,2,1,2,1,2,0,2,1,1,1,2,0,0,0,1,0,2,2,3,3,3,0,0,0,0,0,0,0,0,0,0,0,0,0,0],"split_type":[0,0,0,0,0,0,0,0,0,0,0,0,0,0,0,0,0,0,0,0,0,0,0,0,0,0,0,0,0,0,0,0,0,0,0,0,0],"sum_hessian":[6.47E2,3.77E2,2.7E2,9.7E1,2.8E2,1.45E2,1.25E2,6E0,9.1E1,1.84E2,9.6E1,8.1E1,6.4E1,6E1,6.5E1,2.4E1,6.7E1,7.9E1,1.05E2,6.4E1,3.2E1,1.7E1,6.4E1,4E0,6E1,3.7E1,3E1,4E0,1.01E2,5.7E1,7E0,2.1E1,1.1E1,1.3E1,4E0,6.1E1,3E0],"tree_param":{"num_deleted":"0","num_feature":"104","num_nodes":"37","size_leaf_vector":"1"}},{"base_weights":[5.2477088E-5,-2.7342543E-3,3.846763E-3,-6.70198E-3,-1.8318056E-3,2.227792E-3,6.0235597E-3,-6.715117E-4,-5.709717E-3,-2.6943965E-3,-7.591254E-4,1.2477206E-3,3.2298442E-3,2.2512708E-4,6.659688E-3,-3.4658075E-4,-2.447465E-4,-3.30682E-3,-2.003344E-3,-1.0799444E-3,-1.6746837E-4,9.052909E-4,1.6944531E-3,1.377066E-4,1.8227991E-4,3.0709113E-4,4.1574595E-4,-1.7960976E-4,-1.3781589E-4,-1.6475842E-5,-1.03174876E-4,-6.074497E-5,-1.2407248E-6,1.8634731E-7,-2.9786144E-5,5.128144E-5,8.769893E-6,5.9447495E-5,9.580695E-5],"categories":[],"categories_nodes":[],"categories_segments":[],"categories_sizes":[],"default_left":[0,0,0,0,0,0,0,0,0,0,0,0,0,0,0,0,0,0,0,0,0,0,0,0,0,0,0,0,0,0,0,0,0,0,0,0,0,0,0],"id":9,"left_children":[1,3,5,7,9,11,13,-1,15,17,19,21,23,-1,25,-1,-1,27,29,31,33,35,37,-1,-1,-1,-1,-1,-1,-1,-1,-1,-1,-1,-1,-1,-1,-1,-1],"loss_changes":[6.7670844E-3,1.3089904E-3,9.416314E-4,3.7729857E-4,2.7739035E-4,1.5015702E-4,8.128397E-5,0E0,2.6800903E-5,6.4052525E-5,2.5633955E-5,1.0856966E-5,5.1885727E-6,0E0,1.664902E-5,0E0,0E0,3.7664431E-6,7.475639E-6,1.2500612E-5,3.594664E-6,4.03613E-6,1.5319456E-6,0E0,0E0,0E0,0E0,0E0,0E0,0E0,0E0,0E0,0E0,0E0,0E0,0E0,0E0,0E0,0E0],"parents":[2147483647,0,0,1,1,2,2,3,3,4,4,5,5,6,6,8,8,9,9,10,10,11,11,12,12,14,14,17,17,18,18,19,19,20,20,21,21,22,22],"right_children":[2,4,6,8,10,12,14,-1,16,18,20,22,24,-1,26,-1,-1,28,30,32,34,36,38,-1,-1,-1,-1,-1,-1,-1,-1,-1,-1,-1,-1,-1,-1,-1,-1],"split_conditions":[3.411E-1,3.334E-1,3.458E-1,3.272E-1,3.365E-1,3.439E-1,3.474E-1,-6.715117E-4,3.298E-1,3.348E-1,3.383E-1,3.413E-1,3.443E-1,2.2512708E-4,3.522E-1,-3.4658075E-4,-2.447465E-4,3.353E-1,3.352E-1,1.8514796E7,1.2641317E7,1.9772506E7,6.593295E6,1.377066E-4,1.8227991E-4,3.0709113E-4,4.1574595E-4,-1.7960976E-4,-1.3781589E-4,-1.6475842E-5,-1.03174876E-4,-6.074497E-5,-1.2407248E-6,1.8634731E-7,-2.9786144E-5,5.128144E-5,8.769893E-6,5.9447495E-5,9.580695E-5],"split_indices":[1,1,2,1,2,1,2,0,2,2,2,2,2,0,1,0,0,1,0,3,3,3,3,0,0,0,0,0,0,0,0,0,0,0,0,0,0,0,0],"split_type":[0,0,0,0,0,0,0,0,0,0,0,0,0,0,0,0,0,0,0,0,0,0,0,0,0,0,0,0,0,0,0,0,0,0,0,0,0,0,0],"sum_hessian":[6.38E2,3.68E2,2.7E2,6.7E1,3.01E2,1.56E2,1.14E2,7E0,6E1,1.66E2,1.35E2,8E1,7.6E1,3.6E1,7.8E1,2.1E1,3.9E1,8.6E1,8E1,8.7E1,4.8E1,4.7E1,3.3E1,3.9E1,3.7E1,6.3E1,1.5E1,5.3E1,3.3E1,3E0,7.7E1,7.7E1,1E1,3.5E1,1.3E1,4E1,7E0,1.2E1,2.1E1],"tree_param":{"num_deleted":"0","num_feature":"104","num_nodes":"39","size_leaf_vector":"1"}},{"base_weights":[-5.29016E-5,-2.6273134E-3,3.379837E-3,-6.4803446E-3,-1.7596626E-3,1.6668353E-3,5.3024124E-3,-6.54839E-4,-5.628806E-3,-2.8520513E-3,-9.6423907E-4,1.0011748E-3,1.3772146E-4,2.02633E-4,6.333587E-3,-3.3959906E-4,-2.3843386E-4,-1.7099964E-4,-1.1739647E-4,-1.5384846E-3,-4.904625E-4,6.494937E-4,6.930256E-5,2.8591268E-4,3.6711947E-4,-8.514727E-5,-6.192881E-5,-3.8009417E-5,3.6012495E-6,2.5712216E-5,5.231003E-5],"categories":[],"categories_nodes":[],"categories_segments":[],"categories_sizes":[],"default_left":[0,0,0,0,0,0,0,0,0,0,0,0,0,0,0,0,0,0,0,0,0,0,0,0,0,0,0,0,0,0,0],"id":10,"left_children":[1,3,5,7,9,11,13,-1,15,17,19,21,-1,-1,23,-1,-1,-1,-1,25,27,29,-1,-1,-1,-1,-1,-1,-1,-1,-1],"loss_changes":[5.753114E-3,1.2322245E-3,9.100132E-4,3.0940282E-4,2.62268E-4,1.05113635E-4,1.431536E-4,0E0,2.964097E-5,2.8617913E-5,4.767283E-5,1.1823031E-5,0E0,0E0,1.466833E-6,0E0,0E0,0E0,0E0,1.8366409E-6,1.5074773E-5,2.1983687E-6,0E0,0E0,0E0,0E0,0E0,0E0,0E0,0E0,0E0],"parents":[2147483647,0,0,1,1,2,2,3,3,4,4,5,5,6,6,8,8,9,9,10,10,11,11,14,14,19,19,20,20,21,21],"right_children":[2,4,6,8,10,12,14,-1,16,18,20,22,-1,-1,24,-1,-1,-1,-1,26,28,30,-1,-1,-1,-1,-1,-1,-1,-1,-1],"split_conditions":[3.395E-1,3.335E-1,3.448E-1,3.267E-1,3.358E-1,3.436E-1,3.474E-1,-6.54839E-4,3.298E-1,3.355E-1,3.383E-1,3.42E-1,1.3772146E-4,2.02633E-4,3.504E-1,-3.3959906E-4,-2.3843386E-4,-1.7099964E-4,-1.1739647E-4,3.367E-1,3.398E-1,3.408E-1,6.930256E-5,2.8591268E-4,3.6711947E-4,-8.514727E-5,-6.192881E-5,-3.8009417E-5,3.6012495E-6,2.5712216E-5,5.231003E-5],"split_indices":[2,1,2,1,2,1,2,0,2,1,1,1,0,0,2,0,0,0,0,2,1,2,0,0,0,0,0,0,0,0,0],"split_type":[0,0,0,0,0,0,0,0,0,0,0,0,0,0,0,0,0,0,0,0,0,0,0,0,0,0,0,0,0,0,0],"sum_hessian":[6.49E2,3.71E2,2.78E2,6.7E1,3.04E2,1.48E2,1.3E2,6E0,6.1E1,1.27E2,1.77E2,9.3E1,5.5E1,6.1E1,6.9E1,2.3E1,3.8E1,5.7E1,7E1,7.9E1,9.8E1,5E1,4.3E1,4.7E1,2.2E1,4.8E1,3.1E1,6.6E1,3.2E1,3.9E1,1.1E1],"tree_param":{"num_deleted":"0","num_feature":"104","num_nodes":"31","size_leaf_vector":"1"}},{"base_weights":[-2.0315887E-5,-2.520626E-3,3.3075714E-3,-5.2377167E-3,-1.5234271E-3,1.6547441E-3,5.18749E-3,-4.95104E-4,-4.549963E-3,-2.4064623E-3,-9.291061E-4,1.0932258E-3,1.3513827E-4,1.946967E-4,6.161905E-3,-2.7141417E-4,-1.8945457E-4,-2.7851365E-3,-1.8396194E-3,-1.1688353E-3,-3.1542094E-4,8.0703944E-4,1.5587042E-3,2.802592E-4,3.833046E-4,-1.4622962E-4,-8.698076E-5,-4.0738472E-5,-9.9929945E-5,-6.89709E-5,-3.418307E-5,-1.7468225E-6,-4.3710323E-5,4.411458E-5,3.4115144E-6,5.2109983E-5,8.6857035E-5],"categories":[],"categories_nodes":[],"categories_segments":[],"categories_sizes":[],"default_left":[0,0,0,0,0,0,0,0,0,0,0,0,0,0,0,0,0,0,0,0,0,0,0,0,0,0,0,0,0,0,0,0,0,0,0,0,0],"id":11,"left_children":[1,3,5,7,9,11,13,-1,15,17,19,21,-1,-1,23,-1,-1,25,27,29,31,33,35,-1,-1,-1,-1,-1,-1,-1,-1,-1,-1,-1,-1,-1,-1],"loss_changes":[5.450107E-3,1.0053662E-3,8.645337E-4,2.7573924E-4,1.4208595E-4,8.5906184E-5,1.4112657E-4,0E0,3.8909377E-5,1.8487743E-5,2.4052948E-5,1.2063414E-5,0E0,0E0,1.8161023E-5,0E0,0E0,4.243804E-6,6.029324E-6,1.1215088E-5,7.4925297E-6,3.4980112E-6,1.5995902E-6,0E0,0E0,0E0,0E0,0E0,0E0,0E0,0E0,0E0,0E0,0E0,0E0,0E0,0E0],"parents":[2147483647,0,0,1,1,2,2,3,3,4,4,5,5,6,6,8,8,9,9,10,10,11,11,14,14,17,17,18,18,19,19,20,20,21,21,22,22],"right_children":[2,4,6,8,10,12,14,-1,16,18,20,22,-1,-1,24,-1,-1,26,28,30,32,34,36,-1,-1,-1,-1,-1,-1,-1,-1,-1,-1,-1,-1,-1,-1],"split_conditions":[3.395E-1,3.345E-1,3.448E-1,3.265E-1,3.369E-1,3.439E-1,3.474E-1,-4.95104E-4,3.318E-1,3.361E-1,3.393E-1,3.412E-1,1.3513827E-4,1.946967E-4,3.522E-1,-2.7141417E-4,-1.8945457E-4,3.35E-1,3.355E-1,3.376E-1,3.395E-1,1.9772506E7,6.593295E6,2.802592E-4,3.833046E-4,-1.4622962E-4,-8.698076E-5,-4.0738472E-5,-9.9929945E-5,-6.89709E-5,-3.418307E-5,-1.7468225E-6,-4.3710323E-5,4.411458E-5,3.4115144E-6,5.2109983E-5,8.6857035E-5],"split_indices":[2,1,2,2,1,1,2,0,1,1,1,2,0,0,1,0,0,2,0,2,0,3,3,0,0,0,0,0,0,0,0,0,0,0,0,0,0],"split_type":[0,0,0,0,0,0,0,0,0,0,0,0,0,0,0,0,0,0,0,0,0,0,0,0,0,0,0,0,0,0,0,0,0,0,0,0,0],"sum_hessian":[6.53E2,3.73E2,2.8E2,9.9E1,2.74E2,1.5E2,1.3E2,1.1E1,8.8E1,1.09E2,1.65E2,9.9E1,5.1E1,5.8E1,7.2E1,3.8E1,5E1,6.3E1,4.6E1,1.18E2,4.7E1,6.3E1,3.6E1,5.6E1,1.6E1,5.4E1,9E0,7E0,3.9E1,8.1E1,3.7E1,3.2E1,1.5E1,5.7E1,6E0,1.1E1,2.5E1],"tree_param":{"num_deleted":"0","num_feature":"104","num_nodes":"37","size_leaf_vector":"1"}},{"base_weights":[-1.0426392E-4,-2.382904E-3,3.0978555E-3,-5.8172545E-3,-1.6012475E-3,1.4016563E-3,4.664733E-3,-7.2018476E-4,-5.089651E-3,-2.631506E-3,-1.0277661E-3,8.5146265E-4,2.2979486E-3,1.8286149E-4,2.868975E-4,-3.129211E-4,-2.1895878E-4,-1.5704958E-4,-1.10015695E-4,-7.708279E-5,-5.8332115E-4,6.22899E-4,1.1117529E-3,1.199624E-4,6.664651E-5,-3.809861E-5,-4.8853217E-6,4.2077823E-5,2.2223432E-5,6.1229126E-5,-7.672235E-6],"categories":[],"categories_nodes":[],"categories_segments":[],"categories_sizes":[],"default_left":[0,0,0,0,0,0,0,0,0,0,0,0,0,0,0,0,0,0,0,0,0,0,0,0,0,0,0,0,0,0,0],"id":12,"left_children":[1,3,5,7,9,11,13,-1,15,17,19,21,23,-1,-1,-1,-1,-1,-1,-1,25,27,29,-1,-1,-1,-1,-1,-1,-1,-1],"loss_changes":[4.808464E-3,1.0242108E-3,7.216814E-4,3.7026452E-4,1.8340815E-4,6.363023E-5,1.3255537E-4,0E0,2.822897E-5,1.7693674E-5,4.569345E-5,4.304893E-6,1.6897684E-6,0E0,0E0,0E0,0E0,0E0,0E0,0E0,9.555417E-6,1.4596662E-6,5.6124736E-6,0E0,0E0,0E0,0E0,0E0,0E0,0E0,0E0],"parents":[2147483647,0,0,1,1,2,2,3,3,4,4,5,5,6,6,8,8,9,9,10,10,11,11,12,12,20,20,21,21,22,22],"right_children":[2,4,6,8,10,12,14,-1,16,18,20,22,24,-1,-1,-1,-1,-1,-1,-1,26,28,30,-1,-1,-1,-1,-1,-1,-1,-1],"split_conditions":[3.407E-1,3.335E-1,3.454E-1,3.267E-1,3.366E-1,3.435E-1,3.485E-1,-7.2018476E-4,3.298E-1,3.353E-1,3.383E-1,3.42E-1,2.0447954E7,1.8286149E-4,2.868975E-4,-3.129211E-4,-2.1895878E-4,-1.5704958E-4,-1.10015695E-4,-7.708279E-5,3.398E-1,3.414E-1,3.428E-1,1.199624E-4,6.664651E-5,-3.809861E-5,-4.8853217E-6,4.2077823E-5,2.2223432E-5,6.1229126E-5,-7.672235E-6],"split_indices":[1,1,1,1,1,1,1,0,0,1,1,1,3,0,0,0,0,0,0,0,1,1,0,0,0,0,0,0,0,0,0],"split_type":[0,0,0,0,0,0,0,0,0,0,0,0,0,0,0,0,0,0,0,0,0,0,0,0,0,0,0,0,0,0,0],"sum_hessian":[6.57E2,3.84E2,2.73E2,7E1,3.14E2,1.32E2,1.41E2,4E0,6.6E1,1.11E2,2.03E2,8.3E1,4.9E1,7.5E1,6.6E1,2.2E1,4.4E1,4.8E1,6.3E1,9.3E1,1.1E2,4.6E1,3.7E1,4.3E1,6E0,8E1,3E1,1.9E1,2.7E1,3.4E1,3E0],"tree_param":{"num_deleted":"0","num_feature":"104","num_nodes":"31","size_leaf_vector":"1"}},{"base_weights":[-4.5154902E-5,-1.9421006E-3,3.3828572E-3,-5.535676E-3,-1.2281723E-3,2.0826661E-3,5.181202E-3,-6.243821E-4,-4.6614916E-3,-2.0629673E-3,-3.4659324E-4,1.2083236E-3,2.6949078E-3,2.1581494E-4,2.9863356E-4,-2.7862596E-4,-1.9906671E-4,-1.4170227E-4,-1.7370778E-3,-5.9902505E-4,4.82475E-4,5.173655E-5,1.6254007E-3,1.10429006E-4,1.5295876E-4,-8.934245E-5,1.2004748E-5,-4.3471744E-5,-1.7741237E-5,1.6462289E-5,4.0628638E-5,2.0608008E-5,1.014555E-4],"categories":[],"categories_nodes":[],"categories_segments":[],"categories_sizes":[],"default_left":[0,0,0,0,0,0,0,0,0,0,0,0,0,0,0,0,0,0,0,0,0,0,0,0,0,0,0,0,0,0,0,0,0],"id":13,"left_children":[1,3,5,7,9,11,13,-1,15,17,19,21,23,-1,-1,-1,-1,-1,25,27,29,-1,31,-1,-1,-1,-1,-1,-1,-1,-1,-1,-1],"loss_changes":[4.161829E-3,1.0502099E-3,5.223169E-4,3.550453E-4,2.5318348E-4,6.8475085E-5,3.9251754E-5,0E0,1.6231788E-5,3.9554725E-5,3.5657875E-5,2.4450346E-6,7.061579E-6,0E0,0E0,0E0,0E0,0E0,1.2926583E-5,8.275947E-6,1.7556895E-6,0E0,6.510625E-6,0E0,0E0,0E0,0E0,0E0,0E0,0E0,0E0,0E0,0E0],"parents":[2147483647,0,0,1,1,2,2,3,3,4,4,5,5,6,6,8,8,9,9,10,10,11,11,12,12,18,18,19,19,20,20,22,22],"right_children":[2,4,6,8,10,12,14,-1,16,18,20,22,24,-1,-1,-1,-1,-1,26,28,30,-1,32,-1,-1,-1,-1,-1,-1,-1,-1,-1,-1],"split_conditions":[3.407E-1,3.334E-1,3.473E-1,3.272E-1,3.366E-1,3.439E-1,3.493E-1,-6.243821E-4,3.298E-1,3.353E-1,3.394E-1,3.421E-1,3.444E-1,2.1581494E-4,2.9863356E-4,-2.7862596E-4,-1.9906671E-4,-1.4170227E-4,3.989639E7,3.388E-1,1.6259784E7,5.173655E-5,6.593295E6,1.10429006E-4,1.5295876E-4,-8.934245E-5,1.2004748E-5,-4.3471744E-5,-1.7741237E-5,1.6462289E-5,4.0628638E-5,2.0608008E-5,1.014555E-4],"split_indices":[2,1,1,1,2,1,2,0,2,1,2,2,2,0,0,0,0,0,3,1,3,0,3,0,0,0,0,0,0,0,0,0,0],"split_type":[0,0,0,0,0,0,0,0,0,0,0,0,0,0,0,0,0,0,0,0,0,0,0,0,0,0,0,0,0,0,0,0,0],"sum_hessian":[6.38E2,4.11E2,2.27E2,6.7E1,3.44E2,1.33E2,9.4E1,6E0,6.1E1,1.76E2,1.68E2,5.6E1,7.7E1,4.8E1,4.6E1,2.3E1,3.8E1,5E1,1.26E2,1.29E2,3.9E1,4.2E1,1.4E1,3.6E1,4.1E1,1.23E2,3E0,6E1,6.9E1,2.8E1,1.1E1,4E0,1E1],"tree_param":{"num_deleted":"0","num_feature":"104","num_nodes":"33","size_leaf_vector":"1"}},{"base_weights":[5.4456385E-5,-1.7749256E-3,3.2961695E-3,-4.059331E-3,-9.106068E-4,2.2644256E-3,5.148459E-3,-3.019541E-4,-3.413122E-3,-1.5915225E-3,-2.0111377E-4,1.3674592E-3,1.517665E-4,2.3356044E-4,3.319434E-4,-2.0119245E-4,-1.4505922E-4,-2.0404605E-3,-1.2737075E-3,-5.274485E-4,2.158947E-4,1.0532478E-3,9.039373E-5,-9.0361544E-5,-1.3063103E-4,-7.0566166E-5,-2.8368482E-5,-3.8001057E-5,-1.6162023E-5,4.283823E-5,6.3423563E-6,3.8111495E-5,6.277865E-5],"categories":[],"categories_nodes":[],"categories_segments":[],"categories_sizes":[],"default_left":[0,0,0,0,0,0,0,0,0,0,0,0,0,0,0,0,0,0,0,0,0,0,0,0,0,0,0,0,0,0,0,0,0],"id":14,"left_children":[1,3,5,7,9,11,13,-1,15,17,19,21,-1,-1,-1,-1,-1,23,25,27,29,31,-1,-1,-1,-1,-1,-1,-1,-1,-1,-1,-1],"loss_changes":[3.8961482E-3,8.255744E-4,4.4126925E-4,1.2651097E-4,1.4751003E-4,1.0233652E-4,2.873782E-5,0E0,1.6152393E-5,1.9659026E-5,2.066261E-5,8.197851E-6,0E0,0E0,0E0,0E0,0E0,3.685418E-6,8.33637E-6,3.7912523E-6,3.7148718E-6,1.6925769E-6,0E0,0E0,0E0,0E0,0E0,0E0,0E0,0E0,0E0,0E0,0E0],"parents":[2147483647,0,0,1,1,2,2,3,3,4,4,5,5,6,6,8,8,9,9,10,10,11,11,17,17,18,18,19,19,20,20,21,21],"right_children":[2,4,6,8,10,12,14,-1,16,18,20,22,-1,-1,-1,-1,-1,24,26,28,30,32,-1,-1,-1,-1,-1,-1,-1,-1,-1,-1,-1],"split_conditions":[3.408E-1,3.339E-1,3.476E-1,3.296E-1,3.371E-1,3.438E-1,3.522E-1,-3.019541E-4,3.329E-1,3.353E-1,3.4E-1,3.435E-1,1.517665E-4,2.3356044E-4,3.319434E-4,-2.0119245E-4,-1.4505922E-4,3.356E-1,3.382E-1,3.388E-1,3.391E-1,6.4662495E6,9.039373E-5,-9.0361544E-5,-1.3063103E-4,-7.0566166E-5,-2.8368482E-5,-3.8001057E-5,-1.6162023E-5,4.283823E-5,6.3423563E-6,3.8111495E-5,6.277865E-5],"split_indices":[2,2,0,2,2,2,1,0,1,2,1,1,0,0,0,0,0,0,1,1,0,3,0,0,0,0,0,0,0,0,0,0,0],"split_type":[0,0,0,0,0,0,0,0,0,0,0,0,0,0,0,0,0,0,0,0,0,0,0,0,0,0,0,0,0,0,0,0,0],"sum_hessian":[6.55E2,4.19E2,2.36E2,1.14E2,3.05E2,1.53E2,8.3E1,2.6E1,8.8E1,1.55E2,1.5E2,7.2E1,8.1E1,6.6E1,1.7E1,3.7E1,5.1E1,6.2E1,9.3E1,8.4E1,6.6E1,4.4E1,2.8E1,4.7E1,1.5E1,7.7E1,1.6E1,3.8E1,4.6E1,7E0,5.9E1,2E1,2.4E1],"tree_param":{"num_deleted":"0","num_feature":"104","num_nodes":"33","size_leaf_vector":"1"}},{"base_weights":[-7.507576E-6,-1.8730761E-3,2.7873E-3,-4.519653E-3,-1.1008002E-3,1.6313794E-3,4.5166095E-3,-5.622126E-4,-3.9790836E-3,-1.739116E-3,-3.888601E-4,9.5103803E-4,1.2154002E-4,3.8677428E-3,2.869377E-4,-2.459278E-4,-1.6134132E-4,-1.1239887E-4,-6.9712245E-5,-6.4300746E-4,1.7208768E-4,1.0389949E-3,1.6987025E-4,3.9913286E-3,1.1977945E-4,1.0643687E-10,-3.695447E-5,1.803863E-5,-2.5074592E-6,3.671542E-5,6.6242654E-5,-2.5588275E-5,2.675546E-5,1.6427135E-4,2.1939278E-4],"categories":[],"categories_nodes":[],"categories_segments":[],"categories_sizes":[],"default_left":[0,0,0,0,0,0,0,0,0,0,0,0,0,0,0,0,0,0,0,0,0,0,0,0,0,0,0,0,0,0,0,0,0,0,0],"id":15,"left_children":[1,3,5,7,9,11,13,-1,15,17,19,21,-1,23,-1,-1,-1,-1,-1,25,27,29,31,33,-1,-1,-1,-1,-1,-1,-1,-1,-1,-1,-1],"loss_changes":[3.399473E-3,7.941846E-4,5.1435595E-4,2.7514808E-4,1.3747424E-4,8.3621155E-5,6.0276827E-5,0E0,4.278682E-5,2.4944457E-5,2.078235E-5,5.801201E-6,0E0,3.3559045E-6,0E0,0E0,0E0,0E0,0E0,6.1781575E-6,1.946999E-6,5.8207224E-6,2.7634496E-6,3.498164E-6,0E0,0E0,0E0,0E0,0E0,0E0,0E0,0E0,0E0,0E0,0E0],"parents":[2147483647,0,0,1,1,2,2,3,3,4,4,5,5,6,6,8,8,9,9,10,10,11,11,13,13,19,19,20,20,21,21,22,22,23,23],"right_children":[2,4,6,8,10,12,14,-1,16,18,20,22,-1,24,-1,-1,-1,-1,-1,26,28,30,32,34,-1,-1,-1,-1,-1,-1,-1,-1,-1,-1,-1],"split_conditions":[3.411E-1,3.345E-1,3.47E-1,3.267E-1,3.38E-1,3.439E-1,3.509E-1,-5.622126E-4,3.317E-1,3.361E-1,3.398E-1,1.9772506E7,1.2154002E-4,2.0296676E7,2.869377E-4,-2.459278E-4,-1.6134132E-4,-1.1239887E-4,-6.9712245E-5,3.998326E6,1.1117328E7,3.422E-1,2.3712772E7,3.482E-1,1.1977945E-4,1.0643687E-10,-3.695447E-5,1.803863E-5,-2.5074592E-6,3.671542E-5,6.6242654E-5,-2.5588275E-5,2.675546E-5,1.6427135E-4,2.1939278E-4],"split_indices":[1,1,1,1,1,1,1,0,1,1,1,3,0,3,0,0,0,0,0,3,3,1,3,1,0,0,0,0,0,0,0,0,0,0,0],"split_type":[0,0,0,0,0,0,0,0,0,0,0,0,0,0,0,0,0,0,0,0,0,0,0,0,0,0,0,0,0,0,0,0,0,0,0],"sum_hessian":[6.5E2,3.9E2,2.6E2,8.7E1,3.03E2,1.57E2,1.03E2,5E0,8.2E1,1.59E2,1.44E2,8.6E1,7.1E1,7E1,3.3E1,3.4E1,4.8E1,6.2E1,9.7E1,9.9E1,4.5E1,7.7E1,9E0,6.3E1,7E0,1.3E1,8.6E1,2.4E1,2.1E1,3.9E1,3.8E1,3E0,6E0,2.6E1,3.7E1],"tree_param":{"num_deleted":"0","num_feature":"104","num_nodes":"35","size_leaf_vector":"1"}},{"base_weights":[-3.3567107E-5,-2.033972E-3,2.4144996E-3,-4.204765E-3,-1.2090955E-3,1.02004E-3,3.9097974E-3,-9.286587E-3,-3.77705E-3,-1.830872E-3,-7.640456E-4,6.5922E-4,1.7573613E-3,1.4393809E-4,4.844903E-3,-2.076585E-4,-6.049179E-4,-2.269143E-4,-1.5158106E-4,-2.121675E-3,-1.5067805E-3,-1.0592814E-3,-3.8071861E-4,4.255288E-4,4.8067606E-5,1.8308364E-3,3.6495923E-5,2.2217922E-4,3.109388E-4,-7.510707E-5,-1.13883514E-4,1.3448298E-5,-8.071999E-5,-4.8127393E-5,-8.953446E-5,-1.2166685E-5,-3.9332055E-5,4.6400903E-5,1.1312167E-5,5.3701366E-5,9.695673E-5],"categories":[],"categories_nodes":[],"categories_segments":[],"categories_sizes":[],"default_left":[0,0,0,0,0,0,0,0,0,0,0,0,0,0,0,0,0,0,0,0,0,0,0,0,0,0,0,0,0,0,0,0,0,0,0,0,0,0,0,0,0],"id":16,"left_children":[1,3,5,7,9,11,13,15,17,19,21,23,25,-1,27,-1,-1,-1,-1,29,31,33,35,37,-1,39,-1,-1,-1,-1,-1,-1,-1,-1,-1,-1,-1,-1,-1,-1,-1],"loss_changes":[3.2125278E-3,6.413355E-4,6.111256E-4,1.8010789E-4,7.137889E-5,3.981171E-5,1.2295903E-4,5.079148E-5,3.901415E-5,7.075985E-6,1.713835E-5,7.004506E-6,2.438217E-6,0E0,1.2615579E-5,0E0,0E0,0E0,0E0,1.8940482E-6,1.0944961E-5,4.431764E-6,3.6565498E-6,5.8985097E-6,0E0,1.6875128E-6,0E0,0E0,0E0,0E0,0E0,0E0,0E0,0E0,0E0,0E0,0E0,0E0,0E0,0E0,0E0],"parents":[2147483647,0,0,1,1,2,2,3,3,4,4,5,5,6,6,7,7,8,8,9,9,10,10,11,11,12,12,14,14,19,19,20,20,21,21,22,22,23,23,25,25],"right_children":[2,4,6,8,10,12,14,16,18,20,22,24,26,-1,28,-1,-1,-1,-1,30,32,34,36,38,-1,40,-1,-1,-1,-1,-1,-1,-1,-1,-1,-1,-1,-1,-1,-1,-1],"split_conditions":[3.403E-1,3.345E-1,3.444E-1,3.264E-1,3.36E-1,3.421E-1,3.474E-1,3.215E-1,3.318E-1,3.346E-1,3.376E-1,3.408E-1,3.45E-1,1.4393809E-4,3.515E-1,-2.076585E-4,-6.049179E-4,-2.269143E-4,-1.5158106E-4,3.341E-1,3.351E-1,3.382E-1,1.2641317E7,3.401E-1,4.8067606E-5,3.435E-1,3.6495923E-5,2.2217922E-4,3.109388E-4,-7.510707E-5,-1.13883514E-4,1.3448298E-5,-8.071999E-5,-4.8127393E-5,-8.953446E-5,-1.2166685E-5,-3.9332055E-5,4.6400903E-5,1.1312167E-5,5.3701366E-5,9.695673E-5],"split_indices":[1,1,2,0,2,2,2,0,1,2,2,2,0,0,2,0,0,0,0,0,0,0,3,0,0,1,0,0,0,0,0,0,0,0,0,0,0,0,0,0,0],"split_type":[0,0,0,0,0,0,0,0,0,0,0,0,0,0,0,0,0,0,0,0,0,0,0,0,0,0,0,0,0,0,0,0,0,0,0,0,0,0,0,0,0],"sum_hessian":[6.54E2,3.6E2,2.94E2,9.8E1,2.62E2,1.53E2,1.41E2,6E0,9.2E1,1.08E2,1.54E2,1.04E2,4.9E1,6.9E1,7.2E1,3E0,3E0,4.3E1,4.9E1,5.4E1,5.4E1,8.6E1,6.8E1,6E1,4.4E1,4.5E1,4E0,5.9E1,1.3E1,1.3E1,4.1E1,3E0,5.1E1,7.8E1,8E0,5.2E1,1.6E1,1.6E1,4.4E1,7E0,3.8E1],"tree_param":{"num_deleted":"0","num_feature":"104","num_nodes":"41","size_leaf_vector":"1"}},{"base_weights":[7.700947E-6,-1.8158322E-3,2.4026663E-3,-4.6100095E-3,-1.2221838E-3,1.3631211E-3,3.9409082E-3,-9.991233E-3,-3.8934234E-3,-2.2769326E-3,-7.9189043E-4,7.907963E-4,1.0695423E-4,1.5838047E-4,4.5840833E-3,-2.68621E-4,-6.056119E-4,-2.3070684E-4,-1.6700923E-4,-1.1936629E-4,-8.544318E-5,-1.2082712E-3,-4.5642906E-4,5.0983485E-4,9.696066E-4,2.0806042E-4,2.8381508E-4,-5.570551E-7,-6.362567E-5,-1.684636E-5,-8.925289E-5,4.763268E-5,1.9532356E-5,5.1214873E-5,-2.606958E-6],"categories":[],"categories_nodes":[],"categories_segments":[],"categories_sizes":[],"default_left":[0,0,0,0,0,0,0,0,0,0,0,0,0,0,0,0,0,0,0,0,0,0,0,0,0,0,0,0,0,0,0,0,0,0,0],"id":17,"left_children":[1,3,5,7,9,11,13,15,17,19,21,23,-1,-1,25,-1,-1,-1,-1,-1,-1,27,29,31,33,-1,-1,-1,-1,-1,-1,-1,-1,-1,-1],"loss_changes":[2.8693106E-3,6.130828E-4,4.4876442E-4,2.1174701E-4,1.3843706E-4,7.425004E-5,4.217925E-5,3.5036355E-6,8.112751E-6,1.5016412E-6,3.0317722E-5,4.5295455E-6,0E0,0E0,4.0919986E-6,0E0,0E0,0E0,0E0,0E0,0E0,7.5226126E-6,1.9086498E-5,1.79177E-6,3.4062105E-6,0E0,0E0,0E0,0E0,0E0,0E0,0E0,0E0,0E0,0E0],"parents":[2147483647,0,0,1,1,2,2,3,3,4,4,5,5,6,6,7,7,8,8,9,9,10,10,11,11,14,14,21,21,22,22,23,23,24,24],"right_children":[2,4,6,8,10,12,14,16,18,20,22,24,-1,-1,26,-1,-1,-1,-1,-1,-1,28,30,32,34,-1,-1,-1,-1,-1,-1,-1,-1,-1,-1],"split_conditions":[3.407E-1,3.328E-1,3.461E-1,3.272E-1,3.361E-1,3.439E-1,3.493E-1,3.215E-1,3.309E-1,3.352E-1,3.381E-1,3.419E-1,1.0695423E-4,1.5838047E-4,3.522E-1,-2.68621E-4,-6.056119E-4,-2.3070684E-4,-1.6700923E-4,-1.1936629E-4,-8.544318E-5,3.351E-1,3.359114E7,3.401E-1,1.9772506E7,2.0806042E-4,2.8381508E-4,-5.570551E-7,-6.362567E-5,-1.684636E-5,-8.925289E-5,4.763268E-5,1.9532356E-5,5.1214873E-5,-2.606958E-6],"split_indices":[1,1,0,1,1,1,1,0,1,0,1,1,0,0,1,0,0,0,0,0,0,0,3,0,3,0,0,0,0,0,0,0,0,0,0],"split_type":[0,0,0,0,0,0,0,0,0,0,0,0,0,0,0,0,0,0,0,0,0,0,0,0,0,0,0,0,0,0,0,0,0,0,0],"sum_hessian":[6.55E2,3.72E2,2.83E2,6.4E1,3.08E2,1.7E2,1.13E2,6E0,5.8E1,8.8E1,2.2E2,9.9E1,7.1E1,5.4E1,5.9E1,3E0,3E0,2.2E1,3.6E1,7.1E1,1.7E1,9.7E1,1.23E2,4E1,5.9E1,4.6E1,1.3E1,5E0,9.2E1,1.14E2,9E0,7E0,3.3E1,5.6E1,3E0],"tree_param":{"num_deleted":"0","num_feature":"104","num_nodes":"35","size_leaf_vector":"1"}},{"base_weights":[3.1575866E-5,-1.5603054E-3,2.460496E-3,-3.5798135E-3,-8.1450597E-4,1.4797564E-3,3.8325053E-3,-5.814411E-4,-3.222055E-3,-1.4055369E-3,-3.1086217E-4,7.761742E-4,1.9245519E-3,1.6226483E-4,2.2950252E-4,-2.437057E-4,-2.8731728E-3,-8.163417E-5,-4.800963E-5,-3.3198794E-5,-6.2982785E-5,2.9223529E-5,5.36009E-5,8.266931E-5,1.17141324E-4,-1.6298336E-4,-1.2099303E-4,-6.967017E-6,9.141795E-6],"categories":[],"categories_nodes":[],"categories_segments":[],"categories_sizes":[],"default_left":[0,0,0,0,0,0,0,0,0,0,0,0,0,0,0,0,0,0,0,0,0,0,0,0,0,0,0,0,0],"id":18,"left_children":[1,3,5,7,9,11,13,-1,15,17,19,21,23,-1,-1,-1,25,-1,-1,-1,27,-1,-1,-1,-1,-1,-1,-1,-1],"loss_changes":[2.4513667E-3,5.7393877E-4,3.320704E-4,2.5913026E-4,8.3208084E-5,4.482281E-5,3.1366944E-5,0E0,4.3633278E-5,1.1481752E-5,1.3350213E-5,2.7195856E-6,6.3343905E-6,0E0,0E0,0E0,7.0043025E-6,0E0,0E0,0E0,1.7335565E-6,0E0,0E0,0E0,0E0,0E0,0E0,0E0,0E0],"parents":[2147483647,0,0,1,1,2,2,3,3,4,4,5,5,6,6,8,8,9,9,10,10,11,11,12,12,16,16,20,20],"right_children":[2,4,6,8,10,12,14,-1,16,18,20,22,24,-1,-1,-1,26,-1,-1,-1,28,-1,-1,-1,-1,-1,-1,-1,-1],"split_conditions":[3.402E-1,3.339E-1,3.458E-1,3.21E-1,3.366E-1,3.42E-1,3.493E-1,-5.814411E-4,3.283E-1,3.358E-1,3.379E-1,3.412E-1,3.444E-1,1.6226483E-4,2.2950252E-4,-2.437057E-4,3.316E-1,-8.163417E-5,-4.800963E-5,-3.3198794E-5,3.395E-1,2.9223529E-5,5.36009E-5,8.266931E-5,1.17141324E-4,-1.6298336E-4,-1.2099303E-4,-6.967017E-6,9.141795E-6],"split_indices":[2,2,2,2,2,2,2,0,2,2,2,2,2,0,0,0,2,0,0,0,2,0,0,0,0,0,0,0,0],"split_type":[0,0,0,0,0,0,0,0,0,0,0,0,0,0,0,0,0,0,0,0,0,0,0,0,0,0,0,0,0],"sum_hessian":[6.32E2,3.82E2,2.5E2,1.02E2,2.8E2,1.47E2,1.03E2,3E0,9.9E1,1.28E2,1.52E2,5.8E1,8.9E1,6.1E1,4.2E1,1.5E1,8.4E1,8.3E1,4.5E1,6.2E1,9E1,3.7E1,2.1E1,5.7E1,3.2E1,4.2E1,4.2E1,6.9E1,2.1E1],"tree_param":{"num_deleted":"0","num_feature":"104","num_nodes":"29","size_leaf_vector":"1"}},{"base_weights":[5.4807465E-6,-1.7246525E-3,2.2085803E-3,-5.1734797E-3,-1.2812311E-3,1.00579E-3,3.3701158E-3,-5.748412E-4,-2.0757648E-4,-2.234346E-3,-7.801847E-4,6.2137423E-4,1.4808496E-3,2.811019E-3,4.5789634E-3,-2.675755E-3,-1.7433862E-3,-9.182668E-4,6.9711605E-5,3.0839158E-4,7.239822E-4,1.5366103E-3,2.7450324E-5,1.1844023E-4,3.1217218E-3,1.9435109E-4,2.6620238E-4,-1.3964818E-4,-7.365218E-5,-9.12273E-5,-4.6890338E-5,-5.2540803E-5,-2.7258026E-5,1.4749915E-5,-5.5786073E-5,4.583796E-5,3.048964E-6,3.8799502E-5,1.1710609E-5,5.8400048E-5,8.674681E-5,1.5969684E-4,7.0124865E-5],"categories":[],"categories_nodes":[],"categories_segments":[],"categories_sizes":[],"default_left":[0,0,0,0,0,0,0,0,0,0,0,0,0,0,0,0,0,0,0,0,0,0,0,0,0,0,0,0,0,0,0,0,0,0,0,0,0,0,0,0,0,0,0],"id":19,"left_children":[1,3,5,7,9,11,13,-1,-1,15,17,19,21,23,25,27,29,31,33,35,37,39,-1,-1,41,-1,-1,-1,-1,-1,-1,-1,-1,-1,-1,-1,-1,-1,-1,-1,-1,-1,-1],"loss_changes":[2.4089639E-3,5.3473806E-4,3.8499967E-4,2.1075632E-4,1.4868658E-4,2.4281457E-5,8.242496E-5,0E0,0E0,1.8740247E-5,2.4473964E-5,2.281664E-6,2.3259636E-6,6.2076724E-6,1.4741672E-6,3.6390848E-6,1.8194842E-6,8.279574E-6,8.341004E-6,3.104967E-6,1.2956225E-6,2.1405722E-6,0E0,0E0,2.3489702E-6,0E0,0E0,0E0,0E0,0E0,0E0,0E0,0E0,0E0,0E0,0E0,0E0,0E0,0E0,0E0,0E0,0E0,0E0],"parents":[2147483647,0,0,1,1,2,2,3,3,4,4,5,5,6,6,9,9,10,10,11,11,12,12,13,13,14,14,15,15,16,16,17,17,18,18,19,19,20,20,21,21,24,24],"right_children":[2,4,6,8,10,12,14,-1,-1,16,18,20,22,24,26,28,30,32,34,36,38,40,-1,-1,42,-1,-1,-1,-1,-1,-1,-1,-1,-1,-1,-1,-1,-1,-1,-1,-1,-1,-1],"split_conditions":[3.394E-1,3.305E-1,3.444E-1,3.267E-1,3.361E-1,3.417E-1,3.493E-1,-5.748412E-4,-2.0757648E-4,3.332E-1,3.398E-1,3.411E-1,3.45E-1,3.462E-1,3.522E-1,2.521925E7,1.7660672E7,3.376E-1,3.404E-1,3.4E-1,1.9772506E7,3.439E-1,2.7450324E-5,1.1844023E-4,3.501E-1,1.9435109E-4,2.6620238E-4,-1.3964818E-4,-7.365218E-5,-9.12273E-5,-4.6890338E-5,-5.2540803E-5,-2.7258026E-5,1.4749915E-5,-5.5786073E-5,4.583796E-5,3.048964E-6,3.8799502E-5,1.1710609E-5,5.8400048E-5,8.674681E-5,1.5969684E-4,7.0124865E-5],"split_indices":[2,2,2,1,1,2,2,0,0,2,1,1,0,2,1,3,3,2,0,0,3,1,0,0,0,0,0,0,0,0,0,0,0,0,0,0,0,0,0,0,0,0,0],"split_type":[0,0,0,0,0,0,0,0,0,0,0,0,0,0,0,0,0,0,0,0,0,0,0,0,0,0,0,0,0,0,0,0,0,0,0,0,0,0,0,0,0,0,0],"sum_hessian":[6.3E2,3.53E2,2.77E2,3.9E1,3.14E2,1.37E2,1.4E2,4E0,3.5E1,1.07E2,2.07E2,7.7E1,6E1,9.8E1,4.2E1,5.4E1,5.3E1,1.78E2,2.9E1,2E1,5.7E1,5.6E1,4E0,4.4E1,5.4E1,2.5E1,1.7E1,4.8E1,6E0,4.7E1,6E0,1.3E2,4.8E1,2.5E1,4E0,5E0,1.5E1,5.1E1,6E0,2.2E1,3.4E1,5.1E1,3E0],"tree_param":{"num_deleted":"0","num_feature":"104","num_nodes":"43","size_leaf_vector":"1"}},{"base_weights":[2.9731813E-5,-1.5595064E-3,2.1642447E-3,-4.217455E-3,-1.0419297E-3,1.1961929E-3,3.5702458E-3,-8.465212E-3,-1.7414245E-4,-1.8083735E-3,-6.147363E-4,6.985911E-4,1.840204E-3,3.0492693E-3,2.346728E-4,-2.3853393E-4,-5.483538E-4,-2.0782852E-3,-7.474884E-5,-8.277505E-4,-2.9019342E-4,5.080529E-4,1.0296287E-3,1.5560274E-3,1.025802E-4,1.2547699E-4,3.3893036E-3,-3.3878165E-5,-1.0723935E-4,-4.4672208E-5,-2.174856E-5,3.9928127E-6,-2.629681E-5,1.1931886E-5,2.9927094E-5,5.614768E-5,1.41209375E-5,8.177993E-5,2.751723E-5,1.7699029E-4,9.1053545E-5],"categories":[],"categories_nodes":[],"categories_segments":[],"categories_sizes":[],"default_left":[0,0,0,0,0,0,0,0,0,0,0,0,0,0,0,0,0,0,0,0,0,0,0,0,0,0,0,0,0,0,0,0,0,0,0,0,0,0,0,0,0],"id":20,"left_children":[1,3,5,7,9,11,13,15,-1,17,19,21,23,25,-1,-1,-1,27,-1,29,31,33,35,37,-1,-1,39,-1,-1,-1,-1,-1,-1,-1,-1,-1,-1,-1,-1,-1,-1],"loss_changes":[2.1540613E-3,4.963577E-4,3.6458252E-4,1.5462213E-4,9.907878E-5,5.0629154E-5,5.005661E-5,2.1625427E-5,0E0,6.1132305E-6,1.3447978E-5,5.342892E-6,1.0128715E-6,5.809532E-6,0E0,0E0,0E0,3.7632271E-6,0E0,2.681947E-6,7.0209217E-6,1.3442914E-6,1.9840554E-6,1.8206556E-6,0E0,0E0,4.174828E-6,0E0,0E0,0E0,0E0,0E0,0E0,0E0,0E0,0E0,0E0,0E0,0E0,0E0,0E0],"parents":[2147483647,0,0,1,1,2,2,3,3,4,4,5,5,6,6,7,7,9,9,10,10,11,11,12,12,13,13,17,17,19,19,20,20,21,21,22,22,23,23,26,26],"right_children":[2,4,6,8,10,12,14,16,-1,18,20,22,24,26,-1,-1,-1,28,-1,30,32,34,36,38,-1,-1,40,-1,-1,-1,-1,-1,-1,-1,-1,-1,-1,-1,-1,-1,-1],"split_conditions":[3.395E-1,3.328E-1,3.458E-1,3.272E-1,3.366E-1,3.439E-1,3.509E-1,3.215E-1,-1.7414245E-4,3.353E-1,3.388E-1,3.413E-1,3.443E-1,3.471E-1,2.346728E-4,-2.3853393E-4,-5.483538E-4,3.32E-1,-7.474884E-5,3.376E-1,3.388E-1,3.411E-1,3.434E-1,3.453E-1,1.025802E-4,1.2547699E-4,3.501E-1,-3.3878165E-5,-1.0723935E-4,-4.4672208E-5,-2.174856E-5,3.9928127E-6,-2.629681E-5,1.1931886E-5,2.9927094E-5,5.614768E-5,1.41209375E-5,8.177993E-5,2.751723E-5,1.7699029E-4,9.1053545E-5],"split_indices":[2,1,2,1,1,1,1,0,0,1,1,2,2,2,0,0,0,0,0,2,0,1,0,1,0,0,0,0,0,0,0,0,0,0,0,0,0,0,0,0,0],"split_type":[0,0,0,0,0,0,0,0,0,0,0,0,0,0,0,0,0,0,0,0,0,0,0,0,0,0,0,0,0,0,0,0,0,0,0,0,0,0,0,0,0],"sum_hessian":[6.33E2,3.63E2,2.7E2,5.8E1,3.05E2,1.61E2,1.09E2,7E0,5.1E1,1.08E2,1.97E2,9.2E1,6.9E1,7.7E1,3.2E1,4E0,3E0,5.5E1,5.3E1,1.18E2,7.9E1,6E1,3.2E1,3.3E1,3.6E1,3.3E1,4.4E1,3E0,5.2E1,1E2,1.8E1,3.1E1,4.8E1,1.6E1,4.4E1,2.8E1,4E0,3E1,3E0,3.9E1,5E0],"tree_param":{"num_deleted":"0","num_feature":"104","num_nodes":"41","size_leaf_vector":"1"}},{"base_weights":[-8.1971026E-5,-1.4659369E-3,1.9696858E-3,-3.00955E-3,-7.716098E-4,1.1811998E-3,3.3366971E-3,-5.62838E-3,-2.4385587E-3,-1.1784622E-3,-3.4931418E-4,5.333805E-4,1.7198958E-3,1.4718196E-4,2.2267671E-4,-7.479012E-3,-2.1505186E-4,-2.547424E-3,-1.6111837E-3,-1.2396125E-3,-3.9311702E-4,-4.2376085E-4,7.760823E-5,3.6267744E-4,3.4944755E-5,1.4850824E-3,1.0017101E-4,-1.3749301E-4,-5.169205E-4,-1.3501525E-4,-1.0122768E-4,-3.219098E-5,-9.082407E-5,-7.0368806E-5,-4.6063764E-5,2.1905638E-5,-9.786487E-5,-1.3248893E-5,-5.06427E-5,2.3449156E-5,-2.8403849E-5,2.5953252E-5,-4.129383E-6,7.796793E-5,2.3750663E-5],"categories":[],"categories_nodes":[],"categories_segments":[],"categories_sizes":[],"default_left":[0,0,0,0,0,0,0,0,0,0,0,0,0,0,0,0,0,0,0,0,0,0,0,0,0,0,0,0,0,0,0,0,0,0,0,0,0,0,0,0,0,0,0,0,0],"id":21,"left_children":[1,3,5,7,9,11,13,15,17,19,21,23,25,-1,-1,27,-1,29,31,33,35,37,39,41,-1,43,-1,-1,-1,-1,-1,-1,-1,-1,-1,-1,-1,-1,-1,-1,-1,-1,-1,-1,-1],"loss_changes":[1.7832057E-3,3.9959245E-4,2.6875956E-4,1.59733E-4,4.4259446E-5,5.5617013E-5,2.7276808E-5,1.6960956E-5,4.6326895E-6,5.851878E-6,4.132886E-6,1.8655646E-6,2.8833747E-6,0E0,0E0,6.622853E-5,0E0,1.2477394E-6,1.6108788E-6,5.21887E-6,1.5159641E-5,1.0020794E-5,5.3205176E-6,2.7585907E-6,0E0,3.160545E-6,0E0,0E0,0E0,0E0,0E0,0E0,0E0,0E0,0E0,0E0,0E0,0E0,0E0,0E0,0E0,0E0,0E0,0E0,0E0],"parents":[2147483647,0,0,1,1,2,2,3,3,4,4,5,5,6,6,7,7,8,8,9,9,10,10,11,11,12,12,15,15,17,17,18,18,19,19,20,20,21,21,22,22,23,23,25,25],"right_children":[2,4,6,8,10,12,14,16,18,20,22,24,26,-1,-1,28,-1,30,32,34,36,38,40,42,-1,44,-1,-1,-1,-1,-1,-1,-1,-1,-1,-1,-1,-1,-1,-1,-1,-1,-1,-1,-1],"split_conditions":[3.395E-1,3.339E-1,3.458E-1,3.28E-1,3.366E-1,3.424E-1,3.503E-1,3.264E-1,2.521925E7,3.0710506E7,1.8716902E7,3.407E-1,3.444E-1,1.4718196E-4,2.2267671E-4,3.215E-1,-2.1505186E-4,3.329E-1,3.317E-1,3.359E-1,3.381E-1,1.2641317E7,2.9809374E7,3.41E-1,3.4944755E-5,3.449E-1,1.0017101E-4,-1.3749301E-4,-5.169205E-4,-1.3501525E-4,-1.0122768E-4,-3.219098E-5,-9.082407E-5,-7.0368806E-5,-4.6063764E-5,2.1905638E-5,-9.786487E-5,-1.3248893E-5,-5.06427E-5,2.3449156E-5,-2.8403849E-5,2.5953252E-5,-4.129383E-6,7.796793E-5,2.3750663E-5],"split_indices":[2,2,2,2,2,0,2,0,3,3,3,2,2,0,0,0,0,2,2,2,0,3,3,0,0,0,0,0,0,0,0,0,0,0,0,0,0,0,0,0,0,0,0,0,0],"split_type":[0,0,0,0,0,0,0,0,0,0,0,0,0,0,0,0,0,0,0,0,0,0,0,0,0,0,0,0,0,0,0,0,0,0,0,0,0,0,0,0,0,0,0,0,0],"sum_hessian":[6.26E2,3.74E2,2.52E2,1.15E2,2.59E2,1.61E2,9.1E1,1.9E1,9.6E1,1.31E2,1.28E2,7.4E1,8.7E1,7E1,2.1E1,6E0,1.3E1,8.3E1,1.3E1,1.21E2,1E1,1.09E2,1.9E1,3.8E1,3.6E1,5.1E1,3.6E1,3E0,3E0,6.1E1,2.2E1,3E0,1E1,7.7E1,4.4E1,7E0,3E0,8.7E1,2.2E1,1.2E1,7E0,2.8E1,1E1,4.7E1,4E0],"tree_param":{"num_deleted":"0","num_feature":"104","num_nodes":"45","size_leaf_vector":"1"}},{"base_weights":[-1.0669707E-5,-1.3637152E-3,1.8992469E-3,-3.0080308E-3,-7.701272E-4,1.0192803E-3,3.1282809E-3,-5.06989E-3,-2.4066402E-3,-1.2572581E-3,-3.9745338E-4,4.990897E-4,1.4755104E-3,1.11307905E-4,3.4625619E-3,-3.4542507E-4,-2.0317714E-4,-1.4290614E-4,-1.0931482E-4,-1.3207231E-3,2.1425189E-5,-3.369109E-4,-9.223868E-5,3.32913E-5,3.8054652E-4,1.0859242E-3,8.67117E-5,1.5494208E-4,1.9788624E-4,-7.6885815E-5,-5.183011E-5,-3.4742592E-5,-6.994636E-6,1.1295301E-5,2.9013501E-5,5.977493E-5,2.384207E-5],"categories":[],"categories_nodes":[],"categories_segments":[],"categories_sizes":[],"default_left":[0,0,0,0,0,0,0,0,0,0,0,0,0,0,0,0,0,0,0,0,0,0,0,0,0,0,0,0,0,0,0,0,0,0,0,0,0],"id":22,"left_children":[1,3,5,7,9,11,13,15,17,19,21,23,25,-1,27,-1,-1,-1,-1,29,-1,31,-1,-1,33,35,-1,-1,-1,-1,-1,-1,-1,-1,-1,-1,-1],"loss_changes":[1.6203017E-3,3.558923E-4,2.7800363E-4,1.0807696E-4,4.8697882E-5,3.5574558E-5,2.4860608E-5,1.0782853E-5,1.4113903E-6,1.3083409E-5,1.2960258E-5,1.1895008E-6,6.2811596E-6,0E0,1.6033882E-6,0E0,0E0,0E0,0E0,5.372698E-6,0E0,1.0480926E-5,0E0,0E0,1.2587543E-6,1.7658349E-6,0E0,0E0,0E0,0E0,0E0,0E0,0E0,0E0,0E0,0E0,0E0],"parents":[2147483647,0,0,1,1,2,2,3,3,4,4,5,5,6,6,7,7,8,8,9,9,10,10,11,11,12,12,14,14,19,19,21,21,24,24,25,25],"right_children":[2,4,6,8,10,12,14,16,18,20,22,24,26,-1,28,-1,-1,-1,-1,30,-1,32,-1,-1,34,36,-1,-1,-1,-1,-1,-1,-1,-1,-1,-1,-1],"split_conditions":[3.403E-1,3.34E-1,3.462E-1,3.292E-1,3.367E-1,3.427E-1,3.476E-1,3.264E-1,3.314E-1,3.4113264E7,3.0710506E7,7.2986065E6,3.443E-1,1.11307905E-4,3.504E-1,-3.4542507E-4,-2.0317714E-4,-1.4290614E-4,-1.0931482E-4,3.358E-1,2.1425189E-5,3.38E-1,-9.223868E-5,3.32913E-5,1.2775118E7,1.4471317E7,8.67117E-5,1.5494208E-4,1.9788624E-4,-7.6885815E-5,-5.183011E-5,-3.4742592E-5,-6.994636E-6,1.1295301E-5,2.9013501E-5,5.977493E-5,2.384207E-5],"split_indices":[0,0,0,0,0,0,0,0,0,3,3,3,0,0,0,0,0,0,0,0,0,0,0,0,3,3,0,0,0,0,0,0,0,0,0,0,0],"split_type":[0,0,0,0,0,0,0,0,0,0,0,0,0,0,0,0,0,0,0,0,0,0,0,0,0,0,0,0,0,0,0,0,0,0,0,0,0],"sum_hessian":[6.25E2,3.66E2,2.59E2,9.6E1,2.7E2,1.52E2,1.07E2,2E1,7.6E1,1.16E2,1.54E2,7.2E1,8E1,3.1E1,7.6E1,5E0,1.5E1,2.1E1,5.5E1,1.12E2,4E0,1.49E2,5E0,2.8E1,4.4E1,3.4E1,4.6E1,4.8E1,2.8E1,6.1E1,5.1E1,5.2E1,9.7E1,2.6E1,1.8E1,2.8E1,6E0],"tree_param":{"num_deleted":"0","num_feature":"104","num_nodes":"37","size_leaf_vector":"1"}},{"base_weights":[-1.1437109E-5,-1.4057955E-3,1.8279698E-3,-3.4759697E-3,-9.396393E-4,8.0006634E-4,2.7018343E-3,-3.896724E-4,-2.9324486E-3,-1.5859308E-3,-5.6693156E-4,5.328049E-4,1.2989925E-3,2.2667379E-3,3.6860248E-3,-2.0111776E-4,-1.295212E-4,-1.9170312E-3,-1.3221209E-3,-8.913952E-4,-3.3346648E-4,3.7750928E-4,7.754853E-4,6.9528716E-5,6.3180926E-7,9.76036E-5,2.605783E-3,1.6195296E-4,2.3226292E-4,-7.791901E-5,-1.1117601E-4,-5.808162E-5,-1.0958232E-4,-5.071864E-5,-2.8767527E-5,-1.45850445E-5,-7.097684E-5,4.154239E-5,1.4704404E-5,4.185746E-5,5.956739E-6,1.3424593E-4,5.2214044E-5],"categories":[],"categories_nodes":[],"categories_segments":[],"categories_sizes":[],"default_left":[0,0,0,0,0,0,0,0,0,0,0,0,0,0,0,0,0,0,0,0,0,0,0,0,0,0,0,0,0,0,0,0,0,0,0,0,0,0,0,0,0,0,0],"id":23,"left_children":[1,3,5,7,9,11,13,-1,15,17,19,21,23,25,27,-1,-1,29,31,33,35,37,39,-1,-1,-1,41,-1,-1,-1,-1,-1,-1,-1,-1,-1,-1,-1,-1,-1,-1,-1,-1],"loss_changes":[1.6773791E-3,3.5572308E-4,2.5114452E-4,1.3671769E-4,7.2568626E-5,1.677592E-5,5.6733843E-5,0E0,1.26924715E-5,7.1610266E-6,1.4474186E-5,2.9860348E-6,5.2837277E-6,6.435381E-6,4.2472966E-6,0E0,0E0,1.701279E-6,6.524795E-6,2.5645568E-6,4.802364E-6,1.8356495E-6,1.2358796E-6,0E0,0E0,0E0,3.2511016E-6,0E0,0E0,0E0,0E0,0E0,0E0,0E0,0E0,0E0,0E0,0E0,0E0,0E0,0E0,0E0,0E0],"parents":[2147483647,0,0,1,1,2,2,3,3,4,4,5,5,6,6,8,8,9,9,10,10,11,11,12,12,13,13,14,14,17,17,18,18,19,19,20,20,21,21,22,22,26,26],"right_children":[2,4,6,8,10,12,14,-1,16,18,20,22,24,26,28,-1,-1,30,32,34,36,38,40,-1,-1,-1,42,-1,-1,-1,-1,-1,-1,-1,-1,-1,-1,-1,-1,-1,-1,-1,-1],"split_conditions":[3.395E-1,3.316E-1,3.444E-1,3.267E-1,3.353E-1,3.435E-1,3.493E-1,-3.896724E-4,3.284E-1,3.339E-1,3.381E-1,3.412E-1,3.45E-1,3.466E-1,3.515E-1,-2.0111776E-4,-1.295212E-4,3.336E-1,3.359E-1,3.367E-1,3.404E-1,3.401E-1,3.429E-1,6.9528716E-5,6.3180926E-7,9.76036E-5,3.501E-1,1.6195296E-4,2.3226292E-4,-7.791901E-5,-1.1117601E-4,-5.808162E-5,-1.0958232E-4,-5.071864E-5,-2.8767527E-5,-1.45850445E-5,-7.097684E-5,4.154239E-5,1.4704404E-5,4.185746E-5,5.956739E-6,1.3424593E-4,5.2214044E-5],"split_indices":[2,2,2,1,2,1,2,0,0,2,1,2,0,2,2,0,0,0,0,2,0,0,0,0,0,0,0,0,0,0,0,0,0,0,0,0,0,0,0,0,0,0,0],"split_type":[0,0,0,0,0,0,0,0,0,0,0,0,0,0,0,0,0,0,0,0,0,0,0,0,0,0,0,0,0,0,0,0,0,0,0,0,0,0,0,0,0,0,0],"sum_hessian":[6.52E2,3.71E2,2.81E2,6.7E1,3.04E2,1.3E2,1.51E2,6E0,6.1E1,1.1E2,1.94E2,8.6E1,4.4E1,1.07E2,4.4E1,1.2E1,4.9E1,4.6E1,6.4E1,8E1,1.14E2,5.4E1,3.2E1,4.1E1,3E0,5.9E1,4.8E1,3.3E1,1.1E1,2.4E1,2.2E1,5.6E1,8E0,5.6E1,2.4E1,1.11E2,3E0,7E0,4.7E1,2.9E1,3E0,4.5E1,3E0],"tree_param":{"num_deleted":"0","num_feature":"104","num_nodes":"43","size_leaf_vector":"1"}},{"base_weights":[-6.2461118E-6,-1.1269493E-3,1.962074E-3,-4.936174E-4,-1.0186065E-3,1.1675623E-3,2.8916562E-3,-2.3250366E-3,-5.4409535E-4,8.458277E-4,7.888039E-5,1.2795131E-4,1.9815478E-4,-1.543834E-4,-2.000454E-3,-8.1669196E-4,9.590225E-5,3.4690667E-5,1.039209E-3,-1.068556E-4,-6.841518E-5,-5.5444474E-5,-2.9988814E-5,-4.796839E-6,1.49199695E-5,5.9313265E-5,2.340693E-5],"categories":[],"categories_nodes":[],"categories_segments":[],"categories_sizes":[],"default_left":[0,0,0,0,0,0,0,0,0,0,0,0,0,0,0,0,0,0,0,0,0,0,0,0,0,0,0],"id":24,"left_children":[1,3,5,-1,7,9,11,13,15,17,-1,-1,-1,-1,19,21,23,-1,25,-1,-1,-1,-1,-1,-1,-1,-1],"loss_changes":[1.4470774E-3,3.8599945E-4,1.7240195E-4,0E0,2.553801E-4,1.5815982E-5,2.8705283E-5,2.1052314E-5,5.328899E-5,1.4837351E-6,0E0,0E0,0E0,0E0,3.9868464E-6,1.2898701E-5,3.6025385E-6,0E0,2.0480293E-6,0E0,0E0,0E0,0E0,0E0,0E0,0E0,0E0],"parents":[2147483647,0,0,1,1,2,2,4,4,5,5,6,6,7,7,8,8,9,9,14,14,15,15,16,16,18,18],"right_children":[2,4,6,-1,8,10,12,14,16,18,-1,-1,-1,-1,20,22,24,-1,26,-1,-1,-1,-1,-1,-1,-1,-1],"split_conditions":[3.407E-1,3.21E-1,3.458E-1,-4.936174E-4,3.339E-1,3.435E-1,3.503E-1,3.305E-1,3.381E-1,9.287784E6,7.888039E-5,1.2795131E-4,1.9815478E-4,-1.543834E-4,1.9097526E7,3.36E-1,3.395E-1,3.4690667E-5,3.43E-1,-1.068556E-4,-6.841518E-5,-5.5444474E-5,-2.9988814E-5,-4.796839E-6,1.49199695E-5,5.9313265E-5,2.340693E-5],"split_indices":[2,2,2,0,2,2,2,2,2,3,0,0,0,0,3,2,2,0,2,0,0,0,0,0,0,0,0],"split_type":[0,0,0,0,0,0,0,0,0,0,0,0,0,0,0,0,0,0,0,0,0,0,0,0,0,0,0],"sum_hessian":[6.54E2,4.17E2,2.37E2,4E0,4.13E2,1.29E2,1.08E2,1.09E2,3.04E2,7.4E1,5.5E1,8.5E1,2.3E1,3E1,7.9E1,2.13E2,9.1E1,4.4E1,3E1,6.3E1,1.6E1,8.9E1,1.24E2,4.7E1,4.4E1,2.3E1,7E0],"tree_param":{"num_deleted":"0","num_feature":"104","num_nodes":"27","size_leaf_vector":"1"}},{"base_weights":[-7.92328E-5,-1.1828028E-3,1.8582754E-3,-2.6724625E-3,-6.3942844E-4,1.2696084E-3,2.9472602E-3,-7.394139E-3,-2.3256256E-3,-1.0176009E-3,-2.0881563E-4,7.0726505E-4,1.5869688E-3,1.3448752E-4,1.9504935E-4,-1.7250926E-4,-4.7447794E-4,-1.5883103E-4,-2.1784988E-3,-1.3735623E-3,-8.4809033E-4,-4.5266483E-4,9.544846E-5,7.538022E-4,9.303292E-6,1.2692205E-3,8.691528E-5,-1.2031933E-4,-9.3407485E-5,-6.628409E-6,-7.24977E-5,-8.2794577E-7,-4.5194978E-5,-1.5384267E-5,-4.8165726E-5,3.0161938E-5,2.10955E-6,2.0533676E-5,4.1792235E-5,6.6506866E-5,2.3229048E-5],"categories":[],"categories_nodes":[],"categories_segments":[],"categories_sizes":[],"default_left":[0,0,0,0,0,0,0,0,0,0,0,0,0,0,0,0,0,0,0,0,0,0,0,0,0,0,0,0,0,0,0,0,0,0,0,0,0,0,0,0,0],"id":25,"left_children":[1,3,5,7,9,11,13,15,17,19,21,23,25,-1,-1,-1,-1,-1,27,29,31,33,35,37,-1,39,-1,-1,-1,-1,-1,-1,-1,-1,-1,-1,-1,-1,-1,-1,-1],"loss_changes":[1.3727688E-3,3.2935326E-4,1.4562265E-4,1.6130804E-4,4.880414E-5,2.6182825E-5,9.400479E-6,2.5108951E-5,5.975773E-6,8.4893545E-6,1.0578833E-5,1.2422861E-6,2.4581386E-6,0E0,0E0,0E0,0E0,0E0,1.940498E-6,4.547881E-6,5.136215E-6,5.552267E-6,1.7053405E-6,1.1205957E-6,0E0,1.0976037E-6,0E0,0E0,0E0,0E0,0E0,0E0,0E0,0E0,0E0,0E0,0E0,0E0,0E0,0E0,0E0],"parents":[2147483647,0,0,1,1,2,2,3,3,4,4,5,5,6,6,7,7,8,8,9,9,10,10,11,11,12,12,18,18,19,19,20,20,21,21,22,22,23,23,25,25],"right_children":[2,4,6,8,10,12,14,16,18,20,22,24,26,-1,-1,-1,-1,-1,28,30,32,34,36,38,-1,40,-1,-1,-1,-1,-1,-1,-1,-1,-1,-1,-1,-1,-1,-1,-1],"split_conditions":[3.417E-1,3.347E-1,3.476E-1,3.272E-1,3.383E-1,3.439E-1,3.522E-1,3.215E-1,3.287E-1,3.361E-1,3.398E-1,3.434E-1,3.454E-1,1.3448752E-4,1.9504935E-4,-1.7250926E-4,-4.7447794E-4,-1.5883103E-4,3.327E-1,3.334E-1,3.351E-1,3.389E-1,3.384E-1,3.42E-1,9.303292E-6,3.449E-1,8.691528E-5,-1.2031933E-4,-9.3407485E-5,-6.628409E-6,-7.24977E-5,-8.2794577E-7,-4.5194978E-5,-1.5384267E-5,-4.8165726E-5,3.0161938E-5,2.10955E-6,2.0533676E-5,4.1792235E-5,6.6506866E-5,2.3229048E-5],"split_indices":[1,1,0,1,1,1,1,0,0,1,1,0,1,0,0,0,0,0,1,0,0,0,0,1,0,0,0,0,0,0,0,0,0,0,0,0,0,0,0,0,0],"split_type":[0,0,0,0,0,0,0,0,0,0,0,0,0,0,0,0,0,0,0,0,0,0,0,0,0,0,0,0,0,0,0,0,0,0,0,0,0,0,0,0,0],"sum_hessian":[6.4E2,4.08E2,2.32E2,1.08E2,3E2,1.52E2,8E1,6E0,1.02E2,1.59E2,1.41E2,5.6E1,9.6E1,6.6E1,1.4E1,3E0,3E0,1.2E1,9E1,4.9E1,1.1E2,7.8E1,6.3E1,5.1E1,5E0,3.4E1,6.2E1,4.8E1,4.2E1,3E0,4.6E1,7E0,1.03E2,6.2E1,1.6E1,5E0,5.8E1,1.1E1,4E1,3.1E1,3E0],"tree_param":{"num_deleted":"0","num_feature":"104","num_nodes":"41","size_leaf_vector":"1"}},{"base_weights":[-1.4761123E-5,-1.1712186E-3,1.5584154E-3,-3.540849E-3,-8.405296E-4,9.181919E-4,2.801046E-3,-3.5628676E-4,-2.914595E-3,-1.5320788E-3,-4.861013E-4,5.335167E-4,1.4426312E-3,2.5443207E-3,2.0827146E-4,-8.0255915E-5,-1.5279012E-4,-1.6458114E-3,-1.1402263E-3,-7.225037E-4,-1.0319622E-4,2.970433E-4,6.781069E-4,5.2129555E-5,7.7884346E-5,8.97505E-5,2.6501548E-3,-4.3354597E-5,-8.586568E-5,-4.6804966E-5,-1.0654815E-4,2.7829408E-5,-3.7802234E-5,1.6349783E-6,-2.6984886E-5,3.1560463E-5,5.3708577E-6,2.1986989E-5,3.9491784E-5,1.3500564E-4,5.8789923E-5],"categories":[],"categories_nodes":[],"categories_segments":[],"categories_sizes":[],"default_left":[0,0,0,0,0,0,0,0,0,0,0,0,0,0,0,0,0,0,0,0,0,0,0,0,0,0,0,0,0,0,0,0,0,0,0,0,0,0,0,0,0],"id":26,"left_children":[1,3,5,7,9,11,13,-1,15,17,19,21,23,25,-1,-1,-1,27,29,31,33,35,37,-1,-1,-1,39,-1,-1,-1,-1,-1,-1,-1,-1,-1,-1,-1,-1,-1,-1],"loss_changes":[1.168004E-3,2.869597E-4,2.1382084E-4,8.0258586E-5,7.915936E-5,3.5745048E-5,2.1626765E-5,0E0,2.4914043E-6,3.0256924E-6,1.9568211E-5,3.422896E-6,1.8740102E-6,1.5872065E-6,0E0,0E0,0E0,3.1323725E-6,3.6678139E-6,6.16967E-6,5.00042E-6,2.5935944E-6,1.3837907E-6,0E0,0E0,0E0,1.8338033E-6,0E0,0E0,0E0,0E0,0E0,0E0,0E0,0E0,0E0,0E0,0E0,0E0,0E0,0E0],"parents":[2147483647,0,0,1,1,2,2,3,3,4,4,5,5,6,6,8,8,9,9,10,10,11,11,12,12,13,13,17,17,18,18,19,19,20,20,21,21,22,22,26,26],"right_children":[2,4,6,8,10,12,14,-1,16,18,20,22,24,26,-1,-1,-1,28,30,32,34,36,38,-1,-1,-1,40,-1,-1,-1,-1,-1,-1,-1,-1,-1,-1,-1,-1,-1,-1],"split_conditions":[3.395E-1,3.318E-1,3.466E-1,3.264E-1,3.348E-1,3.432E-1,3.515E-1,-3.5628676E-4,4.1481385E6,1.818371E7,3.387E-1,3.408E-1,3.452E-1,3.481E-1,2.0827146E-4,-8.0255915E-5,-1.5279012E-4,3.8742548E6,3.989639E7,3.349E-1,3.395E-1,3.398E-1,6.593295E6,5.2129555E-5,7.7884346E-5,8.97505E-5,3.517E-1,-4.3354597E-5,-8.586568E-5,-4.6804966E-5,-1.0654815E-4,2.7829408E-5,-3.7802234E-5,1.6349783E-6,-2.6984886E-5,3.1560463E-5,5.3708577E-6,2.1986989E-5,3.9491784E-5,1.3500564E-4,5.8789923E-5],"split_indices":[2,1,2,0,2,2,2,0,3,3,1,2,1,1,0,0,0,3,3,2,0,2,3,0,0,0,0,0,0,0,0,0,0,0,0,0,0,0,0,0,0],"split_type":[0,0,0,0,0,0,0,0,0,0,0,0,0,0,0,0,0,0,0,0,0,0,0,0,0,0,0,0,0,0,0,0,0,0,0,0,0,0,0,0,0],"sum_hessian":[6.4E2,3.69E2,2.71E2,4.4E1,3.25E2,1.8E2,9.1E1,5E0,3.9E1,1.09E2,2.16E2,1.05E2,7.5E1,7.9E1,1.2E1,5E0,3.4E1,8.2E1,2.7E1,1.33E2,8.3E1,4.1E1,6.4E1,1.9E1,5.6E1,1.2E1,6.7E1,8E0,7.4E1,2.4E1,3E0,3E0,1.3E2,6.4E1,1.9E1,1.4E1,2.7E1,2.2E1,4.2E1,6.4E1,3E0],"tree_param":{"num_deleted":"0","num_feature":"104","num_nodes":"41","size_leaf_vector":"1"}},{"base_weights":[-6.626625E-5,-1.2464225E-3,1.461476E-3,-4.864973E-3,-1.0336554E-3,8.6697884E-4,2.4553714E-3,-1.6884776E-4,-4.3268176E-4,-1.684816E-3,-6.0392846E-4,4.6866015E-4,1.3172394E-3,8.717017E-5,2.7435846E-3,-9.731701E-5,-1.3060833E-3,-8.4065204E-4,-3.2480914E-4,5.1418017E-4,2.5770069E-5,5.1161544E-5,7.203608E-5,1.243439E-4,1.785196E-4,-2.1888067E-5,-6.891884E-5,-3.485151E-5,-6.861726E-5,-1.3718527E-5,-4.7065743E-5,1.8565703E-5,3.1963522E-5,3.38614E-5,-1.7508652E-5],"categories":[],"categories_nodes":[],"categories_segments":[],"categories_sizes":[],"default_left":[0,0,0,0,0,0,0,0,0,0,0,0,0,0,0,0,0,0,0,0,0,0,0,0,0,0,0,0,0,0,0,0,0,0,0],"id":27,"left_children":[1,3,5,7,9,11,13,-1,-1,15,17,19,21,-1,23,-1,25,27,29,31,33,-1,-1,-1,-1,-1,-1,-1,-1,-1,-1,-1,-1,-1,-1],"loss_changes":[1.1665432E-3,2.759879E-4,1.6449601E-4,8.3528954E-5,9.580064E-5,3.1306452E-5,1.67627E-5,0E0,0E0,1.10274705E-5,1.3602512E-5,1.9221443E-6,1.5391124E-6,0E0,6.614893E-6,0E0,3.1002637E-6,7.6724245E-6,2.7891065E-6,1.3174176E-6,2.6862579E-6,0E0,0E0,0E0,0E0,0E0,0E0,0E0,0E0,0E0,0E0,0E0,0E0,0E0,0E0],"parents":[2147483647,0,0,1,1,2,2,3,3,4,4,5,5,6,6,9,9,10,10,11,11,12,12,14,14,16,16,17,17,18,18,19,19,20,20],"right_children":[2,4,6,8,10,12,14,-1,-1,16,18,20,22,-1,24,-1,26,28,30,32,34,-1,-1,-1,-1,-1,-1,-1,-1,-1,-1,-1,-1,-1,-1],"split_conditions":[3.404E-1,3.293E-1,3.464E-1,5.6808092E7,3.361E-1,3.435E-1,3.479E-1,-1.6884776E-4,-4.3268176E-4,3.345E-1,3.383E-1,2.139073E7,3.447E-1,8.717017E-5,3.522E-1,-9.731701E-5,3.335E-1,1.5531215E7,2.9809374E7,3.418E-1,3.403E-1,5.1161544E-5,7.203608E-5,1.243439E-4,1.785196E-4,-2.1888067E-5,-6.891884E-5,-3.485151E-5,-6.861726E-5,-1.3718527E-5,-4.7065743E-5,1.8565703E-5,3.1963522E-5,3.38614E-5,-1.7508652E-5],"split_indices":[1,1,0,3,1,1,0,0,0,1,1,3,1,0,1,0,0,3,3,1,0,0,0,0,0,0,0,0,0,0,0,0,0,0,0],"split_type":[0,0,0,0,0,0,0,0,0,0,0,0,0,0,0,0,0,0,0,0,0,0,0,0,0,0,0,0,0,0,0,0,0,0,0],"sum_hessian":[6.45E2,3.64E2,2.81E2,1.9E1,3.45E2,1.77E2,1.04E2,1.5E1,4E0,1.36E2,2.09E2,9.5E1,8.2E1,3.2E1,7.2E1,7.8E1,5.8E1,1.12E2,9.7E1,8.6E1,9E0,2.7E1,5.5E1,5.8E1,1.4E1,5E0,5.3E1,9E1,2.2E1,9.1E1,6E0,4.2E1,4.4E1,3E0,6E0],"tree_param":{"num_deleted":"0","num_feature":"104","num_nodes":"35","size_leaf_vector":"1"}},{"base_weights":[-1.3170639E-5,-1.1518223E-3,1.3416765E-3,-4.5658983E-3,-9.858193E-4,7.2432513E-4,2.4039021E-3,-1.5565794E-4,-3.2341358E-4,-1.5115329E-3,-5.272714E-4,4.2132495E-4,5.9794136E-5,2.1146901E-3,1.6640165E-4,-9.701483E-5,-1.3030055E-3,-8.6690666E-4,-3.9462722E-4,1.9279371E-4,5.176928E-4,8.64795E-5,2.325819E-3,-6.991583E-5,-4.5557692E-5,-9.741634E-7,-4.602915E-5,-2.2586675E-5,4.045864E-6,3.0222644E-5,-3.3081874E-6,5.2869473E-5,2.177724E-5,1.21248784E-4,5.8072805E-5],"categories":[],"categories_nodes":[],"categories_segments":[],"categories_sizes":[],"default_left":[0,0,0,0,0,0,0,0,0,0,0,0,0,0,0,0,0,0,0,0,0,0,0,0,0,0,0,0,0,0,0,0,0,0,0],"id":28,"left_children":[1,3,5,7,9,11,13,-1,-1,15,17,19,-1,21,-1,-1,23,25,27,29,31,-1,33,-1,-1,-1,-1,-1,-1,-1,-1,-1,-1,-1,-1],"loss_changes":[9.965863E-4,1.9442712E-4,1.917099E-4,2.4081673E-5,8.0200814E-5,2.6357979E-5,2.1827349E-5,0E0,0E0,1.1419586E-5,7.812057E-6,2.45487E-6,0E0,2.8882641E-6,0E0,0E0,2.7594797E-6,2.2563909E-6,3.6212223E-6,3.8776716E-6,3.1305954E-6,0E0,3.1871314E-6,0E0,0E0,0E0,0E0,0E0,0E0,0E0,0E0,0E0,0E0,0E0,0E0],"parents":[2147483647,0,0,1,1,2,2,3,3,4,4,5,5,6,6,9,9,10,10,11,11,13,13,16,16,17,17,18,18,19,19,20,20,22,22],"right_children":[2,4,6,8,10,12,14,-1,-1,16,18,20,-1,22,-1,-1,24,26,28,30,32,-1,34,-1,-1,-1,-1,-1,-1,-1,-1,-1,-1,-1,-1],"split_conditions":[3.4E-1,3.288E-1,3.458E-1,5.6808092E7,3.352E-1,3.439E-1,3.504E-1,-1.5565794E-4,-3.2341358E-4,3.329E-1,3.373E-1,3.411E-1,5.9794136E-5,3.474E-1,1.6640165E-4,-9.701483E-5,1.8716902E7,3.355E-1,3.386E-1,3.399E-1,3.404E-1,8.64795E-5,3.508E-1,-6.991583E-5,-4.5557692E-5,-9.741634E-7,-4.602915E-5,-2.2586675E-5,4.045864E-6,3.0222644E-5,-3.3081874E-6,5.2869473E-5,2.177724E-5,1.21248784E-4,5.8072805E-5],"split_indices":[1,1,2,3,2,1,2,0,0,1,1,1,0,2,0,0,3,0,2,0,0,0,0,0,0,0,0,0,0,0,0,0,0,0,0],"split_type":[0,0,0,0,0,0,0,0,0,0,0,0,0,0,0,0,0,0,0,0,0,0,0,0,0,0,0,0,0,0,0,0,0,0,0],"sum_hessian":[6.44E2,3.5E2,2.94E2,1.5E1,3.35E2,1.87E2,1.07E2,1E1,5E0,1.55E2,1.8E2,1.15E2,7.2E1,8.4E1,2.3E1,4.8E1,1.07E2,4.9E1,1.31E2,3.5E1,8E1,3.3E1,5.1E1,8.4E1,2.3E1,3E0,4.6E1,1.17E2,1.4E1,1.3E1,2.2E1,9E0,7.1E1,4.6E1,5E0],"tree_param":{"num_deleted":"0","num_feature":"104","num_nodes":"35","size_leaf_vector":"1"}},{"base_weights":[9.419358E-6,-1.032371E-3,1.3162256E-3,-2.9434282E-3,-7.239861E-4,7.1745936E-4,2.2240074E-3,-3.0993795E-4,-2.4326234E-3,-1.2865943E-3,-4.336172E-4,4.3416704E-4,5.7217258E-5,1.8363997E-3,1.3906506E-4,-1.5484348E-4,-1.043377E-4,-7.084875E-5,-9.76488E-4,-6.6517165E-4,-2.336196E-4,2.0275354E-4,5.002309E-4,7.8430814E-5,1.0485025E-4,-3.939903E-5,-8.624296E-5,1.35381315E-5,-3.6603113E-5,-8.5679885E-6,-3.664916E-5,2.9243403E-5,-6.962781E-6,4.365608E-5,2.2074642E-5],"categories":[],"categories_nodes":[],"categories_segments":[],"categories_sizes":[],"default_left":[0,0,0,0,0,0,0,0,0,0,0,0,0,0,0,0,0,0,0,0,0,0,0,0,0,0,0,0,0,0,0,0,0,0,0],"id":29,"left_children":[1,3,5,7,9,11,13,-1,15,17,19,21,-1,23,-1,-1,-1,-1,25,27,29,31,33,-1,-1,-1,-1,-1,-1,-1,-1,-1,-1,-1,-1],"loss_changes":[8.685821E-4,2.0708513E-4,1.5222881E-4,6.6399836E-5,4.959482E-5,2.0303727E-5,1.9085652E-5,0E0,3.6462734E-6,2.8212526E-6,9.291907E-6,1.503824E-6,0E0,1.5258265E-6,0E0,0E0,0E0,0E0,3.4373443E-6,6.083108E-6,3.3254178E-6,3.348613E-6,1.3886547E-6,0E0,0E0,0E0,0E0,0E0,0E0,0E0,0E0,0E0,0E0,0E0,0E0],"parents":[2147483647,0,0,1,1,2,2,3,3,4,4,5,5,6,6,8,8,9,9,10,10,11,11,13,13,18,18,19,19,20,20,21,21,22,22],"right_children":[2,4,6,8,10,12,14,-1,16,18,20,22,-1,24,-1,-1,-1,-1,26,28,30,32,34,-1,-1,-1,-1,-1,-1,-1,-1,-1,-1,-1,-1],"split_conditions":[3.404E-1,3.318E-1,3.466E-1,3.264E-1,3.361E-1,3.439E-1,3.501E-1,-3.0993795E-4,3.293E-1,3.353E-1,3.381E-1,3.411E-1,5.7217258E-5,3.482E-1,1.3906506E-4,-1.5484348E-4,-1.043377E-4,-7.084875E-5,3.359E-1,3.351E-1,3.395E-1,3.401E-1,3.404E-1,7.8430814E-5,1.0485025E-4,-3.939903E-5,-8.624296E-5,1.35381315E-5,-3.6603113E-5,-8.5679885E-6,-3.664916E-5,2.9243403E-5,-6.962781E-6,4.365608E-5,2.2074642E-5],"split_indices":[1,1,1,0,1,1,1,0,1,1,1,1,0,1,0,0,0,0,0,0,0,0,0,0,0,0,0,0,0,0,0,0,0,0,0],"split_type":[0,0,0,0,0,0,0,0,0,0,0,0,0,0,0,0,0,0,0,0,0,0,0,0,0,0,0,0,0,0,0,0,0,0,0],"sum_hessian":[6.36E2,3.54E2,2.82E2,4.8E1,3.06E2,1.71E2,1.11E2,5E0,4.3E1,1.03E2,2.03E2,1.04E2,6.7E1,6.8E1,4.3E1,1.2E1,3.1E1,7E1,3.3E1,9.3E1,1.1E2,2.4E1,8E1,3.7E1,3.1E1,2.8E1,5E0,6E0,8.7E1,9.9E1,1.1E1,1.1E1,1.3E1,9E0,7.1E1],"tree_param":{"num_deleted":"0","num_feature":"104","num_nodes":"35","size_leaf_vector":"1"}},{"base_weights":[7.2050707E-6,-9.796678E-4,1.1530132E-3,-1.8145663E-3,-5.9318205E-4,6.666415E-4,2.2179545E-3,-3.0152948E-4,-1.6383526E-3,-8.390604E-4,-2.7907823E-4,3.011415E-4,1.0436352E-3,1.9660047E-3,1.6143358E-4,5.2303076E-6,-1.6901339E-3,-8.840802E-4,-1.20557015E-4,-4.1628187E-4,-2.260114E-5,4.1364507E-5,2.3151071E-4,8.3565444E-4,5.9476053E-5,7.446855E-5,2.0861747E-3,-1.10133195E-4,-6.847165E-5,-5.0592236E-5,-2.7643022E-5,3.249705E-5,-4.3347183E-5,-2.3342385E-5,4.9139776E-6,2.2040947E-6,-3.002137E-5,-3.8615035E-5,1.6634613E-5,4.521223E-5,5.3042177E-6,1.0803674E-4,6.118119E-5],"categories":[],"categories_nodes":[],"categories_segments":[],"categories_sizes":[],"default_left":[0,0,0,0,0,0,0,0,0,0,0,0,0,0,0,0,0,0,0,0,0,0,0,0,0,0,0,0,0,0,0,0,0,0,0,0,0,0,0,0,0,0,0],"id":30,"left_children":[1,3,5,7,9,11,13,-1,15,17,19,21,23,25,-1,-1,27,29,31,33,35,-1,37,39,-1,-1,41,-1,-1,-1,-1,-1,-1,-1,-1,-1,-1,-1,-1,-1,-1,-1,-1],"loss_changes":[7.282127E-4,1.1056967E-4,1.528727E-4,7.1098155E-5,1.81469E-5,2.807071E-5,1.7334882E-5,0E0,9.743613E-6,4.19555E-6,3.7206873E-6,3.6919046E-6,2.0704538E-6,1.3032695E-6,0E0,0E0,1.391361E-5,4.730362E-6,5.7392667E-6,1.8412084E-6,1.4906537E-6,0E0,9.90582E-6,2.1559354E-6,0E0,0E0,1.1504453E-6,0E0,0E0,0E0,0E0,0E0,0E0,0E0,0E0,0E0,0E0,0E0,0E0,0E0,0E0,0E0,0E0],"parents":[2147483647,0,0,1,1,2,2,3,3,4,4,5,5,6,6,8,8,9,9,10,10,11,11,12,12,13,13,16,16,17,17,18,18,19,19,20,20,22,22,23,23,26,26],"right_children":[2,4,6,8,10,12,14,-1,16,18,20,22,24,26,-1,-1,28,30,32,34,36,-1,38,40,-1,-1,42,-1,-1,-1,-1,-1,-1,-1,-1,-1,-1,-1,-1,-1,-1,-1,-1],"split_conditions":[3.401E-1,3.339E-1,3.464E-1,3.112E-1,3.366E-1,3.421E-1,3.521E-1,-3.0152948E-4,3.268E-1,3.0710506E7,3.38E-1,3.395E-1,3.441E-1,3.482E-1,1.6143358E-4,5.2303076E-6,3.318E-1,3.36E-1,3.383E-1,1.8514796E7,1.4621465E7,4.1364507E-5,3.394E-1,1.9772506E7,5.9476053E-5,7.446855E-5,2.2239234E7,-1.10133195E-4,-6.847165E-5,-5.0592236E-5,-2.7643022E-5,3.249705E-5,-4.3347183E-5,-2.3342385E-5,4.9139776E-6,2.2040947E-6,-3.002137E-5,-3.8615035E-5,1.6634613E-5,4.521223E-5,5.3042177E-6,1.0803674E-4,6.118119E-5],"split_indices":[1,2,2,2,2,2,1,0,1,3,2,0,2,1,0,0,1,2,1,3,3,0,2,3,0,0,3,0,0,0,0,0,0,0,0,0,0,0,0,0,0,0,0],"split_type":[0,0,0,0,0,0,0,0,0,0,0,0,0,0,0,0,0,0,0,0,0,0,0,0,0,0,0,0,0,0,0,0,0,0,0,0,0,0,0,0,0,0,0],"sum_hessian":[6.42E2,3.45E2,2.97E2,1.08E2,2.37E2,2.05E2,9.2E1,3E0,1.05E2,1.32E2,1.05E2,1.05E2,1E2,7.6E1,1.6E1,3E0,1.02E2,1.24E2,8E0,6.8E1,3.7E1,1.1E1,9.4E1,4.4E1,5.6E1,1.8E1,5.8E1,3.7E1,6.5E1,8.8E1,3.6E1,4E0,4E0,6.2E1,6E0,3.4E1,3E0,8E0,8.6E1,4E1,4E0,5.2E1,6E0],"tree_param":{"num_deleted":"0","num_feature":"104","num_nodes":"43","size_leaf_vector":"1"}},{"base_weights":[2.9234334E-5,-8.0046075E-4,1.3968939E-3,-1.92459E-3,-3.906882E-4,9.687227E-4,2.2851406E-3,-2.809452E-4,-1.6439356E-3,-5.8832724E-4,1.2653257E-4,6.32747E-4,6.725004E-5,1.0337159E-4,1.5585785E-4,-1.1107721E-4,-7.250267E-5,-6.8071176E-4,-1.3796944E-4,2.6678903E-5,6.168703E-5,1.935702E-5,3.7045553E-5,-5.4087777E-5,-2.7447413E-5,2.5916224E-5,-2.177839E-5,-3.1353535E-5,5.6083077E-6],"categories":[],"categories_nodes":[],"categories_segments":[],"categories_sizes":[],"default_left":[0,0,0,0,0,0,0,0,0,0,0,0,0,0,0,0,0,0,0,0,0,0,0,0,0,0,0,0,0],"id":31,"left_children":[1,3,5,7,9,11,13,-1,15,17,19,21,-1,-1,-1,-1,-1,23,25,-1,27,-1,-1,-1,-1,-1,-1,-1,-1],"loss_changes":[7.182741E-4,1.8073915E-4,8.868321E-5,9.96296E-5,2.9719122E-5,1.9755462E-5,7.503084E-6,0E0,7.865456E-6,8.643357E-6,2.1050869E-6,2.0509542E-6,0E0,0E0,0E0,0E0,0E0,8.600837E-6,7.452309E-6,0E0,2.538856E-6,0E0,0E0,0E0,0E0,0E0,0E0,0E0,0E0],"parents":[2147483647,0,0,1,1,2,2,3,3,4,4,5,5,6,6,8,8,9,9,10,10,11,11,17,17,18,18,20,20],"right_children":[2,4,6,8,10,12,14,-1,16,18,20,22,-1,-1,-1,-1,-1,24,26,-1,28,-1,-1,-1,-1,-1,-1,-1,-1],"split_conditions":[3.407E-1,3.339E-1,3.472E-1,3.262E-1,3.383E-1,3.441E-1,3.515E-1,-2.809452E-4,3.298E-1,1.7660672E7,4.2985035E6,3.413E-1,6.725004E-5,1.0337159E-4,1.5585785E-4,-1.1107721E-4,-7.250267E-5,3.352E-1,2.1982144E7,2.6678903E-5,4.822728E6,1.935702E-5,3.7045553E-5,-5.4087777E-5,-2.7447413E-5,2.5916224E-5,-2.177839E-5,-3.1353535E-5,5.6083077E-6],"split_indices":[2,2,2,2,2,2,2,0,2,3,3,2,0,0,0,0,0,2,3,0,3,0,0,0,0,0,0,0,0],"split_type":[0,0,0,0,0,0,0,0,0,0,0,0,0,0,0,0,0,0,0,0,0,0,0,0,0,0,0,0,0],"sum_hessian":[6.31E2,3.93E2,2.38E2,1.04E2,2.89E2,1.62E2,7.6E1,6E0,9.8E1,2.09E2,8E1,8.7E1,7.5E1,6.3E1,1.3E1,2.2E1,7.6E1,1.73E2,3.6E1,1E1,7E1,2.8E1,5.9E1,4.1E1,1.32E2,1.1E1,2.5E1,4E0,6.6E1],"tree_param":{"num_deleted":"0","num_feature":"104","num_nodes":"29","size_leaf_vector":"1"}},{"base_weights":[-3.838316E-5,-8.8763924E-4,1.0649061E-3,-1.9063723E-3,-4.940093E-4,7.139567E-4,2.1422992E-3,-2.4408649E-4,-1.708787E-3,-8.031428E-4,-2.4060514E-4,3.395161E-4,1.1097204E-3,9.310791E-5,1.6244581E-4,-1.2573325E-4,-7.443544E-5,-9.6417655E-4,-6.494594E-4,-6.2915686E-5,-1.901629E-4,1.856316E-4,4.928436E-4,8.7804167E-4,6.0741226E-5,1.963973E-6,-5.0981234E-5,-1.0237098E-5,-3.72247E-5,-1.4357613E-5,1.0121693E-6,1.7722286E-5,-8.063913E-6,1.952375E-5,3.6537927E-5,4.8919122E-5,1.5412059E-5],"categories":[],"categories_nodes":[],"categories_segments":[],"categories_sizes":[],"default_left":[0,0,0,0,0,0,0,0,0,0,0,0,0,0,0,0,0,0,0,0,0,0,0,0,0,0,0,0,0,0,0,0,0,0,0,0,0],"id":32,"left_children":[1,3,5,7,9,11,13,-1,15,17,19,21,23,-1,-1,-1,-1,25,27,-1,29,31,33,35,-1,-1,-1,-1,-1,-1,-1,-1,-1,-1,-1,-1,-1],"loss_changes":[6.2684465E-4,1.5063767E-4,1.0850068E-4,5.338629E-5,2.1270745E-5,3.2373224E-5,1.5960599E-5,0E0,1.3992016E-5,2.4178298E-6,7.563708E-6,2.6219077E-6,1.5388214E-6,0E0,0E0,0E0,0E0,3.267156E-6,2.6369653E-6,0E0,2.9852586E-6,3.5123976E-6,1.1028933E-6,1.8138671E-6,0E0,0E0,0E0,0E0,0E0,0E0,0E0,0E0,0E0,0E0,0E0,0E0,0E0],"parents":[2147483647,0,0,1,1,2,2,3,3,4,4,5,5,6,6,8,8,9,9,10,10,11,11,12,12,17,17,18,18,20,20,21,21,22,22,23,23],"right_children":[2,4,6,8,10,12,14,-1,16,18,20,22,24,-1,-1,-1,-1,26,28,-1,30,32,34,36,-1,-1,-1,-1,-1,-1,-1,-1,-1,-1,-1,-1,-1],"split_conditions":[3.403E-1,3.347E-1,3.472E-1,3.262E-1,3.373E-1,3.44E-1,3.515E-1,-2.4408649E-4,3.304E-1,3.361E-1,3.353E-1,3.419E-1,3.443E-1,9.310791E-5,1.6244581E-4,-1.2573325E-4,-7.443544E-5,3.331E-1,3.349E-1,-6.2915686E-5,3.38E-1,3.414E-1,1.1322774E7,2.0447954E7,6.0741226E-5,1.963973E-6,-5.0981234E-5,-1.0237098E-5,-3.72247E-5,-1.4357613E-5,1.0121693E-6,1.7722286E-5,-8.063913E-6,1.952375E-5,3.6537927E-5,4.8919122E-5,1.5412059E-5],"split_indices":[1,1,2,2,1,1,2,0,1,1,2,1,2,0,0,0,0,2,2,0,2,1,3,3,0,0,0,0,0,0,0,0,0,0,0,0,0],"split_type":[0,0,0,0,0,0,0,0,0,0,0,0,0,0,0,0,0,0,0,0,0,0,0,0,0,0,0,0,0,0,0,0,0,0,0,0,0],"sum_hessian":[6.67E2,3.77E2,2.9E2,1.04E2,2.73E2,2.2E2,7E1,5E0,9.9E1,1.22E2,1.51E2,1.14E2,1.06E2,5.8E1,1.2E1,1.9E1,8E1,5.7E1,6.5E1,6E0,1.45E2,5.8E1,5.6E1,3.6E1,7E1,3E0,5.4E1,1.2E1,5.3E1,9.9E1,4.6E1,3.9E1,1.9E1,4.1E1,1.5E1,3E1,6E0],"tree_param":{"num_deleted":"0","num_feature":"104","num_nodes":"37","size_leaf_vector":"1"}},{"base_weights":[2.091576E-5,-8.5859915E-4,1.0744287E-3,-2.7512682E-3,-6.827442E-4,4.893573E-4,1.7247339E-3,-1.15686234E-4,-2.194366E-4,-1.1587673E-3,-3.6679814E-4,3.0936443E-4,7.70882E-4,6.833641E-5,2.2767673E-3,-1.253747E-3,-7.8156166E-4,-4.980674E-4,-2.1249222E-4,2.3110799E-4,5.912706E-4,4.0843684E-4,4.372832E-5,9.857676E-5,1.4822154E-4,-5.0205475E-5,-7.100372E-5,-5.0464274E-5,1.1081994E-5,-2.6553811E-5,2.2583456E-5,-1.4354479E-5,1.257188E-5,-3.806812E-6,1.8293846E-5,4.369851E-5,-2.9297812E-6,3.9902738E-5,-2.652049E-5],"categories":[],"categories_nodes":[],"categories_segments":[],"categories_sizes":[],"default_left":[0,0,0,0,0,0,0,0,0,0,0,0,0,0,0,0,0,0,0,0,0,0,0,0,0,0,0,0,0,0,0,0,0,0,0,0,0,0,0],"id":33,"left_children":[1,3,5,7,9,11,13,-1,-1,15,17,19,21,-1,23,25,27,29,31,33,35,37,-1,-1,-1,-1,-1,-1,-1,-1,-1,-1,-1,-1,-1,-1,-1,-1,-1],"loss_changes":[5.8652123E-4,1.12949696E-4,1.08732784E-4,1.0623087E-5,4.7251015E-5,7.5144017E-6,2.3766072E-5,0E0,0E0,3.534311E-6,3.7832451E-6,1.9591453E-6,1.8600076E-6,0E0,5.070149E-6,2.684712E-6,6.6203793E-6,3.4688837E-6,3.1869004E-6,3.1747863E-6,3.7255481E-6,5.9101676E-6,0E0,0E0,0E0,0E0,0E0,0E0,0E0,0E0,0E0,0E0,0E0,0E0,0E0,0E0,0E0,0E0,0E0],"parents":[2147483647,0,0,1,1,2,2,3,3,4,4,5,5,6,6,9,9,10,10,11,11,12,12,14,14,15,15,16,16,17,17,18,18,19,19,20,20,21,21],"right_children":[2,4,6,8,10,12,14,-1,-1,16,18,20,22,-1,24,26,28,30,32,34,36,38,-1,-1,-1,-1,-1,-1,-1,-1,-1,-1,-1,-1,-1,-1,-1,-1,-1],"split_conditions":[3.389E-1,3.298E-1,3.448E-1,5.6808092E7,3.348E-1,3.421E-1,3.493E-1,-1.15686234E-4,-2.194366E-4,1.8399182E7,3.371E-1,1.4161042E7,6.4662495E6,6.833641E-5,3.515E-1,7.548791E6,3.341E-1,3.989639E7,1.8716902E7,3.401E-1,1.9772506E7,4.9566575E6,4.372832E-5,9.857676E-5,1.4822154E-4,-5.0205475E-5,-7.100372E-5,-5.0464274E-5,1.1081994E-5,-2.6553811E-5,2.2583456E-5,-1.4354479E-5,1.257188E-5,-3.806812E-6,1.8293846E-5,4.369851E-5,-2.9297812E-6,3.9902738E-5,-2.652049E-5],"split_indices":[2,2,2,3,2,2,2,0,0,3,2,3,3,0,2,3,2,3,3,2,3,3,0,0,0,0,0,0,0,0,0,0,0,0,0,0,0,0,0],"split_type":[0,0,0,0,0,0,0,0,0,0,0,0,0,0,0,0,0,0,0,0,0,0,0,0,0,0,0,0,0,0,0,0,0,0,0,0,0,0,0],"sum_hessian":[6.31E2,3.44E2,2.87E2,2.8E1,3.16E2,1.52E2,1.35E2,2.4E1,4E0,1.25E2,1.91E2,9.4E1,5.8E1,8.4E1,5.1E1,9.8E1,2.7E1,1.02E2,8.9E1,7.5E1,1.9E1,1.4E1,4.4E1,3.8E1,1.3E1,4.2E1,5.6E1,2.2E1,5E0,9.9E1,3E0,7.7E1,1.2E1,2.3E1,5.2E1,1.3E1,6E0,1E1,4E0],"tree_param":{"num_deleted":"0","num_feature":"104","num_nodes":"39","size_leaf_vector":"1"}},{"base_weights":[2.6243295E-5,-7.450477E-4,1.0960934E-3,-1.5381855E-3,-3.613614E-4,7.563041E-4,1.9840803E-3,-2.6360116E-4,-1.3973861E-3,-6.4217945E-4,-2.0753716E-4,5.110046E-4,5.425578E-5,1.7360029E-3,1.322825E-4,2.8051809E-5,-1.4538448E-3,-7.328089E-4,-7.1252384E-6,-3.0456987E-4,7.033487E-5,3.6450883E-4,6.758456E-4,9.015286E-5,3.4571887E-5,-1.2811055E-4,-6.233711E-5,-4.8611462E-5,-2.839522E-5,2.3706072E-5,-3.8784743E-5,-1.2097237E-5,-4.2662647E-5,1.28229285E-5,-1.2988877E-5,3.6661466E-5,1.39750255E-5,3.649778E-5,-7.79815E-6],"categories":[],"categories_nodes":[],"categories_segments":[],"categories_sizes":[],"default_left":[0,0,0,0,0,0,0,0,0,0,0,0,0,0,0,0,0,0,0,0,0,0,0,0,0,0,0,0,0,0,0,0,0,0,0,0,0,0,0],"id":34,"left_children":[1,3,5,7,9,11,13,-1,15,17,19,21,-1,23,-1,-1,25,27,29,31,33,35,37,-1,-1,-1,-1,-1,-1,-1,-1,-1,-1,-1,-1,-1,-1,-1,-1],"loss_changes":[5.239718E-4,1.1173678E-4,7.8759156E-5,5.571966E-5,1.0665877E-5,1.5093021E-5,7.387949E-6,0E0,1.375236E-5,5.0595845E-6,4.416339E-6,2.4824276E-6,0E0,2.6756752E-6,0E0,0E0,2.2973793E-5,2.487941E-6,4.806232E-6,3.9512843E-6,2.7086169E-6,1.73841E-6,2.4543224E-6,0E0,0E0,0E0,0E0,0E0,0E0,0E0,0E0,0E0,0E0,0E0,0E0,0E0,0E0,0E0,0E0],"parents":[2147483647,0,0,1,1,2,2,3,3,4,4,5,5,6,6,8,8,9,9,10,10,11,11,13,13,16,16,17,17,18,18,19,19,20,20,21,21,22,22],"right_children":[2,4,6,8,10,12,14,-1,16,18,20,22,-1,24,-1,-1,26,28,30,32,34,36,38,-1,-1,-1,-1,-1,-1,-1,-1,-1,-1,-1,-1,-1,-1,-1,-1],"split_conditions":[3.411E-1,3.342E-1,3.471E-1,3.112E-1,3.373E-1,3.441E-1,3.522E-1,-2.6360116E-4,3.268E-1,1.4779981E7,3.398E-1,3.428E-1,5.425578E-5,3.513E-1,1.322825E-4,2.8051809E-5,3.283E-1,3.352E-1,3.351E-1,3.389E-1,3.401E-1,3.4E-1,3.449E-1,9.015286E-5,3.4571887E-5,-1.2811055E-4,-6.233711E-5,-4.8611462E-5,-2.839522E-5,2.3706072E-5,-3.8784743E-5,-1.2097237E-5,-4.2662647E-5,1.28229285E-5,-1.2988877E-5,3.6661466E-5,1.39750255E-5,3.649778E-5,-7.79815E-6],"split_indices":[1,2,2,2,1,2,1,0,1,3,1,1,0,0,0,0,2,2,0,0,0,2,1,0,0,0,0,0,0,0,0,0,0,0,0,0,0,0,0],"split_type":[0,0,0,0,0,0,0,0,0,0,0,0,0,0,0,0,0,0,0,0,0,0,0,0,0,0,0,0,0,0,0,0,0,0,0,0,0,0,0],"sum_hessian":[6.33E2,3.68E2,2.65E2,1.19E2,2.49E2,1.93E2,7.2E1,3E0,1.16E2,8.7E1,1.62E2,1.12E2,8.1E1,5.5E1,1.7E1,3E0,1.13E2,7.6E1,1.1E1,1.2E2,4.2E1,6.1E1,5.1E1,5.1E1,4E0,1.6E1,9.7E1,2.9E1,4.7E1,7E0,4E0,1.09E2,1.1E1,2.7E1,1.5E1,1E1,5.1E1,4.8E1,3E0],"tree_param":{"num_deleted":"0","num_feature":"104","num_nodes":"39","size_leaf_vector":"1"}},{"base_weights":[2.4056584E-5,-7.501224E-4,1.0055191E-3,-2.8610022E-3,-6.020733E-4,6.0098874E-4,1.6740126E-3,-1.0648802E-4,-2.5337606E-4,-1.0718667E-3,-3.1821567E-4,3.2945737E-4,4.5063265E-5,6.8602814E-5,1.03874154E-4,-6.226599E-5,-8.207466E-4,-3.8410997E-4,7.253597E-5,3.6278565E-4,-1.6817152E-5,-4.3898464E-5,-4.218519E-6,-1.2707634E-5,-3.8853323E-5,1.49153175E-5,-2.1570622E-5,1.4802207E-5,4.3355674E-5],"categories":[],"categories_nodes":[],"categories_segments":[],"categories_sizes":[],"default_left":[0,0,0,0,0,0,0,0,0,0,0,0,0,0,0,0,0,0,0,0,0,0,0,0,0,0,0,0,0],"id":35,"left_children":[1,3,5,7,9,11,13,-1,-1,15,17,19,-1,-1,-1,-1,21,23,25,27,-1,-1,-1,-1,-1,-1,-1,-1,-1],"loss_changes":[4.8248502E-4,1.09219895E-4,7.47132E-5,2.631788E-5,4.4065957E-5,1.4053148E-5,9.941781E-6,0E0,0E0,4.422589E-6,5.4092598E-6,2.2078784E-6,0E0,0E0,0E0,0E0,2.2013446E-6,8.943602E-6,3.6557683E-6,2.772661E-6,0E0,0E0,0E0,0E0,0E0,0E0,0E0,0E0,0E0],"parents":[2147483647,0,0,1,1,2,2,3,3,4,4,5,5,6,6,9,9,10,10,11,11,16,16,17,17,18,18,19,19],"right_children":[2,4,6,8,10,12,14,-1,-1,16,18,20,-1,-1,-1,-1,22,24,26,28,-1,-1,-1,-1,-1,-1,-1,-1,-1],"split_conditions":[3.395E-1,3.294E-1,3.458E-1,5.6808092E7,3.35E-1,3.435E-1,3.499E-1,-1.0648802E-4,-2.5337606E-4,3.333E-1,1.8716902E7,1.8821172E7,4.5063265E-5,6.8602814E-5,1.03874154E-4,-6.226599E-5,3.366E-1,1.1551879E7,3.2203644E7,1.4161042E7,-1.6817152E-5,-4.3898464E-5,-4.218519E-6,-1.2707634E-5,-3.8853323E-5,1.49153175E-5,-2.1570622E-5,1.4802207E-5,4.3355674E-5],"split_indices":[2,2,2,3,2,1,1,0,0,2,3,3,0,0,0,0,1,3,3,3,0,0,0,0,0,0,0,0,0],"split_type":[0,0,0,0,0,0,0,0,0,0,0,0,0,0,0,0,0,0,0,0,0,0,0,0,0,0,0,0,0],"sum_hessian":[6.33E2,3.54E2,2.79E2,2.2E1,3.32E2,1.75E2,1.04E2,1.8E1,4E0,1.24E2,2.08E2,9.3E1,8.2E1,6.2E1,4.2E1,7.1E1,5.3E1,1.78E2,3E1,8.9E1,4E0,4.9E1,4E0,1.35E2,4.3E1,2.1E1,9E0,8E1,9E0],"tree_param":{"num_deleted":"0","num_feature":"104","num_nodes":"29","size_leaf_vector":"1"}},{"base_weights":[-3.5057903E-5,-6.579022E-4,1.1033039E-3,-3.0422484E-4,-5.7648687E-4,6.4689486E-4,1.6231E-3,-1.1315474E-3,-2.7912698E-4,3.8298266E-4,4.6110406E-5,1.5276608E-3,1.3705067E-4,-1.03994855E-4,-9.946149E-4,-5.196628E-4,-1.1247584E-4,4.1907976E-4,-1.31621955E-5,6.35162E-5,8.4029765E-5,-4.6285026E-5,-9.476952E-5,-2.366164E-5,-6.189197E-5,4.7782436E-5,-6.9571324E-6,1.6977114E-5,4.5178644E-5],"categories":[],"categories_nodes":[],"categories_segments":[],"categories_sizes":[],"default_left":[0,0,0,0,0,0,0,0,0,0,0,0,0,0,0,0,0,0,0,0,0,0,0,0,0,0,0,0,0],"id":36,"left_children":[1,3,5,-1,7,9,11,13,15,17,-1,19,-1,-1,21,23,25,27,-1,-1,-1,-1,-1,-1,-1,-1,-1,-1,-1],"loss_changes":[4.53082E-4,1.7895915E-4,5.2566204E-5,0E0,6.702567E-5,8.51115E-6,7.01542E-6,1.63714E-5,1.06444E-5,1.6032427E-6,0E0,1.7613202E-6,0E0,0E0,6.0670864E-6,3.0488136E-6,4.6618443E-6,2.0438556E-6,0E0,0E0,0E0,0E0,0E0,0E0,0E0,0E0,0E0,0E0,0E0],"parents":[2147483647,0,0,1,1,2,2,4,4,5,5,6,6,7,7,8,8,9,9,11,11,14,14,15,15,16,16,17,17],"right_children":[2,4,6,-1,8,10,12,14,16,18,-1,20,-1,-1,22,24,26,28,-1,-1,-1,-1,-1,-1,-1,-1,-1,-1,-1],"split_conditions":[3.408E-1,3.267E-1,3.458E-1,-3.0422484E-4,3.348E-1,3.432E-1,3.534E-1,3.283E-1,3.381E-1,3.431E-1,4.6110406E-5,3.493E-1,1.3705067E-4,-1.03994855E-4,3.359E-1,1.7660672E7,3.382E-1,3.439E-1,-1.31621955E-5,6.35162E-5,8.4029765E-5,-4.6285026E-5,-9.476952E-5,-2.366164E-5,-6.189197E-5,4.7782436E-5,-6.9571324E-6,1.6977114E-5,4.5178644E-5],"split_indices":[2,1,2,0,2,2,1,2,1,2,0,1,0,0,0,3,1,1,0,0,0,0,0,0,0,0,0,0,0],"split_type":[0,0,0,0,0,0,0,0,0,0,0,0,0,0,0,0,0,0,0,0,0,0,0,0,0,0,0,0,0],"sum_hessian":[6.37E2,4.12E2,2.25E2,5E0,4.07E2,1.21E2,1.04E2,1.41E2,2.66E2,6.3E1,5.8E1,9.8E1,6E0,1.6E1,1.25E2,1.08E2,1.58E2,6E1,3E0,4E1,5.8E1,1.18E2,7E0,1.03E2,5E0,3E0,1.55E2,5.3E1,7E0],"tree_param":{"num_deleted":"0","num_feature":"104","num_nodes":"29","size_leaf_vector":"1"}},{"base_weights":[6.615469E-6,-6.0613896E-4,1.0161265E-3,-2.8623145E-3,-4.8052164E-4,6.9538323E-4,1.6529877E-3,-2.3418416E-4,-1.0002032E-4,-8.424312E-4,-1.800889E-4,3.8552453E-4,4.6101388E-5,1.4818035E-3,1.21721394E-4,-5.9025806E-5,-6.790942E-4,-2.7974317E-4,2.022372E-4,4.5277178E-4,1.716117E-5,1.5308211E-3,1.5128032E-5,-2.8870198E-5,-6.0880597E-5,-1.1847349E-5,-6.1204606E-5,1.6944277E-5,-1.8341343E-5,1.8861201E-5,4.1948093E-5,-2.6299433E-5,1.2832715E-5,6.548448E-5,9.4364914E-5],"categories":[],"categories_nodes":[],"categories_segments":[],"categories_sizes":[],"default_left":[0,0,0,0,0,0,0,0,0,0,0,0,0,0,0,0,0,0,0,0,0,0,0,0,0,0,0,0,0,0,0,0,0,0,0],"id":37,"left_children":[1,3,5,7,9,11,13,-1,-1,15,17,19,-1,21,-1,-1,23,25,27,29,31,33,-1,-1,-1,-1,-1,-1,-1,-1,-1,-1,-1,-1,-1],"loss_changes":[3.9960153E-4,1.125573E-4,4.8692164E-5,2.3597633E-5,4.138294E-5,1.11618865E-5,7.2280527E-6,0E0,0E0,8.751682E-6,8.057663E-6,1.751001E-6,0E0,3.5252888E-6,0E0,0E0,5.8136284E-6,6.4591804E-6,3.5458247E-6,1.4340712E-6,1.695965E-6,2.7308852E-6,0E0,0E0,0E0,0E0,0E0,0E0,0E0,0E0,0E0,0E0,0E0,0E0,0E0],"parents":[2147483647,0,0,1,1,2,2,3,3,4,4,5,5,6,6,9,9,10,10,11,11,13,13,16,16,17,17,18,18,19,19,20,20,21,21],"right_children":[2,4,6,8,10,12,14,-1,-1,16,18,20,-1,22,-1,-1,24,26,28,30,32,34,-1,-1,-1,-1,-1,-1,-1,-1,-1,-1,-1,-1,-1],"split_conditions":[3.406E-1,3.282E-1,3.47E-1,3.267E-1,3.36E-1,3.434E-1,3.515E-1,-2.3418416E-4,-1.0002032E-4,3.34E-1,1.6259784E7,3.434E-1,4.6101388E-5,3.517E-1,1.21721394E-4,-5.9025806E-5,3.362E-1,1.5531215E7,3.404E-1,3.424E-1,3.437E-1,3.495E-1,1.5128032E-5,-2.8870198E-5,-6.0880597E-5,-1.1847349E-5,-6.1204606E-5,1.6944277E-5,-1.8341343E-5,1.8861201E-5,4.1948093E-5,-2.6299433E-5,1.2832715E-5,6.548448E-5,9.4364914E-5],"split_indices":[2,2,2,1,2,2,2,0,0,1,3,0,0,0,0,0,0,3,0,2,0,2,0,0,0,0,0,0,0,0,0,0,0,0,0],"split_type":[0,0,0,0,0,0,0,0,0,0,0,0,0,0,0,0,0,0,0,0,0,0,0,0,0,0,0,0,0,0,0,0,0,0,0],"sum_hessian":[6.44E2,4.01E2,2.43E2,2E1,3.81E2,1.63E2,8E1,5E0,1.5E1,1.72E2,2.09E2,7E1,9.3E1,6.8E1,1.2E1,5.4E1,1.18E2,1.66E2,4.3E1,5.9E1,1.1E1,6.5E1,3E0,1.01E2,1.7E1,1.6E2,6E0,3.5E1,8E0,5.1E1,8E0,3E0,8E0,4.3E1,2.2E1],"tree_param":{"num_deleted":"0","num_feature":"104","num_nodes":"35","size_leaf_vector":"1"}},{"base_weights":[7.6612465E-5,-5.322996E-4,9.896789E-4,-1.4694302E-3,-3.348853E-4,6.8066746E-4,1.6911641E-3,-1.2492009E-3,-1.9531934E-4,-4.554673E-4,5.8657726E-5,4.7834075E-4,4.760758E-5,7.426053E-5,1.2954211E-4,3.823638E-5,-1.3645655E-3,-6.602927E-4,-3.749061E-4,1.0703399E-4,-3.200084E-5,5.144568E-4,-9.561862E-5,-1.00806996E-4,-5.6829787E-5,-2.9210112E-5,-6.145197E-5,-2.4756917E-5,-3.100902E-6,7.811261E-6,-1.043275E-5,1.6749022E-5,3.472163E-5,-3.2273307E-5,2.3906678E-5],"categories":[],"categories_nodes":[],"categories_segments":[],"categories_sizes":[],"default_left":[0,0,0,0,0,0,0,0,0,0,0,0,0,0,0,0,0,0,0,0,0,0,0,0,0,0,0,0,0,0,0,0,0,0,0],"id":38,"left_children":[1,3,5,7,9,11,13,15,-1,17,19,21,-1,-1,-1,-1,23,25,27,29,-1,31,33,-1,-1,-1,-1,-1,-1,-1,-1,-1,-1,-1,-1],"loss_changes":[3.5301634E-4,6.999404E-5,5.3907715E-5,3.0541618E-5,1.5022248E-5,9.321811E-6,1.0419506E-5,1.5448364E-5,0E0,3.745692E-6,2.6034486E-6,2.2050262E-6,0E0,0E0,0E0,0E0,6.472277E-6,2.1814958E-6,6.590275E-6,1.1351652E-6,0E0,2.9329149E-6,2.5169527E-6,0E0,0E0,0E0,0E0,0E0,0E0,0E0,0E0,0E0,0E0,0E0,0E0],"parents":[2147483647,0,0,1,1,2,2,3,3,4,4,5,5,6,6,7,7,9,9,10,10,11,11,16,16,17,17,18,18,19,19,21,21,22,22],"right_children":[2,4,6,8,10,12,14,16,-1,18,20,22,-1,-1,-1,-1,24,26,28,30,-1,32,34,-1,-1,-1,-1,-1,-1,-1,-1,-1,-1,-1,-1],"split_conditions":[3.404E-1,3.316E-1,3.471E-1,6.274656E7,3.381E-1,3.443E-1,3.513E-1,3.268E-1,-1.9531934E-4,3.345E-1,3.411E-1,2.0447954E7,4.760758E-5,7.426053E-5,1.2954211E-4,3.823638E-5,3.283E-1,3.343E-1,1.4427457E7,2.0296676E7,-3.200084E-5,3.426E-1,2.4643684E7,-1.00806996E-4,-5.6829787E-5,-2.9210112E-5,-6.145197E-5,-2.4756917E-5,-3.100902E-6,7.811261E-6,-1.043275E-5,1.6749022E-5,3.472163E-5,-3.2273307E-5,2.3906678E-5],"split_indices":[2,2,2,3,2,2,2,0,0,2,0,3,0,0,0,0,2,2,3,3,0,0,3,0,0,0,0,0,0,0,0,0,0,0,0],"split_type":[0,0,0,0,0,0,0,0,0,0,0,0,0,0,0,0,0,0,0,0,0,0,0,0,0,0,0,0,0,0,0,0,0,0,0],"sum_hessian":[6.33E2,3.8E2,2.53E2,6.5E1,3.15E2,1.77E2,7.6E1,6.1E1,4E0,2.41E2,7.4E1,1.03E2,7.4E1,6.4E1,1.2E1,3E0,5.8E1,6.6E1,1.75E2,7E1,4E0,9.7E1,6E0,1.3E1,4.5E1,6E1,6E0,1.26E2,4.9E1,6.1E1,9E0,5E1,4.7E1,3E0,3E0],"tree_param":{"num_deleted":"0","num_feature":"104","num_nodes":"35","size_leaf_vector":"1"}},{"base_weights":[-3.0249837E-5,-6.2218634E-4,7.673033E-4,-3.9038807E-3,-5.453985E-4,4.037513E-4,1.317442E-3,-4.214406E-5,-3.37708E-4,-9.983897E-4,-2.829399E-4,2.0689447E-4,6.9131074E-4,1.1849157E-3,1.0820868E-4,-6.816326E-5,-8.2918373E-4,4.1619214E-4,-3.1771697E-4,3.513727E-5,1.544276E-4,8.316819E-4,3.7914515E-4,4.53795E-5,1.3155194E-3,-1.0777563E-5,-4.47352E-5,3.3451245E-6,5.053617E-5,-2.341825E-5,-4.2674296E-6,-1.36662275E-5,9.713813E-6,3.307918E-5,5.9320493E-5,-1.0883064E-5,2.4241679E-5,6.8592504E-5,2.0512342E-5],"categories":[],"categories_nodes":[],"categories_segments":[],"categories_sizes":[],"default_left":[0,0,0,0,0,0,0,0,0,0,0,0,0,0,0,0,0,0,0,0,0,0,0,0,0,0,0,0,0,0,0,0,0,0,0,0,0,0,0],"id":39,"left_children":[1,3,5,7,9,11,13,-1,-1,15,17,19,21,23,-1,-1,25,27,29,-1,31,33,35,-1,37,-1,-1,-1,-1,-1,-1,-1,-1,-1,-1,-1,-1,-1,-1],"loss_changes":[2.9365203E-4,8.7832756E-5,5.2469128E-5,6.4104664E-5,4.132952E-5,8.970863E-6,9.2181435E-6,0E0,0E0,6.772214E-6,5.554197E-6,2.4150045E-6,2.5329136E-6,2.1744927E-6,0E0,0E0,3.42563E-6,2.21668E-6,7.416269E-6,0E0,1.5701364E-6,1.8699884E-6,1.4931916E-6,0E0,2.5478803E-6,0E0,0E0,0E0,0E0,0E0,0E0,0E0,0E0,0E0,0E0,0E0,0E0,0E0,0E0],"parents":[2147483647,0,0,1,1,2,2,3,3,4,4,5,5,6,6,9,9,10,10,11,11,12,12,13,13,16,16,17,17,18,18,20,20,21,21,22,22,24,24],"right_children":[2,4,6,8,10,12,14,-1,-1,16,18,20,22,24,-1,-1,26,28,30,-1,32,34,36,-1,38,-1,-1,-1,-1,-1,-1,-1,-1,-1,-1,-1,-1,-1,-1],"split_conditions":[3.404E-1,3.264E-1,3.462E-1,3.215E-1,3.359E-1,3.439E-1,3.522E-1,-4.214406E-5,-3.37708E-4,3.318E-1,3.351E-1,3.4E-1,3.453E-1,3.479E-1,1.0820868E-4,-6.816326E-5,3.318E-1,3.348E-1,3.385E-1,3.513727E-5,3.409E-1,3.453E-1,3.456E-1,4.53795E-5,3.512E-1,-1.0777563E-5,-4.47352E-5,3.3451245E-6,5.053617E-5,-2.341825E-5,-4.2674296E-6,-1.36662275E-5,9.713813E-6,3.307918E-5,5.9320493E-5,-1.0883064E-5,2.4241679E-5,6.8592504E-5,2.0512342E-5],"split_indices":[1,0,0,0,1,1,1,0,0,1,0,0,0,0,0,0,0,0,1,0,1,1,1,0,0,0,0,0,0,0,0,0,0,0,0,0,0,0,0],"split_type":[0,0,0,0,0,0,0,0,0,0,0,0,0,0,0,0,0,0,0,0,0,0,0,0,0,0,0,0,0,0,0,0,0,0,0,0,0,0,0],"sum_hessian":[6.2E2,3.56E2,2.64E2,7E0,3.49E2,1.6E2,1.04E2,4E0,3E0,1.27E2,2.22E2,9.6E1,6.4E1,9.2E1,1.2E1,3.8E1,8.9E1,1E1,2.12E2,8E0,8.8E1,4.3E1,2.1E1,3.2E1,6E1,9E0,8E1,7E0,3E0,1.28E2,8.4E1,7E0,8.1E1,3.1E1,1.2E1,3E0,1.8E1,5.6E1,4E0],"tree_param":{"num_deleted":"0","num_feature":"104","num_nodes":"39","size_leaf_vector":"1"}},{"base_weights":[3.1121475E-5,-6.062797E-4,7.520142E-4,-1.3778614E-3,-4.0839202E-4,3.662471E-4,1.2481472E-3,-1.9471347E-4,-1.207063E-3,-6.425208E-4,-2.7380858E-4,2.1145752E-4,5.2401214E-4,1.0671568E-3,9.302091E-5,1.1914969E-5,-1.2785378E-3,-5.3109514E-4,-7.0769216E-5,-2.1965336E-4,-7.3997676E-4,3.4008808E-5,1.2957702E-4,5.955424E-4,-3.5811748E-4,1.1097202E-3,-1.424998E-5,-8.954809E-5,-5.3520904E-5,-3.2413718E-5,-6.03937E-6,-1.6187812E-5,8.783095E-6,4.1616815E-7,-5.5741024E-5,1.1517429E-5,-1.9212412E-5,1.48605395E-5,3.527369E-5,-3.4407527E-5,3.072247E-6,3.96729E-5,6.1523795E-5],"categories":[],"categories_nodes":[],"categories_segments":[],"categories_sizes":[],"default_left":[0,0,0,0,0,0,0,0,0,0,0,0,0,0,0,0,0,0,0,0,0,0,0,0,0,0,0,0,0,0,0,0,0,0,0,0,0,0,0,0,0,0,0],"id":40,"left_children":[1,3,5,7,9,11,13,-1,15,17,19,21,23,25,-1,-1,27,29,-1,31,33,-1,35,37,39,41,-1,-1,-1,-1,-1,-1,-1,-1,-1,-1,-1,-1,-1,-1,-1,-1,-1],"loss_changes":[2.9867006E-4,5.2114134E-5,5.791738E-5,2.5385263E-5,8.52079E-6,4.1139174E-6,1.2753066E-5,0E0,7.2262483E-6,7.859977E-6,4.3059044E-6,3.3275887E-6,5.5766905E-6,6.359267E-6,0E0,0E0,4.90823E-6,4.200774E-6,0E0,6.641424E-6,5.0581984E-6,0E0,4.0754912E-6,2.38121E-6,1.0115697E-6,2.9190996E-6,0E0,0E0,0E0,0E0,0E0,0E0,0E0,0E0,0E0,0E0,0E0,0E0,0E0,0E0,0E0,0E0,0E0],"parents":[2147483647,0,0,1,1,2,2,3,3,4,4,5,5,6,6,8,8,9,9,10,10,11,11,12,12,13,13,16,16,17,17,19,19,20,20,22,22,23,23,24,24,25,25],"right_children":[2,4,6,8,10,12,14,-1,16,18,20,22,24,26,-1,-1,28,30,-1,32,34,-1,36,38,40,42,-1,-1,-1,-1,-1,-1,-1,-1,-1,-1,-1,-1,-1,-1,-1,-1,-1],"split_conditions":[3.386E-1,3.335E-1,3.448E-1,3.196E-1,3.353E-1,3.413E-1,3.503E-1,-1.9471347E-4,3.265E-1,3.359E-1,3.389E-1,4.2985035E6,3.453E-1,3.508E-1,9.302091E-5,1.1914969E-5,3.304E-1,1.8716902E7,-7.0769216E-5,3.388E-1,1.1117328E7,3.4008808E-5,3.414E-1,6.4662495E6,3.456E-1,6.6083005E6,-1.424998E-5,-8.954809E-5,-5.3520904E-5,-3.2413718E-5,-6.03937E-6,-1.6187812E-5,8.783095E-6,4.1616815E-7,-5.5741024E-5,1.1517429E-5,-1.9212412E-5,1.48605395E-5,3.527369E-5,-3.4407527E-5,3.072247E-6,3.96729E-5,6.1523795E-5],"split_indices":[2,1,2,2,2,2,2,0,0,0,0,3,0,0,0,0,1,3,0,1,3,0,0,3,0,3,0,0,0,0,0,0,0,0,0,0,0,0,0,0,0,0,0],"split_type":[0,0,0,0,0,0,0,0,0,0,0,0,0,0,0,0,0,0,0,0,0,0,0,0,0,0,0,0,0,0,0,0,0,0,0,0,0,0,0,0,0,0,0],"sum_hessian":[6.48E2,3.44E2,3.04E2,6.9E1,2.75E2,1.72E2,1.32E2,3E0,6.6E1,9.9E1,1.76E2,8.8E1,8.4E1,1.04E2,2.8E1,3E0,6.3E1,8.8E1,1.1E1,1.59E2,1.7E1,1.2E1,7.6E1,7.8E1,6E0,1.01E2,3E0,1.6E1,4.7E1,6.8E1,2E1,1.26E2,3.3E1,6E0,1.1E1,6.4E1,1.2E1,2.2E1,5.6E1,3E0,3E0,3E1,7.1E1],"tree_param":{"num_deleted":"0","num_feature":"104","num_nodes":"43","size_leaf_vector":"1"}},{"base_weights":[-5.415178E-5,-5.358813E-4,8.366334E-4,-1.5167585E-3,-3.5309207E-4,5.85688E-4,1.4183095E-3,-1.248677E-4,-6.5353925E-5,-5.453823E-4,-7.97741E-5,2.4389446E-4,3.7143443E-5,1.2401586E-3,1.0900632E-4,-7.0698594E-4,-4.0943906E-4,-4.253948E-5,-6.252925E-4,1.5779973E-5,-2.3228527E-5,1.298117E-3,8.833036E-6,-3.1637508E-5,-7.484087E-5,4.0460007E-5,-2.2539138E-5,-1.1087976E-5,6.4752458E-6,-4.935086E-5,-6.925464E-6,6.7909416E-5,3.0560295E-5],"categories":[],"categories_nodes":[],"categories_segments":[],"categories_sizes":[],"default_left":[0,0,0,0,0,0,0,0,0,0,0,0,0,0,0,0,0,0,0,0,0,0,0,0,0,0,0,0,0,0,0,0,0],"id":41,"left_children":[1,3,5,7,9,11,13,-1,-1,15,17,19,-1,21,-1,23,25,27,29,-1,-1,31,-1,-1,-1,-1,-1,-1,-1,-1,-1,-1,-1],"loss_changes":[2.6650119E-4,7.171984E-5,3.099056E-5,9.689276E-6,1.7878221E-5,8.092222E-6,6.117989E-6,0E0,0E0,4.1043168E-6,2.8577285E-6,2.6866426E-6,0E0,3.1607924E-6,0E0,4.329926E-6,5.9572903E-6,4.160449E-6,1.4480224E-6,0E0,0E0,1.3155732E-6,0E0,0E0,0E0,0E0,0E0,0E0,0E0,0E0,0E0,0E0,0E0],"parents":[2147483647,0,0,1,1,2,2,3,3,4,4,5,5,6,6,9,9,10,10,11,11,13,13,15,15,16,16,17,17,18,18,21,21],"right_children":[2,4,6,8,10,12,14,-1,-1,16,18,20,-1,22,-1,24,26,28,30,-1,-1,32,-1,-1,-1,-1,-1,-1,-1,-1,-1,-1,-1],"split_conditions":[3.408E-1,3.329E-1,3.471E-1,3.286E-1,3.371E-1,3.435E-1,3.515E-1,-1.248677E-4,-6.5353925E-5,3.348E-1,3.412E-1,3.428E-1,3.7143443E-5,3.52E-1,1.0900632E-4,3.359E-1,3.349E-1,3.383E-1,1.2775118E7,1.5779973E-5,-2.3228527E-5,1.779826E7,8.833036E-6,-3.1637508E-5,-7.484087E-5,4.0460007E-5,-2.2539138E-5,-1.1087976E-5,6.4752458E-6,-4.935086E-5,-6.925464E-6,6.7909416E-5,3.0560295E-5],"split_indices":[2,1,2,1,2,1,2,0,0,2,0,0,0,1,0,0,2,2,3,0,0,3,0,0,0,0,0,0,0,0,0,0,0],"split_type":[0,0,0,0,0,0,0,0,0,0,0,0,0,0,0,0,0,0,0,0,0,0,0,0,0,0,0,0,0,0,0,0,0],"sum_hessian":[6.19E2,4.02E2,2.17E2,6.2E1,3.4E2,1.53E2,6.4E1,9E0,5.3E1,1.99E2,1.41E2,4.9E1,1.04E2,5.4E1,1E1,8.9E1,1.1E2,1.33E2,8E0,4.5E1,4E0,5.1E1,3E0,8.3E1,6E0,3E0,1.07E2,6.5E1,6.8E1,4E0,4E0,4.6E1,5E0],"tree_param":{"num_deleted":"0","num_feature":"104","num_nodes":"33","size_leaf_vector":"1"}},{"base_weights":[-1.01799105E-5,-5.6623656E-4,7.683378E-4,-4.9997484E-3,-4.7965898E-4,3.56176E-4,1.1393897E-3,-9.9440294E-5,-3.380377E-4,-9.4156776E-4,-2.2012832E-4,3.7830413E-4,-1.2970568E-5,4.6624835E-5,7.5018346E-5,-1.356181E-3,-7.376197E-4,-2.8214217E-4,-1.8516802E-6,2.5525963E-4,5.6524324E-4,-8.2970575E-5,-5.4180386E-5,-5.650024E-6,-3.985901E-5,-1.2401588E-5,-7.2343355E-5,8.029672E-6,-1.776499E-5,1.6000573E-5,-2.767568E-5,9.799545E-7,3.5415906E-5],"categories":[],"categories_nodes":[],"categories_segments":[],"categories_sizes":[],"default_left":[0,0,0,0,0,0,0,0,0,0,0,0,0,0,0,0,0,0,0,0,0,0,0,0,0,0,0,0,0,0,0,0,0],"id":42,"left_children":[1,3,5,7,9,11,13,-1,-1,15,17,19,-1,-1,-1,21,23,25,27,29,31,-1,-1,-1,-1,-1,-1,-1,-1,-1,-1,-1,-1],"loss_changes":[2.7532654E-4,1.4000747E-4,4.0121537E-5,2.3670189E-5,4.3548753E-5,1.8281044E-6,8.981937E-6,0E0,0E0,1.0076947E-5,3.1804793E-6,2.684943E-6,0E0,0E0,0E0,1.6732592E-6,3.258152E-6,6.911585E-6,3.1001027E-6,4.1572157E-6,3.7333775E-6,0E0,0E0,0E0,0E0,0E0,0E0,0E0,0E0,0E0,0E0,0E0,0E0],"parents":[2147483647,0,0,1,1,2,2,3,3,4,4,5,5,6,6,9,9,10,10,11,11,15,15,16,16,17,17,18,18,19,19,20,20],"right_children":[2,4,6,8,10,12,14,-1,-1,16,18,20,-1,-1,-1,22,24,26,28,30,32,-1,-1,-1,-1,-1,-1,-1,-1,-1,-1,-1,-1],"split_conditions":[3.409E-1,3.272E-1,3.444E-1,3.2E-1,3.344E-1,3.45E-1,3.501E-1,-9.9440294E-5,-3.380377E-4,3.318E-1,3.393E-1,3.421E-1,-1.2970568E-5,4.6624835E-5,7.5018346E-5,3.304E-1,3.8742548E6,3.389E-1,3.4E-1,3.431E-1,6.4662495E6,-8.2970575E-5,-5.4180386E-5,-5.650024E-6,-3.985901E-5,-1.2401588E-5,-7.2343355E-5,8.029672E-6,-1.776499E-5,1.6000573E-5,-2.767568E-5,9.799545E-7,3.5415906E-5],"split_indices":[1,1,2,0,2,0,1,0,0,1,1,2,0,0,0,1,3,0,0,1,3,0,0,0,0,0,0,0,0,0,0,0,0],"split_type":[0,0,0,0,0,0,0,0,0,0,0,0,0,0,0,0,0,0,0,0,0,0,0,0,0,0,0,0,0,0,0,0,0],"sum_hessian":[6.34E2,3.7E2,2.64E2,6E0,3.64E2,1.26E2,1.38E2,3E0,3E0,1.3E2,2.34E2,1.22E2,4E0,9E1,4.8E1,4.1E1,8.9E1,1.82E2,5.2E1,7.5E1,4.7E1,1.7E1,2.4E1,8E0,8.1E1,1.78E2,4E0,3.6E1,1.6E1,7E1,5E0,1E1,3.7E1],"tree_param":{"num_deleted":"0","num_feature":"104","num_nodes":"33","size_leaf_vector":"1"}},{"base_weights":[-1.2784449E-5,-5.3613883E-4,7.164313E-4,-1.1820733E-3,-3.3182788E-4,3.1351234E-4,1.0852091E-3,-1.0443393E-3,-1.6435682E-4,-4.7972042E-4,-2.0564813E-4,3.3822042E-4,-2.7158485E-5,9.2549284E-4,8.7188244E-5,-1.1222094E-3,2.130121E-5,-4.2666186E-4,-1.0737568E-3,-2.5059673E-4,1.5038252E-4,2.0586439E-4,5.5631105E-4,9.577121E-4,9.296337E-6,-8.439039E-5,-4.946298E-5,-2.3536162E-5,1.2727268E-5,-3.1503183E-5,-7.908903E-5,-8.452205E-6,-2.8980387E-5,1.9509296E-5,-3.9323793E-5,1.2665375E-5,-1.2639352E-5,8.298954E-6,3.3548433E-5,3.3741086E-5,5.2829844E-5],"categories":[],"categories_nodes":[],"categories_segments":[],"categories_sizes":[],"default_left":[0,0,0,0,0,0,0,0,0,0,0,0,0,0,0,0,0,0,0,0,0,0,0,0,0,0,0,0,0,0,0,0,0,0,0,0,0,0,0,0,0],"id":43,"left_children":[1,3,5,7,9,11,13,15,-1,17,19,21,-1,23,-1,25,-1,27,29,31,33,35,37,39,-1,-1,-1,-1,-1,-1,-1,-1,-1,-1,-1,-1,-1,-1,-1,-1,-1],"loss_changes":[2.4386932E-4,4.8701135E-5,3.9332648E-5,2.2371678E-5,5.20108E-6,2.9142466E-6,1.3006473E-5,1.0210359E-5,0E0,3.6392994E-6,2.5181612E-6,3.522544E-6,0E0,2.538356E-6,0E0,4.4212065E-6,0E0,3.7516256E-6,1.2574437E-6,3.6047968E-6,4.3507844E-6,1.8048206E-6,1.9920944E-6,2.3361063E-6,0E0,0E0,0E0,0E0,0E0,0E0,0E0,0E0,0E0,0E0,0E0,0E0,0E0,0E0,0E0,0E0,0E0],"parents":[2147483647,0,0,1,1,2,2,3,3,4,4,5,5,6,6,7,7,9,9,10,10,11,11,13,13,15,15,17,17,18,18,19,19,20,20,21,21,22,22,23,23],"right_children":[2,4,6,8,10,12,14,16,-1,18,20,22,-1,24,-1,26,-1,28,30,32,34,36,38,40,-1,-1,-1,-1,-1,-1,-1,-1,-1,-1,-1,-1,-1,-1,-1,-1,-1],"split_conditions":[3.409E-1,3.329E-1,3.444E-1,8.816655E7,3.362E-1,3.45E-1,3.504E-1,4.3142748E7,-1.6435682E-4,3.371E-1,1.8716902E7,3.421E-1,-2.7158485E-5,3.508E-1,8.7188244E-5,3.293E-1,2.130121E-5,3.373E-1,3.358E-1,1.2641317E7,3.389E-1,3.431E-1,6.4662495E6,6.4916445E6,9.296337E-6,-8.439039E-5,-4.946298E-5,-2.3536162E-5,1.2727268E-5,-3.1503183E-5,-7.908903E-5,-8.452205E-6,-2.8980387E-5,1.9509296E-5,-3.9323793E-5,1.2665375E-5,-1.2639352E-5,8.298954E-6,3.3548433E-5,3.3741086E-5,5.2829844E-5],