{"learner":{"attributes":{"scikit_learn":"{\"_estimator_type\": \"regressor\"}"},"feature_names":[],"feature_types":[],"gradient_booster":{"model":{"gbtree_model_param":{"num_parallel_tree":"1","num_trees":"150"},"iteration_indptr":[0,1,2,3,4,5,6,7,8,9,10,11,12,13,14,15,16,17,18,19,20,21,22,23,24,25,26,27,28,29,30,31,32,33,34,35,36,37,38,39,40,41,42,43,44,45,46,47,48,49,50,51,52,53,54,55,56,57,58,59,60,61,62,63,64,65,66,67,68,69,70,71,72,73,74,75,76,77,78,79,80,81,82,83,84,85,86,87,88,89,90,91,92,93,94,95,96,97,98,99,100,101,102,103,104,105,106,107,108,109,110,111,112,113,114,115,116,117,118,119,120,121,122,123,124,125,126,127,128,129,130,131,132,133,134,135,136,137,138,139,140,141,142,143,144,145,146,147,148,149,150],"tree_info":[0,0,0,0,0,0,0,0,0,0,0,0,0,0,0,0,0,0,0,0,0,0,0,0,0,0,0,0,0,0,0,0,0,0,0,0,0,0,0,0,0,0,0,0,0,0,0,0,0,0,0,0,0,0,0,0,0,0,0,0,0,0,0,0,0,0,0,0,0,0,0,0,0,0,0,0,0,0,0,0,0,0,0,0,0,0,0,0,0,0,0,0,0,0,0,0,0,0,0,0,0,0,0,0,0,0,0,0,0,0,0,0,0,0,0,0,0,0,0,0,0,0,0,0,0,0,0,0,0,0,0,0,0,0,0,0,0,0,0,0,0,0,0,0,0,0,0,0,0,0],"trees":[{"base_weights":[2.2818056E-5,-6.939091E-4,8.009713E-4,-1.4637661E-3,-3.934018E-4,5.391965E-4,1.4048951E-3,-9.6461765E-5,-5.8536E-5,-6.775399E-4,-1.6782044E-4,1.5766263E-5,3.6184043E-5,5.581432E-5,8.200922E-5,-3.8456732E-5,-2.318235E-5,-1.4464235E-5,-3.2713324E-6],"categories":[],"categories_nodes":[],"categories_segments":[],"categories_sizes":[],"default_left":[0,0,0,0,0,0,0,0,0,0,0,0,0,0,0,0,0,0,0],"id":0,"left_children":[1,3,5,7,9,11,13,-1,-1,15,17,-1,-1,-1,-1,-1,-1,-1,-1],"loss_changes":[3.5247937E-4,7.553752E-5,4.714438E-5,1.0290576E-5,1.5141206E-5,8.568859E-6,4.348578E-6,0E0,0E0,1.7004932E-6,1.6476558E-6,0E0,0E0,0E0,0E0,0E0,0E0,0E0,0E0],"parents":[2147483647,0,0,1,1,2,2,3,3,4,4,5,5,6,6,9,9,10,10],"right_children":[2,4,6,8,10,12,14,-1,-1,16,18,-1,-1,-1,-1,-1,-1,-1,-1],"split_conditions":[2.356E-2,2.254E-2,2.445E-2,2.192E-2,2.304E-2,2.397E-2,2.489E-2,-9.6461765E-5,-5.8536E-5,2.285E-2,2.328E-2,1.5766263E-5,3.6184043E-5,5.581432E-5,8.200922E-5,-3.8456732E-5,-2.318235E-5,-1.4464235E-5,-3.2713324E-6],"split_indices":[1,1,1,1,1,1,1,0,0,1,1,0,0,0,0,0,0,0,0],"split_type":[0,0,0,0,0,0,0,0,0,0,0,0,0,0,0,0,0,0,0],"sum_hessian":[6.3E2,3.28E2,3.02E2,9.1E1,2.37E2,2.12E2,9E1,3.3E1,5.8E1,1.04E2,1.33E2,9.7E1,1.15E2,4.3E1,4.7E1,7.1E1,3.3E1,6E1,7.3E1],"tree_param":{"num_deleted":"0","num_feature":"104","num_nodes":"19","size_leaf_vector":"1"}},{"base_weights":[1.08758295E-5,-6.996044E-4,7.619204E-4,-1.4772682E-3,-4.5191657E-4,5.0746964E-4,1.4125211E-3,-9.247169E-5,-5.733538E-5,-3.8525643E-5,-2.5671432E-4,2.4525402E-4,6.830474E-4,5.559326E-5,7.950444E-5,-1.962016E-5,-4.9755363E-6,4.6080545E-6,1.6802436E-5,2.8777356E-5,3.9417126E-5],"categories":[],"categories_nodes":[],"categories_segments":[],"categories_sizes":[],"default_left":[0,0,0,0,0,0,0,0,0,0,0,0,0,0,0,0,0,0,0,0,0],"id":1,"left_children":[1,3,5,7,9,11,13,-1,-1,-1,15,17,19,-1,-1,-1,-1,-1,-1,-1,-1],"loss_changes":[3.4577373E-4,6.347413E-5,5.143015E-5,7.72113E-6,1.5598642E-5,1.0329426E-5,2.9300718E-6,0E0,0E0,0E0,3.3525457E-6,1.2617315E-6,1.0856893E-6,0E0,0E0,0E0,0E0,0E0,0E0,0E0,0E0],"parents":[2147483647,0,0,1,1,2,2,3,3,4,4,5,5,6,6,10,10,11,11,12,12],"right_children":[2,4,6,8,10,12,14,-1,-1,-1,16,18,20,-1,-1,-1,-1,-1,-1,-1,-1],"split_conditions":[2.331E-2,2.24E-2,2.428E-2,2.165E-2,2.285E-2,2.394E-2,2.489E-2,-9.247169E-5,-5.733538E-5,-3.8525643E-5,2.302E-2,2.352E-2,2.402E-2,5.559326E-5,7.950444E-5,-1.962016E-5,-4.9755363E-6,4.6080545E-6,1.6802436E-5,2.8777356E-5,3.9417126E-5],"split_indices":[2,1,2,2,1,1,1,0,0,0,2,2,2,0,0,0,0,0,0,0,0],"split_type":[0,0,0,0,0,0,0,0,0,0,0,0,0,0,0,0,0,0,0,0,0],"sum_hessian":[6.46E2,3.32E2,3.14E2,7.9E1,2.53E2,2.27E2,8.7E1,3.5E1,4.4E1,9.5E1,1.58E2,9.2E1,1.35E2,3.5E1,5.2E1,8.4E1,7.4E1,3.5E1,5.7E1,7E1,6.5E1],"tree_param":{"num_deleted":"0","num_feature":"104","num_nodes":"21","size_leaf_vector":"1"}},{"base_weights":[8.904911E-6,-7.400244E-4,6.315607E-4,-1.5700478E-3,-5.130614E-4,3.8236208E-4,1.2775903E-3,-9.1548674E-5,-6.341061E-5,-3.7826034E-5,-3.0250344E-4,3.7606248E-6,5.593167E-4,5.3026666E-5,7.801916E-5,-1.9767604E-5,-9.596902E-6,1.9616018E-5,3.4173212E-5],"categories":[],"categories_nodes":[],"categories_segments":[],"categories_sizes":[],"default_left":[0,0,0,0,0,0,0,0,0,0,0,0,0,0,0,0,0,0,0],"id":2,"left_children":[1,3,5,7,9,11,13,-1,-1,-1,15,-1,17,-1,-1,-1,-1,-1,-1],"loss_changes":[2.9891543E-4,5.401438E-5,5.5857876E-5,2.560846E-6,1.1561475E-5,1.3763223E-5,4.299247E-6,0E0,0E0,0E0,1.2073479E-6,0E0,3.0697447E-6,0E0,0E0,0E0,0E0,0E0,0E0],"parents":[2147483647,0,0,1,1,2,2,3,3,4,4,5,5,6,6,10,10,12,12],"right_children":[2,4,6,8,10,12,14,-1,-1,-1,16,-1,18,-1,-1,-1,-1,-1,-1],"split_conditions":[2.319E-2,2.226E-2,2.422E-2,2.173E-2,2.287E-2,2.358E-2,2.483E-2,-9.1548674E-5,-6.341061E-5,-3.7826034E-5,2.312E-2,3.7606248E-6,2.386E-2,5.3026666E-5,7.801916E-5,-1.9767604E-5,-9.596902E-6,1.9616018E-5,3.4173212E-5],"split_indices":[2,1,2,1,1,2,2,0,0,0,1,0,2,0,0,0,0,0,0],"split_type":[0,0,0,0,0,0,0,0,0,0,0,0,0,0,0,0,0,0,0],"sum_hessian":[6.39E2,2.9E2,3.49E2,6.1E1,2.29E2,2.53E2,9.6E1,3E1,3.1E1,1.05E2,1.24E2,9.3E1,1.6E2,5.7E1,3.9E1,6.6E1,5.8E1,7E1,9E1],"tree_param":{"num_deleted":"0","num_feature":"104","num_nodes":"19","size_leaf_vector":"1"}},{"base_weights":[-1.9425175E-5,-6.6023594E-4,6.0214254E-4,-1.5148735E-3,-4.6275117E-4,4.1640972E-4,1.2222899E-3,-8.596287E-5,-5.907385E-5,-3.6691166E-5,-2.836621E-4,4.4916856E-6,5.504942E-4,4.5301484E-5,6.890326E-5,-2.113391E-5,-9.6868125E-6,1.9628618E-5,3.2514617E-5],"categories":[],"categories_nodes":[],"categories_segments":[],"categories_sizes":[],"default_left":[0,0,0,0,0,0,0,0,0,0,0,0,0,0,0,0,0,0,0],"id":3,"left_children":[1,3,5,7,9,11,13,-1,-1,-1,15,-1,17,-1,-1,-1,-1,-1,-1],"loss_changes":[2.604922E-4,5.364546E-5,3.7731355E-5,2.0571897E-6,1.2559452E-5,1.1204262E-5,2.4956098E-6,0E0,0E0,0E0,1.9182944E-6,0E0,2.6130874E-6,0E0,0E0,0E0,0E0,0E0,0E0],"parents":[2147483647,0,0,1,1,2,2,3,3,4,4,5,5,6,6,10,10,12,12],"right_children":[2,4,6,8,10,12,14,-1,-1,-1,16,-1,18,-1,-1,-1,-1,-1,-1],"split_conditions":[2.323E-2,2.204E-2,2.427E-2,2.157E-2,2.26E-2,2.358E-2,2.455E-2,-8.596287E-5,-5.907385E-5,-3.6691166E-5,2.285E-2,4.4916856E-6,2.386E-2,4.5301484E-5,6.890326E-5,-2.113391E-5,-9.6868125E-6,1.9628618E-5,3.2514617E-5],"split_indices":[2,2,2,2,2,2,0,0,0,0,2,0,2,0,0,0,0,0,0],"split_type":[0,0,0,0,0,0,0,0,0,0,0,0,0,0,0,0,0,0,0],"sum_hessian":[6.52E2,3.21E2,3.31E2,5.9E1,2.62E2,2.56E2,7.5E1,3.4E1,2.5E1,1.03E2,1.59E2,7.5E1,1.81E2,2.7E1,4.8E1,6.1E1,9.8E1,7.2E1,1.09E2],"tree_param":{"num_deleted":"0","num_feature":"104","num_nodes":"19","size_leaf_vector":"1"}},{"base_weights":[-2.8651535E-5,-6.415052E-4,5.823708E-4,-1.4167351E-3,-4.44422E-4,2.7696264E-4,9.563209E-4,-8.204887E-5,-5.9202466E-5,-3.4078996E-5,-2.4474534E-4,4.588624E-6,2.0456046E-5,3.7475E-5,6.630089E-5,-1.7721322E-5,-6.6580956E-6],"categories":[],"categories_nodes":[],"categories_segments":[],"categories_sizes":[],"default_left":[0,0,0,0,0,0,0,0,0,0,0,0,0,0,0,0,0],"id":4,"left_children":[1,3,5,7,9,11,13,-1,-1,-1,15,-1,-1,-1,-1,-1,-1],"loss_changes":[2.3853479E-4,4.7955924E-5,3.6167294E-5,1.3964018E-6,1.19086835E-5,4.294424E-6,9.940093E-6,0E0,0E0,0E0,1.666207E-6,0E0,0E0,0E0,0E0,0E0,0E0],"parents":[2147483647,0,0,1,1,2,2,3,3,4,4,5,5,6,6,10,10],"right_children":[2,4,6,8,10,12,14,-1,-1,-1,16,-1,-1,-1,-1,-1,-1],"split_conditions":[2.341E-2,2.226E-2,2.416E-2,2.173E-2,2.285E-2,2.375E-2,2.476E-2,-8.204887E-5,-5.9202466E-5,-3.4078996E-5,2.314E-2,4.588624E-6,2.0456046E-5,3.7475E-5,6.630089E-5,-1.7721322E-5,-6.6580956E-6],"split_indices":[1,1,1,1,1,1,1,0,0,0,1,0,0,0,0,0,0],"split_type":[0,0,0,0,0,0,0,0,0,0,0,0,0,0,0,0,0],"sum_hessian":[6.35E2,3.17E2,3.18E2,6.3E1,2.54E2,1.76E2,1.42E2,2.9E1,3.4E1,1.15E2,1.39E2,7.4E1,1.02E2,9.3E1,4.9E1,6.9E1,7E1],"tree_param":{"num_deleted":"0","num_feature":"104","num_nodes":"17","size_leaf_vector":"1"}},{"base_weights":[3.5885205E-6,-5.201661E-4,6.6332304E-4,-1.1830536E-3,-2.9727712E-4,4.7669813E-4,1.1987721E-3,-7.330269E-5,-4.4024357E-5,-2.6744048E-5,-1.1753953E-4,1.26092955E-5,2.9358915E-5,5.01581E-5,7.304841E-5,-1.0065294E-5,-3.7037466E-7],"categories":[],"categories_nodes":[],"categories_segments":[],"categories_sizes":[],"default_left":[0,0,0,0,0,0,0,0,0,0,0,0,0,0,0,0,0],"id":5,"left_children":[1,3,5,7,9,11,13,-1,-1,-1,15,-1,-1,-1,-1,-1,-1],"loss_changes":[2.2252664E-4,5.2690666E-5,2.790807E-5,6.4155465E-6,1.1467844E-5,5.1352035E-6,2.2784516E-6,0E0,0E0,0E0,1.4284394E-6,0E0,0E0,0E0,0E0,0E0,0E0],"parents":[2147483647,0,0,1,1,2,2,3,3,4,4,5,5,6,6,10,10],"right_children":[2,4,6,8,10,12,14,-1,-1,-1,16,-1,-1,-1,-1,-1,-1],"split_conditions":[2.361E-2,2.253E-2,2.445E-2,2.213E-2,2.304E-2,2.389E-2,2.517E-2,-7.330269E-5,-4.4024357E-5,-2.6744048E-5,2.334E-2,1.26092955E-5,2.9358915E-5,5.01581E-5,7.304841E-5,-1.0065294E-5,-3.7037466E-7],"split_indices":[1,1,0,1,1,1,1,0,0,0,1,0,0,0,0,0,0],"split_type":[0,0,0,0,0,0,0,0,0,0,0,0,0,0,0,0,0],"sum_hessian":[6.42E2,3.58E2,2.84E2,8.9E1,2.69E2,2.12E2,7.2E1,4.4E1,4.5E1,1.15E2,1.54E2,7.1E1,1.41E2,4.4E1,2.8E1,8.7E1,6.7E1],"tree_param":{"num_deleted":"0","num_feature":"104","num_nodes":"17","size_leaf_vector":"1"}},{"base_weights":[1.9307383E-5,-5.2222057E-4,6.024267E-4,-1.2104657E-3,-3.3320035E-4,3.9550962E-4,1.0565065E-3,-7.137395E-5,-4.6523342E-5,-5.398146E-4,-7.0584606E-6,1.1836629E-5,2.7990149E-5,4.305542E-5,6.318439E-5,-3.1114614E-5,-2.0639547E-5],"categories":[],"categories_nodes":[],"categories_segments":[],"categories_sizes":[],"default_left":[0,0,0,0,0,0,0,0,0,0,0,0,0,0,0,0,0],"id":6,"left_children":[1,3,5,7,9,11,13,-1,-1,15,-1,-1,-1,-1,-1,-1,-1],"loss_changes":[1.9609535E-4,4.1486375E-5,2.7675247E-5,2.8644572E-6,1.0001591E-5,5.267284E-6,2.6767302E-6,0E0,0E0,1.0212716E-6,0E0,0E0,0E0,0E0,0E0,0E0,0E0],"parents":[2147483647,0,0,1,1,2,2,3,3,4,4,5,5,6,6,9,9],"right_children":[2,4,6,8,10,12,14,-1,-1,16,-1,-1,-1,-1,-1,-1,-1],"split_conditions":[2.333E-2,2.216E-2,2.422E-2,2.165E-2,2.281E-2,2.383E-2,2.484E-2,-7.137395E-5,-4.6523342E-5,2.257E-2,-7.0584606E-6,1.1836629E-5,2.7990149E-5,4.305542E-5,6.318439E-5,-3.1114614E-5,-2.0639547E-5],"split_indices":[2,2,2,2,2,2,0,0,0,2,0,0,0,0,0,0,0],"split_type":[0,0,0,0,0,0,0,0,0,0,0,0,0,0,0,0,0],"sum_hessian":[6.19E2,3.21E2,2.98E2,6.8E1,2.53E2,2.06E2,9.2E1,3.6E1,3.2E1,1.21E2,1.32E2,1.06E2,1E2,5E1,4.2E1,7.1E1,5E1],"tree_param":{"num_deleted":"0","num_feature":"104","num_nodes":"17","size_leaf_vector":"1"}},{"base_weights":[4.1713997E-6,-6.0499035E-4,4.5250333E-4,-1.247361E-3,-4.2077925E-4,2.2180144E-4,8.4710144E-4,-6.940679E-5,-4.86247E-5,-3.0422543E-5,-1.2687405E-5,2.078776E-6,1.9357887E-5,3.2565902E-5,5.791859E-5],"categories":[],"categories_nodes":[],"categories_segments":[],"categories_sizes":[],"default_left":[0,0,0,0,0,0,0,0,0,0,0,0,0,0,0],"id":7,"left_children":[1,3,5,7,9,11,13,-1,-1,-1,-1,-1,-1,-1,-1],"loss_changes":[1.7779309E-4,3.2134718E-5,3.3950062E-5,1.0104122E-6,6.6165594E-6,7.07666E-6,7.655464E-6,0E0,0E0,0E0,0E0,0E0,0E0,0E0,0E0],"parents":[2147483647,0,0,1,1,2,2,3,3,4,4,5,5,6,6],"right_children":[2,4,6,8,10,12,14,-1,-1,-1,-1,-1,-1,-1,-1],"split_conditions":[2.314E-2,2.204E-2,2.403E-2,2.165E-2,2.26E-2,2.358E-2,2.448E-2,-6.940679E-5,-4.86247E-5,-3.0422543E-5,-1.2687405E-5,2.078776E-6,1.9357887E-5,3.2565902E-5,5.791859E-5],"split_indices":[2,2,2,2,2,2,2,0,0,0,0,0,0,0,0],"split_type":[0,0,0,0,0,0,0,0,0,0,0,0,0,0,0],"sum_hessian":[6.49E2,2.75E2,3.74E2,6E1,2.15E2,2.37E2,1.37E2,3.7E1,2.3E1,1E2,1.15E2,1.14E2,1.23E2,8.6E1,5.1E1],"tree_param":{"num_deleted":"0","num_feature":"104","num_nodes":"15","size_leaf_vector":"1"}},{"base_weights":[1.3668855E-6,-5.555688E-4,4.512554E-4,-1.1787261E-3,-3.8094385E-4,2.9898208E-4,1.0050487E-3,-6.854718E-5,-4.748367E-5,-2.7943874E-5,-1.108824E-5,1.0944317E-4,2.3679666E-5,4.2533025E-5,6.375849E-5,3.0209E-7,1.0562921E-5],"categories":[],"categories_nodes":[],"categories_segments":[],"categories_sizes":[],"default_left":[0,0,0,0,0,0,0,0,0,0,0,0,0,0,0,0,0],"id":8,"left_children":[1,3,5,7,9,11,13,-1,-1,-1,-1,15,-1,-1,-1,-1,-1],"loss_changes":[1.6261291E-4,3.1108422E-5,2.9973242E-5,1.4718171E-6,6.3337757E-6,9.31423E-6,2.126435E-6,0E0,0E0,0E0,0E0,1.4410367E-6,0E0,0E0,0E0,0E0,0E0],"parents":[2147483647,0,0,1,1,2,2,3,3,4,4,5,5,6,6,11,11],"right_children":[2,4,6,8,10,12,14,-1,-1,-1,-1,16,-1,-1,-1,-1,-1],"split_conditions":[2.316E-2,2.226E-2,2.428E-2,2.173E-2,2.285E-2,2.388E-2,2.517E-2,-6.854718E-5,-4.748367E-5,-2.7943874E-5,-1.108824E-5,2.361E-2,2.3679666E-5,4.2533025E-5,6.375849E-5,3.0209E-7,1.0562921E-5],"split_indices":[2,1,2,1,1,1,1,0,0,0,0,1,0,0,0,0,0],"split_type":[0,0,0,0,0,0,0,0,0,0,0,0,0,0,0,0,0],"sum_hessian":[6.47E2,2.89E2,3.58E2,6.2E1,2.27E2,2.82E2,7.6E1,3.1E1,3.1E1,1.06E2,1.21E2,1.36E2,1.46E2,5.1E1,2.5E1,6.8E1,6.8E1],"tree_param":{"num_deleted":"0","num_feature":"104","num_nodes":"17","size_leaf_vector":"1"}},{"base_weights":[1.8106062E-5,-4.3190268E-4,5.377522E-4,-1.0022245E-3,-2.574419E-4,3.666467E-4,9.46551E-4,-6.207183E-5,-3.9429164E-5,-2.2128437E-5,-4.6404725E-6,1.180091E-5,2.4336046E-5,3.7100464E-5,5.524208E-5],"categories":[],"categories_nodes":[],"categories_segments":[],"categories_sizes":[],"default_left":[0,0,0,0,0,0,0,0,0,0,0,0,0,0,0],"id":9,"left_children":[1,3,5,7,9,11,13,-1,-1,-1,-1,-1,-1,-1,-1],"loss_changes":[1.4965938E-4,3.387007E-5,2.0427418E-5,3.1094678E-6,8.005085E-6,3.1946856E-6,1.997003E-6,0E0,0E0,0E0,0E0,0E0,0E0,0E0,0E0],"parents":[2147483647,0,0,1,1,2,2,3,3,4,4,5,5,6,6],"right_children":[2,4,6,8,10,12,14,-1,-1,-1,-1,-1,-1,-1,-1],"split_conditions":[2.343E-2,2.24E-2,2.428E-2,2.165E-2,2.283E-2,2.386E-2,2.468E-2,-6.207183E-5,-3.9429164E-5,-2.2128437E-5,-4.6404725E-6,1.180091E-5,2.4336046E-5,3.7100464E-5,5.524208E-5],"split_indices":[2,1,2,2,2,2,2,0,0,0,0,0,0,0,0],"split_type":[0,0,0,0,0,0,0,0,0,0,0,0,0,0,0],"sum_hessian":[6.38E2,3.42E2,2.96E2,7.9E1,2.63E2,2.1E2,8.6E1,3.5E1,4.4E1,1.23E2,1.4E2,1.02E2,1.08E2,4E1,4.6E1],"tree_param":{"num_deleted":"0","num_feature":"104","num_nodes":"15","size_leaf_vector":"1"}},{"base_weights":[-4.2299125E-6,-4.9751374E-4,4.0963883E-4,-1.0806238E-3,-3.484208E-4,2.5902706E-4,8.688838E-4,-6.303588E-5,-4.2925316E-5,-2.6052705E-5,-9.799669E-6,2.3847558E-6,3.8057315E-4,3.736035E-5,5.5580116E-5,1.4211662E-5,2.3152525E-5],"categories":[],"categories_nodes":[],"categories_segments":[],"categories_sizes":[],"default_left":[0,0,0,0,0,0,0,0,0,0,0,0,0,0,0,0,0],"id":10,"left_children":[1,3,5,7,9,11,13,-1,-1,-1,-1,-1,15,-1,-1,-1,-1],"loss_changes":[1.329044E-4,2.5443951E-5,2.4260298E-5,1.3177851E-6,6.160619E-6,6.865852E-6,1.7387938E-6,0E0,0E0,0E0,0E0,0E0,1.2191795E-6,0E0,0E0,0E0,0E0],"parents":[2147483647,0,0,1,1,2,2,3,3,4,4,5,5,6,6,12,12],"right_children":[2,4,6,8,10,12,14,-1,-1,-1,-1,-1,16,-1,-1,-1,-1],"split_conditions":[2.316E-2,2.226E-2,2.425E-2,2.173E-2,2.285E-2,2.359E-2,2.491E-2,-6.303588E-5,-4.2925316E-5,-2.6052705E-5,-9.799669E-6,2.3847558E-6,2.408E-2,3.736035E-5,5.5580116E-5,1.4211662E-5,2.3152525E-5],"split_indices":[2,1,2,1,1,2,2,0,0,0,0,0,1,0,0,0,0],"split_type":[0,0,0,0,0,0,0,0,0,0,0,0,0,0,0,0,0],"sum_hessian":[6.49E2,2.96E2,3.53E2,5.9E1,2.37E2,2.67E2,8.6E1,3E1,2.9E1,1.1E2,1.27E2,9.8E1,1.69E2,6E1,2.6E1,8E1,8.9E1],"tree_param":{"num_deleted":"0","num_feature":"104","num_nodes":"17","size_leaf_vector":"1"}},{"base_weights":[-9.4448643E-7,-4.8069158E-4,3.873617E-4,-9.3207683E-4,-2.9481392E-4,2.1378296E-4,7.630964E-4,-5.802941E-5,-3.5655434E-5,-2.1773447E-5,-8.5732845E-6,2.3793546E-6,1.653524E-5,3.1014522E-5,5.0589006E-5],"categories":[],"categories_nodes":[],"categories_segments":[],"categories_sizes":[],"default_left":[0,0,0,0,0,0,0,0,0,0,0,0,0,0,0],"id":11,"left_children":[1,3,5,7,9,11,13,-1,-1,-1,-1,-1,-1,-1,-1],"loss_changes":[1.2201907E-4,2.4308625E-5,2.3446344E-5,3.4254917E-6,3.5513876E-6,4.822812E-6,3.4209443E-6,0E0,0E0,0E0,0E0,0E0,0E0,0E0,0E0],"parents":[2147483647,0,0,1,1,2,2,3,3,4,4,5,5,6,6],"right_children":[2,4,6,8,10,12,14,-1,-1,-1,-1,-1,-1,-1,-1],"split_conditions":[2.334E-2,2.248E-2,2.412E-2,2.165E-2,2.291E-2,2.358E-2,2.477E-2,-5.802941E-5,-3.5655434E-5,-2.1773447E-5,-8.5732845E-6,2.3793546E-6,1.653524E-5,3.1014522E-5,5.0589006E-5],"split_indices":[1,1,2,2,1,2,2,0,0,0,0,0,0,0,0],"split_type":[0,0,0,0,0,0,0,0,0,0,0,0,0,0,0],"sum_hessian":[6.53E2,2.92E2,3.61E2,8.4E1,2.08E2,2.48E2,1.13E2,3.9E1,4.5E1,9.6E1,1.12E2,1.03E2,1.45E2,7.4E1,3.9E1],"tree_param":{"num_deleted":"0","num_feature":"104","num_nodes":"15","size_leaf_vector":"1"}},{"base_weights":[-9.131722E-6,-4.4475155E-4,3.6393182E-4,-8.760684E-4,-2.8415633E-4,1.9765762E-4,6.9621427E-4,-5.6684443E-5,-3.6810725E-5,-2.1847174E-5,-9.6963E-6,4.54911E-6,1.772503E-5,2.7480568E-5,4.457193E-5],"categories":[],"categories_nodes":[],"categories_segments":[],"categories_sizes":[],"default_left":[0,0,0,0,0,0,0,0,0,0,0,0,0,0,0],"id":12,"left_children":[1,3,5,7,9,11,13,-1,-1,-1,-1,-1,-1,-1,-1],"loss_changes":[1.0709598E-4,2.0808358E-5,1.9476141E-5,2.1197557E-6,2.989551E-6,3.9497936E-6,2.8872673E-6,0E0,0E0,0E0,0E0,0E0,0E0,0E0,0E0],"parents":[2147483647,0,0,1,1,2,2,3,3,4,4,5,5,6,6],"right_children":[2,4,6,8,10,12,14,-1,-1,-1,-1,-1,-1,-1,-1],"split_conditions":[2.334E-2,2.248E-2,2.428E-2,2.173E-2,2.28E-2,2.394E-2,2.479E-2,-5.6684443E-5,-3.6810725E-5,-2.1847174E-5,-9.6963E-6,4.54911E-6,1.772503E-5,2.7480568E-5,4.457193E-5],"split_indices":[1,1,1,1,1,1,1,0,0,0,0,0,0,0,0],"split_type":[0,0,0,0,0,0,0,0,0,0,0,0,0,0,0],"sum_hessian":[6.57E2,3.03E2,3.54E2,8.1E1,2.22E2,2.37E2,1.17E2,2.6E1,5.5E1,8.1E1,1.41E2,1.42E2,9.5E1,6.9E1,4.8E1],"tree_param":{"num_deleted":"0","num_feature":"104","num_nodes":"15","size_leaf_vector":"1"}},{"base_weights":[-1.0630781E-5,-4.4442795E-4,3.5800217E-4,-9.204542E-4,-3.0529188E-4,2.1274493E-4,7.56726E-4,-5.359546E-5,-3.5743946E-5,-2.35066E-5,-9.953934E-6,2.0456957E-6,1.5725695E-5,3.2809792E-5,4.999495E-5],"categories":[],"categories_nodes":[],"categories_segments":[],"categories_sizes":[],"default_left":[0,0,0,0,0,0,0,0,0,0,0,0,0,0,0],"id":13,"left_children":[1,3,5,7,9,11,13,-1,-1,-1,-1,-1,-1,-1,-1],"loss_changes":[1.0234283E-4,1.9191331E-5,1.987847E-5,1.2886521E-6,3.915786E-6,4.446333E-6,1.592929E-6,0E0,0E0,0E0,0E0,0E0,0E0,0E0,0E0],"parents":[2147483647,0,0,1,1,2,2,3,3,4,4,5,5,6,6],"right_children":[2,4,6,8,10,12,14,-1,-1,-1,-1,-1,-1,-1,-1],"split_conditions":[2.316E-2,2.226E-2,2.422E-2,2.157E-2,2.276E-2,2.358E-2,2.517E-2,-5.359546E-5,-3.5743946E-5,-2.35066E-5,-9.953934E-6,2.0456957E-6,1.5725695E-5,3.2809792E-5,4.999495E-5],"split_indices":[2,1,2,2,1,2,1,0,0,0,0,0,0,0,0],"split_type":[0,0,0,0,0,0,0,0,0,0,0,0,0,0,0],"sum_hessian":[6.38E2,2.93E2,3.45E2,6.5E1,2.28E2,2.54E2,9.1E1,3.5E1,3E1,8.8E1,1.4E2,9.5E1,1.59E2,6.7E1,2.4E1],"tree_param":{"num_deleted":"0","num_feature":"104","num_nodes":"15","size_leaf_vector":"1"}},{"base_weights":[-3.6075007E-6,-4.1739614E-4,3.3568626E-4,-8.5885776E-4,-2.9191168E-4,1.6455875E-4,6.243533E-4,-5.1003084E-5,-3.457692E-5,-2.2890586E-5,-9.272885E-6,2.0490556E-6,1.3302943E-5,2.6326717E-5,4.8018454E-5],"categories":[],"categories_nodes":[],"categories_segments":[],"categories_sizes":[],"default_left":[0,0,0,0,0,0,0,0,0,0,0,0,0,0,0],"id":14,"left_children":[1,3,5,7,9,11,13,-1,-1,-1,-1,-1,-1,-1,-1],"loss_changes":[9.223983E-5,1.6146678E-5,1.773025E-5,1.0478034E-6,4.0123814E-6,2.848934E-6,3.898738E-6,0E0,0E0,0E0,0E0,0E0,0E0,0E0,0E0],"parents":[2147483647,0,0,1,1,2,2,3,3,4,4,5,5,6,6],"right_children":[2,4,6,8,10,12,14,-1,-1,-1,-1,-1,-1,-1,-1],"split_conditions":[2.316E-2,2.226E-2,2.405E-2,2.173E-2,2.253E-2,2.358E-2,2.491E-2,-5.1003084E-5,-3.457692E-5,-2.2890586E-5,-9.272885E-6,2.0490556E-6,1.3302943E-5,2.6326717E-5,4.8018454E-5],"split_indices":[2,1,2,1,2,2,2,0,0,0,0,0,0,0,0],"split_type":[0,0,0,0,0,0,0,0,0,0,0,0,0,0,0],"sum_hessian":[6.55E2,2.95E2,3.6E2,6.4E1,2.31E2,2.27E2,1.33E2,3E1,3.4E1,8.9E1,1.42E2,1.03E2,1.24E2,1.05E2,2.8E1],"tree_param":{"num_deleted":"0","num_feature":"104","num_nodes":"15","size_leaf_vector":"1"}},{"base_weights":[2.075164E-6,-3.5602754E-4,3.601715E-4,-7.4645784E-4,-2.1522658E-4,2.5001614E-4,6.8490196E-4,-4.8716774E-5,-2.9668803E-5,-1.5055087E-5,-3.1249654E-6,6.2207982E-6,1.6862336E-5,2.9755989E-5,4.513558E-5],"categories":[],"categories_nodes":[],"categories_segments":[],"categories_sizes":[],"default_left":[0,0,0,0,0,0,0,0,0,0,0,0,0,0,0],"id":15,"left_children":[1,3,5,7,9,11,13,-1,-1,-1,-1,-1,-1,-1,-1],"loss_changes":[8.36094E-5,1.7760529E-5,1.1490047E-5,2.421868E-6,3.1420122E-6,2.642304E-6,1.0663243E-6,0E0,0E0,0E0,0E0,0E0,0E0,0E0,0E0],"parents":[2147483647,0,0,1,1,2,2,3,3,4,4,5,5,6,6],"right_children":[2,4,6,8,10,12,14,-1,-1,-1,-1,-1,-1,-1,-1],"split_conditions":[2.345E-2,2.248E-2,2.448E-2,2.184E-2,2.312E-2,2.388E-2,2.517E-2,-4.8716774E-5,-2.9668803E-5,-1.5055087E-5,-3.1249654E-6,6.2207982E-6,1.6862336E-5,2.9755989E-5,4.513558E-5],"split_indices":[1,1,1,1,1,1,1,0,0,0,0,0,0,0,0],"split_type":[0,0,0,0,0,0,0,0,0,0,0,0,0,0,0],"sum_hessian":[6.5E2,3.25E2,3.25E2,8.5E1,2.4E2,2.44E2,8.1E1,3.2E1,5.3E1,1.53E2,8.7E1,1.01E2,1.43E2,6E1,2.1E1],"tree_param":{"num_deleted":"0","num_feature":"104","num_nodes":"15","size_leaf_vector":"1"}},{"base_weights":[2.387658E-6,-3.6865185E-4,3.0934127E-4,-6.4439984E-4,-2.0997062E-4,1.9611981E-4,6.557833E-4,-4.6215424E-5,-2.6743897E-5,-1.342922E-5,-3.246E-6,2.2727588E-6,1.3968567E-5,2.7860044E-5,4.2356558E-5],"categories":[],"categories_nodes":[],"categories_segments":[],"categories_sizes":[],"default_left":[0,0,0,0,0,0,0,0,0,0,0,0,0,0,0],"id":16,"left_children":[1,3,5,7,9,11,13,-1,-1,-1,-1,-1,-1,-1,-1],"loss_changes":[7.471325E-5,1.2860233E-5,1.3953042E-5,2.8164686E-6,1.5979367E-6,3.3990127E-6,1.1879674E-6,0E0,0E0,0E0,0E0,0E0,0E0,0E0,0E0],"parents":[2147483647,0,0,1,1,2,2,3,3,4,4,5,5,6,6],"right_children":[2,4,6,8,10,12,14,-1,-1,-1,-1,-1,-1,-1,-1],"split_conditions":[2.334E-2,2.238E-2,2.425E-2,2.173E-2,2.312E-2,2.358E-2,2.491E-2,-4.6215424E-5,-2.6743897E-5,-1.342922E-5,-3.246E-6,2.2727588E-6,1.3968567E-5,2.7860044E-5,4.2356558E-5],"split_indices":[1,2,2,1,1,2,2,0,0,0,0,0,0,0,0],"split_type":[0,0,0,0,0,0,0,0,0,0,0,0,0,0,0],"sum_hessian":[6.54E2,2.96E2,3.58E2,1.07E2,1.89E2,2.71E2,8.7E1,2.8E1,7.9E1,1.34E2,5.5E1,9.7E1,1.74E2,6E1,2.7E1],"tree_param":{"num_deleted":"0","num_feature":"104","num_nodes":"15","size_leaf_vector":"1"}},{"base_weights":[1.6399594E-5,-2.7634858E-4,3.4806426E-4,-5.478395E-4,-1.1856847E-4,2.5952113E-4,3.227017E-5,-3.8095775E-5,-2.0493499E-5,-1.0816567E-5,-1.7588442E-6,8.274474E-6,1.7492688E-5],"categories":[],"categories_nodes":[],"categories_segments":[],"categories_sizes":[],"default_left":[0,0,0,0,0,0,0,0,0,0,0,0,0],"id":17,"left_children":[1,3,5,7,9,11,-1,-1,-1,-1,-1,-1,-1],"loss_changes":[6.379E-5,1.4884761E-5,7.941326E-6,3.468318E-6,1.802267E-6,1.9721974E-6,0E0,0E0,0E0,0E0,0E0,0E0,0E0],"parents":[2147483647,0,0,1,1,2,2,3,3,4,4,5,5],"right_children":[2,4,6,8,10,12,-1,-1,-1,-1,-1,-1,-1],"split_conditions":[2.361E-2,2.267E-2,2.445E-2,2.219E-2,2.312E-2,2.406E-2,3.227017E-5,-3.8095775E-5,-2.0493499E-5,-1.0816567E-5,-1.7588442E-6,8.274474E-6,1.7492688E-5],"split_indices":[1,1,0,1,1,1,0,0,0,0,0,0,0],"split_type":[0,0,0,0,0,0,0,0,0,0,0,0,0],"sum_hessian":[6.55E2,3.48E2,3.07E2,1.27E2,2.21E2,2.38E2,6.9E1,4.8E1,7.9E1,1.01E2,1.2E2,1.18E2,1.2E2],"tree_param":{"num_deleted":"0","num_feature":"104","num_nodes":"13","size_leaf_vector":"1"}},{"base_weights":[8.500427E-6,-2.6957737E-4,3.3832894E-4,-5.888978E-4,-1.435949E-4,2.466065E-4,3.2601787E-5,-3.715659E-5,-2.176068E-5,-1.3018674E-5,-2.0331634E-6,7.3553842E-6,1.6291237E-5],"categories":[],"categories_nodes":[],"categories_segments":[],"categories_sizes":[],"default_left":[0,0,0,0,0,0,0,0,0,0,0,0,0],"id":18,"left_children":[1,3,5,7,9,11,-1,-1,-1,-1,-1,-1,-1],"loss_changes":[5.8148693E-5,1.3754137E-5,8.183648E-6,1.9758045E-6,2.9704238E-6,1.7334278E-6,0E0,0E0,0E0,0E0,0E0,0E0,0E0],"parents":[2147483647,0,0,1,1,2,2,3,3,4,4,5,5],"right_children":[2,4,6,8,10,12,-1,-1,-1,-1,-1,-1,-1],"split_conditions":[2.344E-2,2.238E-2,2.437E-2,2.187E-2,2.285E-2,2.386E-2,3.2601787E-5,-3.715659E-5,-2.176068E-5,-1.3018674E-5,-2.0331634E-6,7.3553842E-6,1.6291237E-5],"split_indices":[2,2,2,2,2,2,0,0,0,0,0,0,0],"split_type":[0,0,0,0,0,0,0,0,0,0,0,0,0],"sum_hessian":[6.32E2,3.43E2,2.89E2,9.6E1,2.47E2,2.25E2,6.4E1,4.6E1,5E1,1.15E2,1.32E2,1.01E2,1.24E2],"tree_param":{"num_deleted":"0","num_feature":"104","num_nodes":"13","size_leaf_vector":"1"}},{"base_weights":[4.8346033E-6,-3.0903678E-4,2.593354E-4,-3.2675773E-5,-2.1342139E-4,1.5529784E-4,5.2801747E-4,-1.6540904E-5,-6.4991304E-6,3.5199523E-6,1.299296E-5,1.9460787E-5,3.253534E-5],"categories":[],"categories_nodes":[],"categories_segments":[],"categories_sizes":[],"default_left":[0,0,0,0,0,0,0,0,0,0,0,0,0],"id":19,"left_children":[1,3,5,-1,7,9,11,-1,-1,-1,-1,-1,-1],"loss_changes":[5.048475E-5,9.181827E-6,9.673602E-6,0E0,2.1413816E-6,2.2276208E-6,1.3985955E-6,0E0,0E0,0E0,0E0,0E0,0E0],"parents":[2147483647,0,0,1,1,2,2,4,4,5,5,6,6],"right_children":[2,4,6,-1,8,10,12,-1,-1,-1,-1,-1,-1],"split_conditions":[2.316E-2,2.211E-2,2.415E-2,-3.2675773E-5,2.28E-2,2.389E-2,2.479E-2,-1.6540904E-5,-6.4991304E-6,3.5199523E-6,1.299296E-5,1.9460787E-5,3.253534E-5],"split_indices":[2,2,2,0,1,1,1,0,0,0,0,0,0],"split_type":[0,0,0,0,0,0,0,0,0,0,0,0,0],"sum_hessian":[6.3E2,2.82E2,3.48E2,6E1,2.22E2,2.52E2,9.6E1,9.1E1,1.31E2,1.4E2,1.12E2,4.7E1,4.9E1],"tree_param":{"num_deleted":"0","num_feature":"104","num_nodes":"13","size_leaf_vector":"1"}},{"base_weights":[6.486215E-6,-2.454428E-4,3.061725E-4,-4.652046E-4,-9.1268186E-5,2.1758137E-4,2.8818395E-5,-3.512519E-5,-1.7751961E-5,-8.801356E-6,-1.5836503E-6,6.8651675E-6,1.4290533E-5],"categories":[],"categories_nodes":[],"categories_segments":[],"categories_sizes":[],"default_left":[0,0,0,0,0,0,0,0,0,0,0,0,0],"id":20,"left_children":[1,3,5,7,9,11,-1,-1,-1,-1,-1,-1,-1],"loss_changes":[4.7941932E-5,1.1646722E-5,6.816299E-6,3.4627737E-6,1.0248742E-6,1.1657667E-6,0E0,0E0,0E0,0E0,0E0,0E0,0E0],"parents":[2147483647,0,0,1,1,2,2,3,3,4,4,5,5],"right_children":[2,4,6,8,10,12,-1,-1,-1,-1,-1,-1,-1],"split_conditions":[2.361E-2,2.276E-2,2.437E-2,2.185E-2,2.312E-2,2.386E-2,2.8818395E-5,-3.512519E-5,-1.7751961E-5,-8.801356E-6,-1.5836503E-6,6.8651675E-6,1.4290533E-5],"split_indices":[1,1,2,2,1,2,0,0,0,0,0,0,0],"split_type":[0,0,0,0,0,0,0,0,0,0,0,0,0],"sum_hessian":[6.33E2,3.44E2,2.89E2,1.41E2,2.03E2,2.19E2,7E1,4.3E1,9.8E1,8.3E1,1.2E2,1.02E2,1.17E2],"tree_param":{"num_deleted":"0","num_feature":"104","num_nodes":"13","size_leaf_vector":"1"}},{"base_weights":[-1.0740796E-5,-3.4731164E-4,1.91916E-4,-3.197073E-5,-2.4853984E-4,6.6112814E-5,4.1788947E-4,-1.545931E-5,-7.4127597E-6,-6.2401745E-7,7.8787825E-6,1.5488666E-5,3.0617735E-5],"categories":[],"categories_nodes":[],"categories_segments":[],"categories_sizes":[],"default_left":[0,0,0,0,0,0,0,0,0,0,0,0,0],"id":21,"left_children":[1,3,5,-1,7,9,11,-1,-1,-1,-1,-1,-1],"loss_changes":[4.28333E-5,6.6500415E-6,1.111622E-5,0E0,1.0367403E-6,1.82062E-6,2.7537844E-6,0E0,0E0,0E0,0E0,0E0,0E0],"parents":[2147483647,0,0,1,1,2,2,4,4,5,5,6,6],"right_children":[2,4,6,-1,8,10,12,-1,-1,-1,-1,-1,-1],"split_conditions":[2.292E-2,2.202E-2,2.396E-2,-3.197073E-5,2.26E-2,2.351E-2,2.448E-2,-1.545931E-5,-7.4127597E-6,-6.2401745E-7,7.8787825E-6,1.5488666E-5,3.0617735E-5],"split_indices":[2,2,2,0,2,2,2,0,0,0,0,0,0],"split_type":[0,0,0,0,0,0,0,0,0,0,0,0,0],"sum_hessian":[6.26E2,2.35E2,3.91E2,5.8E1,1.77E2,2.52E2,1.39E2,1.09E2,6.8E1,1.36E2,1.16E2,9.1E1,4.8E1],"tree_param":{"num_deleted":"0","num_feature":"104","num_nodes":"13","size_leaf_vector":"1"}},{"base_weights":[-5.979894E-7,-3.15385E-4,1.9594155E-4,-2.8371363E-5,-1.0854331E-5,7.035539E-5,3.909243E-4,-5.808931E-7,7.2244725E-6,1.4876779E-5,2.6985696E-5],"categories":[],"categories_nodes":[],"categories_segments":[],"categories_sizes":[],"default_left":[0,0,0,0,0,0,0,0,0,0,0],"id":22,"left_children":[1,3,5,-1,-1,7,9,-1,-1,-1,-1],"loss_changes":[3.8791222E-5,5.84768E-6,9.42453E-6,0E0,0E0,1.4358528E-6,1.937602E-6,0E0,0E0,0E0,0E0],"parents":[2147483647,0,0,1,1,2,2,5,5,6,6],"right_children":[2,4,6,-1,-1,8,10,-1,-1,-1,-1],"split_conditions":[2.308E-2,2.219E-2,2.407E-2,-2.8371363E-5,-1.0854331E-5,2.357E-2,2.455E-2,-5.808931E-7,7.2244725E-6,1.4876779E-5,2.6985696E-5],"split_indices":[0,0,0,0,0,0,0,0,0,0,0],"split_type":[0,0,0,0,0,0,0,0,0,0,0],"sum_hessian":[6.25E2,2.4E2,3.85E2,6.6E1,1.74E2,2.35E2,1.5E2,1.12E2,1.23E2,9.4E1,5.6E1],"tree_param":{"num_deleted":"0","num_feature":"104","num_nodes":"11","size_leaf_vector":"1"}},{"base_weights":[-1.1799244E-6,-2.7540536E-4,2.0412571E-4,-4.7150085E-4,-7.842589E-6,4.385374E-6,3.592869E-4,-3.3902954E-5,-1.9188037E-5,1.5483942E-5,3.0739175E-5],"categories":[],"categories_nodes":[],"categories_segments":[],"categories_sizes":[],"default_left":[0,0,0,0,0,0,0,0,0,0,0],"id":23,"left_children":[1,3,5,7,-1,-1,9,-1,-1,-1,-1],"loss_changes":[3.6820136E-5,6.4354354E-6,6.724271E-6,1.6427493E-6,0E0,0E0,1.8375667E-6,0E0,0E0,0E0,0E0],"parents":[2147483647,0,0,1,1,2,2,3,3,6,6],"right_children":[2,4,6,8,-1,-1,10,-1,-1,-1,-1],"split_conditions":[2.313E-2,2.234E-2,2.396E-2,2.152E-2,-7.842589E-6,4.385374E-6,2.517E-2,-3.3902954E-5,-1.9188037E-5,1.5483942E-5,3.0739175E-5],"split_indices":[2,2,2,2,0,0,1,0,0,0,0],"split_type":[0,0,0,0,0,0,0,0,0,0,0],"sum_hessian":[6.52E2,2.79E2,3.73E2,1.04E2,1.75E2,2.14E2,1.59E2,2.9E1,7.5E1,1.35E2,2.4E1],"tree_param":{"num_deleted":"0","num_feature":"104","num_nodes":"11","size_leaf_vector":"1"}},{"base_weights":[-3.31457E-7,-2.1135999E-4,2.516335E-4,-4.5220647E-4,-1.1056852E-4,8.917759E-6,2.4440515E-5,-3.0551768E-5,-1.7454748E-5,-9.870394E-6,-1.7799688E-6],"categories":[],"categories_nodes":[],"categories_segments":[],"categories_sizes":[],"default_left":[0,0,0,0,0,0,0,0,0,0,0],"id":24,"left_children":[1,3,5,7,9,-1,-1,-1,-1,-1,-1],"loss_changes":[3.4880708E-5,8.616273E-6,5.109412E-6,1.5062851E-6,1.6400711E-6,0E0,0E0,0E0,0E0,0E0,0E0],"parents":[2147483647,0,0,1,1,2,2,3,3,4,4],"right_children":[2,4,6,8,10,-1,-1,-1,-1,-1,-1],"split_conditions":[2.343E-2,2.238E-2,2.437E-2,2.165E-2,2.285E-2,8.917759E-6,2.4440515E-5,-3.0551768E-5,-1.7454748E-5,-9.870394E-6,-1.7799688E-6],"split_indices":[2,2,2,2,2,0,0,0,0,0,0],"split_type":[0,0,0,0,0,0,0,0,0,0,0],"sum_hessian":[6.54E2,3.56E2,2.98E2,1.04E2,2.52E2,2.29E2,6.9E1,3.9E1,6.5E1,1.16E2,1.36E2],"tree_param":{"num_deleted":"0","num_feature":"104","num_nodes":"11","size_leaf_vector":"1"}},{"base_weights":[-9.679958E-6,-2.2087048E-4,2.1936977E-4,-2.7208767E-5,-1.4663688E-4,1.5636225E-4,2.1767355E-5,-1.1808724E-5,-2.9944615E-6,3.5719725E-6,1.0825556E-5],"categories":[],"categories_nodes":[],"categories_segments":[],"categories_sizes":[],"default_left":[0,0,0,0,0,0,0,0,0,0,0],"id":25,"left_children":[1,3,5,-1,7,9,-1,-1,-1,-1,-1],"loss_changes":[3.105563E-5,7.936233E-6,4.1232533E-6,0E0,2.1062938E-6,1.2104551E-6,0E0,0E0,0E0,0E0,0E0],"parents":[2147483647,0,0,1,1,2,2,4,4,5,5],"right_children":[2,4,6,-1,8,10,-1,-1,-1,-1,-1],"split_conditions":[2.352E-2,2.226E-2,2.455E-2,-2.7208767E-5,2.299E-2,2.394E-2,2.1767355E-5,-1.1808724E-5,-2.9944615E-6,3.5719725E-6,1.0825556E-5],"split_indices":[1,1,1,0,1,1,0,0,0,0,0],"split_type":[0,0,0,0,0,0,0,0,0,0,0],"sum_hessian":[6.4E2,3.33E2,3.07E2,6.1E1,2.72E2,2.39E2,6.8E1,1.33E2,1.39E2,1E2,1.39E2],"tree_param":{"num_deleted":"0","num_feature":"104","num_nodes":"11","size_leaf_vector":"1"}},{"base_weights":[-2.539378E-6,-2.5570387E-4,1.6646272E-4,-2.6259298E-5,-1.7096217E-4,3.7283153E-6,3.1974376E-4,-1.2474637E-5,-4.7687477E-6,1.4007709E-5,2.9065346E-5],"categories":[],"categories_nodes":[],"categories_segments":[],"categories_sizes":[],"default_left":[0,0,0,0,0,0,0,0,0,0,0],"id":26,"left_children":[1,3,5,-1,7,-1,9,-1,-1,-1,-1],"loss_changes":[2.7467962E-5,5.7791585E-6,5.39926E-6,0E0,1.1455782E-6,0E0,1.3282897E-6,0E0,0E0,0E0,0E0],"parents":[2147483647,0,0,1,1,2,2,4,4,6,6],"right_children":[2,4,6,-1,8,-1,10,-1,-1,-1,-1],"split_conditions":[2.323E-2,2.219E-2,2.402E-2,-2.6259298E-5,2.28E-2,3.7283153E-6,2.524E-2,-1.2474637E-5,-4.7687477E-6,1.4007709E-5,2.9065346E-5],"split_indices":[1,1,2,0,1,0,1,0,0,0,0],"split_type":[0,0,0,0,0,0,0,0,0,0,0],"sum_hessian":[6.4E2,2.56E2,3.84E2,6E1,1.96E2,2.41E2,1.43E2,9.5E1,1.01E2,1.26E2,1.7E1],"tree_param":{"num_deleted":"0","num_feature":"104","num_nodes":"11","size_leaf_vector":"1"}},{"base_weights":[-1.5844939E-6,-2.5839027E-4,1.5288428E-4,-2.4984667E-5,-9.50395E-6,6.13034E-5,3.1429913E-4,-4.96341E-7,6.0492453E-6,1.3239354E-5,2.6135594E-5],"categories":[],"categories_nodes":[],"categories_segments":[],"categories_sizes":[],"default_left":[0,0,0,0,0,0,0,0,0,0,0],"id":27,"left_children":[1,3,5,-1,-1,7,9,-1,-1,-1,-1],"loss_changes":[2.566534E-5,3.9105616E-6,5.9528693E-6,0E0,0E0,1.1022428E-6,1.3681574E-6,0E0,0E0,0E0,0E0],"parents":[2147483647,0,0,1,1,2,2,5,5,6,6],"right_children":[2,4,6,-1,-1,8,10,-1,-1,-1,-1],"split_conditions":[2.314E-2,2.219E-2,2.416E-2,-2.4984667E-5,-9.50395E-6,2.363E-2,2.509E-2,-4.96341E-7,6.0492453E-6,1.3239354E-5,2.6135594E-5],"split_indices":[1,1,1,0,0,1,1,0,0,0,0],"split_type":[0,0,0,0,0,0,0,0,0,0,0],"sum_hessian":[6.45E2,2.42E2,4.03E2,5.2E1,1.9E2,2.58E2,1.45E2,1.18E2,1.4E2,1.19E2,2.6E1],"tree_param":{"num_deleted":"0","num_feature":"104","num_nodes":"11","size_leaf_vector":"1"}},{"base_weights":[1.4570303E-6,-1.9075652E-4,1.8896365E-4,-2.3179638E-5,-1.2962958E-4,6.7438677E-6,1.9280544E-5,-1.0163393E-5,-2.9955634E-6],"categories":[],"categories_nodes":[],"categories_segments":[],"categories_sizes":[],"default_left":[0,0,0,0,0,0,0,0,0],"id":28,"left_children":[1,3,5,-1,7,-1,-1,-1,-1],"loss_changes":[2.3282693E-5,5.2600735E-6,3.4259356E-6,0E0,1.3329131E-6,0E0,0E0,0E0,0E0],"parents":[2147483647,0,0,1,1,2,2,4,4],"right_children":[2,4,6,-1,8,-1,-1,-1,-1],"split_conditions":[2.345E-2,2.202E-2,2.437E-2,-2.3179638E-5,2.292E-2,6.7438677E-6,1.9280544E-5,-1.0163393E-5,-2.9955634E-6],"split_indices":[1,2,2,0,1,0,0,0,0],"split_type":[0,0,0,0,0,0,0,0,0],"sum_hessian":[6.44E2,3.18E2,3.26E2,5.7E1,2.61E2,2.57E2,6.9E1,1.26E2,1.35E2],"tree_param":{"num_deleted":"0","num_feature":"104","num_nodes":"9","size_leaf_vector":"1"}},{"base_weights":[-3.9796862E-7,-1.8526925E-4,1.6681515E-4,-2.3042634E-5,-6.3170105E-6,4.361263E-6,3.2034272E-4,1.3464166E-5,2.6081188E-5],"categories":[],"categories_nodes":[],"categories_segments":[],"categories_sizes":[],"default_left":[0,0,0,0,0,0,0,0,0],"id":29,"left_children":[1,3,5,-1,-1,-1,7,-1,-1],"loss_changes":[1.9722427E-5,4.862455E-6,4.065505E-6,0E0,0E0,0E0,1.0311478E-6,0E0,0E0],"parents":[2147483647,0,0,1,1,2,2,6,6],"right_children":[2,4,6,-1,-1,-1,8,-1,-1],"split_conditions":[2.341E-2,2.219E-2,2.428E-2,-2.3042634E-5,-6.3170105E-6,4.361263E-6,2.517E-2,1.3464166E-5,2.6081188E-5],"split_indices":[1,1,1,0,0,0,1,0,0],"split_type":[0,0,0,0,0,0,0,0,0],"sum_hessian":[6.36E2,3.02E2,3.34E2,5.2E1,2.5E2,2.21E2,1.13E2,9.2E1,2.1E1],"tree_param":{"num_deleted":"0","num_feature":"104","num_nodes":"9","size_leaf_vector":"1"}},{"base_weights":[-3.2257278E-6,-1.4630482E-4,2.1364113E-4,-3.34952E-4,-3.3784988E-6,8.138616E-6,1.9829204E-5,-2.596712E-5,-1.3728571E-5],"categories":[],"categories_nodes":[],"categories_segments":[],"categories_sizes":[],"default_left":[0,0,0,0,0,0,0,0,0],"id":30,"left_children":[1,3,5,7,-1,-1,-1,-1,-1],"loss_changes":[1.9982977E-5,5.740373E-6,2.3178081E-6,1.1266338E-6,0E0,0E0,0E0,0E0,0E0],"parents":[2147483647,0,0,1,1,2,2,3,3],"right_children":[2,4,6,8,-1,-1,-1,-1,-1],"split_conditions":[2.358E-2,2.238E-2,2.448E-2,2.152E-2,-3.3784988E-6,8.138616E-6,1.9829204E-5,-2.596712E-5,-1.3728571E-5],"split_indices":[2,2,2,1,0,0,0,0,0],"split_type":[0,0,0,0,0,0,0,0,0],"sum_hessian":[6.42E2,3.87E2,2.55E2,1.13E2,2.74E2,2.01E2,5.4E1,2.6E1,8.7E1],"tree_param":{"num_deleted":"0","num_feature":"104","num_nodes":"9","size_leaf_vector":"1"}},{"base_weights":[5.726287E-6,-1.3631606E-4,1.930139E-4,-3.1626312E-4,-3.4841396E-6,6.7319265E-6,1.7555103E-5,-2.3793835E-5,-1.18845865E-5],"categories":[],"categories_nodes":[],"categories_segments":[],"categories_sizes":[],"default_left":[0,0,0,0,0,0,0,0,0],"id":31,"left_children":[1,3,5,7,-1,-1,-1,-1,-1],"loss_changes":[1.6839262E-5,4.294528E-6,2.4720957E-6,1.1033717E-6,0E0,0E0,0E0,0E0,0E0],"parents":[2147483647,0,0,1,1,2,2,3,3],"right_children":[2,4,6,8,-1,-1,-1,-1,-1],"split_conditions":[2.352E-2,2.238E-2,2.437E-2,2.157E-2,-3.4841396E-6,6.7319265E-6,1.7555103E-5,-2.3793835E-5,-1.18845865E-5],"split_indices":[2,2,2,2,0,0,0,0,0],"split_type":[0,0,0,0,0,0,0,0,0],"sum_hessian":[6.31E2,3.59E2,2.72E2,9.6E1,2.63E2,2E2,7.2E1,3E1,6.6E1],"tree_param":{"num_deleted":"0","num_feature":"104","num_nodes":"9","size_leaf_vector":"1"}},{"base_weights":[-3.7728657E-6,-1.721099E-4,1.3814146E-4,-1.5721758E-5,-4.755266E-6,2.4711728E-6,2.2610046E-4,9.5171445E-6,2.1216281E-5],"categories":[],"categories_nodes":[],"categories_segments":[],"categories_sizes":[],"default_left":[0,0,0,0,0,0,0,0,0],"id":32,"left_children":[1,3,5,-1,-1,-1,7,-1,-1],"loss_changes":[1.598192E-5,3.323762E-6,2.8215131E-6,0E0,0E0,0E0,1.2092569E-6,0E0,0E0],"parents":[2147483647,0,0,1,1,2,2,6,6],"right_children":[2,4,6,-1,-1,-1,8,-1,-1],"split_conditions":[2.314E-2,2.254E-2,2.405E-2,-1.5721758E-5,-4.755266E-6,2.4711728E-6,2.491E-2,9.5171445E-6,2.1216281E-5],"split_indices":[2,1,1,0,0,0,2,0,0],"split_type":[0,0,0,0,0,0,0,0,0],"sum_hessian":[6.67E2,3.05E2,3.62E2,1.06E2,1.99E2,1.81E2,1.81E2,1.55E2,2.6E1],"tree_param":{"num_deleted":"0","num_feature":"104","num_nodes":"9","size_leaf_vector":"1"}},{"base_weights":[-1.1441799E-6,-2.0800196E-4,1.12934606E-4,-1.9777526E-5,-7.6078186E-6,1.979335E-6,1.1620096E-5],"categories":[],"categories_nodes":[],"categories_segments":[],"categories_sizes":[],"default_left":[0,0,0,0,0,0,0],"id":33,"left_children":[1,3,5,-1,-1,-1,-1],"loss_changes":[1.4937479E-5,2.2964114E-6,3.5659723E-6,0E0,0E0,0E0,0E0],"parents":[2147483647,0,0,1,1,2,2],"right_children":[2,4,6,-1,-1,-1,-1],"split_conditions":[2.292E-2,2.187E-2,2.396E-2,-1.9777526E-5,-7.6078186E-6,1.979335E-6,1.1620096E-5],"split_indices":[2,2,2,0,0,0,0],"split_type":[0,0,0,0,0,0,0],"sum_hessian":[6.31E2,2.24E2,4.07E2,5E1,1.74E2,2.53E2,1.54E2],"tree_param":{"num_deleted":"0","num_feature":"104","num_nodes":"7","size_leaf_vector":"1"}},{"base_weights":[1.3319969E-6,-1.8594183E-4,1.0768174E-4,-2.3744788E-5,-7.3393226E-6,2.110313E-6,2.2865248E-4,9.0811145E-6,2.1111975E-5],"categories":[],"categories_nodes":[],"categories_segments":[],"categories_sizes":[],"default_left":[0,0,0,0,0,0,0,0,0],"id":34,"left_children":[1,3,5,-1,-1,-1,7,-1,-1],"loss_changes":[1.2647098E-5,2.5325353E-6,3.1981995E-6,0E0,0E0,0E0,1.2161418E-6,0E0,0E0],"parents":[2147483647,0,0,1,1,2,2,6,6],"right_children":[2,4,6,-1,-1,-1,8,-1,-1],"split_conditions":[2.312E-2,2.159E-2,2.403E-2,-2.3744788E-5,-7.3393226E-6,2.110313E-6,2.491E-2,9.0811145E-6,2.1111975E-5],"split_indices":[1,1,2,0,0,0,2,0,0],"split_type":[0,0,0,0,0,0,0,0,0],"sum_hessian":[6.33E2,2.29E2,4.04E2,2.6E1,2.03E2,2.63E2,1.41E2,1.15E2,2.6E1],"tree_param":{"num_deleted":"0","num_feature":"104","num_nodes":"9","size_leaf_vector":"1"}},{"base_weights":[1.0825876E-6,-1.156465E-4,1.5487133E-4,-1.121127E-5,-2.1697083E-6,6.266257E-6,1.8719902E-5],"categories":[],"categories_nodes":[],"categories_segments":[],"categories_sizes":[],"default_left":[0,0,0,0,0,0,0],"id":35,"left_children":[1,3,5,-1,-1,-1,-1],"loss_changes":[1.1399237E-5,2.822344E-6,1.7302909E-6,0E0,0E0,0E0,0E0],"parents":[2147483647,0,0,1,1,2,2],"right_children":[2,4,6,-1,-1,-1,-1],"split_conditions":[2.352E-2,2.276E-2,2.506E-2,-1.121127E-5,-2.1697083E-6,6.266257E-6,1.8719902E-5],"split_indices":[2,1,1,0,0,0,0],"split_type":[0,0,0,0,0,0,0],"sum_hessian":[6.33E2,3.6E2,2.73E2,1.43E2,2.17E2,2.42E2,3.1E1],"tree_param":{"num_deleted":"0","num_feature":"104","num_nodes":"7","size_leaf_vector":"1"}},{"base_weights":[-2.4872327E-6,-1.1350652E-4,1.5220064E-4,-1.4186089E-5,-3.4422044E-6,5.1656357E-6,1.4285188E-5],"categories":[],"categories_nodes":[],"categories_segments":[],"categories_sizes":[],"default_left":[0,0,0,0,0,0,0],"id":36,"left_children":[1,3,5,-1,-1,-1,-1],"loss_changes":[1.0973864E-5,2.8084964E-6,1.7131088E-6,0E0,0E0,0E0,0E0],"parents":[2147483647,0,0,1,1,2,2],"right_children":[2,4,6,-1,-1,-1,-1],"split_conditions":[2.352E-2,2.238E-2,2.437E-2,-1.4186089E-5,-3.4422044E-6,5.1656357E-6,1.4285188E-5],"split_indices":[2,1,2,0,0,0,0],"split_type":[0,0,0,0,0,0,0],"sum_hessian":[6.37E2,3.71E2,2.66E2,7.6E1,2.95E2,1.96E2,7E1],"tree_param":{"num_deleted":"0","num_feature":"104","num_nodes":"7","size_leaf_vector":"1"}},{"base_weights":[6.4613283E-7,-1.6676444E-4,9.5091695E-5,-1.7005812E-5,-6.453717E-6,1.212868E-6,8.864785E-6],"categories":[],"categories_nodes":[],"categories_segments":[],"categories_sizes":[],"default_left":[0,0,0,0,0,0,0],"id":37,"left_children":[1,3,5,-1,-1,-1,-1],"loss_changes":[1.0214072E-5,1.4784391E-6,2.400543E-6,0E0,0E0,0E0,0E0],"parents":[2147483647,0,0,1,1,2,2],"right_children":[2,4,6,-1,-1,-1,-1],"split_conditions":[2.312E-2,2.181E-2,2.386E-2,-1.7005812E-5,-6.453717E-6,1.212868E-6,8.864785E-6],"split_indices":[1,2,2,0,0,0,0],"split_type":[0,0,0,0,0,0,0],"sum_hessian":[6.44E2,2.32E2,4.12E2,4E1,1.92E2,2.22E2,1.9E2],"tree_param":{"num_deleted":"0","num_feature":"104","num_nodes":"7","size_leaf_vector":"1"}},{"base_weights":[8.7733E-6,-1.2226157E-4,1.08204826E-4,-1.08012955E-5,-3.3566248E-6,2.8017755E-6,1.0895348E-5],"categories":[],"categories_nodes":[],"categories_segments":[],"categories_sizes":[],"default_left":[0,0,0,0,0,0,0],"id":38,"left_children":[1,3,5,-1,-1,-1,-1],"loss_changes":[8.273613E-6,1.4018424E-6,2.0538232E-6,0E0,0E0,0E0,0E0],"parents":[2147483647,0,0,1,1,2,2],"right_children":[2,4,6,-1,-1,-1,-1],"split_conditions":[2.314E-2,2.237E-2,2.413E-2,-1.08012955E-5,-3.3566248E-6,2.8017755E-6,1.0895348E-5],"split_indices":[2,2,2,0,0,0,0],"split_type":[0,0,0,0,0,0,0],"sum_hessian":[6.33E2,2.73E2,3.6E2,1E2,1.73E2,2.45E2,1.15E2],"tree_param":{"num_deleted":"0","num_feature":"104","num_nodes":"7","size_leaf_vector":"1"}},{"base_weights":[-1.8763585E-6,-1.0723544E-4,1.0693196E-4,-1.0643025E-5,-2.7948056E-6,4.4023263E-6,1.7952085E-5],"categories":[],"categories_nodes":[],"categories_segments":[],"categories_sizes":[],"default_left":[0,0,0,0,0,0,0],"id":39,"left_children":[1,3,5,-1,-1,-1,-1],"loss_changes":[7.1305767E-6,1.7016819E-6,1.4253162E-6,0E0,0E0,0E0,0E0],"parents":[2147483647,0,0,1,1,2,2],"right_children":[2,4,6,-1,-1,-1,-1],"split_conditions":[2.345E-2,2.259E-2,2.524E-2,-1.0643025E-5,-2.7948056E-6,4.4023263E-6,1.7952085E-5],"split_indices":[1,1,1,0,0,0,0],"split_type":[0,0,0,0,0,0,0],"sum_hessian":[6.2E2,3.15E2,3.05E2,1.02E2,2.13E2,2.85E2,2E1],"tree_param":{"num_deleted":"0","num_feature":"104","num_nodes":"7","size_leaf_vector":"1"}},{"base_weights":[-1.9389304E-7,-9.771294E-5,1.223828E-4,-1.0648491E-5,-2.4897438E-6,5.0620265E-6,1.6150425E-5],"categories":[],"categories_nodes":[],"categories_segments":[],"categories_sizes":[],"default_left":[0,0,0,0,0,0,0],"id":40,"left_children":[1,3,5,-1,-1,-1,-1],"loss_changes":[7.7698205E-6,1.9886802E-6,1.1889028E-6,0E0,0E0,0E0,0E0],"parents":[2147483647,0,0,1,1,2,2],"right_children":[2,4,6,-1,-1,-1,-1],"split_conditions":[2.362E-2,2.258E-2,2.517E-2,-1.0648491E-5,-2.4897438E-6,5.0620265E-6,1.6150425E-5],"split_indices":[1,1,1,0,0,0,0],"split_type":[0,0,0,0,0,0,0],"sum_hessian":[6.48E2,3.61E2,2.87E2,1.05E2,2.56E2,2.61E2,2.6E1],"tree_param":{"num_deleted":"0","num_feature":"104","num_nodes":"7","size_leaf_vector":"1"}},{"base_weights":[-8.711213E-6,-1.4808067E-4,7.55812E-5,-1.6638382E-5,-5.6410286E-6,1.1470783E-6,8.973461E-6],"categories":[],"categories_nodes":[],"categories_segments":[],"categories_sizes":[],"default_left":[0,0,0,0,0,0,0],"id":41,"left_children":[1,3,5,-1,-1,-1,-1],"loss_changes":[7.2948205E-6,1.486283E-6,2.1122414E-6,0E0,0E0,0E0,0E0],"parents":[2147483647,0,0,1,1,2,2],"right_children":[2,4,6,-1,-1,-1,-1],"split_conditions":[2.312E-2,2.157E-2,2.403E-2,-1.6638382E-5,-5.6410286E-6,1.1470783E-6,8.973461E-6],"split_indices":[1,2,2,0,0,0,0],"split_type":[0,0,0,0,0,0,0],"sum_hessian":[6.19E2,2.33E2,3.86E2,3.6E1,1.97E2,2.57E2,1.29E2],"tree_param":{"num_deleted":"0","num_feature":"104","num_nodes":"7","size_leaf_vector":"1"}},{"base_weights":[6.888795E-7,-6.3495877E-6,6.8681E-5,1.8375262E-6,9.895087E-6],"categories":[],"categories_nodes":[],"categories_segments":[],"categories_sizes":[],"default_left":[0,0,0,0,0],"id":42,"left_children":[1,-1,3,-1,-1],"loss_changes":[5.5213336E-6,0E0,1.70505E-6,0E0,0E0],"parents":[2147483647,0,0,2,2],"right_children":[2,-1,4,-1,-1],"split_conditions":[2.292E-2,-6.3495877E-6,2.428E-2,1.8375262E-6,9.895087E-6],"split_indices":[2,0,2,0,0],"split_type":[0,0,0,0,0],"sum_hessian":[6.34E2,2.2E2,4.14E2,3.33E2,8.1E1],"tree_param":{"num_deleted":"0","num_feature":"104","num_nodes":"5","size_leaf_vector":"1"}},{"base_weights":[-7.293774E-7,-8.604828E-5,5.1957586E-6,-8.096432E-6,-1.3784789E-6],"categories":[],"categories_nodes":[],"categories_segments":[],"categories_sizes":[],"default_left":[0,0,0,0,0],"id":43,"left_children":[1,3,-1,-1,-1],"loss_changes":[5.705107E-6,1.5574947E-6,0E0,0E0,0E0],"parents":[2147483647,0,0,1,1],"right_children":[2,4,-1,-1,-1],"split_conditions":[2.361E-2,2.255E-2,5.1957586E-6,-8.096432E-6,-1.3784789E-6],"split_indices":[1,2,0,0,0],"split_type":[0,0,0,0,0],"sum_hessian":[6.37E2,3.51E2,2.86E2,1.52E2,1.99E2],"tree_param":{"num_deleted":"0","num_feature":"104","num_nodes":"5","size_leaf_vector":"1"}},{"base_weights":[5.1105735E-6,-5.996479E-6,7.0494505E-5,2.3532784E-6,1.3816475E-5],"categories":[],"categories_nodes":[],"categories_segments":[],"categories_sizes":[],"default_left":[0,0,0,0,0],"id":44,"left_children":[1,-1,3,-1,-1],"loss_changes":[5.1427414E-6,0E0,1.9786844E-6,0E0,0E0],"parents":[2147483647,0,0,2,2],"right_children":[2,-1,4,-1,-1],"split_conditions":[2.285E-2,-5.996479E-6,2.468E-2,2.3532784E-6,1.3816475E-5],"split_indices":[2,0,2,0,0],"split_type":[0,0,0,0,0],"sum_hessian":[6.27E2,2.15E2,4.12E2,3.71E2,4.1E1],"tree_param":{"num_deleted":"0","num_feature":"104","num_nodes":"5","size_leaf_vector":"1"}},{"base_weights":[-2.0016723E-6,-1.010617E-4,7.560091E-5,-1.5507012E-5,-3.930784E-6,1.6215547E-6,8.083514E-6],"categories":[],"categories_nodes":[],"categories_segments":[],"categories_sizes":[],"default_left":[0,0,0,0,0,0,0],"id":45,"left_children":[1,3,5,-1,-1,-1,-1],"loss_changes":[4.9352084E-6,1.2990388E-6,1.3323722E-6,0E0,0E0,0E0,0E0],"parents":[2147483647,0,0,1,1,2,2],"right_children":[2,4,6,-1,-1,-1,-1],"split_conditions":[2.314E-2,2.159E-2,2.412E-2,-1.5507012E-5,-3.930784E-6,1.6215547E-6,8.083514E-6],"split_indices":[2,1,2,0,0,0,0],"split_type":[0,0,0,0,0,0,0],"sum_hessian":[6.4E2,2.81E2,3.59E2,2.6E1,2.55E2,2.4E2,1.19E2],"tree_param":{"num_deleted":"0","num_feature":"104","num_nodes":"7","size_leaf_vector":"1"}},{"base_weights":[-8.373107E-6,-6.423122E-5,5.6210024E-6,-7.829429E-6,-1.1704417E-6],"categories":[],"categories_nodes":[],"categories_segments":[],"categories_sizes":[],"default_left":[0,0,0,0,0],"id":46,"left_children":[1,3,-1,-1,-1],"loss_changes":[4.352468E-6,1.6590138E-6,0E0,0E0,0E0],"parents":[2147483647,0,0,1,1],"right_children":[2,4,-1,-1,-1],"split_conditions":[2.369E-2,2.267E-2,5.6210024E-6,-7.829429E-6,-1.1704417E-6],"split_indices":[2,1,0,0,0],"split_type":[0,0,0,0,0],"sum_hessian":[6.43E2,4.4E2,2.03E2,1.34E2,3.06E2],"tree_param":{"num_deleted":"0","num_feature":"104","num_nodes":"5","size_leaf_vector":"1"}},{"base_weights":[4.1946514E-6,-5.367099E-5,5.852638E-6,-6.9265875E-6,-5.381458E-7],"categories":[],"categories_nodes":[],"categories_segments":[],"categories_sizes":[],"default_left":[0,0,0,0,0],"id":47,"left_children":[1,3,-1,-1,-1],"loss_changes":[4.296891E-6,1.5824362E-6,0E0,0E0,0E0],"parents":[2147483647,0,0,1,1],"right_children":[2,4,-1,-1,-1],"split_conditions":[2.394E-2,2.276E-2,5.852638E-6,-6.9265875E-6,-5.381458E-7],"split_indices":[1,1,0,0,0],"split_type":[0,0,0,0,0],"sum_hessian":[6.56E2,4.34E2,2.22E2,1.45E2,2.89E2],"tree_param":{"num_deleted":"0","num_feature":"104","num_nodes":"5","size_leaf_vector":"1"}},{"base_weights":[8.261454E-7,-6.0617578E-5,4.6963323E-6,-9.291501E-6,-1.9539762E-6],"categories":[],"categories_nodes":[],"categories_segments":[],"categories_sizes":[],"default_left":[0,0,0,0,0],"id":48,"left_children":[1,3,-1,-1,-1],"loss_changes":[3.7697444E-6,1.0633801E-6,0E0,0E0,0E0],"parents":[2147483647,0,0,1,1],"right_children":[2,4,-1,-1,-1],"split_conditions":[2.358E-2,2.221E-2,4.6963323E-6,-9.291501E-6,-1.9539762E-6],"split_indices":[2,1,0,0,0],"split_type":[0,0,0,0,0],"sum_hessian":[6.57E2,3.96E2,2.61E2,5.7E1,3.39E2],"tree_param":{"num_deleted":"0","num_feature":"104","num_nodes":"5","size_leaf_vector":"1"}},{"base_weights":[1.3348966E-6,-6.439428E-5,4.0635637E-6,-1.4254784E-5,-2.4242795E-6],"categories":[],"categories_nodes":[],"categories_segments":[],"categories_sizes":[],"default_left":[0,0,0,0,0],"id":49,"left_children":[1,3,-1,-1,-1],"loss_changes":[3.446703E-6,1.2501621E-6,0E0,0E0,0E0],"parents":[2147483647,0,0,1,1],"right_children":[2,4,-1,-1,-1],"split_conditions":[2.362E-2,2.152E-2,4.0635637E-6,-1.4254784E-5,-2.4242795E-6],"split_indices":[1,1,0,0,0],"split_type":[0,0,0,0,0],"sum_hessian":[6.54E2,3.59E2,2.95E2,2.3E1,3.36E2],"tree_param":{"num_deleted":"0","num_feature":"104","num_nodes":"5","size_leaf_vector":"1"}},{"base_weights":[1.8478794E-6,-4.3752293E-6,5.1678748E-5,1.511068E-6,8.763514E-6],"categories":[],"categories_nodes":[],"categories_segments":[],"categories_sizes":[],"default_left":[0,0,0,0,0],"id":50,"left_children":[1,-1,3,-1,-1],"loss_changes":[2.8229617E-6,0E0,1.0740474E-6,0E0,0E0],"parents":[2147483647,0,0,2,2],"right_children":[2,-1,4,-1,-1],"split_conditions":[2.292E-2,-4.3752293E-6,2.448E-2,1.511068E-6,8.763514E-6],"split_indices":[2,0,2,0,0],"split_type":[0,0,0,0,0],"sum_hessian":[6.32E2,2.26E2,4.06E2,3.47E2,5.9E1],"tree_param":{"num_deleted":"0","num_feature":"104","num_nodes":"5","size_leaf_vector":"1"}},{"base_weights":[-2.8161635E-6,-4.9293736E-5,4.74877E-6,-1.2208455E-5,-1.7827873E-6],"categories":[],"categories_nodes":[],"categories_segments":[],"categories_sizes":[],"default_left":[0,0,0,0,0],"id":51,"left_children":[1,3,-1,-1,-1],"loss_changes":[2.990822E-6,1.1766314E-6,0E0,0E0,0E0],"parents":[2147483647,0,0,1,1],"right_children":[2,4,-1,-1,-1],"split_conditions":[2.397E-2,2.159E-2,4.74877E-6,-1.2208455E-5,-1.7827873E-6],"split_indices":[1,1,0,0,0],"split_type":[0,0,0,0,0],"sum_hessian":[6.56E2,4.45E2,2.11E2,2.8E1,4.17E2],"tree_param":{"num_deleted":"0","num_feature":"104","num_nodes":"5","size_leaf_vector":"1"}},{"base_weights":[2.8867773E-6,-5.2809683E-5,4.4153053E-6,-1.0856728E-5,-1.8136778E-6],"categories":[],"categories_nodes":[],"categories_segments":[],"categories_sizes":[],"default_left":[0,0,0,0,0],"id":52,"left_children":[1,3,-1,-1,-1],"loss_changes":[3.0257104E-6,1.0382831E-6,0E0,0E0,0E0],"parents":[2147483647,0,0,1,1],"right_children":[2,4,-1,-1,-1],"split_conditions":[2.358E-2,2.157E-2,4.4153053E-6,-1.0856728E-5,-1.8136778E-6],"split_indices":[2,2,0,0,0],"split_type":[0,0,0,0,0],"sum_hessian":[6.34E2,3.84E2,2.5E2,3.4E1,3.5E2],"tree_param":{"num_deleted":"0","num_feature":"104","num_nodes":"5","size_leaf_vector":"1"}},{"base_weights":[2.3663383E-6,-4.4584635E-6,1.9290896E-6],"categories":[],"categories_nodes":[],"categories_segments":[],"categories_sizes":[],"default_left":[0,0,0],"id":53,"left_children":[1,-1,-1],"loss_changes":[2.1515625E-6,0E0,0E0],"parents":[2147483647,0,0],"right_children":[2,-1,-1],"split_conditions":[2.274E-2,-4.4584635E-6,1.9290896E-6],"split_indices":[2,0,0],"split_type":[0,0,0],"sum_hessian":[6.47E2,1.83E2,4.64E2],"tree_param":{"num_deleted":"0","num_feature":"104","num_nodes":"3","size_leaf_vector":"1"}},{"base_weights":[-3.9131546E-6,-2.4319968E-6,3.5731136E-6],"categories":[],"categories_nodes":[],"categories_segments":[],"categories_sizes":[],"default_left":[0,0,0],"id":54,"left_children":[1,-1,-1],"loss_changes":[2.1543656E-6,0E0,0E0],"parents":[2147483647,0,0],"right_children":[2,-1,-1],"split_conditions":[2.379E-2,-2.4319968E-6,3.5731136E-6],"split_indices":[1,0,0],"split_type":[0,0,0],"sum_hessian":[6.37E2,4E2,2.37E2],"tree_param":{"num_deleted":"0","num_feature":"104","num_nodes":"3","size_leaf_vector":"1"}},{"base_weights":[5.6629247E-6,-3.538332E-6,4.8840167E-5,1.6435212E-6,1.2421546E-5],"categories":[],"categories_nodes":[],"categories_segments":[],"categories_sizes":[],"default_left":[0,0,0,0,0],"id":55,"left_children":[1,-1,3,-1,-1],"loss_changes":[2.1022677E-6,0E0,1.2891111E-6,0E0,0E0],"parents":[2147483647,0,0,2,2],"right_children":[2,-1,4,-1,-1],"split_conditions":[2.312E-2,-3.538332E-6,2.509E-2,1.6435212E-6,1.2421546E-5],"split_indices":[1,0,1,0,0],"split_type":[0,0,0,0,0],"sum_hessian":[6.35E2,2.29E2,4.06E2,3.77E2,2.9E1],"tree_param":{"num_deleted":"0","num_feature":"104","num_nodes":"5","size_leaf_vector":"1"}},{"base_weights":[-8.8564326E-7,-5.3917784E-6,3.0371859E-5,9.388771E-7,1.0314948E-5],"categories":[],"categories_nodes":[],"categories_segments":[],"categories_sizes":[],"default_left":[0,0,0,0,0],"id":56,"left_children":[1,-1,3,-1,-1],"loss_changes":[2.172874E-6,0E0,1.0221227E-6,0E0,0E0],"parents":[2147483647,0,0,2,2],"right_children":[2,-1,4,-1,-1],"split_conditions":[2.253E-2,-5.3917784E-6,2.509E-2,9.388771E-7,1.0314948E-5],"split_indices":[2,0,1,0,0],"split_type":[0,0,0,0,0],"sum_hessian":[6.48E2,1.46E2,5.02E2,4.72E2,3E1],"tree_param":{"num_deleted":"0","num_feature":"104","num_nodes":"5","size_leaf_vector":"1"}},{"base_weights":[4.096949E-6,-1.4695604E-6,4.48484E-6],"categories":[],"categories_nodes":[],"categories_segments":[],"categories_sizes":[],"default_left":[0,0,0],"id":57,"left_children":[1,-1,-1],"loss_changes":[1.7942497E-6,0E0,0E0],"parents":[2147483647,0,0],"right_children":[2,-1,-1],"split_conditions":[2.408E-2,-1.4695604E-6,4.48484E-6],"split_indices":[1,0,0],"split_type":[0,0,0],"sum_hessian":[6.24E2,4.49E2,1.75E2],"tree_param":{"num_deleted":"0","num_feature":"104","num_nodes":"3","size_leaf_vector":"1"}},{"base_weights":[-3.5613775E-7,-4.1422118E-6,1.7524834E-6],"categories":[],"categories_nodes":[],"categories_segments":[],"categories_sizes":[],"default_left":[0,0,0],"id":58,"left_children":[1,-1,-1],"loss_changes":[1.8574575E-6,0E0,0E0],"parents":[2147483647,0,0],"right_children":[2,-1,-1],"split_conditions":[2.277E-2,-4.1422118E-6,1.7524834E-6],"split_indices":[2,0,0],"split_type":[0,0,0],"sum_hessian":[6.34E2,1.9E2,4.44E2],"tree_param":{"num_deleted":"0","num_feature":"104","num_nodes":"3","size_leaf_vector":"1"}},{"base_weights":[-1.105879E-6,-4.3287746E-6,1.5639655E-6],"categories":[],"categories_nodes":[],"categories_segments":[],"categories_sizes":[],"default_left":[0,0,0],"id":59,"left_children":[1,-1,-1],"loss_changes":[1.8433943E-6,0E0,0E0],"parents":[2147483647,0,0],"right_children":[2,-1,-1],"split_conditions":[2.285E-2,-4.3287746E-6,1.5639655E-6],"split_indices":[1,0,0],"split_type":[0,0,0],"sum_hessian":[6.64E2,1.82E2,4.82E2],"tree_param":{"num_deleted":"0","num_feature":"104","num_nodes":"3","size_leaf_vector":"1"}},{"base_weights":[-1.7691565E-6,-5.933671E-6,9.890148E-7],"categories":[],"categories_nodes":[],"categories_segments":[],"categories_sizes":[],"default_left":[0,0,0],"id":60,"left_children":[1,-1,-1],"loss_changes":[1.6348039E-6,0E0,0E0],"parents":[2147483647,0,0],"right_children":[2,-1,-1],"split_conditions":[2.254E-2,-5.933671E-6,9.890148E-7],"split_indices":[1,0,0],"split_type":[0,0,0],"sum_hessian":[6.47E2,1E2,5.47E2],"tree_param":{"num_deleted":"0","num_feature":"104","num_nodes":"3","size_leaf_vector":"1"}},{"base_weights":[-3.0320755E-6,-1.7662813E-6,3.5363992E-6],"categories":[],"categories_nodes":[],"categories_segments":[],"categories_sizes":[],"default_left":[0,0,0],"id":61,"left_children":[1,-1,-1],"loss_changes":[1.5722195E-6,0E0,0E0],"parents":[2147483647,0,0],"right_children":[2,-1,-1],"split_conditions":[2.385E-2,-1.7662813E-6,3.5363992E-6],"split_indices":[2,0,0],"split_type":[0,0,0],"sum_hessian":[6.58E2,4.58E2,2E2],"tree_param":{"num_deleted":"0","num_feature":"104","num_nodes":"3","size_leaf_vector":"1"}},{"base_weights":[-7.164476E-7,-9.217974E-6,9.138734E-6,-1.6050107E-7,7.1449745E-6],"categories":[],"categories_nodes":[],"categories_segments":[],"categories_sizes":[],"default_left":[0,0,0,0,0],"id":62,"left_children":[1,-1,3,-1,-1],"loss_changes":[1.1726482E-6,0E0,1.0163027E-6,0E0,0E0],"parents":[2147483647,0,0,2,2],"right_children":[2,-1,4,-1,-1],"split_conditions":[2.198E-2,-9.217974E-6,2.479E-2,-1.6050107E-7,7.1449745E-6],"split_indices":[1,0,1,0,0],"split_type":[0,0,0,0,0],"sum_hessian":[6.46E2,3.2E1,6.14E2,5.63E2,5.1E1],"tree_param":{"num_deleted":"0","num_feature":"104","num_nodes":"5","size_leaf_vector":"1"}},{"base_weights":[-4.681035E-6,-4.2595375E-6,9.966769E-7],"categories":[],"categories_nodes":[],"categories_segments":[],"categories_sizes":[],"default_left":[0,0,0],"id":63,"left_children":[1,-1,-1],"loss_changes":[1.2442317E-6,0E0,0E0],"parents":[2147483647,0,0],"right_children":[2,-1,-1],"split_conditions":[2.28E-2,-4.2595375E-6,9.966769E-7],"split_indices":[1,0,0],"split_type":[0,0,0],"sum_hessian":[6.26E2,1.46E2,4.8E2],"tree_param":{"num_deleted":"0","num_feature":"104","num_nodes":"3","size_leaf_vector":"1"}},{"base_weights":[-7.5395576E-7,-1.7794191E-6,2.9588132E-6],"categories":[],"categories_nodes":[],"categories_segments":[],"categories_sizes":[],"default_left":[0,0,0],"id":64,"left_children":[1,-1,-1],"loss_changes":[1.3402797E-6,0E0,0E0],"parents":[2147483647,0,0],"right_children":[2,-1,-1],"split_conditions":[2.363E-2,-1.7794191E-6,2.9588132E-6],"split_indices":[2,0,0],"split_type":[0,0,0],"sum_hessian":[6.4E2,4.05E2,2.35E2],"tree_param":{"num_deleted":"0","num_feature":"104","num_nodes":"3","size_leaf_vector":"1"}},{"base_weights":[-2.0834532E-6,-1.2234974E-6,3.984207E-6],"categories":[],"categories_nodes":[],"categories_segments":[],"categories_sizes":[],"default_left":[0,0,0],"id":65,"left_children":[1,-1,-1],"loss_changes":[1.1496669E-6,0E0,0E0],"parents":[2147483647,0,0],"right_children":[2,-1,-1],"split_conditions":[2.402E-2,-1.2234974E-6,3.984207E-6],"split_indices":[2,0,0],"split_type":[0,0,0],"sum_hessian":[6.26E2,4.92E2,1.34E2],"tree_param":{"num_deleted":"0","num_feature":"104","num_nodes":"3","size_leaf_vector":"1"}},{"base_weights":[-3.3155084E-7,-4.9730176E-7,1.0353922E-5],"categories":[],"categories_nodes":[],"categories_segments":[],"categories_sizes":[],"default_left":[0,0,0],"id":66,"left_children":[1,-1,-1],"loss_changes":[1.260362E-6,0E0,0E0],"parents":[2147483647,0,0],"right_children":[2,-1,-1],"split_conditions":[2.509E-2,-4.9730176E-7,1.0353922E-5],"split_indices":[1,0,0],"split_type":[0,0,0],"sum_hessian":[6.3E2,6.03E2,2.7E1],"tree_param":{"num_deleted":"0","num_feature":"104","num_nodes":"3","size_leaf_vector":"1"}},{"base_weights":[-5.9446543E-6],"categories":[],"categories_nodes":[],"categories_segments":[],"categories_sizes":[],"default_left":[0],"id":67,"left_children":[-1],"loss_changes":[0E0],"parents":[2147483647],"right_children":[-1],"split_conditions":[-2.9723273E-7],"split_indices":[0],"split_type":[0],"sum_hessian":[6.32E2],"tree_param":{"num_deleted":"0","num_feature":"104","num_nodes":"1","size_leaf_vector":"1"}},{"base_weights":[-2.3172863E-6,-2.498606E-6,1.6929642E-6],"categories":[],"categories_nodes":[],"categories_segments":[],"categories_sizes":[],"default_left":[0,0,0],"id":68,"left_children":[1,-1,-1],"loss_changes":[1.0947006E-6,0E0,0E0],"parents":[2147483647,0,0],"right_children":[2,-1,-1],"split_conditions":[2.312E-2,-2.498606E-6,1.6929642E-6],"split_indices":[2,0,0],"split_type":[0,0,0],"sum_hessian":[6.33E2,2.73E2,3.6E2],"tree_param":{"num_deleted":"0","num_feature":"104","num_nodes":"3","size_leaf_vector":"1"}},{"base_weights":[3.5877072E-6],"categories":[],"categories_nodes":[],"categories_segments":[],"categories_sizes":[],"default_left":[0],"id":69,"left_children":[-1],"loss_changes":[0E0],"parents":[2147483647],"right_children":[-1],"split_conditions":[1.7938537E-7],"split_indices":[0],"split_type":[0],"sum_hessian":[6.48E2],"tree_param":{"num_deleted":"0","num_feature":"104","num_nodes":"1","size_leaf_vector":"1"}},{"base_weights":[-5.0752333E-6,-3.9381407E-6,1.01427E-6],"categories":[],"categories_nodes":[],"categories_segments":[],"categories_sizes":[],"default_left":[0,0,0],"id":70,"left_children":[1,-1,-1],"loss_changes":[1.1751814E-6,0E0,0E0],"parents":[2147483647,0,0],"right_children":[2,-1,-1],"split_conditions":[2.26E-2,-3.9381407E-6,1.01427E-6],"split_indices":[2,0,0],"split_type":[0,0,0],"sum_hessian":[6.27E2,1.6E2,4.67E2],"tree_param":{"num_deleted":"0","num_feature":"104","num_nodes":"3","size_leaf_vector":"1"}},{"base_weights":[-2.1553822E-6],"categories":[],"categories_nodes":[],"categories_segments":[],"categories_sizes":[],"default_left":[0],"id":71,"left_children":[-1],"loss_changes":[0E0],"parents":[2147483647],"right_children":[-1],"split_conditions":[-1.0776911E-7],"split_indices":[0],"split_type":[0],"sum_hessian":[6.35E2],"tree_param":{"num_deleted":"0","num_feature":"104","num_nodes":"1","size_leaf_vector":"1"}},{"base_weights":[-3.1808775E-6],"categories":[],"categories_nodes":[],"categories_segments":[],"categories_sizes":[],"default_left":[0],"id":72,"left_children":[-1],"loss_changes":[0E0],"parents":[2147483647],"right_children":[-1],"split_conditions":[-1.5904388E-7],"split_indices":[0],"split_type":[0],"sum_hessian":[6.54E2],"tree_param":{"num_deleted":"0","num_feature":"104","num_nodes":"1","size_leaf_vector":"1"}},{"base_weights":[-1.9739837E-6],"categories":[],"categories_nodes":[],"categories_segments":[],"categories_sizes":[],"default_left":[0],"id":73,"left_children":[-1],"loss_changes":[0E0],"parents":[2147483647],"right_children":[-1],"split_conditions":[-9.869918E-8],"split_indices":[0],"split_type":[0],"sum_hessian":[6.24E2],"tree_param":{"num_deleted":"0","num_feature":"104","num_nodes":"1","size_leaf_vector":"1"}},{"base_weights":[-9.9276E-6],"categories":[],"categories_nodes":[],"categories_segments":[],"categories_sizes":[],"default_left":[0],"id":74,"left_children":[-1],"loss_changes":[0E0],"parents":[2147483647],"right_children":[-1],"split_conditions":[-4.9638004E-7],"split_indices":[0],"split_type":[0],"sum_hessian":[6.29E2],"tree_param":{"num_deleted":"0","num_feature":"104","num_nodes":"1","size_leaf_vector":"1"}},{"base_weights":[2.4627923E-7,-1.41189E-5,3.0250902E-7],"categories":[],"categories_nodes":[],"categories_segments":[],"categories_sizes":[],"default_left":[0,0,0],"id":75,"left_children":[1,-1,-1],"loss_changes":[1.0597171E-6,0E0,0E0],"parents":[2147483647,0,0],"right_children":[2,-1,-1],"split_conditions":[2.142E-2,-1.41189E-5,3.0250902E-7],"split_indices":[1,0,0],"split_type":[0,0,0],"sum_hessian":[6.44E2,1.2E1,6.32E2],"tree_param":{"num_deleted":"0","num_feature":"104","num_nodes":"3","size_leaf_vector":"1"}},{"base_weights":[1.3042304E-6,-8.2574934E-7,4.3841987E-6],"categories":[],"categories_nodes":[],"categories_segments":[],"categories_sizes":[],"default_left":[0,0,0],"id":76,"left_children":[1,-1,-1],"loss_changes":[1.0080976E-6,0E0,0E0],"parents":[2147483647,0,0],"right_children":[2,-1,-1],"split_conditions":[2.428E-2,-8.2574934E-7,4.3841987E-6],"split_indices":[1,0,0],"split_type":[0,0,0],"sum_hessian":[6.53E2,5.42E2,1.11E2],"tree_param":{"num_deleted":"0","num_feature":"104","num_nodes":"3","size_leaf_vector":"1"}},{"base_weights":[2.2089982E-6],"categories":[],"categories_nodes":[],"categories_segments":[],"categories_sizes":[],"default_left":[0],"id":77,"left_children":[-1],"loss_changes":[0E0],"parents":[2147483647],"right_children":[-1],"split_conditions":[1.1044991E-7],"split_indices":[0],"split_type":[0],"sum_hessian":[6.58E2],"tree_param":{"num_deleted":"0","num_feature":"104","num_nodes":"1","size_leaf_vector":"1"}},{"base_weights":[-4.7259205E-6],"categories":[],"categories_nodes":[],"categories_segments":[],"categories_sizes":[],"default_left":[0],"id":78,"left_children":[-1],"loss_changes":[0E0],"parents":[2147483647],"right_children":[-1],"split_conditions":[-2.3629603E-7],"split_indices":[0],"split_type":[0],"sum_hessian":[6.3E2],"tree_param":{"num_deleted":"0","num_feature":"104","num_nodes":"1","size_leaf_vector":"1"}},{"base_weights":[4.643661E-6],"categories":[],"categories_nodes":[],"categories_segments":[],"categories_sizes":[],"default_left":[0],"id":79,"left_children":[-1],"loss_changes":[0E0],"parents":[2147483647],"right_children":[-1],"split_conditions":[2.3218307E-7],"split_indices":[0],"split_type":[0],"sum_hessian":[6.44E2],"tree_param":{"num_deleted":"0","num_feature":"104","num_nodes":"1","size_leaf_vector":"1"}},{"base_weights":[4.428761E-6],"categories":[],"categories_nodes":[],"categories_segments":[],"categories_sizes":[],"default_left":[0],"id":80,"left_children":[-1],"loss_changes":[0E0],"parents":[2147483647],"right_children":[-1],"split_conditions":[2.2143804E-7],"split_indices":[0],"split_type":[0],"sum_hessian":[6.38E2],"tree_param":{"num_deleted":"0","num_feature":"104","num_nodes":"1","size_leaf_vector":"1"}},{"base_weights":[2.245475E-6],"categories":[],"categories_nodes":[],"categories_segments":[],"categories_sizes":[],"default_left":[0],"id":81,"left_children":[-1],"loss_changes":[0E0],"parents":[2147483647],"right_children":[-1],"split_conditions":[1.12273746E-7],"split_indices":[0],"split_type":[0],"sum_hessian":[6.46E2],"tree_param":{"num_deleted":"0","num_feature":"104","num_nodes":"1","size_leaf_vector":"1"}},{"base_weights":[-2.1746353E-6,-1.1171763E-6,4.6476835E-6],"categories":[],"categories_nodes":[],"categories_segments":[],"categories_sizes":[],"default_left":[0,0,0],"id":82,"left_children":[1,-1,-1],"loss_changes":[1.1954663E-6,0E0,0E0],"parents":[2147483647,0,0],"right_children":[2,-1,-1],"split_conditions":[2.433E-2,-1.1171763E-6,4.6476835E-6],"split_indices":[1,0,0],"split_type":[0,0,0],"sum_hessian":[6.21E2,5.13E2,1.08E2],"tree_param":{"num_deleted":"0","num_feature":"104","num_nodes":"3","size_leaf_vector":"1"}},{"base_weights":[8.467689E-7],"categories":[],"categories_nodes":[],"categories_segments":[],"categories_sizes":[],"default_left":[0],"id":83,"left_children":[-1],"loss_changes":[0E0],"parents":[2147483647],"right_children":[-1],"split_conditions":[4.2338446E-8],"split_indices":[0],"split_type":[0],"sum_hessian":[6.43E2],"tree_param":{"num_deleted":"0","num_feature":"104","num_nodes":"1","size_leaf_vector":"1"}},{"base_weights":[2.6585926E-6],"categories":[],"categories_nodes":[],"categories_segments":[],"categories_sizes":[],"default_left":[0],"id":84,"left_children":[-1],"loss_changes":[0E0],"parents":[2147483647],"right_children":[-1],"split_conditions":[1.3292963E-7],"split_indices":[0],"split_type":[0],"sum_hessian":[6.47E2],"tree_param":{"num_deleted":"0","num_feature":"104","num_nodes":"1","size_leaf_vector":"1"}},{"base_weights":[-2.404258E-6],"categories":[],"categories_nodes":[],"categories_segments":[],"categories_sizes":[],"default_left":[0],"id":85,"left_children":[-1],"loss_changes":[0E0],"parents":[2147483647],"right_children":[-1],"split_conditions":[-1.202129E-7],"split_indices":[0],"split_type":[0],"sum_hessian":[6.56E2],"tree_param":{"num_deleted":"0","num_feature":"104","num_nodes":"1","size_leaf_vector":"1"}},{"base_weights":[3.5132132E-6],"categories":[],"categories_nodes":[],"categories_segments":[],"categories_sizes":[],"default_left":[0],"id":86,"left_children":[-1],"loss_changes":[0E0],"parents":[2147483647],"right_children":[-1],"split_conditions":[1.7566066E-7],"split_indices":[0],"split_type":[0],"sum_hessian":[6.26E2],"tree_param":{"num_deleted":"0","num_feature":"104","num_nodes":"1","size_leaf_vector":"1"}},{"base_weights":[-2.1845253E-6],"categories":[],"categories_nodes":[],"categories_segments":[],"categories_sizes":[],"default_left":[0],"id":87,"left_children":[-1],"loss_changes":[0E0],"parents":[2147483647],"right_children":[-1],"split_conditions":[-1.0922627E-7],"split_indices":[0],"split_type":[0],"sum_hessian":[6.4E2],"tree_param":{"num_deleted":"0","num_feature":"104","num_nodes":"1","size_leaf_vector":"1"}},{"base_weights":[6.9754506E-8],"categories":[],"categories_nodes":[],"categories_segments":[],"categories_sizes":[],"default_left":[0],"id":88,"left_children":[-1],"loss_changes":[0E0],"parents":[2147483647],"right_children":[-1],"split_conditions":[3.4877254E-9],"split_indices":[0],"split_type":[0],"sum_hessian":[6.58E2],"tree_param":{"num_deleted":"0","num_feature":"104","num_nodes":"1","size_leaf_vector":"1"}},{"base_weights":[-1.2902814E-6],"categories":[],"categories_nodes":[],"categories_segments":[],"categories_sizes":[],"default_left":[0],"id":89,"left_children":[-1],"loss_changes":[0E0],"parents":[2147483647],"right_children":[-1],"split_conditions":[-6.451407E-8],"split_indices":[0],"split_type":[0],"sum_hessian":[6.4E2],"tree_param":{"num_deleted":"0","num_feature":"104","num_nodes":"1","size_leaf_vector":"1"}},{"base_weights":[-1.9263146E-6],"categories":[],"categories_nodes":[],"categories_segments":[],"categories_sizes":[],"default_left":[0],"id":90,"left_children":[-1],"loss_changes":[0E0],"parents":[2147483647],"right_children":[-1],"split_conditions":[-9.631573E-8],"split_indices":[0],"split_type":[0],"sum_hessian":[6.41E2],"tree_param":{"num_deleted":"0","num_feature":"104","num_nodes":"1","size_leaf_vector":"1"}},{"base_weights":[5.196454E-7],"categories":[],"categories_nodes":[],"categories_segments":[],"categories_sizes":[],"default_left":[0],"id":91,"left_children":[-1],"loss_changes":[0E0],"parents":[2147483647],"right_children":[-1],"split_conditions":[2.5982272E-8],"split_indices":[0],"split_type":[0],"sum_hessian":[6.28E2],"tree_param":{"num_deleted":"0","num_feature":"104","num_nodes":"1","size_leaf_vector":"1"}},{"base_weights":[-4.0601344E-6],"categories":[],"categories_nodes":[],"categories_segments":[],"categories_sizes":[],"default_left":[0],"id":92,"left_children":[-1],"loss_changes":[0E0],"parents":[2147483647],"right_children":[-1],"split_conditions":[-2.0300672E-7],"split_indices":[0],"split_type":[0],"sum_hessian":[6.37E2],"tree_param":{"num_deleted":"0","num_feature":"104","num_nodes":"1","size_leaf_vector":"1"}},{"base_weights":[-2.9866743E-7],"categories":[],"categories_nodes":[],"categories_segments":[],"categories_sizes":[],"default_left":[0],"id":93,"left_children":[-1],"loss_changes":[0E0],"parents":[2147483647],"right_children":[-1],"split_conditions":[-1.4933372E-8],"split_indices":[0],"split_type":[0],"sum_hessian":[6.38E2],"tree_param":{"num_deleted":"0","num_feature":"104","num_nodes":"1","size_leaf_vector":"1"}},{"base_weights":[-6.4881857E-7],"categories":[],"categories_nodes":[],"categories_segments":[],"categories_sizes":[],"default_left":[0],"id":94,"left_children":[-1],"loss_changes":[0E0],"parents":[2147483647],"right_children":[-1],"split_conditions":[-3.244093E-8],"split_indices":[0],"split_type":[0],"sum_hessian":[6.53E2],"tree_param":{"num_deleted":"0","num_feature":"104","num_nodes":"1","size_leaf_vector":"1"}},{"base_weights":[3.126726E-6],"categories":[],"categories_nodes":[],"categories_segments":[],"categories_sizes":[],"default_left":[0],"id":95,"left_children":[-1],"loss_changes":[0E0],"parents":[2147483647],"right_children":[-1],"split_conditions":[1.563363E-7],"split_indices":[0],"split_type":[0],"sum_hessian":[6.3E2],"tree_param":{"num_deleted":"0","num_feature":"104","num_nodes":"1","size_leaf_vector":"1"}},{"base_weights":[2.4025442E-6,-5.4962875E-6,8.898288E-7],"categories":[],"categories_nodes":[],"categories_segments":[],"categories_sizes":[],"default_left":[0,0,0],"id":96,"left_children":[1,-1,-1],"loss_changes":[1.11901E-6,0E0,0E0],"parents":[2147483647,0,0],"right_children":[2,-1,-1],"split_conditions":[2.238E-2,-5.4962875E-6,8.898288E-7],"split_indices":[1,0,0],"split_type":[0,0,0],"sum_hessian":[6.45E2,7.7E1,5.68E2],"tree_param":{"num_deleted":"0","num_feature":"104","num_nodes":"3","size_leaf_vector":"1"}},{"base_weights":[3.2446405E-6],"categories":[],"categories_nodes":[],"categories_segments":[],"categories_sizes":[],"default_left":[0],"id":97,"left_children":[-1],"loss_changes":[0E0],"parents":[2147483647],"right_children":[-1],"split_conditions":[1.6223203E-7],"split_indices":[0],"split_type":[0],"sum_hessian":[6.17E2],"tree_param":{"num_deleted":"0","num_feature":"104","num_nodes":"1","size_leaf_vector":"1"}},{"base_weights":[-6.128394E-7],"categories":[],"categories_nodes":[],"categories_segments":[],"categories_sizes":[],"default_left":[0],"id":98,"left_children":[-1],"loss_changes":[0E0],"parents":[2147483647],"right_children":[-1],"split_conditions":[-3.064197E-8],"split_indices":[0],"split_type":[0],"sum_hessian":[6.38E2],"tree_param":{"num_deleted":"0","num_feature":"104","num_nodes":"1","size_leaf_vector":"1"}},{"base_weights":[-1.7087692E-6],"categories":[],"categories_nodes":[],"categories_segments":[],"categories_sizes":[],"default_left":[0],"id":99,"left_children":[-1],"loss_changes":[0E0],"parents":[2147483647],"right_children":[-1],"split_conditions":[-8.5438465E-8],"split_indices":[0],"split_type":[0],"sum_hessian":[6.58E2],"tree_param":{"num_deleted":"0","num_feature":"104","num_nodes":"1","size_leaf_vector":"1"}},{"base_weights":[-1.7533778E-6],"categories":[],"categories_nodes":[],"categories_segments":[],"categories_sizes":[],"default_left":[0],"id":100,"left_children":[-1],"loss_changes":[0E0],"parents":[2147483647],"right_children":[-1],"split_conditions":[-8.766889E-8],"split_indices":[0],"split_type":[0],"sum_hessian":[6.36E2],"tree_param":{"num_deleted":"0","num_feature":"104","num_nodes":"1","size_leaf_vector":"1"}},{"base_weights":[2.4529456E-6],"categories":[],"categories_nodes":[],"categories_segments":[],"categories_sizes":[],"default_left":[0],"id":101,"left_children":[-1],"loss_changes":[0E0],"parents":[2147483647],"right_children":[-1],"split_conditions":[1.2264728E-7],"split_indices":[0],"split_type":[0],"sum_hessian":[6.12E2],"tree_param":{"num_deleted":"0","num_feature":"104","num_nodes":"1","size_leaf_vector":"1"}},{"base_weights":[3.2804382E-7],"categories":[],"categories_nodes":[],"categories_segments":[],"categories_sizes":[],"default_left":[0],"id":102,"left_children":[-1],"loss_changes":[0E0],"parents":[2147483647],"right_children":[-1],"split_conditions":[1.6402192E-8],"split_indices":[0],"split_type":[0],"sum_hessian":[6.39E2],"tree_param":{"num_deleted":"0","num_feature":"104","num_nodes":"1","size_leaf_vector":"1"}},{"base_weights":[3.991415E-6],"categories":[],"categories_nodes":[],"categories_segments":[],"categories_sizes":[],"default_left":[0],"id":103,"left_children":[-1],"loss_changes":[0E0],"parents":[2147483647],"right_children":[-1],"split_conditions":[1.9957075E-7],"split_indices":[0],"split_type":[0],"sum_hessian":[6.44E2],"tree_param":{"num_deleted":"0","num_feature":"104","num_nodes":"1","size_leaf_vector":"1"}},{"base_weights":[-1.5665347E-6],"categories":[],"categories_nodes":[],"categories_segments":[],"categories_sizes":[],"default_left":[0],"id":104,"left_children":[-1],"loss_changes":[0E0],"parents":[2147483647],"right_children":[-1],"split_conditions":[-7.8326735E-8],"split_indices":[0],"split_type":[0],"sum_hessian":[6.31E2],"tree_param":{"num_deleted":"0","num_feature":"104","num_nodes":"1","size_leaf_vector":"1"}},{"base_weights":[3.6397557E-6],"categories":[],"categories_nodes":[],"categories_segments":[],"categories_sizes":[],"default_left":[0],"id":105,"left_children":[-1],"loss_changes":[0E0],"parents":[2147483647],"right_children":[-1],"split_conditions":[1.8198779E-7],"split_indices":[0],"split_type":[0],"sum_hessian":[6.57E2],"tree_param":{"num_deleted":"0","num_feature":"104","num_nodes":"1","size_leaf_vector":"1"}},{"base_weights":[-3.159731E-6],"categories":[],"categories_nodes":[],"categories_segments":[],"categories_sizes":[],"default_left":[0],"id":106,"left_children":[-1],"loss_changes":[0E0],"parents":[2147483647],"right_children":[-1],"split_conditions":[-1.5798655E-7],"split_indices":[0],"split_type":[0],"sum_hessian":[6.3E2],"tree_param":{"num_deleted":"0","num_feature":"104","num_nodes":"1","size_leaf_vector":"1"}},{"base_weights":[2.4070537E-6],"categories":[],"categories_nodes":[],"categories_segments":[],"categories_sizes":[],"default_left":[0],"id":107,"left_children":[-1],"loss_changes":[0E0],"parents":[2147483647],"right_children":[-1],"split_conditions":[1.2035268E-7],"split_indices":[0],"split_type":[0],"sum_hessian":[6.27E2],"tree_param":{"num_deleted":"0","num_feature":"104","num_nodes":"1","size_leaf_vector":"1"}},{"base_weights":[2.9922955E-6],"categories":[],"categories_nodes":[],"categories_segments":[],"categories_sizes":[],"default_left":[0],"id":108,"left_children":[-1],"loss_changes":[0E0],"parents":[2147483647],"right_children":[-1],"split_conditions":[1.4961478E-7],"split_indices":[0],"split_type":[0],"sum_hessian":[6.35E2],"tree_param":{"num_deleted":"0","num_feature":"104","num_nodes":"1","size_leaf_vector":"1"}},{"base_weights":[-4.9471146E-6],"categories":[],"categories_nodes":[],"categories_segments":[],"categories_sizes":[],"default_left":[0],"id":109,"left_children":[-1],"loss_changes":[0E0],"parents":[2147483647],"right_children":[-1],"split_conditions":[-2.4735573E-7],"split_indices":[0],"split_type":[0],"sum_hessian":[6.29E2],"tree_param":{"num_deleted":"0","num_feature":"104","num_nodes":"1","size_leaf_vector":"1"}},{"base_weights":[-2.4478718E-6],"categories":[],"categories_nodes":[],"categories_segments":[],"categories_sizes":[],"default_left":[0],"id":110,"left_children":[-1],"loss_changes":[0E0],"parents":[2147483647],"right_children":[-1],"split_conditions":[-1.2239359E-7],"split_indices":[0],"split_type":[0],"sum_hessian":[6.53E2],"tree_param":{"num_deleted":"0","num_feature":"104","num_nodes":"1","size_leaf_vector":"1"}},{"base_weights":[4.669387E-7],"categories":[],"categories_nodes":[],"categories_segments":[],"categories_sizes":[],"default_left":[0],"id":111,"left_children":[-1],"loss_changes":[0E0],"parents":[2147483647],"right_children":[-1],"split_conditions":[2.3346935E-8],"split_indices":[0],"split_type":[0],"sum_hessian":[6.26E2],"tree_param":{"num_deleted":"0","num_feature":"104","num_nodes":"1","size_leaf_vector":"1"}},{"base_weights":[-1.8496264E-6],"categories":[],"categories_nodes":[],"categories_segments":[],"categories_sizes":[],"default_left":[0],"id":112,"left_children":[-1],"loss_changes":[0E0],"parents":[2147483647],"right_children":[-1],"split_conditions":[-9.248132E-8],"split_indices":[0],"split_type":[0],"sum_hessian":[6.57E2],"tree_param":{"num_deleted":"0","num_feature":"104","num_nodes":"1","size_leaf_vector":"1"}},{"base_weights":[-3.4330478E-7],"categories":[],"categories_nodes":[],"categories_segments":[],"categories_sizes":[],"default_left":[0],"id":113,"left_children":[-1],"loss_changes":[0E0],"parents":[2147483647],"right_children":[-1],"split_conditions":[-1.716524E-8],"split_indices":[0],"split_type":[0],"sum_hessian":[6.37E2],"tree_param":{"num_deleted":"0","num_feature":"104","num_nodes":"1","size_leaf_vector":"1"}},{"base_weights":[9.805223E-8,-6.4662663E-7,6.7295273E-6],"categories":[],"categories_nodes":[],"categories_segments":[],"categories_sizes":[],"default_left":[0,0,0],"id":114,"left_children":[1,-1,-1],"loss_changes":[1.1110831E-6,0E0,0E0],"parents":[2147483647,0,0],"right_children":[2,-1,-1],"split_conditions":[2.448E-2,-6.4662663E-7,6.7295273E-6],"split_indices":[2,0,0],"split_type":[0,0,0],"sum_hessian":[6.32E2,5.77E2,5.5E1],"tree_param":{"num_deleted":"0","num_feature":"104","num_nodes":"3","size_leaf_vector":"1"}},{"base_weights":[6.894489E-7],"categories":[],"categories_nodes":[],"categories_segments":[],"categories_sizes":[],"default_left":[0],"id":115,"left_children":[-1],"loss_changes":[0E0],"parents":[2147483647],"right_children":[-1],"split_conditions":[3.4472446E-8],"split_indices":[0],"split_type":[0],"sum_hessian":[6.47E2],"tree_param":{"num_deleted":"0","num_feature":"104","num_nodes":"1","size_leaf_vector":"1"}},{"base_weights":[-3.3110166E-6],"categories":[],"categories_nodes":[],"categories_segments":[],"categories_sizes":[],"default_left":[0],"id":116,"left_children":[-1],"loss_changes":[0E0],"parents":[2147483647],"right_children":[-1],"split_conditions":[-1.6555083E-7],"split_indices":[0],"split_type":[0],"sum_hessian":[6.43E2],"tree_param":{"num_deleted":"0","num_feature":"104","num_nodes":"1","size_leaf_vector":"1"}},{"base_weights":[4.971151E-7],"categories":[],"categories_nodes":[],"categories_segments":[],"categories_sizes":[],"default_left":[0],"id":117,"left_children":[-1],"loss_changes":[0E0],"parents":[2147483647],"right_children":[-1],"split_conditions":[2.4855755E-8],"split_indices":[0],"split_type":[0],"sum_hessian":[6.34E2],"tree_param":{"num_deleted":"0","num_feature":"104","num_nodes":"1","size_leaf_vector":"1"}},{"base_weights":[2.7378053E-6],"categories":[],"categories_nodes":[],"categories_segments":[],"categories_sizes":[],"default_left":[0],"id":118,"left_children":[-1],"loss_changes":[0E0],"parents":[2147483647],"right_children":[-1],"split_conditions":[1.3689026E-7],"split_indices":[0],"split_type":[0],"sum_hessian":[6.24E2],"tree_param":{"num_deleted":"0","num_feature":"104","num_nodes":"1","size_leaf_vector":"1"}},{"base_weights":[1.9887104E-6],"categories":[],"categories_nodes":[],"categories_segments":[],"categories_sizes":[],"default_left":[0],"id":119,"left_children":[-1],"loss_changes":[0E0],"parents":[2147483647],"right_children":[-1],"split_conditions":[9.9435525E-8],"split_indices":[0],"split_type":[0],"sum_hessian":[6.38E2],"tree_param":{"num_deleted":"0","num_feature":"104","num_nodes":"1","size_leaf_vector":"1"}},{"base_weights":[1.1827652E-7],"categories":[],"categories_nodes":[],"categories_segments":[],"categories_sizes":[],"default_left":[0],"id":120,"left_children":[-1],"loss_changes":[0E0],"parents":[2147483647],"right_children":[-1],"split_conditions":[5.913826E-9],"split_indices":[0],"split_type":[0],"sum_hessian":[6.42E2],"tree_param":{"num_deleted":"0","num_feature":"104","num_nodes":"1","size_leaf_vector":"1"}},{"base_weights":[6.3274726E-8],"categories":[],"categories_nodes":[],"categories_segments":[],"categories_sizes":[],"default_left":[0],"id":121,"left_children":[-1],"loss_changes":[0E0],"parents":[2147483647],"right_children":[-1],"split_conditions":[3.1637364E-9],"split_indices":[0],"split_type":[0],"sum_hessian":[6.4E2],"tree_param":{"num_deleted":"0","num_feature":"104","num_nodes":"1","size_leaf_vector":"1"}},{"base_weights":[3.518714E-6,-2.964649E-6,1.6010953E-6],"categories":[],"categories_nodes":[],"categories_segments":[],"categories_sizes":[],"default_left":[0,0,0],"id":122,"left_children":[1,-1,-1],"loss_changes":[1.1298088E-6,0E0,0E0],"parents":[2147483647,0,0],"right_children":[2,-1,-1],"split_conditions":[2.281E-2,-2.964649E-6,1.6010953E-6],"split_indices":[2,0,0],"split_type":[0,0,0],"sum_hessian":[6.29E2,1.96E2,4.33E2],"tree_param":{"num_deleted":"0","num_feature":"104","num_nodes":"3","size_leaf_vector":"1"}},{"base_weights":[5.18938E-7],"categories":[],"categories_nodes":[],"categories_segments":[],"categories_sizes":[],"default_left":[0],"id":123,"left_children":[-1],"loss_changes":[0E0],"parents":[2147483647],"right_children":[-1],"split_conditions":[2.5946902E-8],"split_indices":[0],"split_type":[0],"sum_hessian":[6.61E2],"tree_param":{"num_deleted":"0","num_feature":"104","num_nodes":"1","size_leaf_vector":"1"}},{"base_weights":[-5.1715383E-6],"categories":[],"categories_nodes":[],"categories_segments":[],"categories_sizes":[],"default_left":[0],"id":124,"left_children":[-1],"loss_changes":[0E0],"parents":[2147483647],"right_children":[-1],"split_conditions":[-2.5857693E-7],"split_indices":[0],"split_type":[0],"sum_hessian":[6.48E2],"tree_param":{"num_deleted":"0","num_feature":"104","num_nodes":"1","size_leaf_vector":"1"}},{"base_weights":[1.8629421E-6],"categories":[],"categories_nodes":[],"categories_segments":[],"categories_sizes":[],"default_left":[0],"id":125,"left_children":[-1],"loss_changes":[0E0],"parents":[2147483647],"right_children":[-1],"split_conditions":[9.314711E-8],"split_indices":[0],"split_type":[0],"sum_hessian":[6.45E2],"tree_param":{"num_deleted":"0","num_feature":"104","num_nodes":"1","size_leaf_vector":"1"}},{"base_weights":[1.8070402E-6],"categories":[],"categories_nodes":[],"categories_segments":[],"categories_sizes":[],"default_left":[0],"id":126,"left_children":[-1],"loss_changes":[0E0],"parents":[2147483647],"right_children":[-1],"split_conditions":[9.035201E-8],"split_indices":[0],"split_type":[0],"sum_hessian":[6.37E2],"tree_param":{"num_deleted":"0","num_feature":"104","num_nodes":"1","size_leaf_vector":"1"}},{"base_weights":[-1.2792156E-6],"categories":[],"categories_nodes":[],"categories_segments":[],"categories_sizes":[],"default_left":[0],"id":127,"left_children":[-1],"loss_changes":[0E0],"parents":[2147483647],"right_children":[-1],"split_conditions":[-6.3960776E-8],"split_indices":[0],"split_type":[0],"sum_hessian":[6.44E2],"tree_param":{"num_deleted":"0","num_feature":"104","num_nodes":"1","size_leaf_vector":"1"}},{"base_weights":[-2.3457303E-6],"categories":[],"categories_nodes":[],"categories_segments":[],"categories_sizes":[],"default_left":[0],"id":128,"left_children":[-1],"loss_changes":[0E0],"parents":[2147483647],"right_children":[-1],"split_conditions":[-1.1728652E-7],"split_indices":[0],"split_type":[0],"sum_hessian":[6.31E2],"tree_param":{"num_deleted":"0","num_feature":"104","num_nodes":"1","size_leaf_vector":"1"}},{"base_weights":[-3.7757884E-6],"categories":[],"categories_nodes":[],"categories_segments":[],"categories_sizes":[],"default_left":[0],"id":129,"left_children":[-1],"loss_changes":[0E0],"parents":[2147483647],"right_children":[-1],"split_conditions":[-1.8878943E-7],"split_indices":[0],"split_type":[0],"sum_hessian":[6.57E2],"tree_param":{"num_deleted":"0","num_feature":"104","num_nodes":"1","size_leaf_vector":"1"}},{"base_weights":[1.2840169E-6],"categories":[],"categories_nodes":[],"categories_segments":[],"categories_sizes":[],"default_left":[0],"id":130,"left_children":[-1],"loss_changes":[0E0],"parents":[2147483647],"right_children":[-1],"split_conditions":[6.420085E-8],"split_indices":[0],"split_type":[0],"sum_hessian":[6.48E2],"tree_param":{"num_deleted":"0","num_feature":"104","num_nodes":"1","size_leaf_vector":"1"}},{"base_weights":[-1.1926904E-6],"categories":[],"categories_nodes":[],"categories_segments":[],"categories_sizes":[],"default_left":[0],"id":131,"left_children":[-1],"loss_changes":[0E0],"parents":[2147483647],"right_children":[-1],"split_conditions":[-5.963452E-8],"split_indices":[0],"split_type":[0],"sum_hessian":[6.38E2],"tree_param":{"num_deleted":"0","num_feature":"104","num_nodes":"1","size_leaf_vector":"1"}},{"base_weights":[-1.1387965E-6],"categories":[],"categories_nodes":[],"categories_segments":[],"categories_sizes":[],"default_left":[0],"id":132,"left_children":[-1],"loss_changes":[0E0],"parents":[2147483647],"right_children":[-1],"split_conditions":[-5.6939825E-8],"split_indices":[0],"split_type":[0],"sum_hessian":[6.48E2],"tree_param":{"num_deleted":"0","num_feature":"104","num_nodes":"1","size_leaf_vector":"1"}},{"base_weights":[6.218416E-7],"categories":[],"categories_nodes":[],"categories_segments":[],"categories_sizes":[],"default_left":[0],"id":133,"left_children":[-1],"loss_changes":[0E0],"parents":[2147483647],"right_children":[-1],"split_conditions":[3.1092082E-8],"split_indices":[0],"split_type":[0],"sum_hessian":[6.4E2],"tree_param":{"num_deleted":"0","num_feature":"104","num_nodes":"1","size_leaf_vector":"1"}},{"base_weights":[-1.8116269E-6],"categories":[],"categories_nodes":[],"categories_segments":[],"categories_sizes":[],"default_left":[0],"id":134,"left_children":[-1],"loss_changes":[0E0],"parents":[2147483647],"right_children":[-1],"split_conditions":[-9.0581345E-8],"split_indices":[0],"split_type":[0],"sum_hessian":[6.32E2],"tree_param":{"num_deleted":"0","num_feature":"104","num_nodes":"1","size_leaf_vector":"1"}},{"base_weights":[-6.9734136E-7],"categories":[],"categories_nodes":[],"categories_segments":[],"categories_sizes":[],"default_left":[0],"id":135,"left_children":[-1],"loss_changes":[0E0],"parents":[2147483647],"right_children":[-1],"split_conditions":[-3.4867067E-8],"split_indices":[0],"split_type":[0],"sum_hessian":[6.32E2],"tree_param":{"num_deleted":"0","num_feature":"104","num_nodes":"1","size_leaf_vector":"1"}},{"base_weights":[3.1103087E-7],"categories":[],"categories_nodes":[],"categories_segments":[],"categories_sizes":[],"default_left":[0],"id":136,"left_children":[-1],"loss_changes":[0E0],"parents":[2147483647],"right_children":[-1],"split_conditions":[1.5551544E-8],"split_indices":[0],"split_type":[0],"sum_hessian":[6.63E2],"tree_param":{"num_deleted":"0","num_feature":"104","num_nodes":"1","size_leaf_vector":"1"}},{"base_weights":[2.9387235E-7],"categories":[],"categories_nodes":[],"categories_segments":[],"categories_sizes":[],"default_left":[0],"id":137,"left_children":[-1],"loss_changes":[0E0],"parents":[2147483647],"right_children":[-1],"split_conditions":[1.4693618E-8],"split_indices":[0],"split_type":[0],"sum_hessian":[6.38E2],"tree_param":{"num_deleted":"0","num_feature":"104","num_nodes":"1","size_leaf_vector":"1"}},{"base_weights":[9.92502E-7],"categories":[],"categories_nodes":[],"categories_segments":[],"categories_sizes":[],"default_left":[0],"id":138,"left_children":[-1],"loss_changes":[0E0],"parents":[2147483647],"right_children":[-1],"split_conditions":[4.96251E-8],"split_indices":[0],"split_type":[0],"sum_hessian":[6.46E2],"tree_param":{"num_deleted":"0","num_feature":"104","num_nodes":"1","size_leaf_vector":"1"}},{"base_weights":[2.5787415E-6],"categories":[],"categories_nodes":[],"categories_segments":[],"categories_sizes":[],"default_left":[0],"id":139,"left_children":[-1],"loss_changes":[0E0],"parents":[2147483647],"right_children":[-1],"split_conditions":[1.2893707E-7],"split_indices":[0],"split_type":[0],"sum_hessian":[6.46E2],"tree_param":{"num_deleted":"0","num_feature":"104","num_nodes":"1","size_leaf_vector":"1"}},{"base_weights":[-4.953887E-6],"categories":[],"categories_nodes":[],"categories_segments":[],"categories_sizes":[],"default_left":[0],"id":140,"left_children":[-1],"loss_changes":[0E0],"parents":[2147483647],"right_children":[-1],"split_conditions":[-2.4769437E-7],"split_indices":[0],"split_type":[0],"sum_hessian":[6.33E2],"tree_param":{"num_deleted":"0","num_feature":"104","num_nodes":"1","size_leaf_vector":"1"}},{"base_weights":[5.1165607E-6],"categories":[],"categories_nodes":[],"categories_segments":[],"categories_sizes":[],"default_left":[0],"id":141,"left_children":[-1],"loss_changes":[0E0],"parents":[2147483647],"right_children":[-1],"split_conditions":[2.5582804E-7],"split_indices":[0],"split_type":[0],"sum_hessian":[6.52E2],"tree_param":{"num_deleted":"0","num_feature":"104","num_nodes":"1","size_leaf_vector":"1"}},{"base_weights":[-3.6582264E-6],"categories":[],"categories_nodes":[],"categories_segments":[],"categories_sizes":[],"default_left":[0],"id":142,"left_children":[-1],"loss_changes":[0E0],"parents":[2147483647],"right_children":[-1],"split_conditions":[-1.8291132E-7],"split_indices":[0],"split_type":[0],"sum_hessian":[6.54E2],"tree_param":{"num_deleted":"0","num_feature":"104","num_nodes":"1","size_leaf_vector":"1"}},{"base_weights":[-3.9525416E-6],"categories":[],"categories_nodes":[],"categories_segments":[],"categories_sizes":[],"default_left":[0],"id":143,"left_children":[-1],"loss_changes":[0E0],"parents":[2147483647],"right_children":[-1],"split_conditions":[-1.9762709E-7],"split_indices":[0],"split_type":[0],"sum_hessian":[6.46E2],"tree_param":{"num_deleted":"0","num_feature":"104","num_nodes":"1","size_leaf_vector":"1"}},{"base_weights":[-2.0813532E-6],"categories":[],"categories_nodes":[],"categories_segments":[],"categories_sizes":[],"default_left":[0],"id":144,"left_children":[-1],"loss_changes":[0E0],"parents":[2147483647],"right_children":[-1],"split_conditions":[-1.0406766E-7],"split_indices":[0],"split_type":[0],"sum_hessian":[6.21E2],"tree_param":{"num_deleted":"0","num_feature":"104","num_nodes":"1","size_leaf_vector":"1"}},{"base_weights":[1.1529311E-5],"categories":[],"categories_nodes":[],"categories_segments":[],"categories_sizes":[],"default_left":[0],"id":145,"left_children":[-1],"loss_changes":[0E0],"parents":[2147483647],"right_children":[-1],"split_conditions":[5.764656E-7],"split_indices":[0],"split_type":[0],"sum_hessian":[6.4E2],"tree_param":{"num_deleted":"0","num_feature":"104","num_nodes":"1","size_leaf_vector":"1"}},{"base_weights":[-3.8132137E-6],"categories":[],"categories_nodes":[],"categories_segments":[],"categories_sizes":[],"default_left":[0],"id":146,"left_children":[-1],"loss_changes":[0E0],"parents":[2147483647],"right_children":[-1],"split_conditions":[-1.9066069E-7],"split_indices":[0],"split_type":[0],"sum_hessian":[6.28E2],"tree_param":{"num_deleted":"0","num_feature":"104","num_nodes":"1","size_leaf_vector":"1"}},{"base_weights":[5.891348E-6],"categories":[],"categories_nodes":[],"categories_segments":[],"categories_sizes":[],"default_left":[0],"id":147,"left_children":[-1],"loss_changes":[0E0],"parents":[2147483647],"right_children":[-1],"split_conditions":[2.945674E-7],"split_indices":[0],"split_type":[0],"sum_hessian":[6.27E2],"tree_param":{"num_deleted":"0","num_feature":"104","num_nodes":"1","size_leaf_vector":"1"}},{"base_weights":[2.498945E-7],"categories":[],"categories_nodes":[],"categories_segments":[],"categories_sizes":[],"default_left":[0],"id":148,"left_children":[-1],"loss_changes":[0E0],"parents":[2147483647],"right_children":[-1],"split_conditions":[1.2494725E-8],"split_indices":[0],"split_type":[0],"sum_hessian":[6.57E2],"tree_param":{"num_deleted":"0","num_feature":"104","num_nodes":"1","size_leaf_vector":"1"}},{"base_weights":[2.6081436E-6],"categories":[],"categories_nodes":[],"categories_segments":[],"categories_sizes":[],"default_left":[0],"id":149,"left_children":[-1],"loss_changes":[0E0],"parents":[2147483647],"right_children":[-1],"split_conditions":[1.3040719E-7],"split_indices":[0],"split_type":[0],"sum_hessian":[6.46E2],"tree_param":{"num_deleted":"0","num_feature":"104","num_nodes":"1","size_leaf_vector":"1"}}]},"name":"gbtree"},"learner_model_param":{"base_score":"2.335194E-2","boost_from_average":"1","num_class":"0","num_feature":"104","num_target":"1"},"objective":{"name":"reg:squarederror","reg_loss_param":{"scale_pos_weight":"1"}}},"version":[3,0,5]}