{"learner":{"attributes":{"scikit_learn":"{\"_estimator_type\": \"regressor\"}"},"feature_names":[],"feature_types":[],"gradient_booster":{"model":{"gbtree_model_param":{"num_parallel_tree":"1","num_trees":"150"},"iteration_indptr":[0,1,2,3,4,5,6,7,8,9,10,11,12,13,14,15,16,17,18,19,20,21,22,23,24,25,26,27,28,29,30,31,32,33,34,35,36,37,38,39,40,41,42,43,44,45,46,47,48,49,50,51,52,53,54,55,56,57,58,59,60,61,62,63,64,65,66,67,68,69,70,71,72,73,74,75,76,77,78,79,80,81,82,83,84,85,86,87,88,89,90,91,92,93,94,95,96,97,98,99,100,101,102,103,104,105,106,107,108,109,110,111,112,113,114,115,116,117,118,119,120,121,122,123,124,125,126,127,128,129,130,131,132,133,134,135,136,137,138,139,140,141,142,143,144,145,146,147,148,149,150],"tree_info":[0,0,0,0,0,0,0,0,0,0,0,0,0,0,0,0,0,0,0,0,0,0,0,0,0,0,0,0,0,0,0,0,0,0,0,0,0,0,0,0,0,0,0,0,0,0,0,0,0,0,0,0,0,0,0,0,0,0,0,0,0,0,0,0,0,0,0,0,0,0,0,0,0,0,0,0,0,0,0,0,0,0,0,0,0,0,0,0,0,0,0,0,0,0,0,0,0,0,0,0,0,0,0,0,0,0,0,0,0,0,0,0,0,0,0,0,0,0,0,0,0,0,0,0,0,0,0,0,0,0,0,0,0,0,0,0,0,0,0,0,0,0,0,0,0,0,0,0,0,0],"trees":[{"base_weights":[-1.4587035E1,-7.716318E2,1.0867015E3,-9.6034607E2,-1.615093E2,6.063452E2,2.0180441E3,-5.123213E1,-3.7794537E1,-2.2231733E1,1.4826272E1,4.5573605E2,4.60245E1,8.175409E1,1.2353583E2,-9.281156E0,6.1846302E1,1.719473E1,5.465561E2,-4.295914E-1,4.8839536E0,2.905849E1,1.6427319E1],"categories":[],"categories_nodes":[],"categories_segments":[],"categories_sizes":[],"default_left":[0,0,0,0,0,0,0,0,0,0,0,0,0,0,0,0,0,0,0,0,0,0,0],"id":0,"left_children":[1,3,5,7,9,11,13,-1,-1,-1,15,17,-1,-1,-1,-1,19,-1,21,-1,-1,-1,-1],"loss_changes":[2.251105E8,1.8267112E7,4.798776E7,8.29272E5,1.9536698E6,3.081668E6,2.374368E6,0E0,0E0,0E0,2.471085E5,3.40229E5,0E0,0E0,0E0,0E0,5.3843094E4,0E0,1.2804E4,0E0,0E0,0E0,0E0],"parents":[2147483647,0,0,1,1,2,2,3,3,4,4,5,5,6,6,10,10,11,11,16,16,18,18],"right_children":[2,4,6,8,10,12,14,-1,-1,-1,16,18,-1,-1,-1,-1,20,-1,22,-1,-1,-1,-1],"split_conditions":[1.59419E3,6.4349E2,2.722E3,3.7045E2,1.01107E3,2.118E3,3.90073E3,-5.123213E1,-3.7794537E1,-2.2231733E1,1.3085232E6,1.80751E3,4.60245E1,8.175409E1,1.2353583E2,-9.281156E0,1.2912E3,1.719473E1,2.01645E3,-4.295914E-1,4.8839536E0,2.905849E1,1.6427319E1],"split_indices":[1,1,1,1,1,1,1,0,0,0,3,1,0,0,0,0,1,0,1,0,0,0,0],"split_type":[0,0,0,0,0,0,0,0,0,0,0,0,0,0,0,0,0,0,0,0,0,0,0],"sum_hessian":[2.68E2,1.59E2,1.09E2,1.21E2,3.8E1,7.3E1,3.6E1,8.9E1,3.2E1,1.4E1,2.4E1,5.1E1,2.2E1,2.2E1,1.4E1,4E0,2E1,2.5E1,2.6E1,7E0,1.3E1,2.1E1,5E0],"tree_param":{"num_deleted":"0","num_feature":"104","num_nodes":"23","size_leaf_vector":"1"}},{"base_weights":[-4.31545E0,-7.747676E2,9.587857E2,-9.217037E2,-2.0413756E2,4.9800687E2,1.6638676E3,-4.8391155E1,-3.5975704E1,-2.1370295E1,-4.8806267E1,3.3247522E2,6.829713E2,6.26863E1,1.03647514E2,-8.909911E0,-5.3208923E0,1.1796688E2,3.658776E2,2.9547428E1,4.364646E1,-1.0176381E0,1.5909888E0,7.423364E0,2.8987381E0,1.8939154E1,8.558222E0],"categories":[],"categories_nodes":[],"categories_segments":[],"categories_sizes":[],"default_left":[0,0,0,0,0,0,0,0,0,0,0,0,0,0,0,0,0,0,0,0,0,0,0,0,0,0,0],"id":1,"left_children":[1,3,5,7,9,11,13,-1,-1,-1,15,17,19,-1,-1,-1,21,23,25,-1,-1,-1,-1,-1,-1,-1,-1],"loss_changes":[2.0034712E8,1.2388768E7,3.81578E7,4.13304E5,1.0889178E6,2.038622E6,5.28684E6,0E0,0E0,0E0,1.1158495E5,2.50608E5,7.8479E4,0E0,0E0,0E0,9.58032E3,4.201125E3,2.31155E4,0E0,0E0,0E0,0E0,0E0,0E0,0E0,0E0],"parents":[2147483647,0,0,1,1,2,2,3,3,4,4,5,5,6,6,10,10,11,11,12,12,16,16,17,17,18,18],"right_children":[2,4,6,8,10,12,14,-1,-1,-1,16,18,20,-1,-1,-1,22,24,26,-1,-1,-1,-1,-1,-1,-1,-1],"split_conditions":[1.19E3,6.4349E2,2.04651E3,3.3218E2,1.01107E3,1.65707E3,3.28366E3,-4.8391155E1,-3.5975704E1,-2.1370295E1,1.3085232E6,1.4383E3,2.146E3,6.26863E1,1.03647514E2,-8.909911E0,1.030976E7,2.959352E6,1.93642E3,2.9547428E1,4.364646E1,-1.0176381E0,1.5909888E0,7.423364E0,2.8987381E0,1.8939154E1,8.558222E0],"split_indices":[2,1,2,2,1,2,1,0,0,0,3,1,1,0,0,0,3,3,1,0,0,0,0,0,0,0,0],"split_type":[0,0,0,0,0,0,0,0,0,0,0,0,0,0,0,0,0,0,0,0,0,0,0,0,0,0,0],"sum_hessian":[2.68E2,1.49E2,1.19E2,1.18E2,3.1E1,7.3E1,4.6E1,9.3E1,2.5E1,1.2E1,1.9E1,4E1,3.3E1,2.5E1,2.1E1,4E0,1.5E1,6E0,3.4E1,2.5E1,8E0,1.1E1,4E0,3E0,3E0,3.1E1,3E0],"tree_param":{"num_deleted":"0","num_feature":"104","num_nodes":"27","size_leaf_vector":"1"}},{"base_weights":[-1.905782E1,-7.156458E2,1.0492253E3,-8.578895E2,-6.591879E1,5.4546356E2,1.7628943E3,-4.5796684E1,-3.1500416E1,-1.6210009E1,2.678424E1,4.4307846E2,4.525847E1,7.5507256E1,1.1804392E2,-5.5420756E0,5.2970177E1,2.6765775E2,2.5110994E1,5.081313E-1,5.795559E0,1.9802963E1,8.1925535E0],"categories":[],"categories_nodes":[],"categories_segments":[],"categories_sizes":[],"default_left":[0,0,0,0,0,0,0,0,0,0,0,0,0,0,0,0,0,0,0,0,0,0,0],"id":2,"left_children":[1,3,5,7,9,11,13,-1,-1,-1,15,17,-1,-1,-1,-1,19,21,-1,-1,-1,-1,-1],"loss_changes":[1.9795147E8,1.4823E7,3.678792E7,1.168936E6,7.2698744E5,1.919136E6,2.933752E6,0E0,0E0,0E0,8.876006E4,3.94682E5,0E0,0E0,0E0,0E0,5.2709043E4,1.3503938E5,0E0,0E0,0E0,0E0,0E0],"parents":[2147483647,0,0,1,1,2,2,3,3,4,4,5,5,6,6,10,10,11,11,16,16,17,17],"right_children":[2,4,6,8,10,12,14,-1,-1,-1,16,18,-1,-1,-1,-1,20,22,-1,-1,-1,-1,-1],"split_conditions":[1.455E3,7.6605E2,2.64E3,3.5002E2,1.01107E3,2.146E3,3.371E3,-4.5796684E1,-3.1500416E1,-1.6210009E1,1.00111894E6,1.53692E3,4.525847E1,7.5507256E1,1.1804392E2,-5.5420756E0,1.35272E3,1.423E3,2.5110994E1,5.081313E-1,5.795559E0,1.9802963E1,8.1925535E0],"split_indices":[1,1,1,2,1,1,2,0,0,0,3,2,0,0,0,0,1,2,0,0,0,0,0],"split_type":[0,0,0,0,0,0,0,0,0,0,0,0,0,0,0,0,0,0,0,0,0,0,0],"sum_hessian":[2.64E2,1.6E2,1.04E2,1.31E2,2.9E1,6.2E1,4.2E1,1.02E2,2.9E1,7E0,2.2E1,5E1,1.2E1,3.2E1,1E1,3E0,1.9E1,1.4E1,3.6E1,1.2E1,7E0,5E0,9E0],"tree_param":{"num_deleted":"0","num_feature":"104","num_nodes":"23","size_leaf_vector":"1"}},{"base_weights":[4.5309095E0,-6.842885E2,9.0440356E2,-8.221471E2,-1.4111063E2,4.920584E2,1.642939E3,-4.384126E1,-3.1450169E1,-3.0127448E2,3.677526E1,3.709359E2,3.742677E1,7.133264E1,1.1627673E2,-1.8417294E1,-1.71392E2,-1.6874573E0,6.897286E1,2.6449597E2,2.1758007E1,1.8840134E0,-1.521857E1,6.9217134E0,1.5218737E0,1.4961585E1,8.0046695E-1],"categories":[],"categories_nodes":[],"categories_segments":[],"categories_sizes":[],"default_left":[0,0,0,0,0,0,0,0,0,0,0,0,0,0,0,0,0,0,0,0,0,0,0,0,0,0,0],"id":3,"left_children":[1,3,5,7,9,11,13,-1,-1,15,17,19,-1,-1,-1,-1,21,-1,23,25,-1,-1,-1,-1,-1,-1,-1],"loss_changes":[1.7727605E8,1.2014832E7,3.695348E7,8.10808E5,9.7976956E5,2.238618E6,3.178248E6,0E0,0E0,9.367375E4,4.0929953E4,2.74555E5,0E0,0E0,0E0,0E0,2.338873E5,0E0,2.7907078E4,2.0236238E5,0E0,0E0,0E0,0E0,0E0,0E0,0E0],"parents":[2147483647,0,0,1,1,2,2,3,3,4,4,5,5,6,6,9,9,10,10,11,11,16,16,18,18,19,19],"right_children":[2,4,6,8,10,12,14,-1,-1,16,18,20,-1,-1,-1,-1,22,-1,24,26,-1,-1,-1,-1,-1,-1,-1],"split_conditions":[1.25265E3,5.5128E2,2.1505E3,3.3218E2,8.8156E2,1.89165E3,3.371E3,-4.384126E1,-3.1450169E1,6.8104E2,1.16837E3,1.53692E3,3.742677E1,7.133264E1,1.1627673E2,-1.8417294E1,7.8367E2,-1.6874573E0,1.04365E3,1.63584E3,2.1758007E1,1.8840134E0,-1.521857E1,6.9217134E0,1.5218737E0,1.4961585E1,8.0046695E-1],"split_indices":[2,2,2,2,2,0,2,0,0,2,0,2,0,0,0,0,2,0,2,0,0,0,0,0,0,0,0],"split_type":[0,0,0,0,0,0,0,0,0,0,0,0,0,0,0,0,0,0,0,0,0,0,0,0,0,0,0],"sum_hessian":[2.84E2,1.61E2,1.23E2,1.28E2,3.3E1,8E1,4.3E1,9.7E1,3.1E1,1.7E1,1.6E1,5.6E1,2.4E1,3.5E1,8E0,1E1,7E0,5E0,1.1E1,2.3E1,3.3E1,3E0,4E0,3E0,8E0,2E1,3E0],"tree_param":{"num_deleted":"0","num_feature":"104","num_nodes":"27","size_leaf_vector":"1"}},{"base_weights":[-5.4150932E1,-6.6154987E2,8.659685E2,-7.6209357E2,-2.0781725E1,4.3881418E2,1.54288E3,-4.0925964E1,-2.5894724E1,-2.0613506E2,5.6762688E1,3.5587744E2,3.7797268E1,6.235089E1,2.084197E3,-4.156736E0,-1.3880081E1,7.013556E0,2.02777E1,4.138094E2,2.572848E2,1.1463509E2,5.2094276E1,-9.7213995E-1,2.0045784E0,1.47734785E1,2.379784E1,7.7401274E-1,1.4639071E1],"categories":[],"categories_nodes":[],"categories_segments":[],"categories_sizes":[],"default_left":[0,0,0,0,0,0,0,0,0,0,0,0,0,0,0,0,0,0,0,0,0,0,0,0,0,0,0,0,0],"id":4,"left_children":[1,3,5,7,9,11,13,-1,-1,15,17,19,-1,-1,21,-1,-1,-1,23,25,27,-1,-1,-1,-1,-1,-1,-1,-1],"loss_changes":[1.503526E8,1.0421048E7,3.0261544E7,1.505168E6,3.4228244E5,1.493198E6,3.967328E6,0E0,0E0,3.8454562E4,4.895129E4,2.076745E5,0E0,0E0,4.3652E5,0E0,0E0,0E0,1.1010709E4,1.020685E5,1.9288238E5,0E0,0E0,0E0,0E0,0E0,0E0,0E0,0E0],"parents":[2147483647,0,0,1,1,2,2,3,3,4,4,5,5,6,6,9,9,10,10,11,11,14,14,18,18,19,19,20,20],"right_children":[2,4,6,8,10,12,14,-1,-1,16,18,20,-1,-1,22,-1,-1,-1,24,26,28,-1,-1,-1,-1,-1,-1,-1,-1],"split_conditions":[1.455E3,9.112E2,2.4661E3,4.7447E2,1.3085232E6,2.13302E3,3.67628E3,-4.0925964E1,-2.5894724E1,9.259936E5,2.959352E6,4.4890805E6,3.7797268E1,6.235089E1,4.4457665E6,-4.156736E0,-1.3880081E1,7.013556E0,1.298E3,1.76049E3,4.9090095E6,1.1463509E2,5.2094276E1,-9.7213995E-1,2.0045784E0,1.47734785E1,2.379784E1,7.7401274E-1,1.4639071E1],"split_indices":[1,1,1,1,3,1,1,0,0,3,3,3,0,0,3,0,0,0,1,1,3,0,0,0,0,0,0,0,0],"split_type":[0,0,0,0,0,0,0,0,0,0,0,0,0,0,0,0,0,0,0,0,0,0,0,0,0,0,0,0,0],"sum_hessian":[2.67E2,1.61E2,1.06E2,1.39E2,2.2E1,6.6E1,4E1,1.11E2,2.8E1,6E0,1.6E1,5.4E1,1.2E1,2.8E1,1.2E1,3E0,3E0,4E0,1.2E1,3.2E1,2.2E1,9E0,3E0,4E0,8E0,1.3E1,1.9E1,3E0,1.9E1],"tree_param":{"num_deleted":"0","num_feature":"104","num_nodes":"29","size_leaf_vector":"1"}},{"base_weights":[1.5727464E1,-6.302214E2,8.9541876E2,-7.43373E2,-7.832546E1,4.975559E2,1.5592893E3,-4.0266308E1,-3.01286E1,-2.5288641E2,1.7671124E1,3.9254816E2,3.807247E1,1.3497689E3,1.1004181E2,-3.5509439E0,-1.6034206E1,-2.7980382E0,5.5959743E1,4.3276736E2,2.8583267E2,7.00182E1,3.0378284E1,6.3126564E0,5.345059E-1,1.3745954E1,2.4752333E1,1.5968755E1,6.737368E0],"categories":[],"categories_nodes":[],"categories_segments":[],"categories_sizes":[],"default_left":[0,0,0,0,0,0,0,0,0,0,0,0,0,0,0,0,0,0,0,0,0,0,0,0,0,0,0,0,0],"id":5,"left_children":[1,3,5,7,9,11,13,-1,-1,15,17,19,-1,21,-1,-1,-1,-1,23,25,27,-1,-1,-1,-1,-1,-1,-1,-1],"loss_changes":[1.5569264E8,9.808544E6,2.9863176E7,6.57456E5,4.7367194E5,1.751698E6,2.809312E6,0E0,0E0,1.0052744E5,5.669756E4,1.12361E5,0E0,4.63504E5,0E0,0E0,0E0,0E0,4.0018355E4,2.37468E5,4.8184875E4,0E0,0E0,0E0,0E0,0E0,0E0,0E0,0E0],"parents":[2147483647,0,0,1,1,2,2,3,3,4,4,5,5,6,6,9,9,10,10,11,11,13,13,18,18,19,19,20,20],"right_children":[2,4,6,8,10,12,14,-1,-1,16,18,20,-1,22,-1,-1,-1,-1,24,26,28,-1,-1,-1,-1,-1,-1,-1,-1],"split_conditions":[1.455E3,7.6605E2,2.69761E3,3.1875E2,1.3085232E6,2.146E3,4.375E3,-4.0266308E1,-3.01286E1,7.943E2,1.2912E3,3.9543338E6,3.807247E1,8.341893E6,1.1004181E2,-3.5509439E0,-1.6034206E1,-2.7980382E0,1.21852E3,1.76049E3,1.78323E3,7.00182E1,3.0378284E1,6.3126564E0,5.345059E-1,1.3745954E1,2.4752333E1,1.5968755E1,6.737368E0],"split_indices":[1,1,1,1,3,1,1,0,0,0,1,3,0,3,0,0,0,0,0,1,0,0,0,0,0,0,0,0,0],"split_type":[0,0,0,0,0,0,0,0,0,0,0,0,0,0,0,0,0,0,0,0,0,0,0,0,0,0,0,0,0],"sum_hessian":[2.72E2,1.57E2,1.15E2,1.3E2,2.7E1,7.3E1,4.2E1,8.7E1,4.3E1,9E0,1.8E1,5.4E1,1.9E1,3.4E1,8E0,3E0,6E0,6E0,1.2E1,3.7E1,1.7E1,3.1E1,3E0,4E0,8E0,1.2E1,2.5E1,1.3E1,4E0],"tree_param":{"num_deleted":"0","num_feature":"104","num_nodes":"29","size_leaf_vector":"1"}},{"base_weights":[1.2039004E1,-5.9786884E2,7.932264E2,-7.027747E2,-1.3733499E2,3.9324887E2,1.3345044E3,-3.829329E1,-2.7917887E1,-1.4306579E1,-6.718118E0,2.6018967E2,5.226758E2,5.2312263E1,8.334628E1,-4.2355938E1,3.2838604E0,2.8156628E2,5.140807E0,3.985271E2,2.9793049E1,-4.3448424E0,-8.92688E-1,1.2142311E1,1.8368536E1,2.1390581E1,1.018603E1],"categories":[],"categories_nodes":[],"categories_segments":[],"categories_sizes":[],"default_left":[0,0,0,0,0,0,0,0,0,0,0,0,0,0,0,0,0,0,0,0,0,0,0,0,0,0,0],"id":6,"left_children":[1,3,5,7,9,11,13,-1,-1,-1,15,17,19,-1,-1,21,-1,23,-1,25,-1,-1,-1,-1,-1,-1,-1],"loss_changes":[1.3149862E8,7.39196E6,2.56716E7,7.20408E5,5.81138E5,1.086726E6,3.142984E6,0E0,0E0,0E0,4.664201E4,9.552275E4,8.0538E4,0E0,0E0,1.1544758E4,0E0,1.710075E4,0E0,4.12275E3,0E0,0E0,0E0,0E0,0E0,0E0,0E0],"parents":[2147483647,0,0,1,1,2,2,3,3,4,4,5,5,6,6,10,10,11,11,12,12,15,15,17,17,19,19],"right_children":[2,4,6,8,10,12,14,-1,-1,-1,16,18,20,-1,-1,22,-1,24,-1,26,-1,-1,-1,-1,-1,-1,-1],"split_conditions":[1.19E3,6.381E2,2.04651E3,2.74E2,1.3085232E6,1.65707E3,3.05936E3,-3.829329E1,-2.7917887E1,-1.4306579E1,1.030976E7,1.79514E3,1.89E3,5.2312263E1,8.334628E1,8.4146E2,3.2838604E0,6.1003785E6,5.140807E0,4.414708E6,2.9793049E1,-4.3448424E0,-8.92688E-1,1.2142311E1,1.8368536E1,2.1390581E1,1.018603E1],"split_indices":[2,0,2,2,3,2,0,0,0,0,3,0,0,0,0,0,0,3,0,3,0,0,0,0,0,0,0],"split_type":[0,0,0,0,0,0,0,0,0,0,0,0,0,0,0,0,0,0,0,0,0,0,0,0,0,0,0],"sum_hessian":[2.74E2,1.54E2,1.2E2,1.25E2,2.9E1,7E1,5E1,8.4E1,4.1E1,1.3E1,1.6E1,3.6E1,3.4E1,2.9E1,2.1E1,1.1E1,5E0,3.1E1,5E0,1.5E1,1.9E1,3E0,8E0,2.4E1,7E0,1.2E1,3E0],"tree_param":{"num_deleted":"0","num_feature":"104","num_nodes":"27","size_leaf_vector":"1"}},{"base_weights":[3.0926147E0,-5.881553E2,7.1929456E2,-6.6053284E2,-8.8293396E1,4.0659116E2,1.4939034E3,-3.5414013E1,-2.3888275E1,-1.2557295E1,-5.6047714E-1,2.4225917E2,5.5493933E2,5.820597E1,9.812259E1,-2.51875E1,2.4402833E0,1.8585023E2,1.6467958E1,2.252351E1,3.533266E1,1.0828959E-1,-2.6486976E0,5.129693E0,1.0634077E1],"categories":[],"categories_nodes":[],"categories_segments":[],"categories_sizes":[],"default_left":[0,0,0,0,0,0,0,0,0,0,0,0,0,0,0,0,0,0,0,0,0,0,0,0,0],"id":7,"left_children":[1,3,5,7,9,11,13,-1,-1,-1,15,17,19,-1,-1,21,-1,23,-1,-1,-1,-1,-1,-1,-1],"loss_changes":[1.1517878E8,5.33232E6,2.9186004E7,7.96072E5,2.8560972E5,2.035233E6,3.123664E6,0E0,0E0,0E0,1.8249668E4,1.5497025E5,4.10748E5,0E0,0E0,7.7152393E3,0E0,4.2962562E4,0E0,0E0,0E0,0E0,0E0,0E0,0E0],"parents":[2147483647,0,0,1,1,2,2,3,3,4,4,5,5,6,6,10,10,11,11,12,12,15,15,17,17],"right_children":[2,4,6,8,10,12,14,-1,-1,-1,16,18,20,-1,-1,22,-1,24,-1,-1,-1,-1,-1,-1,-1],"split_conditions":[1.19E3,6.56E2,2.44232E3,3.6254E2,1.3085232E6,1.65707E3,3.371E3,-3.5414013E1,-2.3888275E1,-1.2557295E1,1.030976E7,1.53692E3,1.92841E3,5.820597E1,9.812259E1,3.8539662E6,2.4402833E0,1.26999E3,1.6467958E1,2.252351E1,3.533266E1,1.0828959E-1,-2.6486976E0,5.129693E0,1.0634077E1],"split_indices":[2,2,2,2,3,2,2,0,0,0,3,2,2,0,0,3,0,2,0,0,0,0,0,0,0],"split_type":[0,0,0,0,0,0,0,0,0,0,0,0,0,0,0,0,0,0,0,0,0,0,0,0,0],"sum_hessian":[2.7E2,1.48E2,1.22E2,1.29E2,1.9E1,8.8E1,3.4E1,1E2,2.9E1,6E0,1.3E1,4.3E1,4.5E1,2.2E1,1.2E1,9E0,4E0,2.8E1,1.5E1,2.9E1,1.6E1,5E0,4E0,8E0,2E1],"tree_param":{"num_deleted":"0","num_feature":"104","num_nodes":"25","size_leaf_vector":"1"}},{"base_weights":[4.0185524E1,-5.438577E2,7.434803E2,-6.3053467E2,-1.1601229E2,4.3136737E2,1.4910154E3,-3.5058365E1,-2.6103262E1,-1.4078203E1,-1.7593956E1,3.017939E2,3.5606464E1,6.1666332E1,9.359385E1,-5.2471836E1,3.0453553E0,1.9350403E2,3.7558643E2,1.6135803E0,-4.686066E0,1.1224265E1,3.4245477E0,9.839836E0,1.9564718E1],"categories":[],"categories_nodes":[],"categories_segments":[],"categories_sizes":[],"default_left":[0,0,0,0,0,0,0,0,0,0,0,0,0,0,0,0,0,0,0,0,0,0,0,0,0],"id":8,"left_children":[1,3,5,7,9,11,13,-1,-1,-1,15,17,-1,-1,-1,19,-1,21,23,-1,-1,-1,-1,-1,-1],"loss_changes":[1.1500487E8,5.600752E6,2.8987872E7,6.06952E5,4.3496612E5,3.095598E6,1.32268E6,0E0,0E0,0E0,5.2479016E4,4.387455E5,0E0,0E0,0E0,4.8467637E4,0E0,9.307056E4,2.6906E4,0E0,0E0,0E0,0E0,0E0,0E0],"parents":[2147483647,0,0,1,1,2,2,3,3,4,4,5,5,6,6,10,10,11,11,15,15,17,17,18,18],"right_children":[2,4,6,8,10,12,14,-1,-1,-1,16,18,-1,-1,-1,20,-1,22,24,-1,-1,-1,-1,-1,-1],"split_conditions":[1.18106E3,5.5128E2,2.30364E3,3.0622E2,9.785E2,2.13302E3,3.371E3,-3.5058365E1,-2.6103262E1,-1.4078203E1,1.030976E7,1.53692E3,3.5606464E1,6.1666332E1,9.359385E1,1.277E3,3.0453553E0,1.77013E3,1.722E3,1.6135803E0,-4.686066E0,1.1224265E1,3.4245477E0,9.839836E0,1.9564718E1],"split_indices":[2,2,2,1,1,1,2,0,0,0,3,2,0,0,0,1,0,1,1,0,0,0,0,0,0],"split_type":[0,0,0,0,0,0,0,0,0,0,0,0,0,0,0,0,0,0,0,0,0,0,0,0,0],"sum_hessian":[2.78E2,1.52E2,1.26E2,1.26E2,2.6E1,9E1,3.6E1,7.3E1,5.3E1,9E0,1.7E1,6.3E1,2.7E1,2.4E1,1.2E1,1.2E1,5E0,2.7E1,3.6E1,4E0,8E0,2.1E1,6E0,4E0,3.2E1],"tree_param":{"num_deleted":"0","num_feature":"104","num_nodes":"25","size_leaf_vector":"1"}},{"base_weights":[2.4726368E1,-5.333461E2,6.836724E2,-6.1570776E2,-1.3533931E2,4.1012372E2,1.390997E3,-3.3195454E1,-2.5649008E1,-2.7796786E2,-2.7052734E0,2.9135455E2,3.524884E1,5.8583435E1,8.81508E1,-5.95281E0,-1.6768341E1,3.5131554E1,-3.2657888E0,1.5645183E2,3.5682812E2,5.694876E0,-7.4481815E-1,9.040393E0,1.3868713E0,1.0976455E1,1.8817148E1],"categories":[],"categories_nodes":[],"categories_segments":[],"categories_sizes":[],"default_left":[0,0,0,0,0,0,0,0,0,0,0,0,0,0,0,0,0,0,0,0,0,0,0,0,0,0,0],"id":9,"left_children":[1,3,5,7,9,11,13,-1,-1,15,17,19,-1,-1,-1,-1,-1,21,-1,23,25,-1,-1,-1,-1,-1,-1],"loss_changes":[1.0186078E8,4.83374E6,2.400246E7,2.73428E5,5.100179E5,3.051411E6,7.90136E5,0E0,0E0,7.8650125E4,3.7829387E4,5.44788E5,0E0,0E0,0E0,0E0,0E0,4.1101633E4,0E0,7.0224125E4,3.7953E4,0E0,0E0,0E0,0E0,0E0,0E0],"parents":[2147483647,0,0,1,1,2,2,3,3,4,4,5,5,6,6,9,9,10,10,11,11,17,17,19,19,20,20],"right_children":[2,4,6,8,10,12,14,-1,-1,16,18,20,-1,-1,-1,-1,-1,22,-1,24,26,-1,-1,-1,-1,-1,-1],"split_conditions":[1.37155E3,6.4349E2,2.30364E3,3.1E2,9.785E2,2.146E3,3.371E3,-3.3195454E1,-2.5649008E1,6.851E2,1.2215E3,1.53692E3,3.524884E1,5.8583435E1,8.81508E1,-5.95281E0,-1.6768341E1,1.875482E6,-3.2657888E0,1.65833E3,1.74584E3,5.694876E0,-7.4481815E-1,9.040393E0,1.3868713E0,1.0976455E1,1.8817148E1],"split_indices":[1,1,2,1,1,1,2,0,0,0,0,2,0,0,0,0,0,3,0,0,1,0,0,0,0,0,0],"split_type":[0,0,0,0,0,0,0,0,0,0,0,0,0,0,0,0,0,0,0,0,0,0,0,0,0,0,0],"sum_hessian":[2.75E2,1.49E2,1.26E2,1.23E2,2.6E1,9.2E1,3.4E1,8E1,4.3E1,1.2E1,1.4E1,6.7E1,2.5E1,2.4E1,1E1,4E0,8E0,9E0,5E0,2.3E1,4.4E1,3E0,6E0,1.9E1,4E0,7E0,3.7E1],"tree_param":{"num_deleted":"0","num_feature":"104","num_nodes":"27","size_leaf_vector":"1"}},{"base_weights":[-3.3050915E1,-5.377861E2,5.8010406E2,-6.0000934E2,-2.933375E2,3.0728714E2,1.1808165E3,-3.2005215E1,-2.5903446E1,-3.2403012E2,-2.832633E0,1.878543E2,4.459102E2,3.7240093E1,6.4339714E1,-7.856884E0,-3.372432E2,5.082449E1,2.3592549E2,3.6450482E2,2.7864277E1,-1.8119211E1,-9.652124E0,6.686076E-1,4.9266124E0,1.300711E1,3.5742505E0,1.9273218E1,7.64306E0],"categories":[],"categories_nodes":[],"categories_segments":[],"categories_sizes":[],"default_left":[0,0,0,0,0,0,0,0,0,0,0,0,0,0,0,0,0,0,0,0,0,0,0,0,0,0,0,0,0],"id":10,"left_children":[1,3,5,7,9,11,13,-1,-1,15,-1,17,19,-1,-1,-1,21,23,25,27,-1,-1,-1,-1,-1,-1,-1,-1,-1],"loss_changes":[8.634765E7,2.151184E6,2.0286604E7,6.592E4,2.213705E5,1.373175E6,8.437E5,0E0,0E0,1.0956E4,0E0,3.1078138E5,1.59529E5,0E0,0E0,0E0,2.430375E4,2.3697148E4,1.2476325E5,5.641225E4,0E0,0E0,0E0,0E0,0E0,0E0,0E0,0E0,0E0],"parents":[2147483647,0,0,1,1,2,2,3,3,4,4,5,5,6,6,9,9,11,11,12,12,16,16,17,17,18,18,19,19],"right_children":[2,4,6,8,10,12,14,-1,-1,16,-1,18,20,-1,-1,-1,22,24,26,28,-1,-1,-1,-1,-1,-1,-1,-1,-1],"split_conditions":[1.00632E3,5.35E2,2.64E3,2.262E2,1.28E3,1.65707E3,2.30364E3,-3.2005215E1,-2.5903446E1,5.1807734E5,-2.832633E0,1.44E3,2.146E3,3.7240093E1,6.4339714E1,-7.856884E0,8.9749E2,1.37155E3,1.87651E3,4.414708E6,2.7864277E1,-1.8119211E1,-9.652124E0,6.686076E-1,4.9266124E0,1.300711E1,3.5742505E0,1.9273218E1,7.64306E0],"split_indices":[2,1,1,2,1,2,2,0,0,3,0,1,1,0,0,0,1,1,1,3,0,0,0,0,0,0,0,0,0],"split_type":[0,0,0,0,0,0,0,0,0,0,0,0,0,0,0,0,0,0,0,0,0,0,0,0,0,0,0,0,0],"sum_hessian":[2.77E2,1.52E2,1.25E2,1.2E2,3.2E1,8.7E1,3.8E1,7.6E1,4.4E1,2.8E1,4E0,4.8E1,3.9E1,9E0,2.9E1,3E0,2.5E1,1.3E1,3.5E1,2.5E1,1.4E1,2E1,5E0,8E0,5E0,3E1,5E0,2.2E1,3E0],"tree_param":{"num_deleted":"0","num_feature":"104","num_nodes":"29","size_leaf_vector":"1"}},{"base_weights":[3.200514E1,-4.5906042E2,6.693402E2,-5.5370306E2,-1.0252684E2,3.6503485E2,1.1774008E3,-3.0008322E1,-2.2269014E1,-1.9865283E2,2.4038582E1,2.7720355E2,5.547647E2,9.918101E2,8.10295E1,-1.3938828E0,-2.2714977E2,-6.6780443E0,5.8928986E0,1.866577E2,3.2232187E2,6.0568896E2,1.7228228E1,5.1650814E1,2.071042E1,-1.311037E1,-2.38303E0,2.9480636E0,-1.6132984E0,1.4553035E1,5.001021E0,9.9271755E0,1.7267654E1,1.8071314E1,3.359171E1],"categories":[],"categories_nodes":[],"categories_segments":[],"categories_sizes":[],"default_left":[0,0,0,0,0,0,0,0,0,0,0,0,0,0,0,0,0,0,0,0,0,0,0,0,0,0,0,0,0,0,0,0,0,0,0],"id":11,"left_children":[1,3,5,7,9,11,13,-1,-1,15,17,19,21,23,-1,-1,25,27,-1,29,31,33,-1,-1,-1,-1,-1,-1,-1,-1,-1,-1,-1,-1,-1],"loss_changes":[8.919169E7,5.3759E6,1.8741292E7,3.71892E5,4.3059328E5,1.16269E6,2.176264E6,0E0,0E0,9.099894E4,4.68961E4,1.686115E5,4.8204E4,4.05144E5,0E0,0E0,9.447494E4,2.37369E4,0E0,1.60837E5,3.406E4,4.8004E4,0E0,0E0,0E0,0E0,0E0,0E0,0E0,0E0,0E0,0E0,0E0,0E0,0E0],"parents":[2147483647,0,0,1,1,2,2,3,3,4,4,5,5,6,6,9,9,10,10,11,11,12,12,13,13,16,16,17,17,19,19,20,20,21,21],"right_children":[2,4,6,8,10,12,14,-1,-1,16,18,20,22,24,-1,-1,26,28,-1,30,32,34,-1,-1,-1,-1,-1,-1,-1,-1,-1,-1,-1,-1,-1],"split_conditions":[1.59419E3,5.3043E2,2.69761E3,2.7265E2,9.15E2,2.118E3,3.371E3,-3.0008322E1,-2.2269014E1,5.9420694E5,9.244825E6,1.53692E3,2.32044E3,8.341893E6,8.10295E1,-1.3938828E0,6.9630425E6,2.0012024E6,5.8928986E0,1.56825E3,1.74584E3,2.146E3,1.7228228E1,5.1650814E1,2.071042E1,-1.311037E1,-2.38303E0,2.9480636E0,-1.6132984E0,1.4553035E1,5.001021E0,9.9271755E0,1.7267654E1,1.8071314E1,3.359171E1],"split_indices":[1,2,1,2,2,1,2,0,0,3,3,2,0,3,0,0,3,3,0,0,1,1,0,0,0,0,0,0,0,0,0,0,0,0,0],"split_type":[0,0,0,0,0,0,0,0,0,0,0,0,0,0,0,0,0,0,0,0,0,0,0,0,0,0,0,0,0,0,0,0,0,0,0],"sum_hessian":[2.83E2,1.6E2,1.23E2,1.26E2,3.4E1,7.8E1,4.5E1,8.5E1,4.1E1,1.9E1,1.5E1,5.5E1,2.3E1,3.4E1,1.1E1,3E0,1.6E1,1.2E1,3E0,2E1,3.5E1,1.7E1,6E0,3.1E1,3E0,1.3E1,3E0,3E0,9E0,8E0,1.2E1,7E0,2.8E1,5E0,1.2E1],"tree_param":{"num_deleted":"0","num_feature":"104","num_nodes":"35","size_leaf_vector":"1"}},{"base_weights":[3.6776414E0,-4.257458E2,6.312651E2,-5.2397845E2,-5.5822582E1,3.7667267E2,1.267904E3,-2.819134E1,-2.0571663E1,-2.1303511E2,1.8884068E1,2.635286E2,3.0498129E1,1.0792922E3,8.2547386E1,-4.4921317E0,-1.3170052E1,-5.658468E0,4.803784E1,1.7777025E2,2.940077E2,3.228631E1,1.1553975E3,-2.2836792E-1,2.9990814E0,1.2357166E1,5.557809E0,1.6343798E1,1.1008349E1,6.152766E1,2.7356785E1],"categories":[],"categories_nodes":[],"categories_segments":[],"categories_sizes":[],"default_left":[0,0,0,0,0,0,0,0,0,0,0,0,0,0,0,0,0,0,0,0,0,0,0,0,0,0,0,0,0,0,0],"id":12,"left_children":[1,3,5,7,9,11,13,-1,-1,15,17,19,-1,21,-1,-1,-1,-1,23,25,27,-1,29,-1,-1,-1,-1,-1,-1,-1,-1],"loss_changes":[7.761547E7,6.184642E6,1.848618E7,3.7346E5,4.3858138E5,2.082864E6,6.0228E5,0E0,0E0,5.0791812E4,1.0553266E5,1.0195075E5,0E0,7.8844E4,0E0,0E0,0E0,0E0,1.409668E4,5.57105E4,2.996725E4,0E0,2.4101E5,0E0,0E0,0E0,0E0,0E0,0E0,0E0,0E0],"parents":[2147483647,0,0,1,1,2,2,3,3,4,4,5,5,6,6,9,9,10,10,11,11,13,13,18,18,19,19,20,20,22,22],"right_children":[2,4,6,8,10,12,14,-1,-1,16,18,20,-1,22,-1,-1,-1,-1,24,26,28,-1,30,-1,-1,-1,-1,-1,-1,-1,-1],"split_conditions":[1.59419E3,6.0159E2,2.985E3,3.7045E2,9.785E2,2.146E3,4.375E3,-2.819134E1,-2.0571663E1,6.851E2,1.3085232E6,1.722E3,3.0498129E1,2.832021E6,8.2547386E1,-4.4921317E0,-1.3170052E1,-5.658468E0,1.25889E3,1.56825E3,3.9349605E6,3.228631E1,6.832312E6,-2.2836792E-1,2.9990814E0,1.2357166E1,5.557809E0,1.6343798E1,1.1008349E1,6.152766E1,2.7356785E1],"split_indices":[1,0,1,1,1,1,1,0,0,0,3,1,0,3,0,0,0,0,1,0,3,0,3,0,0,0,0,0,0,0,0],"split_type":[0,0,0,0,0,0,0,0,0,0,0,0,0,0,0,0,0,0,0,0,0,0,0,0,0,0,0,0,0,0,0],"sum_hessian":[2.86E2,1.7E2,1.16E2,1.34E2,3.6E1,8.4E1,3.2E1,9.6E1,3.8E1,1.1E1,2.5E1,5.8E1,2.6E1,2.4E1,8E0,4E0,7E0,4E0,2.1E1,1.7E1,4.1E1,5E0,1.9E1,4E0,1.7E1,7E0,1E1,2.6E1,1.5E1,1.6E1,3E0],"tree_param":{"num_deleted":"0","num_feature":"104","num_nodes":"31","size_leaf_vector":"1"}},{"base_weights":[-4.1793523E0,-3.9819348E2,6.017497E2,-4.8923773E2,-1.0192389E1,3.7051938E2,1.1492257E3,-2.6000998E1,-1.7187002E1,-1.2865903E2,2.8124628E1,2.5957965E2,2.8112019E1,1.2055792E3,2.3372223E1,-1.0501022E0,-9.45264E0,7.5531363E-1,7.6697266E1,1.6233134E2,1.5028457E1,4.9936108E1,7.390249E1,1.0822806E0,-3.6274781E0,7.016455E0,1.0746583E0,1.0745915E1,2.8252258E0],"categories":[],"categories_nodes":[],"categories_segments":[],"categories_sizes":[],"default_left":[0,0,0,0,0,0,0,0,0,0,0,0,0,0,0,0,0,0,0,0,0,0,0,0,0,0,0,0,0],"id":13,"left_children":[1,3,5,7,9,11,13,-1,-1,15,17,19,-1,21,-1,-1,-1,23,25,27,-1,-1,-1,-1,-1,-1,-1,-1,-1],"loss_changes":[6.422317E7,5.753032E6,1.2993056E7,4.12444E5,1.488757E5,1.470534E6,6.27504E5,0E0,0E0,4.8044E4,3.3177062E4,1.5051625E5,0E0,1.01984E5,0E0,0E0,0E0,2.7603512E4,2.8598523E4,8.2463E4,0E0,0E0,0E0,0E0,0E0,0E0,0E0,0E0,0E0],"parents":[2147483647,0,0,1,1,2,2,3,3,4,4,5,5,6,6,9,9,10,10,11,11,13,13,17,17,18,18,19,19],"right_children":[2,4,6,8,10,12,14,-1,-1,16,18,20,-1,22,-1,-1,-1,24,26,28,-1,-1,-1,-1,-1,-1,-1,-1,-1],"split_conditions":[1.26999E3,7.6605E2,2.985E3,4.7447E2,1.0768534E6,2.146E3,5.680094E6,-2.6000998E1,-1.7187002E1,5.9420694E5,1.19E3,1.53692E3,2.8112019E1,3.21068E3,2.3372223E1,-1.0501022E0,-9.45264E0,1.4383E3,1.21801E3,1.49066E3,1.5028457E1,4.9936108E1,7.390249E1,1.0822806E0,-3.6274781E0,7.016455E0,1.0746583E0,1.0745915E1,2.8252258E0],"split_indices":[2,1,1,1,3,1,3,0,0,3,2,2,0,2,0,0,0,1,2,2,0,0,0,0,0,0,0,0,0],"split_type":[0,0,0,0,0,0,0,0,0,0,0,0,0,0,0,0,0,0,0,0,0,0,0,0,0,0,0,0,0],"sum_hessian":[2.67E2,1.62E2,1.05E2,1.31E2,3.1E1,7.5E1,3E1,1.06E2,2.5E1,7E0,2.4E1,4.9E1,2.6E1,2.7E1,3E0,3E0,4E0,1.6E1,8E0,1.6E1,3.3E1,1.8E1,9E0,1.3E1,3E0,3E0,5E0,1E1,6E0],"tree_param":{"num_deleted":"0","num_feature":"104","num_nodes":"29","size_leaf_vector":"1"}},{"base_weights":[1.0489556E1,-4.2160947E2,5.6349243E2,-4.8938718E2,-1.7455885E2,3.3515204E2,1.1647812E3,-2.6535904E1,-2.095053E1,-1.30199175E1,-5.0984592E1,2.3470602E2,5.811032E2,8.6038055E2,7.267291E1,3.0867174E0,-8.174545E1,1.791048E2,1.5069339E1,6.1628046E2,1.1677905E1,2.1583725E1,9.459239E2,-8.738003E0,-1.8182532E0,1.0072854E1,-6.591028E-1,2.2717222E1,3.5294853E1,5.1257996E1,2.3586744E1],"categories":[],"categories_nodes":[],"categories_segments":[],"categories_sizes":[],"default_left":[0,0,0,0,0,0,0,0,0,0,0,0,0,0,0,0,0,0,0,0,0,0,0,0,0,0,0,0,0,0,0],"id":14,"left_children":[1,3,5,7,9,11,13,-1,-1,-1,15,17,19,21,-1,-1,23,25,-1,27,-1,-1,29,-1,-1,-1,-1,-1,-1,-1,-1],"loss_changes":[6.8099944E7,2.593696E6,1.6771936E7,1.41214E5,3.685955E5,2.136454E6,1.737172E6,0E0,0E0,0E0,6.0523797E4,1.9442475E5,1.73932E5,2.88454E5,0E0,0E0,4.8518344E4,1.702795E5,0E0,1.3059E4,0E0,0E0,7.9988E4,0E0,0E0,0E0,0E0,0E0,0E0,0E0,0E0],"parents":[2147483647,0,0,1,1,2,2,3,3,4,4,5,5,6,6,10,10,11,11,12,12,13,13,16,16,17,17,19,19,22,22],"right_children":[2,4,6,8,10,12,14,-1,-1,-1,16,18,20,22,-1,-1,24,26,-1,28,-1,-1,30,-1,-1,-1,-1,-1,-1,-1,-1],"split_conditions":[1.19E3,5.35E2,2.985E3,2.694E2,1.01107E3,1.92841E3,3.67628E3,-2.6535904E1,-2.095053E1,-1.30199175E1,1.23799E3,1.65707E3,2.5555E3,2.9596672E6,7.267291E1,3.0867174E0,1.3085232E6,1.76612E3,1.5069339E1,2.53078E3,1.1677905E1,2.1583725E1,3.34689E3,-8.738003E0,-1.8182532E0,1.0072854E1,-6.591028E-1,2.2717222E1,3.5294853E1,5.1257996E1,2.3586744E1],"split_indices":[2,1,1,1,1,2,1,0,0,0,1,2,0,3,0,0,3,0,0,1,0,0,0,0,0,0,0,0,0,0,0],"split_type":[0,0,0,0,0,0,0,0,0,0,0,0,0,0,0,0,0,0,0,0,0,0,0,0,0,0,0,0,0,0,0],"sum_hessian":[2.83E2,1.59E2,1.24E2,1.24E2,3.5E1,9.1E1,3.3E1,7.4E1,5E1,2E1,1.5E1,6.6E1,2.5E1,1.8E1,1.5E1,3E0,1.2E1,3.8E1,2.8E1,2.2E1,3E0,4E0,1.4E1,3E0,9E0,3.4E1,4E0,1E1,1.2E1,1.1E1,3E0],"tree_param":{"num_deleted":"0","num_feature":"104","num_nodes":"31","size_leaf_vector":"1"}},{"base_weights":[-1.664862E1,-3.9522116E2,4.5897168E2,-4.54515E2,-1.1783747E2,2.5586588E2,8.8417487E2,-2.4630054E1,-1.8623716E1,-2.0223535E2,-2.5583761E1,1.9436157E2,2.24556E1,7.721892E2,6.5089745E1,-5.7162475E-2,-1.2620655E1,-5.071865E0,1.8327332E0,7.059558E1,2.1741212E2,7.967277E2,1.944842E1,2.166231E0,-8.405871E-1,-1.3408645E0,5.302312E0,1.2716079E1,7.4405084E0,2.9249395E1,4.585758E1],"categories":[],"categories_nodes":[],"categories_segments":[],"categories_sizes":[],"default_left":[0,0,0,0,0,0,0,0,0,0,0,0,0,0,0,0,0,0,0,0,0,0,0,0,0,0,0,0,0,0,0],"id":15,"left_children":[1,3,5,7,9,11,13,-1,-1,15,17,19,-1,21,-1,-1,-1,-1,23,25,27,29,-1,-1,-1,-1,-1,-1,-1,-1,-1],"loss_changes":[5.077735E7,2.528642E6,1.0568922E7,2.19594E5,2.206206E5,9.3486E5,8.65468E5,0E0,0E0,1.5106669E5,3.138048E4,1.75794E5,0E0,9.822E3,0E0,0E0,0E0,0E0,1.0011494E4,4.4284082E4,1.0394975E5,2.53932E5,0E0,0E0,0E0,0E0,0E0,0E0,0E0,0E0,0E0],"parents":[2147483647,0,0,1,1,2,2,3,3,4,4,5,5,6,6,9,9,10,10,11,11,13,13,18,18,19,19,20,20,21,21],"right_children":[2,4,6,8,10,12,14,-1,-1,16,18,20,-1,22,-1,-1,-1,-1,24,26,28,30,-1,-1,-1,-1,-1,-1,-1,-1,-1],"split_conditions":[1.37155E3,6.4349E2,2.64E3,3.1E2,1.3085232E6,2.13302E3,4.375E3,-2.4630054E1,-1.8623716E1,5.9420694E5,9.785E2,1.65E3,2.24556E1,8.341893E6,6.5089745E1,-5.7162475E-2,-1.2620655E1,-5.071865E0,1.277E3,2.9098115E6,4.414708E6,3.18E3,1.944842E1,2.166231E0,-8.405871E-1,-1.3408645E0,5.302312E0,1.2716079E1,7.4405084E0,2.9249395E1,4.585758E1],"split_indices":[1,1,1,1,3,1,1,0,0,3,1,1,0,3,0,0,0,0,1,3,3,1,0,0,0,0,0,0,0,0,0],"split_type":[0,0,0,0,0,0,0,0,0,0,0,0,0,0,0,0,0,0,0,0,0,0,0,0,0,0,0,0,0,0,0],"sum_hessian":[2.8E2,1.56E2,1.24E2,1.28E2,2.8E1,8.5E1,3.9E1,8.4E1,4.4E1,1.4E1,1.4E1,6.6E1,1.9E1,3.3E1,6E0,3E0,1.1E1,3E0,1.1E1,1.1E1,5.5E1,3E1,3E0,3E0,8E0,3E0,8E0,3.4E1,2.1E1,1.3E1,1.7E1],"tree_param":{"num_deleted":"0","num_feature":"104","num_nodes":"31","size_leaf_vector":"1"}},{"base_weights":[3.1349052E1,-3.3559125E2,5.3146313E2,-4.2840692E2,-6.229084E1,2.6536908E2,9.447735E2,-2.3525269E1,-1.7249027E1,-1.9784802E2,3.0455384E0,1.9948314E2,2.0751345E1,8.216344E2,6.365401E1,-1.0644196E2,-1.2654866E1,-6.496169E1,3.0728243E1,1.3758942E2,2.2915147E2,8.575217E2,1.5559178E1,-8.473136E0,-8.4053576E-1,2.58479E0,-6.59532E0,7.074348E-2,6.5055375E0,1.1792938E1,2.621081E0,1.2246816E1,5.601766E0,2.905954E1,4.6009655E1],"categories":[],"categories_nodes":[],"categories_segments":[],"categories_sizes":[],"default_left":[0,0,0,0,0,0,0,0,0,0,0,0,0,0,0,0,0,0,0,0,0,0,0,0,0,0,0,0,0,0,0,0,0,0,0],"id":16,"left_children":[1,3,5,7,9,11,13,-1,-1,15,17,19,-1,21,-1,23,-1,25,27,29,31,33,-1,-1,-1,-1,-1,-1,-1,-1,-1,-1,-1,-1,-1],"loss_changes":[5.247927E7,4.158794E6,1.3056796E7,2.69678E5,3.8144562E5,6.567345E5,8.54084E5,0E0,0E0,4.37615E4,5.8474883E4,6.76305E4,0E0,4.10946E5,0E0,3.6691617E4,0E0,7.710542E4,6.3907105E4,1.5502362E5,3.7261625E4,5.4004E4,0E0,0E0,0E0,0E0,0E0,0E0,0E0,0E0,0E0,0E0,0E0,0E0,0E0],"parents":[2147483647,0,0,1,1,2,2,3,3,4,4,5,5,6,6,9,9,10,10,11,11,13,13,15,15,17,17,18,18,19,19,20,20,21,21],"right_children":[2,4,6,8,10,12,14,-1,-1,16,18,20,-1,22,-1,24,-1,26,28,30,32,34,-1,-1,-1,-1,-1,-1,-1,-1,-1,-1,-1,-1,-1],"split_conditions":[1.26999E3,5.5128E2,2.61443E3,3.1E2,1.01107E3,2.118E3,3.371E3,-2.3525269E1,-1.7249027E1,6.2758E2,9.15E2,1.53692E3,2.0751345E1,9.665838E6,6.365401E1,6.381E2,-1.2654866E1,7.8367E2,1.030976E7,1.56825E3,2.01645E3,2.30364E3,1.5559178E1,-8.473136E0,-8.4053576E-1,2.58479E0,-6.59532E0,7.074348E-2,6.5055375E0,1.1792938E1,2.621081E0,1.2246816E1,5.601766E0,2.905954E1,4.6009655E1],"split_indices":[2,2,1,1,1,1,2,0,0,2,2,2,0,3,0,0,0,2,3,0,1,2,0,0,0,0,0,0,0,0,0,0,0,0,0],"split_type":[0,0,0,0,0,0,0,0,0,0,0,0,0,0,0,0,0,0,0,0,0,0,0,0,0,0,0,0,0,0,0,0,0,0,0],"sum_hessian":[2.84E2,1.64E2,1.2E2,1.22E2,4.2E1,7.4E1,4.6E1,7.8E1,4.4E1,1.3E1,2.9E1,5.3E1,2.1E1,3.6E1,1E1,6E0,7E0,8E0,2.1E1,1.9E1,3.4E1,3.3E1,3E0,3E0,3E0,3E0,5E0,1.7E1,4E0,8E0,1.1E1,2.9E1,5E0,8E0,2.5E1],"tree_param":{"num_deleted":"0","num_feature":"104","num_nodes":"35","size_leaf_vector":"1"}},{"base_weights":[4.6387634E0,-3.276128E2,4.8167825E2,-3.8819543E2,-1.0835325E1,2.5498166E2,8.9567725E2,-4.2244794E2,-1.3398798E1,-7.2529724E1,3.9968582E1,1.9242375E2,4.026299E2,6.934408E2,1.140397E3,-2.3216215E1,-1.8989967E1,-1.2250667E2,-1.2191389E1,5.14219E0,1.043986E1,2.3952663E2,1.1442715E2,4.3568597E2,7.2478075E0,2.1266996E1,3.7785896E1,6.1667824E1,2.6496979E1,-2.051442E0,-8.6678915E0,2.5127563E-1,-1.3180221E0,-1.7580521E0,1.4773473E0,8.17403E0,1.422924E1,1.2322897E-1,7.2695475E0,1.3283129E1,2.4686136E1],"categories":[],"categories_nodes":[],"categories_segments":[],"categories_sizes":[],"default_left":[0,0,0,0,0,0,0,0,0,0,0,0,0,0,0,0,0,0,0,0,0,0,0,0,0,0,0,0,0,0,0,0,0,0,0,0,0,0,0,0,0],"id":17,"left_children":[1,3,5,7,9,11,13,15,-1,17,19,21,23,25,27,-1,-1,29,31,-1,33,35,37,39,-1,-1,-1,-1,-1,-1,-1,-1,-1,-1,-1,-1,-1,-1,-1,-1,-1],"loss_changes":[4.5170984E7,3.21992E6,1.075232E7,4.67408E5,9.065977E4,6.337405E5,1.238344E6,1.6532E4,0E0,3.7708297E4,2.8632324E4,1.7832825E5,1.24234E5,9.5977E4,3.11108E5,0E0,0E0,2.1890031E4,1.8401053E3,0E0,1.1494504E4,6.9976625E4,7.937772E4,5.632075E4,0E0,0E0,0E0,0E0,0E0,0E0,0E0,0E0,0E0,0E0,0E0,0E0,0E0,0E0,0E0,0E0,0E0],"parents":[2147483647,0,0,1,1,2,2,3,3,4,4,5,5,6,6,7,7,9,9,10,10,11,11,12,12,13,13,14,14,17,17,18,18,20,20,21,21,22,22,23,23],"right_children":[2,4,6,8,10,12,14,16,-1,18,20,22,24,26,28,-1,-1,30,32,-1,34,36,38,40,-1,-1,-1,-1,-1,-1,-1,-1,-1,-1,-1,-1,-1,-1,-1,-1,-1],"split_conditions":[1.59419E3,9.112E2,2.64E3,4.7447E2,1.2912E3,2.118E3,3.67628E3,2.273E2,-1.3398798E1,1.8828484E6,1.21852E3,3.9791038E6,2.32044E3,2.9596672E6,4.4457665E6,-2.3216215E1,-1.8989967E1,9.489268E5,1.23893E3,5.14219E0,2.9098115E6,1.76049E3,4.9090095E6,2.146E3,7.2478075E0,2.1266996E1,3.7785896E1,6.1667824E1,2.6496979E1,-2.051442E0,-8.6678915E0,2.5127563E-1,-1.3180221E0,-1.7580521E0,1.4773473E0,8.17403E0,1.422924E1,1.2322897E-1,7.2695475E0,1.3283129E1,2.4686136E1],"split_indices":[1,1,1,1,1,1,1,1,0,3,0,3,0,3,3,0,0,3,1,0,3,1,3,1,0,0,0,0,0,0,0,0,0,0,0,0,0,0,0,0,0],"split_type":[0,0,0,0,0,0,0,0,0,0,0,0,0,0,0,0,0,0,0,0,0,0,0,0,0,0,0,0,0,0,0,0,0,0,0,0,0,0,0,0,0],"sum_hessian":[2.83E2,1.67E2,1.16E2,1.4E2,2.7E1,7.6E1,4E1,1.07E2,3.3E1,1.2E1,1.5E1,5.5E1,2.1E1,2.4E1,1.6E1,4.9E1,5.8E1,6E0,6E0,4E0,1.1E1,3.3E1,2.2E1,1.8E1,3E0,6E0,1.8E1,1.3E1,3E0,3E0,3E0,3E0,3E0,3E0,8E0,1.4E1,1.9E1,5E0,1.7E1,6E0,1.2E1],"tree_param":{"num_deleted":"0","num_feature":"104","num_nodes":"41","size_leaf_vector":"1"}},{"base_weights":[-2.1508114E0,-3.246681E2,4.5860736E2,-3.870872E2,-7.2719215E1,2.7602713E2,8.873289E2,-2.0887678E1,-1.5319664E1,-1.3232735E2,7.6323566E0,2.3037053E2,2.468067E1,3.6245514E1,6.1994984E1,-9.644271E1,-9.003317E0,2.954129E0,-1.0153748E1,1.6948425E2,1.4146759E1,-7.281711E0,2.5323365E0,-2.4569752E0,7.7407837E-1,9.124045E0,1.319455E0],"categories":[],"categories_nodes":[],"categories_segments":[],"categories_sizes":[],"default_left":[0,0,0,0,0,0,0,0,0,0,0,0,0,0,0,0,0,0,0,0,0,0,0,0,0,0,0],"id":18,"left_children":[1,3,5,7,9,11,13,-1,-1,15,17,19,-1,-1,-1,21,-1,-1,23,25,-1,-1,-1,-1,-1,-1,-1],"loss_changes":[4.042017E7,2.488076E6,8.521992E6,1.88752E5,1.59067E5,6.810255E5,9.909E5,0E0,0E0,1.5182719E4,1.4326395E4,1.696785E5,0E0,0E0,0E0,1.01438055E5,0E0,0E0,1.2753701E4,5.8416312E4,0E0,0E0,0E0,0E0,0E0,0E0,0E0],"parents":[2147483647,0,0,1,1,2,2,3,3,4,4,5,5,6,6,9,9,10,10,11,11,15,15,18,18,19,19],"right_children":[2,4,6,8,10,12,14,-1,-1,16,18,20,-1,-1,-1,22,-1,-1,24,26,-1,-1,-1,-1,-1,-1,-1],"split_conditions":[1.25265E3,5.5128E2,2.30364E3,2.7473E2,9.15E2,2.07994E3,3.64373E3,-2.0887678E1,-1.5319664E1,7.8367E2,1.04365E3,1.65678E3,2.468067E1,3.6245514E1,6.1994984E1,6.8104E2,-9.003317E0,2.954129E0,1.15102E3,1.6E3,1.4146759E1,-7.281711E0,2.5323365E0,-2.4569752E0,7.7407837E-1,9.124045E0,1.319455E0],"split_indices":[2,2,2,2,2,2,2,0,0,2,2,2,0,0,0,2,0,0,2,2,0,0,0,0,0,0,0],"split_type":[0,0,0,0,0,0,0,0,0,0,0,0,0,0,0,0,0,0,0,0,0,0,0,0,0,0,0],"sum_hessian":[2.7E2,1.59E2,1.11E2,1.27E2,3.2E1,7.9E1,3.2E1,8.9E1,3.8E1,1.8E1,1.4E1,6.7E1,1.2E1,2.4E1,8E0,1.2E1,6E0,3E0,1.1E1,3.3E1,3.4E1,9E0,3E0,4E0,7E0,3E1,3E0],"tree_param":{"num_deleted":"0","num_feature":"104","num_nodes":"27","size_leaf_vector":"1"}},{"base_weights":[2.0162277E1,-3.2407407E2,4.353552E2,-3.7014334E2,-9.721034E1,2.1212817E2,7.947008E2,-2.0031427E1,-1.6022272E1,-1.5999818E2,-2.2114952E1,1.7496124E2,3.5160965E2,6.573753E2,5.645042E1,-9.649555E1,-1.0485787E1,8.365906E0,-4.639418E0,9.131989E-1,1.8261934E2,2.088622E1,6.791759E0,6.9686383E2,1.405358E1,-7.6455393E0,-9.2631534E-2,3.63396E0,-1.4789839E0,7.2541976E0,1.0128509E1,2.4434053E1,3.7990837E1],"categories":[],"categories_nodes":[],"categories_segments":[],"categories_sizes":[],"default_left":[0,0,0,0,0,0,0,0,0,0,0,0,0,0,0,0,0,0,0,0,0,0,0,0,0,0,0,0,0,0,0,0,0],"id":19,"left_children":[1,3,5,7,9,11,13,-1,-1,15,17,19,21,23,-1,25,-1,27,-1,-1,29,-1,-1,31,-1,-1,-1,-1,-1,-1,-1,-1,-1],"loss_changes":[3.8159004E7,1.48993E6,9.537516E6,5.4941E4,1.190537E5,3.324735E5,1.36963E6,0E0,0E0,2.3964062E4,2.8780676E4,7.106475E4,1.572465E5,3.2422E5,0E0,4.2431133E4,0E0,2.6553883E4,0E0,0E0,1.479325E4,0E0,0E0,3.4969E4,0E0,0E0,0E0,0E0,0E0,0E0,0E0,0E0,0E0],"parents":[2147483647,0,0,1,1,2,2,3,3,4,4,5,5,6,6,9,9,10,10,11,11,12,12,13,13,15,15,17,17,20,20,23,23],"right_children":[2,4,6,8,10,12,14,-1,-1,16,18,20,22,24,-1,26,-1,28,-1,-1,30,-1,-1,32,-1,-1,-1,-1,-1,-1,-1,-1,-1],"split_conditions":[1.18106E3,5.0671E2,2.69761E3,2.2656E2,1.01107E3,2.146E3,3.371E3,-2.0031427E1,-1.6022272E1,6.2758E2,1.4383E3,1.29015E3,2.32044E3,5.680094E6,5.645042E1,6.381E2,-1.0485787E1,1.04365E3,-4.639418E0,9.131989E-1,1.751E3,2.088622E1,6.791759E0,2.9596672E6,1.405358E1,-7.6455393E0,-9.2631534E-2,3.63396E0,-1.4789839E0,7.2541976E0,1.0128509E1,2.4434053E1,3.7990837E1],"split_indices":[2,2,1,2,1,1,2,0,0,2,1,0,0,3,0,0,0,2,0,0,1,0,0,3,0,0,0,0,0,0,0,0,0],"split_type":[0,0,0,0,0,0,0,0,0,0,0,0,0,0,0,0,0,0,0,0,0,0,0,0,0,0,0,0,0,0,0,0,0],"sum_hessian":[2.65E2,1.45E2,1.2E2,1.2E2,2.5E1,7.5E1,4.5E1,7E1,5E1,1.3E1,1.2E1,6.1E1,1.4E1,3.4E1,1.1E1,7E0,6E0,9E0,3E0,3E0,5.8E1,1E1,4E0,3E1,4E0,4E0,3E0,3E0,6E0,2.3E1,3.5E1,9E0,2.1E1],"tree_param":{"num_deleted":"0","num_feature":"104","num_nodes":"33","size_leaf_vector":"1"}},{"base_weights":[-4.7778883E0,-3.057205E2,3.7449756E2,-3.5303607E2,-9.68044E1,1.9328683E2,6.4421814E2,-1.9485212E1,-1.484642E1,-1.5886772E2,-1.4527196E1,1.2274093E2,2.7040384E2,5.025619E2,4.3013073E1,-1.8116363E0,-1.825586E2,-2.5770173E0,2.527854E-1,1.4213579E2,-2.2664611E0,6.774757E0,1.4418607E1,4.1703696E2,3.051752E1,-1.1504925E1,-5.1073737E0,1.355922E0,-6.60582E-1,1.7938927E0,8.28667E0,2.4277563E1,5.0340505E0],"categories":[],"categories_nodes":[],"categories_segments":[],"categories_sizes":[],"default_left":[0,0,0,0,0,0,0,0,0,0,0,0,0,0,0,0,0,0,0,0,0,0,0,0,0,0,0,0,0,0,0,0,0],"id":20,"left_children":[1,3,5,7,9,11,13,-1,-1,15,17,19,21,23,-1,-1,25,-1,27,29,-1,-1,-1,31,-1,-1,-1,-1,-1,-1,-1,-1,-1],"loss_changes":[3.173131E7,1.497997E6,5.88726E6,1.43514E5,1.5088403E5,3.7483225E5,1.067256E6,0E0,0E0,4.277603E4,7.6717793E3,1.400905E5,4.576975E4,4.0457E4,0E0,0E0,3.0014312E4,0E0,4.337315E3,8.682881E4,0E0,0E0,0E0,4.06287E5,0E0,0E0,0E0,0E0,0E0,0E0,0E0,0E0,0E0],"parents":[2147483647,0,0,1,1,2,2,3,3,4,4,5,5,6,6,9,9,10,10,11,11,12,12,13,13,16,16,18,18,19,19,23,23],"right_children":[2,4,6,8,10,12,14,-1,-1,16,18,20,22,24,-1,-1,26,-1,28,30,-1,-1,-1,32,-1,-1,-1,-1,-1,-1,-1,-1,-1],"split_conditions":[1.19E3,6.4349E2,2.04651E3,2.2656E2,1.3085232E6,1.65707E3,3.488E3,-1.9485212E1,-1.484642E1,6.851E2,8.9E2,1.79514E3,1.8241509E6,4.086299E6,4.3013073E1,-1.8116363E0,9.112E2,-2.5770173E0,1.04365E3,1.4383E3,-2.2664611E0,6.774757E0,1.4418607E1,3.3715108E6,3.051752E1,-1.1504925E1,-5.1073737E0,1.355922E0,-6.60582E-1,1.7938927E0,8.28667E0,2.4277563E1,5.0340505E0],"split_indices":[2,1,2,2,3,2,1,0,0,0,2,0,3,3,0,0,1,0,2,1,0,0,0,3,0,0,0,0,0,0,0,0,0],"split_type":[0,0,0,0,0,0,0,0,0,0,0,0,0,0,0,0,0,0,0,0,0,0,0,0,0,0,0,0,0,0,0,0,0],"sum_hessian":[2.76E2,1.54E2,1.22E2,1.25E2,2.9E1,7.4E1,4.8E1,7.2E1,5.3E1,1.6E1,1.3E1,4E1,3.4E1,3.1E1,1.7E1,3E0,1.3E1,3E0,1E1,3.6E1,4E0,5E0,2.9E1,2E1,1.1E1,7E0,6E0,3E0,7E0,7E0,2.9E1,1.6E1,4E0],"tree_param":{"num_deleted":"0","num_feature":"104","num_nodes":"33","size_leaf_vector":"1"}},{"base_weights":[9.093495E0,-2.6802023E2,4.1578253E2,-3.3610452E2,-2.4171478E1,2.3489224E2,8.0789667E2,-1.8938717E1,-2.9088974E2,-8.939443E1,3.889087E1,1.7909103E2,1.7784554E1,6.243013E2,5.2822536E1,-1.48398075E1,-8.03267E0,-3.851668E1,-1.2624496E2,-5.9915364E-1,7.4791384E0,1.0398314E2,2.0036955E2,1.2177487E1,6.7160156E2,-5.8027306E0,9.7973585E-1,-9.551433E0,-2.5608857E0,1.970987E0,-3.3598726E0,7.493985E0,-2.4114106E0,1.1465628E1,7.739377E0,3.645144E1,1.3699618E1],"categories":[],"categories_nodes":[],"categories_segments":[],"categories_sizes":[],"default_left":[0,0,0,0,0,0,0,0,0,0,0,0,0,0,0,0,0,0,0,0,0,0,0,0,0,0,0,0,0,0,0,0,0,0,0,0,0],"id":21,"left_children":[1,3,5,7,9,11,13,-1,15,17,19,21,-1,23,-1,-1,-1,25,27,29,-1,31,33,-1,35,-1,-1,-1,-1,-1,-1,-1,-1,-1,-1,-1,-1],"loss_changes":[3.0314802E7,2.648238E6,7.541562E6,1.30982E5,1.5154869E5,4.4859375E5,8.9199E5,0E0,2.319E3,2.8885156E4,8.314291E4,6.546675E4,0E0,2.32644E5,0E0,0E0,0E0,4.2826598E4,3.8821375E4,4.2626754E4,0E0,1.0503214E5,1.8595875E4,0E0,2.34089E5,0E0,0E0,0E0,0E0,0E0,0E0,0E0,0E0,0E0,0E0,0E0,0E0],"parents":[2147483647,0,0,1,1,2,2,3,3,4,4,5,5,6,6,8,8,9,9,10,10,11,11,13,13,17,17,18,18,19,19,21,21,22,22,24,24],"right_children":[2,4,6,8,10,12,14,-1,16,18,20,22,-1,24,-1,-1,-1,26,28,30,-1,32,34,-1,36,-1,-1,-1,-1,-1,-1,-1,-1,-1,-1,-1,-1],"split_conditions":[1.33607E3,5.3043E2,2.30364E3,2.2489E2,1.00632E3,2.04469E3,3.371E3,-1.8938717E1,5.6003E2,7.943E2,9.244825E6,1.53692E3,1.7784554E1,2.832021E6,5.2822536E1,-1.48398075E1,-8.03267E0,6.381E2,1.3085232E6,3.8539662E6,7.4791384E0,1.63285E3,1.80003E3,1.2177487E1,3.5219E3,-5.8027306E0,9.7973585E-1,-9.551433E0,-2.5608857E0,1.970987E0,-3.3598726E0,7.493985E0,-2.4114106E0,1.1465628E1,7.739377E0,3.645144E1,1.3699618E1],"split_indices":[2,2,2,0,2,0,2,0,0,0,3,2,0,3,0,0,0,0,3,3,0,0,0,0,0,0,0,0,0,0,0,0,0,0,0,0,0],"split_type":[0,0,0,0,0,0,0,0,0,0,0,0,0,0,0,0,0,0,0,0,0,0,0,0,0,0,0,0,0,0,0,0,0,0,0,0,0],"sum_hessian":[2.67E2,1.59E2,1.08E2,1.24E2,3.5E1,7.5E1,3.3E1,6E1,6.4E1,1.7E1,1.8E1,5.3E1,2.2E1,2.1E1,1.2E1,6E1,4E0,8E0,9E0,1.4E1,4E0,1.3E1,4E1,3E0,1.8E1,3E0,5E0,4E0,5E0,9E0,5E0,1E1,3E0,2.2E1,1.8E1,1.5E1,3E0],"tree_param":{"num_deleted":"0","num_feature":"104","num_nodes":"37","size_leaf_vector":"1"}},{"base_weights":[1.7590279E1,-2.6518225E2,3.5205786E2,-3.1743176E2,-5.953639E1,1.5364357E2,5.760734E2,-1.6877201E1,-1.2216079E1,-1.554234E2,1.3022925E1,8.990425E1,1.7801625E2,4.232026E2,7.622677E2,-1.6505021E0,-9.442321E0,-2.2820965E1,5.140248E1,6.7936454E0,-2.0000732E0,1.9296388E2,1.0490839E2,4.7025494E2,3.2829323E0,8.0842114E2,1.6469769E1,-2.6850593E0,3.358022E-1,3.3035737E-1,3.6349475E0,6.5669603E0,1.0271743E1,1.4398011E0,1.0593897E1,1.8716578E1,3.0753813E1,2.6148329E1,4.5689682E1],"categories":[],"categories_nodes":[],"categories_segments":[],"categories_sizes":[],"default_left":[0,0,0,0,0,0,0,0,0,0,0,0,0,0,0,0,0,0,0,0,0,0,0,0,0,0,0,0,0,0,0,0,0,0,0,0,0,0,0],"id":22,"left_children":[1,3,5,7,9,11,13,-1,-1,15,17,19,21,23,25,-1,-1,27,29,-1,-1,31,33,35,-1,37,-1,-1,-1,-1,-1,-1,-1,-1,-1,-1,-1,-1,-1],"loss_changes":[2.4778282E7,1.506876E6,5.245235E6,8.3687E4,2.1074897E5,8.4973E4,1.271372E6,0E0,0E0,4.6954688E4,2.593516E4,1.2486697E5,3.0024875E4,5.24292E5,2.13195E5,0E0,0E0,9.481753E3,8.1055117E3,0E0,0E0,1.453625E3,7.53158E4,1.726185E5,0E0,1.53777E5,0E0,0E0,0E0,0E0,0E0,0E0,0E0,0E0,0E0,0E0,0E0,0E0,0E0],"parents":[2147483647,0,0,1,1,2,2,3,3,4,4,5,5,6,6,9,9,10,10,11,11,12,12,13,13,14,14,17,17,18,18,21,21,22,22,23,23,25,25],"right_children":[2,4,6,8,10,12,14,-1,-1,16,18,20,22,24,26,-1,-1,28,30,-1,-1,32,34,36,-1,38,-1,-1,-1,-1,-1,-1,-1,-1,-1,-1,-1,-1,-1],"split_conditions":[1.29015E3,6.0159E2,2.06234E3,3.5285E2,1.3085232E6,1.5977E3,2.94933E3,-1.6877201E1,-1.2216079E1,5.9420694E5,4.918443E6,1.56825E3,5.406154E6,2.71192E3,5.1884695E6,-1.6505021E0,-9.442321E0,1.19388E3,1.07426E3,6.7936454E0,-2.0000732E0,1.66369E3,6.5397805E6,5.111451E6,3.2829323E0,2.9484315E6,1.6469769E1,-2.6850593E0,3.358022E-1,3.3035737E-1,3.6349475E0,6.5669603E0,1.0271743E1,1.4398011E0,1.0593897E1,1.8716578E1,3.0753813E1,2.6148329E1,4.5689682E1],"split_indices":[0,0,0,0,3,0,0,0,0,3,3,0,3,0,3,0,0,0,0,0,0,0,3,3,0,3,0,0,0,0,0,0,0,0,0,0,0,0,0],"split_type":[0,0,0,0,0,0,0,0,0,0,0,0,0,0,0,0,0,0,0,0,0,0,0,0,0,0,0,0,0,0,0,0,0,0,0,0,0,0,0],"sum_hessian":[2.6E2,1.41E2,1.19E2,1.12E2,2.9E1,6.4E1,5.5E1,8.5E1,2.7E1,1.2E1,1.7E1,1.9E1,4.5E1,3.2E1,2.3E1,3E0,9E0,9E0,8E0,1.4E1,5E0,3.6E1,9E0,2.8E1,4E0,2E1,3E0,4E0,5E0,3E0,5E0,8E0,2.8E1,6E0,3E0,1.9E1,9E0,7E0,1.3E1],"tree_param":{"num_deleted":"0","num_feature":"104","num_nodes":"39","size_leaf_vector":"1"}},{"base_weights":[2.9083492E1,-1.339138E2,6.299859E2,-2.819006E2,9.399441E1,4.1978226E2,7.765104E2,-3.1313824E2,-1.7644981E2,-9.2680235E0,1.3965697E2,4.4542508E2,8.369529E0,1.4430652E1,8.156797E2,-1.7439795E1,-1.3976488E1,-2.0657263E2,-1.22965294E2,-3.3686623E1,4.3312134E1,1.658896E2,9.7345E1,1.6564802E1,2.6121765E1,6.6948065E2,5.2056484E1,-5.011294E0,-1.1012427E1,-3.054005E0,-8.08721E0,2.9919832E0,-2.7481391E0,5.1663527E0,-1.958252E-1,5.514037E0,9.686831E0,7.509485E0,1.5294921E-1,3.644493E1,1.6678167E1],"categories":[],"categories_nodes":[],"categories_segments":[],"categories_sizes":[],"default_left":[0,0,0,0,0,0,0,0,0,0,0,0,0,0,0,0,0,0,0,0,0,0,0,0,0,0,0,0,0,0,0,0,0,0,0,0,0,0,0,0,0],"id":23,"left_children":[1,3,5,7,9,11,13,15,17,19,21,23,-1,-1,25,-1,-1,27,29,31,33,35,37,-1,-1,39,-1,-1,-1,-1,-1,-1,-1,-1,-1,-1,-1,-1,-1,-1,-1],"loss_changes":[2.6627586E7,7.244163E6,1.46043E6,3.72971E5,4.0208875E5,9.3713E4,3.95236E5,2.1142E4,2.6154062E4,3.6125254E4,4.933875E4,2.90685E4,0E0,0E0,2.918E5,0E0,0E0,5.5586875E3,2.3718406E4,4.109667E4,2.5914488E4,3.28335E4,1.24103484E5,0E0,0E0,1.76017E5,0E0,0E0,0E0,0E0,0E0,0E0,0E0,0E0,0E0,0E0,0E0,0E0,0E0,0E0,0E0],"parents":[2147483647,0,0,1,1,2,2,3,3,4,4,5,5,6,6,7,7,8,8,9,9,10,10,11,11,14,14,17,17,18,18,19,19,20,20,21,21,22,22,25,25],"right_children":[2,4,6,8,10,12,14,16,18,20,22,24,-1,-1,26,-1,-1,28,30,32,34,36,38,-1,-1,40,-1,-1,-1,-1,-1,-1,-1,-1,-1,-1,-1,-1,-1,-1,-1],"split_conditions":[2.146E3,9.785E2,2.985E3,4.7447E2,1.26999E3,2.5513E3,2.3194725E6,2.1707E2,6.4349E2,1.18106E3,3.9349605E6,2.409E3,8.369529E0,1.4430652E1,3.371E3,-1.7439795E1,-1.3976488E1,4.8884E2,6.851E2,1.23799E3,1.21801E3,1.76049E3,1.7338E3,1.6564802E1,2.6121765E1,3.5219E3,5.2056484E1,-5.011294E0,-1.1012427E1,-3.054005E0,-8.08721E0,2.9919832E0,-2.7481391E0,5.1663527E0,-1.958252E-1,5.514037E0,9.686831E0,7.509485E0,1.5294921E-1,3.644493E1,1.6678167E1],"split_indices":[1,1,1,1,2,0,3,1,1,2,3,1,0,0,2,0,0,1,0,1,2,1,0,0,0,0,0,0,0,0,0,0,0,0,0,0,0,0,0,0,0],"split_type":[0,0,0,0,0,0,0,0,0,0,0,0,0,0,0,0,0,0,0,0,0,0,0,0,0,0,0,0,0,0,0,0,0,0,0,0,0,0,0,0,0],"sum_hessian":[2.7E2,2.13E2,5.7E1,1.29E2,8.4E1,2.5E1,3.2E1,9.8E1,3.1E1,2.6E1,5.8E1,2.2E1,3E0,3E0,2.9E1,4.3E1,5.5E1,1.8E1,1.3E1,1.8E1,8E0,3.4E1,2.4E1,1.1E1,1.1E1,2E1,9E0,3E0,1.5E1,6E0,7E0,3E0,1.5E1,3E0,5E0,1.3E1,2.1E1,1.5E1,9E0,1.6E1,4E0],"tree_param":{"num_deleted":"0","num_feature":"104","num_nodes":"41","size_leaf_vector":"1"}},{"base_weights":[-1.6794062E1,-2.4412871E2,3.0046936E2,-2.8916888E2,-6.728778E1,1.772429E2,6.0332245E2,-1.6190138E1,-1.2242175E1,-1.4641087E2,-2.4922571E1,1.4679282E2,3.2335812E2,4.842092E2,4.4019577E1,-8.7316986E1,-1.0583946E1,-4.5627678E1,2.2398682E0,9.449588E1,1.7206215E2,2.3266403E1,1.1001866E1,5.149072E2,9.33216E0,-5.302059E0,-2.1041245E0,2.3280227E0,-3.2911491E0,3.6469274E0,8.522449E0,9.033743E0,1.6076844E0,1.909643E1,3.821486E1],"categories":[],"categories_nodes":[],"categories_segments":[],"categories_sizes":[],"default_left":[0,0,0,0,0,0,0,0,0,0,0,0,0,0,0,0,0,0,0,0,0,0,0,0,0,0,0,0,0,0,0,0,0,0,0],"id":24,"left_children":[1,3,5,7,9,11,13,-1,-1,15,17,19,21,23,-1,25,-1,27,-1,29,31,-1,-1,33,-1,-1,-1,-1,-1,-1,-1,-1,-1,-1,-1],"loss_changes":[2.0556844E7,1.302724E6,4.334086E6,1.23361E5,1.1367339E5,3.3516625E5,6.95796E5,0E0,0E0,2.780014E4,3.668941E4,8.0211E4,1.02968625E5,1.413975E5,0E0,2.3133633E3,0E0,3.8438324E4,0E0,3.0138688E4,5.203025E4,0E0,0E0,4.708545E5,0E0,0E0,0E0,0E0,0E0,0E0,0E0,0E0,0E0,0E0,0E0],"parents":[2147483647,0,0,1,1,2,2,3,3,4,4,5,5,6,6,9,9,10,10,11,11,12,12,13,13,15,15,17,17,19,19,20,20,23,23],"right_children":[2,4,6,8,10,12,14,-1,-1,16,18,20,22,24,-1,26,-1,28,-1,30,32,-1,-1,34,-1,-1,-1,-1,-1,-1,-1,-1,-1,-1,-1],"split_conditions":[1.19E3,5.3043E2,2.30364E3,2.16E2,6.8104E2,2.07994E3,3.371E3,-1.6190138E1,-1.2242175E1,6.2758E2,1.030976E7,1.535E3,2.16638E3,3.14315E3,4.4019577E1,5.701E2,-1.0583946E1,7.8367E2,2.2398682E0,7.473809E6,1.9468E3,2.3266403E1,1.1001866E1,4.086299E6,9.33216E0,-5.302059E0,-2.1041245E0,2.3280227E0,-3.2911491E0,3.6469274E0,8.522449E0,9.033743E0,1.6076844E0,1.909643E1,3.821486E1],"split_indices":[2,2,2,2,2,2,2,0,0,2,3,2,2,2,0,2,0,2,0,3,2,0,0,3,0,0,0,0,0,0,0,0,0,0,0],"split_type":[0,0,0,0,0,0,0,0,0,0,0,0,0,0,0,0,0,0,0,0,0,0,0,0,0,0,0,0,0,0,0,0,0,0,0],"sum_hessian":[2.83E2,1.65E2,1.18E2,1.31E2,3.4E1,8.5E1,3.3E1,7E1,6.1E1,1.1E1,2.3E1,7.2E1,1.3E1,2.5E1,8E0,7E0,4E0,1.8E1,5E0,2.5E1,4.7E1,4E0,9E0,2.2E1,3E0,4E0,3E0,3E0,1.5E1,2.1E1,4E0,4.4E1,3E0,1.6E1,6E0],"tree_param":{"num_deleted":"0","num_feature":"104","num_nodes":"35","size_leaf_vector":"1"}},{"base_weights":[2.4760221E1,-2.2191853E2,3.6131503E2,-2.762527E2,-3.8233334E1,2.0290335E2,7.033045E2,-1.5913159E1,-2.4324191E2,-1.1271066E2,2.0242138E0,1.4117181E2,3.2568533E2,3.0252563E1,4.857797E1,-1.286793E1,-9.329703E0,-2.3934562E0,-7.3626494E0,4.2532284E1,-3.8639565E1,9.737707E1,1.6535748E2,3.5995993E2,2.359253E0,7.3055017E-1,4.2142067E0,-3.3135545E0,-1.18615E0,7.496029E0,2.8321795E0,1.0469812E1,5.450064E0,1.3203536E1,2.3988985E1],"categories":[],"categories_nodes":[],"categories_segments":[],"categories_sizes":[],"default_left":[0,0,0,0,0,0,0,0,0,0,0,0,0,0,0,0,0,0,0,0,0,0,0,0,0,0,0,0,0,0,0,0,0,0,0],"id":25,"left_children":[1,3,5,7,9,11,13,-1,15,17,19,21,23,-1,-1,-1,-1,-1,-1,25,27,29,31,33,-1,-1,-1,-1,-1,-1,-1,-1,-1,-1,-1],"loss_changes":[2.2578852E7,1.556358E6,6.087438E6,9.0388E4,1.1116431E5,5.60384E5,3.61004E5,0E0,9.5555E3,2.206825E4,4.2823703E4,4.2154375E4,2.31198E5,0E0,0E0,0E0,0E0,0E0,0E0,1.3923471E4,3.7860273E3,3.8594094E4,6.1558625E4,1.37561E5,0E0,0E0,0E0,0E0,0E0,0E0,0E0,0E0,0E0,0E0,0E0],"parents":[2147483647,0,0,1,1,2,2,3,3,4,4,5,5,6,6,8,8,9,9,10,10,11,11,12,12,19,19,20,20,21,21,22,22,23,23],"right_children":[2,4,6,8,10,12,14,-1,16,18,20,22,24,-1,-1,-1,-1,-1,-1,26,28,30,32,34,-1,-1,-1,-1,-1,-1,-1,-1,-1,-1,-1],"split_conditions":[1.59419E3,6.4349E2,2.985E3,2.273E2,1.01107E3,2.146E3,4.375E3,-1.5913159E1,4.7447E2,6.851E2,1.2215E3,1.74584E3,2.5555E3,3.0252563E1,4.857797E1,-1.286793E1,-9.329703E0,-2.3934562E0,-7.3626494E0,1.2912E3,1.25424E3,1.56825E3,1.80622E3,2.64E3,2.359253E0,7.3055017E-1,4.2142067E0,-3.3135545E0,-1.18615E0,7.496029E0,2.8321795E0,1.0469812E1,5.450064E0,1.3203536E1,2.3988985E1],"split_indices":[1,1,1,1,1,1,1,0,1,0,0,1,0,0,0,0,0,0,0,1,0,0,0,1,0,0,0,0,0,0,0,0,0,0,0],"split_type":[0,0,0,0,0,0,0,0,0,0,0,0,0,0,0,0,0,0,0,0,0,0,0,0,0,0,0,0,0,0,0,0,0,0,0],"sum_hessian":[2.7E2,1.56E2,1.14E2,1.2E2,3.6E1,7.9E1,3.5E1,4.9E1,7.1E1,1.2E1,2.4E1,5.4E1,2.5E1,2.8E1,7E0,5.4E1,1.7E1,5E0,7E0,1.2E1,1.2E1,2.1E1,3.3E1,2.2E1,3E0,8E0,4E0,3E0,9E0,8E0,1.3E1,1.7E1,1.6E1,1.4E1,8E0],"tree_param":{"num_deleted":"0","num_feature":"104","num_nodes":"35","size_leaf_vector":"1"}},{"base_weights":[-4.7459893E0,-2.2200769E2,3.070186E2,-2.5734E2,-1.3853191E1,2.4069777E2,4.560851E1,-1.5019646E1,-2.2716469E2,-3.9933853E1,5.8916206E1,1.3941989E2,3.627126E2,-1.2036967E1,-1.7303767E2,6.512946E-1,-5.4924847E1,-1.3496093E-1,5.290129E0,1.7226836E2,8.051496E1,3.8020145E2,6.98829E0,-1.111156E1,-5.881163E0,3.8394928E-1,-3.560786E0,5.204151E0,1.0963139E1,-1.653756E0,6.613891E0,1.5172554E1,2.516194E1],"categories":[],"categories_nodes":[],"categories_segments":[],"categories_sizes":[],"default_left":[0,0,0,0,0,0,0,0,0,0,0,0,0,0,0,0,0,0,0,0,0,0,0,0,0,0,0,0,0,0,0,0,0],"id":26,"left_children":[1,3,5,7,9,11,-1,-1,13,15,17,19,21,-1,23,-1,25,-1,-1,27,29,31,-1,-1,-1,-1,-1,-1,-1,-1,-1,-1,-1],"loss_changes":[1.8966086E7,1.2099405E6,4.395871E6,1.14939E5,4.979961E4,1.2469575E6,0E0,0E0,2.2267E4,1.5799906E4,2.0508053E4,1.00291E5,1.301185E5,0E0,3.1107125E4,0E0,1.584493E4,0E0,0E0,9.5738625E4,1.3960928E5,2.533475E5,0E0,0E0,0E0,0E0,0E0,0E0,0E0,0E0,0E0,0E0,0E0],"parents":[2147483647,0,0,1,1,2,2,3,3,4,4,5,5,8,8,9,9,10,10,11,11,12,12,14,14,16,16,19,19,20,20,21,21],"right_children":[2,4,6,8,10,12,-1,-1,14,16,18,20,22,-1,24,-1,26,-1,-1,28,30,32,-1,-1,-1,-1,-1,-1,-1,-1,-1,-1,-1],"split_conditions":[1.25265E3,9.112E2,3.371E3,2.273E2,1.030976E7,2.146E3,4.560851E1,-1.5019646E1,5.35E2,1.12309E3,9.98E2,3.9349605E6,9.665838E6,-1.2036967E1,1.01706206E6,6.512946E-1,1.23893E3,-1.3496093E-1,5.290129E0,1.76049E3,4.9090095E6,3.07456E3,6.98829E0,-1.111156E1,-5.881163E0,3.8394928E-1,-3.560786E0,5.204151E0,1.0963139E1,-1.653756E0,6.613891E0,1.5172554E1,2.516194E1],"split_indices":[2,1,2,1,3,1,0,0,1,0,2,3,3,0,3,0,1,0,0,1,3,1,0,0,0,0,0,0,0,0,0,0,0],"split_type":[0,0,0,0,0,0,0,0,0,0,0,0,0,0,0,0,0,0,0,0,0,0,0,0,0,0,0,0,0,0,0,0,0],"sum_hessian":[2.78E2,1.64E2,1.14E2,1.4E2,2.4E1,1.04E2,1E1,5.4E1,8.6E1,1.8E1,6E0,5.8E1,4.6E1,6.6E1,2E1,4E0,1.4E1,3E0,3E0,3.6E1,2.2E1,4.2E1,4E0,9E0,1.1E1,3E0,1.1E1,1.6E1,2E1,7E0,1.5E1,2.8E1,1.4E1],"tree_param":{"num_deleted":"0","num_feature":"104","num_nodes":"33","size_leaf_vector":"1"}},{"base_weights":[4.329923E0,-2.2153558E2,2.641276E2,-2.5772122E2,-1.4411093E2,1.394058E2,5.5062067E2,-1.4808507E1,-1.1852668E1,-1.6061945E2,-3.5300247E1,1.0481522E2,2.2584212E2,4.5987073E2,4.2806824E1,-3.2739809E0,-1.711379E2,3.695526E-1,-3.119662E0,1.2997589E2,6.3330822E1,2.6772394E2,7.3916664E1,4.908295E2,5.635614E0,-9.2031975E0,-5.3799767E0,4.003644E0,9.043278E0,-3.4793336E0,4.7625723E0,1.977767E1,1.0552224E1,7.3894625E0,-9.217545E-1,1.3566086E1,2.7915884E1],"categories":[],"categories_nodes":[],"categories_segments":[],"categories_sizes":[],"default_left":[0,0,0,0,0,0,0,0,0,0,0,0,0,0,0,0,0,0,0,0,0,0,0,0,0,0,0,0,0,0,0,0,0,0,0,0,0],"id":27,"left_children":[1,3,5,7,9,11,13,-1,-1,15,17,19,21,23,-1,-1,25,-1,-1,27,29,31,33,35,-1,-1,-1,-1,-1,-1,-1,-1,-1,-1,-1,-1,-1],"loss_changes":[1.6782124E7,3.915135E5,4.675587E6,1.16415E4,8.5941625E4,2.5737738E5,7.1531E5,0E0,0E0,3.282575E4,9.71423E3,6.3788938E4,1.456465E5,2.99348E5,0E0,0E0,1.22255E4,0E0,0E0,9.2178625E4,1.2542685E5,6.142675E4,5.0480336E4,2.92941E5,0E0,0E0,0E0,0E0,0E0,0E0,0E0,0E0,0E0,0E0,0E0,0E0,0E0],"parents":[2147483647,0,0,1,1,2,2,3,3,4,4,5,5,6,6,9,9,10,10,11,11,12,12,13,13,16,16,19,19,20,20,21,21,22,22,23,23],"right_children":[2,4,6,8,10,12,14,-1,-1,16,18,20,22,24,-1,-1,26,-1,-1,28,30,32,34,36,-1,-1,-1,-1,-1,-1,-1,-1,-1,-1,-1,-1,-1],"split_conditions":[1.2912E3,4.1585E2,2.69761E3,1.9045E2,1.07426E3,2.0885E3,4.08233E3,-1.4808507E1,-1.1852668E1,5.1807734E5,1.23893E3,4.414708E6,2.32044E3,4.12746E3,4.2806824E1,-3.2739809E0,6.9630425E6,3.695526E-1,-3.119662E0,1.76049E3,4.9090095E6,2.4668522E6,2.701604E6,3.0016868E6,5.635614E0,-9.2031975E0,-5.3799767E0,4.003644E0,9.043278E0,-3.4793336E0,4.7625723E0,1.977767E1,1.0552224E1,7.3894625E0,-9.217545E-1,1.3566086E1,2.7915884E1],"split_indices":[1,1,1,1,0,1,0,0,0,3,1,3,0,1,0,0,3,0,0,1,3,3,3,3,0,0,0,0,0,0,0,0,0,0,0,0,0],"split_type":[0,0,0,0,0,0,0,0,0,0,0,0,0,0,0,0,0,0,0,0,0,0,0,0,0,0,0,0,0,0,0,0,0,0,0,0,0],"sum_hessian":[2.84E2,1.52E2,1.32E2,1.02E2,5E1,9.3E1,3.9E1,3.1E1,7.1E1,4.3E1,7E0,6.8E1,2.5E1,3.2E1,7E0,5E0,3.8E1,3E0,4E0,4.1E1,2.7E1,1.9E1,6E0,2.9E1,3E0,3E1,8E0,2.2E1,1.9E1,5E0,2.2E1,4E0,1.5E1,3E0,3E0,8E0,2.1E1],"tree_param":{"num_deleted":"0","num_feature":"104","num_nodes":"37","size_leaf_vector":"1"}},{"base_weights":[7.54821E0,-2.0590471E2,2.7808658E2,-2.3775053E2,-8.8724754E1,1.9075327E2,6.86234E2,-1.3286226E1,-1.0073984E1,-1.2110654E2,-4.120106E0,1.18930725E2,3.2147824E2,3.6495617E1,1.5360168E1,-1.4447174E2,-6.927503E1,3.6729095E1,-4.239424E0,9.0060135E1,1.5442285E2,2.570584E2,2.466667E1,-3.6325924E0,-8.852077E0,-5.4614472E0,-1.8273896E0,-3.831433E-1,4.151839E0,5.317596E0,-1.1350292E0,1.0006076E1,6.2654057E0,1.592717E1,5.419132E0],"categories":[],"categories_nodes":[],"categories_segments":[],"categories_sizes":[],"default_left":[0,0,0,0,0,0,0,0,0,0,0,0,0,0,0,0,0,0,0,0,0,0,0,0,0,0,0,0,0,0,0,0,0,0,0],"id":28,"left_children":[1,3,5,7,9,11,13,-1,-1,15,17,19,21,-1,-1,23,25,27,-1,29,31,33,-1,-1,-1,-1,-1,-1,-1,-1,-1,-1,-1,-1,-1],"loss_changes":[1.6630706E7,5.79708E5,4.395997E6,7.4307E4,9.812841E4,9.5700025E5,1.39988E5,0E0,0E0,2.1479125E4,3.9361832E4,5.782025E4,2.82807E5,0E0,0E0,2.6903281E4,9.083734E3,1.7081809E4,0E0,7.773425E4,1.48381875E4,2.30574E5,0E0,0E0,0E0,0E0,0E0,0E0,0E0,0E0,0E0,0E0,0E0,0E0,0E0],"parents":[2147483647,0,0,1,1,2,2,3,3,4,4,5,5,6,6,9,9,10,10,11,11,12,12,15,15,16,16,17,17,19,19,20,20,21,21],"right_children":[2,4,6,8,10,12,14,-1,-1,16,18,20,22,-1,-1,24,26,28,-1,30,32,34,-1,-1,-1,-1,-1,-1,-1,-1,-1,-1,-1,-1,-1],"split_conditions":[1.18106E3,6.23E2,2.94932E3,2.2853E2,1.2912E3,1.92841E3,4.4457665E6,-1.3286226E1,-1.0073984E1,1.3085232E6,1.4383E3,1.65707E3,5.111451E6,3.6495617E1,1.5360168E1,6.851E2,6.0159E2,3.9114495E6,-4.239424E0,1.79514E3,1.80622E3,3.373184E6,2.466667E1,-3.6325924E0,-8.852077E0,-5.4614472E0,-1.8273896E0,-3.831433E-1,4.151839E0,5.317596E0,-1.1350292E0,1.0006076E1,6.2654057E0,1.592717E1,5.419132E0],"split_indices":[2,1,2,0,1,2,3,0,0,3,1,2,3,0,0,0,0,3,0,0,0,3,0,0,0,0,0,0,0,0,0,0,0,0,0],"split_type":[0,0,0,0,0,0,0,0,0,0,0,0,0,0,0,0,0,0,0,0,0,0,0,0,0,0,0,0,0,0,0,0,0,0,0],"sum_hessian":[2.86E2,1.6E2,1.26E2,1.25E2,3.5E1,1.05E2,2.1E1,6.7E1,5.8E1,2.5E1,1E1,6.9E1,3.6E1,1.8E1,3E0,1.6E1,9E0,7E0,3E0,4E1,2.9E1,2.8E1,8E0,6E0,1E1,3E0,6E0,4E0,3E0,3.5E1,5E0,9E0,2E1,1.9E1,9E0],"tree_param":{"num_deleted":"0","num_feature":"104","num_nodes":"35","size_leaf_vector":"1"}},{"base_weights":[-1.7028792E0,-1.9954095E2,2.427938E2,-2.233921E2,-4.8448093E1,1.4920218E2,5.0428238E2,-1.2213144E1,-8.749965E0,-1.0879249E2,-1.9019413E1,1.1033429E2,2.2212497E2,4.2537122E2,3.8766777E1,-9.9612963E-1,-8.523213E0,2.687842E0,-4.77579E1,6.0966934E1,1.3788512E2,2.4532079E2,2.1115112E-1,3.4121254E1,3.648051E2,-5.1965938E0,-3.339714E-1,4.2302055E0,9.707239E-1,9.283557E0,4.1602426E0,1.0241893E1,1.6046171E1,4.266045E0,2.0821796E1],"categories":[],"categories_nodes":[],"categories_segments":[],"categories_sizes":[],"default_left":[0,0,0,0,0,0,0,0,0,0,0,0,0,0,0,0,0,0,0,0,0,0,0,0,0,0,0,0,0,0,0,0,0,0,0],"id":29,"left_children":[1,3,5,7,9,11,13,-1,-1,15,17,19,21,23,-1,-1,-1,-1,25,27,29,31,-1,-1,33,-1,-1,-1,-1,-1,-1,-1,-1,-1,-1],"loss_changes":[1.3302031E7,5.36946E5,2.934956E6,8.9564E4,3.6999664E4,2.3625262E5,3.546465E5,0E0,0E0,3.4969258E4,3.603098E4,7.592044E4,1.5565088E5,1.714045E5,0E0,0E0,0E0,0E0,2.6996283E4,2.1929844E4,8.645644E4,1.996E4,0E0,0E0,3.1078875E5,0E0,0E0,0E0,0E0,0E0,0E0,0E0,0E0,0E0,0E0],"parents":[2147483647,0,0,1,1,2,2,3,3,4,4,5,5,6,6,9,9,10,10,11,11,12,12,13,13,18,18,19,19,20,20,21,21,24,24],"right_children":[2,4,6,8,10,12,14,-1,-1,16,18,20,22,24,-1,-1,-1,-1,26,28,30,32,-1,-1,34,-1,-1,-1,-1,-1,-1,-1,-1,-1,-1],"split_conditions":[1.37155E3,7.6605E2,2.985E3,3.1875E2,9.112E2,2.0885E3,4.375E3,-1.2213144E1,-8.749965E0,7.1616E2,1.23799E3,1.722E3,2.5555E3,2.60167E3,3.8766777E1,-9.9612963E-1,-8.523213E0,2.687842E0,1.28E3,1.56825E3,1.80003E3,2.64E3,2.1115112E-1,3.4121254E1,3.21363E3,-5.1965938E0,-3.339714E-1,4.2302055E0,9.707239E-1,9.283557E0,4.1602426E0,1.0241893E1,1.6046171E1,4.266045E0,2.0821796E1],"split_indices":[1,1,1,1,1,1,1,0,0,0,1,1,0,0,0,0,0,0,1,0,0,1,0,0,1,0,0,0,0,0,0,0,0,0,0],"split_type":[0,0,0,0,0,0,0,0,0,0,0,0,0,0,0,0,0,0,0,0,0,0,0,0,0,0,0,0,0,0,0,0,0,0,0],"sum_hessian":[2.73E2,1.51E2,1.22E2,1.3E2,2.1E1,9.1E1,3.1E1,8.8E1,4.2E1,6E0,1.5E1,6.1E1,3E1,2.6E1,5E0,3E0,3E0,4E0,1.1E1,2.3E1,3.8E1,2.7E1,3E0,3E0,2.3E1,4E0,7E0,1.4E1,9E0,1.9E1,1.9E1,2E1,7E0,4E0,1.9E1],"tree_param":{"num_deleted":"0","num_feature":"104","num_nodes":"35","size_leaf_vector":"1"}},{"base_weights":[-6.084081E-1,-1.736535E2,2.5658347E2,-2.0558548E2,-1.3493861E1,1.7116716E2,5.3673553E2,-2.2344856E2,-1.4360112E2,-5.3315506E1,1.1591248E1,1.12452835E2,2.6981625E2,4.2002588E2,3.661201E1,-1.2337175E1,-9.974566E0,-1.5349063E2,-3.6758296E0,2.4159667E0,-9.746849E1,4.7580956E1,-2.9685234E1,6.4066925E1,1.362102E2,3.0877887E2,-3.518811E0,2.6269857E1,1.7938571E2,-3.7224686E0,-8.178106E0,-6.0395617E0,-2.197397E0,-3.9662108E-1,4.2955976E0,8.833008E-1,-3.5549722E0,7.408254E0,-2.1728007E-1,2.3692658E0,7.8008356E0,1.0523537E1,1.7585085E1,-4.542694E-1,1.6150518E1],"categories":[],"categories_nodes":[],"categories_segments":[],"categories_sizes":[],"default_left":[0,0,0,0,0,0,0,0,0,0,0,0,0,0,0,0,0,0,0,0,0,0,0,0,0,0,0,0,0,0,0,0,0,0,0,0,0,0,0,0,0,0,0,0,0],"id":30,"left_children":[1,3,5,7,9,11,13,15,17,19,21,23,25,27,-1,-1,-1,29,-1,-1,31,33,35,37,39,41,-1,-1,43,-1,-1,-1,-1,-1,-1,-1,-1,-1,-1,-1,-1,-1,-1,-1,-1],"loss_changes":[1.206112E7,8.257285E5,2.516449E6,1.17389E5,2.8588043E4,4.6198825E5,2.628725E5,8.259E3,1.15881875E4,5.4071906E4,2.8151967E4,5.4497125E4,4.32629E5,3.6216925E5,0E0,0E0,0E0,1.01126875E4,0E0,0E0,4.6774453E3,2.1960318E4,1.8905174E4,1.157112E5,5.5942312E4,4.412775E4,0E0,0E0,1.9241838E5,0E0,0E0,0E0,0E0,0E0,0E0,0E0,0E0,0E0,0E0,0E0,0E0,0E0,0E0,0E0,0E0],"parents":[2147483647,0,0,1,1,2,2,3,3,4,4,5,5,6,6,7,7,8,8,9,9,10,10,11,11,12,12,13,13,17,17,20,20,21,21,22,22,23,23,24,24,25,25,28,28],"right_children":[2,4,6,8,10,12,14,16,18,20,22,24,26,28,-1,-1,-1,30,-1,-1,32,34,36,38,40,42,-1,-1,44,-1,-1,-1,-1,-1,-1,-1,-1,-1,-1,-1,-1,-1,-1,-1,-1],"split_conditions":[1.26999E3,9.112E2,3.18E3,3.6254E2,9.15E2,2.146E3,3.64373E3,2.1707E2,6.9630425E6,7.8367E2,1.263E3,1.53692E3,2.71192E3,3.34689E3,3.661201E1,-1.2337175E1,-9.974566E0,3.7992E2,-3.6758296E0,2.4159667E0,1.28E3,1.2912E3,1.38399E3,1.56825E3,1.768362E6,2.04651E3,-3.518811E0,2.6269857E1,3.92414E3,-3.7224686E0,-8.178106E0,-6.0395617E0,-2.197397E0,-3.9662108E-1,4.2955976E0,8.833008E-1,-3.5549722E0,7.408254E0,-2.1728007E-1,2.3692658E0,7.8008356E0,1.0523537E1,1.7585085E1,-4.542694E-1,1.6150518E1],"split_indices":[2,1,1,2,2,1,2,1,3,2,0,2,0,0,0,0,0,2,0,0,1,1,1,0,3,2,0,0,0,0,0,0,0,0,0,0,0,0,0,0,0,0,0,0,0],"split_type":[0,0,0,0,0,0,0,0,0,0,0,0,0,0,0,0,0,0,0,0,0,0,0,0,0,0,0,0,0,0,0,0,0,0,0,0,0,0,0,0,0,0,0,0,0],"sum_hessian":[2.69E2,1.61E2,1.08E2,1.34E2,2.7E1,8.4E1,2.4E1,1.02E2,3.2E1,1E1,1.7E1,5.4E1,3E1,1.7E1,7E0,4.7E1,5.5E1,2.7E1,5E0,3E0,7E0,9E0,8E0,1.9E1,3.5E1,2.7E1,3E0,1.1E1,6E0,4E0,2.3E1,4E0,3E0,4E0,5E0,4E0,4E0,8E0,1.1E1,7E0,2.8E1,1E1,1.7E1,3E0,3E0],"tree_param":{"num_deleted":"0","num_feature":"104","num_nodes":"45","size_leaf_vector":"1"}},{"base_weights":[5.5171967E0,-1.6571378E2,2.630985E2,-2.0662727E2,-4.1950096E1,1.7645612E2,5.9770905E2,-1.2705331E1,-1.8995856E2,-9.708014E1,2.9895752E1,1.1855812E2,2.96289E2,6.353314E2,1.3478772E1,-9.911308E0,-1.326496E2,-1.2602088E2,-5.763766E1,6.603906E0,4.689607E0,6.077967E1,1.3775092E2,1.7076721E2,2.3737648E1,1.9581945E1,3.4719513E1,-2.8694508E0,-7.739995E0,-3.2546449E0,-7.7982135E0,-3.5600598E0,-1.2204236E0,1.1686374E0,-1.5804163E0,7.7240305E0,-2.186812E-1,2.768006E0,7.840542E0,1.1826577E1,-2.3763185E0],"categories":[],"categories_nodes":[],"categories_segments":[],"categories_sizes":[],"default_left":[0,0,0,0,0,0,0,0,0,0,0,0,0,0,0,0,0,0,0,0,0,0,0,0,0,0,0,0,0,0,0,0,0,0,0,0,0,0,0,0,0],"id":31,"left_children":[1,3,5,7,9,11,13,-1,15,17,19,21,23,25,-1,-1,27,29,31,33,-1,35,37,39,-1,-1,-1,-1,-1,-1,-1,-1,-1,-1,-1,-1,-1,-1,-1,-1,-1],"loss_changes":[1.2040404E7,8.21763E5,3.054599E6,4.90745E4,1.6925861E5,5.754235E5,1.003235E5,0E0,1.871725E4,2.0132328E4,2.7657633E4,5.927225E4,5.4615925E5,1.5015E3,0E0,0E0,1.6121875E4,1.3564906E4,3.6705508E3,1.0350396E4,0E0,1.0445936E5,6.198525E4,2.6964825E5,0E0,0E0,0E0,0E0,0E0,0E0,0E0,0E0,0E0,0E0,0E0,0E0,0E0,0E0,0E0,0E0,0E0],"parents":[2147483647,0,0,1,1,2,2,3,3,4,4,5,5,6,6,8,8,9,9,10,10,11,11,12,12,13,13,16,16,17,17,18,18,19,19,21,21,22,22,23,23],"right_children":[2,4,6,8,10,12,14,-1,16,18,20,22,24,26,-1,-1,28,30,32,34,-1,36,38,40,-1,-1,-1,-1,-1,-1,-1,-1,-1,-1,-1,-1,-1,-1,-1,-1,-1],"split_conditions":[1.26999E3,4.81E2,2.94932E3,1.4421E2,9.15E2,2.04651E3,4.4457665E6,-1.2705331E1,3.7329E2,1.0768534E6,1.030976E7,1.53692E3,4.086299E6,2.9484315E6,1.3478772E1,-9.911308E0,3.9661E2,6.2758E2,6.4E2,3.8539662E6,4.689607E0,1.42208E3,1.768362E6,3.1672062E6,2.3737648E1,1.9581945E1,3.4719513E1,-2.8694508E0,-7.739995E0,-3.2546449E0,-7.7982135E0,-3.5600598E0,-1.2204236E0,1.1686374E0,-1.5804163E0,7.7240305E0,-2.186812E-1,2.768006E0,7.840542E0,1.1826577E1,-2.3763185E0],"split_indices":[2,2,2,2,2,2,3,0,2,3,3,2,3,3,0,0,2,2,2,3,0,2,3,3,0,0,0,0,0,0,0,0,0,0,0,0,0,0,0,0,0],"split_type":[0,0,0,0,0,0,0,0,0,0,0,0,0,0,0,0,0,0,0,0,0,0,0,0,0,0,0,0,0,0,0,0,0,0,0,0,0,0,0,0,0],"sum_hessian":[2.71E2,1.63E2,1.08E2,1.22E2,4.1E1,8.7E1,2.1E1,2.8E1,9.4E1,2.3E1,1.8E1,6E1,2.7E1,1.8E1,3E0,8E1,1.4E1,1.2E1,1.1E1,1.4E1,4E0,1.6E1,4.4E1,1.7E1,1E1,5E0,1.3E1,4E0,1E1,5E0,7E0,7E0,4E0,1E1,4E0,6E0,1E1,9E0,3.5E1,1.3E1,4E0],"tree_param":{"num_deleted":"0","num_feature":"104","num_nodes":"41","size_leaf_vector":"1"}},{"base_weights":[1.5329699E1,-1.6676399E2,2.4643811E2,-1.9116974E2,-1.3078902E1,1.3437505E2,5.1236346E2,-2.050514E2,-1.3664104E2,-3.0978113E1,2.8776941E0,9.7204544E1,2.5187793E2,4.0895218E2,3.5980633E1,-1.2047358E1,-9.373534E0,-7.3631775E-1,-7.7078524E0,1.3938866E0,-4.3755943E1,1.2651131E2,5.1408382E1,1.3170934E2,3.025544E2,2.0664809E2,4.8325662E2,-6.402817E0,-7.2257596E-1,3.7311285E0,7.359929E0,-4.2479153E0,4.5338073E0,9.798076E0,9.2333835E-1,2.3896042E1,9.230788E0,5.086011E0,1.3512317E1,3.24629E1,1.7834887E1],"categories":[],"categories_nodes":[],"categories_segments":[],"categories_sizes":[],"default_left":[0,0,0,0,0,0,0,0,0,0,0,0,0,0,0,0,0,0,0,0,0,0,0,0,0,0,0,0,0,0,0,0,0,0,0,0,0,0,0,0,0],"id":32,"left_children":[1,3,5,7,9,11,13,15,17,19,-1,21,23,25,-1,-1,-1,-1,-1,-1,27,29,31,33,35,37,39,-1,-1,-1,-1,-1,-1,-1,-1,-1,-1,-1,-1,-1,-1],"loss_changes":[1.2034861E7,5.97628E5,3.6860035E6,7.64405E4,3.0861146E4,3.68604E5,4.98692E5,2.29855E4,6.3929062E4,1.5508766E4,0E0,8.7445875E4,8.8034875E4,3.06003E5,0E0,0E0,0E0,0E0,0E0,0E0,3.7675383E4,3.4099938E4,1.6299328E5,5.4589875E4,2.0132312E5,3.2569562E4,1.67581E5,0E0,0E0,0E0,0E0,0E0,0E0,0E0,0E0,0E0,0E0,0E0,0E0,0E0,0E0],"parents":[2147483647,0,0,1,1,2,2,3,3,4,4,5,5,6,6,7,7,8,8,9,9,11,11,12,12,13,13,20,20,21,21,22,22,23,23,24,24,25,25,26,26],"right_children":[2,4,6,8,10,12,14,16,18,20,-1,22,24,26,-1,-1,-1,-1,-1,-1,28,30,32,34,36,38,40,-1,-1,-1,-1,-1,-1,-1,-1,-1,-1,-1,-1,-1,-1],"split_conditions":[1.193E3,9.112E2,2.985E3,3.6118E2,1.030976E7,2.04651E3,3.371E3,1.4421E2,5.1807734E5,9.259936E5,2.8776941E0,4.414708E6,2.4661E3,3.0016868E6,3.5980633E1,-1.2047358E1,-9.373534E0,-7.3631775E-1,-7.7078524E0,1.3938866E0,1.3085232E6,1.8241509E6,4.9090095E6,2.735841E6,2.16638E3,2.94932E3,3.373184E6,-6.402817E0,-7.2257596E-1,3.7311285E0,7.359929E0,-4.2479153E0,4.5338073E0,9.798076E0,9.2333835E-1,2.3896042E1,9.230788E0,5.086011E0,1.3512317E1,3.24629E1,1.7834887E1],"split_indices":[2,1,1,2,3,2,2,2,3,3,0,3,1,3,0,0,0,0,0,0,3,3,3,3,2,2,3,0,0,0,0,0,0,0,0,0,0,0,0,0,0],"split_type":[0,0,0,0,0,0,0,0,0,0,0,0,0,0,0,0,0,0,0,0,0,0,0,0,0,0,0,0,0,0,0,0,0,0,0,0,0,0,0,0,0],"sum_hessian":[2.84E2,1.59E2,1.25E2,1.37E2,2.2E1,8.9E1,3.6E1,1.07E2,3E1,1.8E1,4E0,6.9E1,2E1,2.6E1,1E1,3.1E1,7.6E1,4E0,2.6E1,3E0,1.5E1,4.1E1,2.8E1,7E0,1.3E1,8E0,1.8E1,3E0,1.2E1,1.3E1,2.8E1,6E0,2.2E1,4E0,3E0,4E0,9E0,4E0,4E0,6E0,1.2E1],"tree_param":{"num_deleted":"0","num_feature":"104","num_nodes":"41","size_leaf_vector":"1"}},{"base_weights":[1.8382357E1,-1.5059506E2,2.305302E2,-1.8875908E2,-6.794931E1,1.6224112E2,5.349831E2,-1.1249023E1,-8.750894E0,-9.179583E1,-9.367252E0,9.74708E1,2.6024054E2,2.9638763E1,1.458534E1,-5.414288E0,-6.3689533E1,1.4334062E1,-2.981835E0,6.952238E1,1.2905508E2,2.2409729E2,3.5180237E2,-7.7863693E-1,-5.192257E0,2.4227753E0,-2.2592087E-1,6.4455523E0,2.3145416E0,5.2111907E0,1.0873395E1,1.4250511E1,3.6885185E0,2.026342E1,9.182639E0],"categories":[],"categories_nodes":[],"categories_segments":[],"categories_sizes":[],"default_left":[0,0,0,0,0,0,0,0,0,0,0,0,0,0,0,0,0,0,0,0,0,0,0,0,0,0,0,0,0,0,0,0,0,0,0],"id":33,"left_children":[1,3,5,7,9,11,13,-1,-1,15,17,19,21,-1,-1,-1,23,25,-1,27,29,31,33,-1,-1,-1,-1,-1,-1,-1,-1,-1,-1,-1,-1],"loss_changes":[9.462792E6,4.5082575E5,2.3457285E6,1.039675E4,6.619508E4,5.9033725E5,1.223325E5,0E0,0E0,8.8613125E3,1.8726613E4,4.3991688E4,4.691675E4,0E0,0E0,0E0,2.7365227E4,7.2949546E3,0E0,4.094208E4,3.66105E4,2.5368038E5,6.483875E3,0E0,0E0,0E0,0E0,0E0,0E0,0E0,0E0,0E0,0E0,0E0,0E0],"parents":[2147483647,0,0,1,1,2,2,3,3,4,4,5,5,6,6,9,9,10,10,11,11,12,12,16,16,17,17,19,19,20,20,21,21,22,22],"right_children":[2,4,6,8,10,12,14,-1,-1,16,18,20,22,-1,-1,-1,24,26,-1,28,30,32,34,-1,-1,-1,-1,-1,-1,-1,-1,-1,-1,-1,-1],"split_conditions":[1.26999E3,3.7501E2,2.94932E3,1.4421E2,9.15E2,1.90318E3,3.4263322E6,-1.1249023E1,-8.750894E0,5.9383E2,1.21801E3,1.65707E3,5.111451E6,2.9638763E1,1.458534E1,-5.414288E0,7.8367E2,1.04537E3,-2.981835E0,1.423E3,4.9090095E6,3.373184E6,6.832312E6,-7.7863693E-1,-5.192257E0,2.4227753E0,-2.2592087E-1,6.4455523E0,2.3145416E0,5.2111907E0,1.0873395E1,1.4250511E1,3.6885185E0,2.026342E1,9.182639E0],"split_indices":[2,2,2,2,2,2,3,0,0,2,2,2,3,0,0,0,2,2,0,2,3,3,3,0,0,0,0,0,0,0,0,0,0,0,0],"split_type":[0,0,0,0,0,0,0,0,0,0,0,0,0,0,0,0,0,0,0,0,0,0,0,0,0,0,0,0,0,0,0,0,0,0,0],"sum_hessian":[2.62E2,1.46E2,1.16E2,9.9E1,4.7E1,9.6E1,2E1,2.3E1,7.6E1,3.3E1,1.4E1,5.9E1,3.7E1,1.5E1,5E0,1.9E1,1.4E1,1E1,4E0,3.3E1,2.6E1,2.9E1,8E0,7E0,7E0,3E0,7E0,8E0,2.5E1,2.2E1,4E0,2E1,9E0,5E0,3E0],"tree_param":{"num_deleted":"0","num_feature":"104","num_nodes":"35","size_leaf_vector":"1"}},{"base_weights":[1.8662365E1,-1.434892E2,2.3855856E2,-1.7354387E2,-2.9851301E1,1.3811642E2,4.649224E2,-9.967448E0,-7.579072E0,-6.1301994E1,1.7210493E1,9.0636345E1,2.21361E2,4.2508636E0,4.9894492E2,1.9880463E0,-8.14755E1,4.1246983E1,-2.6596239E0,1.1723851E2,4.221096E1,1.5054608E1,8.9961754E1,5.93898E2,3.4122342E2,-5.3041277E0,-1.5583967E0,3.7183151E0,9.7657245E-1,4.9393363E0,1.1315865E1,-7.1833315E0,4.1731935E0,1.0390406E1,-1.1950544E0,1.2345929E1,3.2341633E1,-6.678284E-1,2.1957064E1],"categories":[],"categories_nodes":[],"categories_segments":[],"categories_sizes":[],"default_left":[0,0,0,0,0,0,0,0,0,0,0,0,0,0,0,0,0,0,0,0,0,0,0,0,0,0,0,0,0,0,0,0,0,0,0,0,0,0,0],"id":34,"left_children":[1,3,5,7,9,11,13,-1,-1,15,17,19,21,-1,23,-1,25,27,-1,29,31,-1,33,35,37,-1,-1,-1,-1,-1,-1,-1,-1,-1,-1,-1,-1,-1,-1],"loss_changes":[9.411893E6,5.139525E5,2.482271E6,3.779175E4,4.9899195E4,2.9218075E5,3.97042E5,0E0,0E0,4.401542E4,2.5885393E4,6.2038656E4,2.6625862E5,0E0,2.616085E5,0E0,1.7738273E4,6.45876E3,0E0,4.4061906E4,1.6535078E5,0E0,1.6598669E5,1.70895E5,4.919415E5,0E0,0E0,0E0,0E0,0E0,0E0,0E0,0E0,0E0,0E0,0E0,0E0,0E0,0E0],"parents":[2147483647,0,0,1,1,2,2,3,3,4,4,5,5,6,6,9,9,10,10,11,11,12,12,14,14,16,16,17,17,19,19,20,20,22,22,23,23,24,24],"right_children":[2,4,6,8,10,12,14,-1,-1,16,18,20,22,-1,24,-1,26,28,-1,30,32,-1,34,36,38,-1,-1,-1,-1,-1,-1,-1,-1,-1,-1,-1,-1,-1,-1],"split_conditions":[1.26999E3,5.3043E2,2.985E3,2.273E2,9.15E2,2.146E3,2.3194725E6,-9.967448E0,-7.579072E0,5.9420694E5,1.31245E3,1.80003E3,2.32044E3,4.2508636E0,3.4263322E6,1.9880463E0,1.3085232E6,1.04365E3,-2.6596239E0,1.78323E3,1.83028E3,1.5054608E1,3.3715108E6,3.21363E3,3.9791038E6,-5.3041277E0,-1.5583967E0,3.7183151E0,9.7657245E-1,4.9393363E0,1.1315865E1,-7.1833315E0,4.1731935E0,1.0390406E1,-1.1950544E0,1.2345929E1,3.2341633E1,-6.678284E-1,2.1957064E1],"split_indices":[2,2,1,1,2,1,3,0,0,3,0,0,0,0,3,0,3,2,0,0,0,0,3,1,3,0,0,0,0,0,0,0,0,0,0,0,0,0,0],"split_type":[0,0,0,0,0,0,0,0,0,0,0,0,0,0,0,0,0,0,0,0,0,0,0,0,0,0,0,0,0,0,0,0,0,0,0,0,0,0,0],"sum_hessian":[2.62E2,1.51E2,1.11E2,1.19E2,3.2E1,7.8E1,3.3E1,5.1E1,6.8E1,1.9E1,1.3E1,5.1E1,2.7E1,3E0,3E1,3E0,1.6E1,1E1,3E0,3.2E1,1.9E1,1.6E1,1.1E1,1.7E1,1.3E1,1E1,6E0,3E0,7E0,2.9E1,3E0,3E0,1.6E1,5E0,6E0,3E0,1.4E1,3E0,1E1],"tree_param":{"num_deleted":"0","num_feature":"104","num_nodes":"39","size_leaf_vector":"1"}},{"base_weights":[7.7104735E0,-1.2337064E2,2.4066568E2,-1.659324E2,4.2187514E0,1.1080979E2,4.0046713E2,-9.518046E0,-1.401414E2,-2.8121405E1,4.2518044E1,1.2923764E2,8.45762E1,3.2405307E2,3.1393482E1,-7.19525E0,-3.8633409E0,3.5956857E0,-4.503136E1,8.380311E1,-3.5045578E1,8.480855E1,1.771295E2,1.22830414E2,5.2990425E1,1.5329063E2,3.8622644E2,-5.170665E0,-2.1417978E-1,2.758014E0,6.2164073E0,4.1897125E0,-6.155416E0,5.3606324E0,2.5245965E0,1.0584562E1,3.6290061E0,-2.6270905E-1,8.575946E0,4.324407E0,-1.2167533E-1,1.3051598E1,-1.4102662E0,2.1920698E1,9.46997E0],"categories":[],"categories_nodes":[],"categories_segments":[],"categories_sizes":[],"default_left":[0,0,0,0,0,0,0,0,0,0,0,0,0,0,0,0,0,0,0,0,0,0,0,0,0,0,0,0,0,0,0,0,0,0,0,0,0,0,0,0,0,0,0,0,0],"id":35,"left_children":[1,3,5,7,9,11,13,-1,15,17,19,21,23,25,-1,-1,-1,-1,27,29,31,33,35,37,39,41,43,-1,-1,-1,-1,-1,-1,-1,-1,-1,-1,-1,-1,-1,-1,-1,-1,-1,-1],"loss_changes":[8.396563E6,9.564555E5,2.009989E6,5.648725E4,5.6932895E4,1.61415625E4,5.61114E5,0E0,4.972125E3,4.552811E4,7.018353E4,5.0939438E4,2.4906672E4,3.123855E5,0E0,0E0,0E0,0E0,5.1893555E4,9.392555E3,9.4038664E4,8.425633E3,3.5223156E4,6.949989E4,2.9915668E4,2.224632E5,1.7376275E5,0E0,0E0,0E0,0E0,0E0,0E0,0E0,0E0,0E0,0E0,0E0,0E0,0E0,0E0,0E0,0E0,0E0,0E0],"parents":[2147483647,0,0,1,1,2,2,3,3,4,4,5,5,6,6,8,8,9,9,10,10,11,11,12,12,13,13,18,18,19,19,20,20,21,21,22,22,23,23,24,24,25,25,26,26],"right_children":[2,4,6,8,10,12,14,-1,16,18,20,22,24,26,-1,-1,-1,-1,28,30,32,34,36,38,40,42,44,-1,-1,-1,-1,-1,-1,-1,-1,-1,-1,-1,-1,-1,-1,-1,-1,-1,-1],"split_conditions":[1.518E3,5.5128E2,2.4661E3,2.4533E2,1.18106E3,2.9893892E6,3.64373E3,-9.518046E0,6.4349E2,8.1765925E5,1.423E3,1.93629E3,1.87651E3,2.9596672E6,3.1393482E1,-7.19525E0,-3.8633409E0,3.5956857E0,1.8828484E6,6.1003785E6,3.9791038E6,1.84728E3,2.1166E3,3.2579515E6,4.4890805E6,3.28366E3,6.832312E6,-5.170665E0,-2.1417978E-1,2.758014E0,6.2164073E0,4.1897125E0,-6.155416E0,5.3606324E0,2.5245965E0,1.0584562E1,3.6290061E0,-2.6270905E-1,8.575946E0,4.324407E0,-1.2167533E-1,1.3051598E1,-1.4102662E0,2.1920698E1,9.46997E0],"split_indices":[2,2,1,1,2,3,2,0,1,3,2,1,1,3,0,0,0,0,3,3,3,1,2,3,3,1,3,0,0,0,0,0,0,0,0,0,0,0,0,0,0,0,0,0,0],"split_type":[0,0,0,0,0,0,0,0,0,0,0,0,0,0,0,0,0,0,0,0,0,0,0,0,0,0,0,0,0,0,0,0,0,0,0,0,0,0,0,0,0,0,0,0,0],"sum_hessian":[2.73E2,1.75E2,9.8E1,1.31E2,4.4E1,5.5E1,4.3E1,6.4E1,6.7E1,2.4E1,2E1,3E1,2.5E1,3.4E1,9E0,6.2E1,5E0,3E0,2.1E1,1.3E1,7E0,1.7E1,1.3E1,1E1,1.5E1,1E1,2.4E1,8E0,1.3E1,9E0,4E0,3E0,4E0,9E0,8E0,9E0,4E0,3E0,7E0,9E0,6E0,6E0,4E0,1.8E1,6E0],"tree_param":{"num_deleted":"0","num_feature":"104","num_nodes":"45","size_leaf_vector":"1"}},{"base_weights":[-2.9879692E0,-1.3333737E2,1.925633E2,-1.5370132E2,-2.356229E1,1.2581897E2,3.8353525E2,-1.6543774E2,-1.0747642E2,-3.7382904E1,1.5520172E0,9.978693E1,2.0283058E2,2.8942456E2,2.7502752E1,-9.924925E0,-7.6617584E0,-1.3914632E0,-6.086141E0,1.2340381E0,-5.2545982E1,1.0732456E2,-5.3110474E-1,2.4646925E2,-1.6670716E0,2.8270777E1,2.0746056E2,-4.877029E0,-1.0960155E0,4.508954E0,8.419578E0,6.780693E0,1.5525332E1,1.2643428E1,-1.6663209E-1],"categories":[],"categories_nodes":[],"categories_segments":[],"categories_sizes":[],"default_left":[0,0,0,0,0,0,0,0,0,0,0,0,0,0,0,0,0,0,0,0,0,0,0,0,0,0,0,0,0,0,0,0,0,0,0],"id":36,"left_children":[1,3,5,7,9,11,13,15,17,19,-1,21,23,25,-1,-1,-1,-1,-1,-1,27,29,-1,31,-1,-1,33,-1,-1,-1,-1,-1,-1,-1,-1],"loss_changes":[7.0099325E6,3.652285E5,1.3538365E6,5.762875E4,2.1535709E4,1.4615612E5,2.79597E5,1.355675E4,3.178775E4,2.2000555E4,0E0,5.440225E4,2.1434231E5,3.35125E5,0E0,0E0,0E0,0E0,0E0,0E0,2.2665691E4,4.7635938E4,0E0,7.857206E4,0E0,0E0,1.6356162E5,0E0,0E0,0E0,0E0,0E0,0E0,0E0,0E0],"parents":[2147483647,0,0,1,1,2,2,3,3,4,4,5,5,6,6,7,7,8,8,9,9,11,11,12,12,13,13,20,20,21,21,23,23,26,26],"right_children":[2,4,6,8,10,12,14,16,18,20,-1,22,24,26,-1,-1,-1,-1,-1,-1,28,30,-1,32,-1,-1,34,-1,-1,-1,-1,-1,-1,-1,-1],"split_conditions":[1.33607E3,9.112E2,2.985E3,4.7447E2,1.030976E7,2.07994E3,3.371E3,1.4421E2,5.1807734E5,7.8367E2,1.5520172E0,7.417256E6,2.5555E3,2.60167E3,2.7502752E1,-9.924925E0,-7.6617584E0,-1.3914632E0,-6.086141E0,1.2340381E0,2.9098115E6,4.9090095E6,-5.3110474E-1,2.53078E3,-1.6670716E0,2.8270777E1,3.143E3,-4.877029E0,-1.0960155E0,4.508954E0,8.419578E0,6.780693E0,1.5525332E1,1.2643428E1,-1.6663209E-1],"split_indices":[2,1,1,1,3,2,2,2,3,2,0,3,0,0,0,0,0,0,0,0,3,3,0,1,0,0,2,0,0,0,0,0,0,0,0],"split_type":[0,0,0,0,0,0,0,0,0,0,0,0,0,0,0,0,0,0,0,0,0,0,0,0,0,0,0,0,0,0,0,0,0,0,0],"sum_hessian":[2.73E2,1.64E2,1.09E2,1.38E2,2.6E1,8.2E1,2.7E1,1.08E2,3E1,2.1E1,5E0,6.3E1,1.9E1,1.9E1,8E0,2.5E1,8.3E1,5E0,2.5E1,4E0,1.7E1,5.9E1,4E0,1.6E1,3E0,3E0,1.6E1,6E0,1.1E1,4.8E1,1.1E1,7E0,9E0,1.3E1,3E0],"tree_param":{"num_deleted":"0","num_feature":"104","num_nodes":"35","size_leaf_vector":"1"}},{"base_weights":[6.3290596E-1,-1.2877692E2,2.0084592E2,-1.4695686E2,-1.6604017E1,1.0744659E2,3.7947107E2,-1.6066826E2,-1.0407436E2,-2.7822037E1,1.5794433E0,1.1809707E2,-6.8002405E0,4.3762228E2,2.4292491E2,-9.79838E0,-7.359381E0,-1.8275408E0,-1.13482704E2,-6.4921E0,-4.5256715E0,8.5555305E1,2.3053098E2,-3.228624E0,2.6336029E0,2.9959598E2,2.8675415E1,-5.716269E0,3.6153253E2,-6.1262374E0,-2.0075376E0,-1.739777E0,1.3080391E0,5.822582E0,2.8517873E0,1.4220328E1,3.8336816E0,1.163405E1,2.043566E1,2.2509726E1,5.7995515E0],"categories":[],"categories_nodes":[],"categories_segments":[],"categories_sizes":[],"default_left":[0,0,0,0,0,0,0,0,0,0,0,0,0,0,0,0,0,0,0,0,0,0,0,0,0,0,0,0,0,0,0,0,0,0,0,0,0,0,0,0,0],"id":37,"left_children":[1,3,5,7,9,11,13,15,17,19,-1,21,23,25,27,-1,-1,-1,29,31,-1,33,35,-1,-1,37,-1,-1,39,-1,-1,-1,-1,-1,-1,-1,-1,-1,-1,-1,-1],"loss_changes":[6.995528E6,3.32005E5,1.727675E6,6.618325E4,1.3853957E4,8.719475E4,1.79542E5,2.1121E4,1.9357625E4,2.6156447E4,0E0,2.1809875E5,2.74521E4,2.783195E5,5.921762E5,0E0,0E0,0E0,1.62988125E4,1.5697301E4,0E0,3.9177844E4,9.4241625E4,0E0,0E0,7.122125E3,0E0,0E0,1.6548325E5,0E0,0E0,0E0,0E0,0E0,0E0,0E0,0E0,0E0,0E0,0E0,0E0],"parents":[2147483647,0,0,1,1,2,2,3,3,4,4,5,5,6,6,7,7,8,8,9,9,11,11,12,12,13,13,14,14,18,18,19,19,21,21,22,22,25,25,28,28],"right_children":[2,4,6,8,10,12,14,16,18,20,-1,22,24,26,28,-1,-1,-1,30,32,-1,34,36,-1,-1,38,-1,-1,40,-1,-1,-1,-1,-1,-1,-1,-1,-1,-1,-1,-1],"split_conditions":[1.33607E3,9.112E2,2.26911E3,3.6118E2,1.030976E7,2.28979E3,3.4263322E6,1.3957E2,5.1807734E5,1.33451E3,1.5794433E0,2.146E3,2.07994E3,3.0016868E6,4.086299E6,-9.79838E0,-7.359381E0,-1.8275408E0,6.9630425E6,2.2981748E6,-4.5256715E0,2.9893892E6,2.159E3,-3.228624E0,2.6336029E0,4.14275E3,2.8675415E1,-5.716269E0,3.971E3,-6.1262374E0,-2.0075376E0,-1.739777E0,1.3080391E0,5.822582E0,2.8517873E0,1.4220328E1,3.8336816E0,1.163405E1,2.043566E1,2.2509726E1,5.7995515E0],"split_indices":[2,1,2,2,3,0,3,2,3,0,0,1,2,3,3,0,0,0,3,3,0,3,2,0,0,1,0,0,1,0,0,0,0,0,0,0,0,0,0,0,0],"split_type":[0,0,0,0,0,0,0,0,0,0,0,0,0,0,0,0,0,0,0,0,0,0,0,0,0,0,0,0,0,0,0,0,0,0,0,0,0,0,0,0,0],"sum_hessian":[2.68E2,1.63E2,1.05E2,1.4E2,2.3E1,7E1,3.5E1,1.04E2,3.6E1,1.9E1,4E0,6.4E1,6E0,2.3E1,1.2E1,2.5E1,7.9E1,5E0,3.1E1,1.5E1,4E0,5.1E1,1.3E1,3E0,3E0,1.3E1,1E1,3E0,9E0,2.7E1,4E0,8E0,7E0,2.3E1,2.8E1,9E0,4E0,1E1,3E0,6E0,3E0],"tree_param":{"num_deleted":"0","num_feature":"104","num_nodes":"41","size_leaf_vector":"1"}},{"base_weights":[1.2730322E1,-1.306889E2,1.8425882E2,-1.4855612E2,-5.0085743E1,9.080607E1,3.4214893E2,-9.184816E0,-6.8872476E0,2.8798065E-1,-6.247645E1,5.183129E1,1.3046817E2,2.8944882E2,2.748529E1,-6.3580856E0,-3.7443787E1,6.650975E1,-2.2439005E0,9.835415E1,1.1150923E1,1.506621E2,3.6413016E2,-7.6526725E-1,-3.958489E0,2.2050164E0,6.9715104E0,7.0630107E0,-8.7277764E-1,1.1962307E1,4.122273E0,2.1015043E1,3.3310742E0],"categories":[],"categories_nodes":[],"categories_segments":[],"categories_sizes":[],"default_left":[0,0,0,0,0,0,0,0,0,0,0,0,0,0,0,0,0,0,0,0,0,0,0,0,0,0,0,0,0,0,0,0,0],"id":38,"left_children":[1,3,5,7,9,11,13,-1,-1,-1,15,17,19,21,-1,-1,23,25,-1,27,-1,29,31,-1,-1,-1,-1,-1,-1,-1,-1,-1,-1],"loss_changes":[6.5924095E6,2.0282175E5,1.7690732E6,1.9906E4,1.973482E4,1.1381175E5,3.3311E5,0E0,0E0,0E0,3.2481203E4,6.11861E4,9.100744E4,3.39001E5,0E0,0E0,1.5415754E4,5.2678906E4,0E0,1.515339E5,0E0,7.091881E4,3.7306875E5,0E0,0E0,0E0,0E0,0E0,0E0,0E0,0E0,0E0,0E0],"parents":[2147483647,0,0,1,1,2,2,3,3,4,4,5,5,6,6,10,10,11,11,12,12,13,13,16,16,17,17,19,19,21,21,22,22],"right_children":[2,4,6,8,10,12,14,-1,-1,-1,16,18,20,22,-1,-1,24,26,-1,28,-1,30,32,-1,-1,-1,-1,-1,-1,-1,-1,-1,-1],"split_conditions":[1.19E3,5.3043E2,2.1505E3,1.3957E2,6.851E2,1.65707E3,3.64373E3,-9.184816E0,-6.8872476E0,2.8798065E-1,6.8104E2,1.79514E3,4.9090095E6,3.0016868E6,2.748529E1,-6.3580856E0,1.25196E3,6.1003785E6,-2.2439005E0,3.5091582E6,1.1150923E1,2.50933E3,6.832312E6,-7.6526725E-1,-3.958489E0,2.2050164E0,6.9715104E0,7.0630107E0,-8.7277764E-1,1.1962307E1,4.122273E0,2.1015043E1,3.3310742E0],"split_indices":[2,2,2,2,0,2,2,0,0,0,2,0,3,3,0,0,0,3,0,3,0,0,3,0,0,0,0,0,0,0,0,0,0],"split_type":[0,0,0,0,0,0,0,0,0,0,0,0,0,0,0,0,0,0,0,0,0,0,0,0,0,0,0,0,0,0,0,0,0],"sum_hessian":[2.66E2,1.45E2,1.21E2,1.18E2,2.7E1,7.7E1,4.4E1,2.4E1,9.4E1,5E0,2.2E1,4E1,3.7E1,3.7E1,7E0,5E0,1.7E1,3.5E1,5E0,2.9E1,8E0,1.4E1,2.3E1,1.2E1,5E0,2.8E1,7E0,2.1E1,8E0,5E0,9E0,1.9E1,4E0],"tree_param":{"num_deleted":"0","num_feature":"104","num_nodes":"33","size_leaf_vector":"1"}},{"base_weights":[-1.4740961E0,-7.536468E1,2.6429858E2,-1.3048749E2,3.2807713E1,1.3265076E2,3.2165784E2,-1.4411758E2,-7.967208E1,-2.1379704E1,4.6736347E1,9.952861E0,7.7325554E1,4.6443314E2,2.8162497E2,-8.432375E0,-6.5359244E0,-6.504634E1,-6.026257E0,2.6257997E0,-5.3025047E1,5.622736E1,-3.065874E0,9.3014366E1,1.1347169E0,1.1799601E1,2.88383E1,1.5715887E2,1.8830782E1,-4.168941E0,1.247967E0,-3.4172356E0,-4.5647278E-1,3.4327168E0,1.8336736E-1,1.6085217E0,6.762771E0,1.0191609E1,3.401573E0],"categories":[],"categories_nodes":[],"categories_segments":[],"categories_sizes":[],"default_left":[0,0,0,0,0,0,0,0,0,0,0,0,0,0,0,0,0,0,0,0,0,0,0,0,0,0,0,0,0,0,0,0,0,0,0,0,0,0,0],"id":39,"left_children":[1,3,5,7,9,11,13,15,17,19,21,-1,23,25,27,-1,-1,29,-1,-1,31,33,-1,35,-1,-1,-1,37,-1,-1,-1,-1,-1,-1,-1,-1,-1,-1,-1],"loss_changes":[5.145463E6,1.2266481E6,3.8775125E5,8.2714E4,5.383218E4,5.4412844E4,9.21165E4,1.27945E4,1.0682969E4,3.7861484E4,6.0877984E4,0E0,8.174289E3,4.3517875E4,3.3097475E5,0E0,0E0,4.3331773E4,0E0,0E0,6.773172E3,3.371264E4,0E0,1.8779781E4,0E0,0E0,0E0,5.269097E4,0E0,0E0,0E0,0E0,0E0,0E0,0E0,0E0,0E0,0E0,0E0],"parents":[2147483647,0,0,1,1,2,2,3,3,4,4,5,5,6,6,7,7,8,8,9,9,10,10,12,12,13,13,14,14,17,17,20,20,21,21,23,23,27,27],"right_children":[2,4,6,8,10,12,14,16,18,20,22,-1,24,26,28,-1,-1,30,-1,-1,32,34,-1,36,-1,-1,-1,38,-1,-1,-1,-1,-1,-1,-1,-1,-1,-1,-1],"split_conditions":[2.0885E3,9.785E2,2.53078E3,4.7447E2,1.37155E3,2.09663E3,2.32269E3,1.8837E2,7.1616E2,1.23799E3,1.97616E3,9.952861E0,2.28979E3,2.19296E3,3.37789E3,-8.432375E0,-6.5359244E0,6.381E2,-6.026257E0,2.6257997E0,1.30977E3,1.80622E3,-3.065874E0,2.19653E3,1.1347169E0,1.1799601E1,2.88383E1,2.92099E3,1.8830782E1,-4.168941E0,1.247967E0,-3.4172356E0,-4.5647278E-1,3.4327168E0,1.8336736E-1,1.6085217E0,6.762771E0,1.0191609E1,3.401573E0],"split_indices":[1,1,1,1,1,0,0,1,0,1,1,0,0,0,1,0,0,0,0,0,1,0,0,0,0,0,0,0,0,0,0,0,0,0,0,0,0,0,0],"split_type":[0,0,0,0,0,0,0,0,0,0,0,0,0,0,0,0,0,0,0,0,0,0,0,0,0,0,0,0,0,0,0,0,0,0,0,0,0,0,0],"sum_hessian":[2.6E2,2.04E2,5.6E1,1.35E2,6.9E1,1.8E1,3.8E1,1.05E2,3E1,1.4E1,5.5E1,7E0,1.1E1,6E0,3.2E1,3.3E1,7.2E1,2.4E1,6E0,4E0,1E1,5.1E1,4E0,8E0,3E0,3E0,3E0,1.5E1,1.7E1,2E1,4E0,7E0,3E0,4.1E1,1E1,4E0,4E0,9E0,6E0],"tree_param":{"num_deleted":"0","num_feature":"104","num_nodes":"39","size_leaf_vector":"1"}},{"base_weights":[6.339446E0,-8.839315E1,2.0649767E2,-1.2580649E2,1.5887254E1,1.1713505E2,3.5188583E2,-7.4923816E0,-1.0331406E2,-1.0619897E1,4.28192E1,1.3405852E2,-2.311846E0,1.1896027E0,3.8390213E2,-1.1111999E2,-6.807257E1,1.9451452E0,-2.426356E1,7.135998E1,-4.076566E1,1.0764746E2,2.4534926E2,4.2009653E2,2.180722E0,-4.437655E0,-5.9762716E0,-4.4860897E0,-8.518448E-1,-3.8053372E0,3.547115E-1,-9.733124E-2,4.2613316E0,1.9655304E-1,-3.7635484E0,-2.1843873E-1,5.9624166E0,1.4383405E1,6.0266848E0,1.2906626E1,2.3193867E1],"categories":[],"categories_nodes":[],"categories_segments":[],"categories_sizes":[],"default_left":[0,0,0,0,0,0,0,0,0,0,0,0,0,0,0,0,0,0,0,0,0,0,0,0,0,0,0,0,0,0,0,0,0,0,0,0,0,0,0,0,0],"id":40,"left_children":[1,3,5,7,9,11,13,-1,15,17,19,21,-1,-1,23,25,27,-1,29,31,33,35,37,39,-1,-1,-1,-1,-1,-1,-1,-1,-1,-1,-1,-1,-1,-1,-1,-1,-1],"loss_changes":[5.1947445E6,7.276736E5,1.1021015E6,5.86005E4,3.6149188E4,1.6102844E5,3.375095E5,0E0,1.2792625E4,1.8511404E4,6.254847E4,1.2349331E5,0E0,0E0,3.51173E5,4.84E2,1.6149531E4,0E0,3.467936E4,1.9479727E4,1.10918125E4,5.6398844E4,1.286475E4,7.17125E4,0E0,0E0,0E0,0E0,0E0,0E0,0E0,0E0,0E0,0E0,0E0,0E0,0E0,0E0,0E0,0E0,0E0],"parents":[2147483647,0,0,1,1,2,2,3,3,4,4,5,5,6,6,8,8,9,9,10,10,11,11,14,14,15,15,16,16,18,18,19,19,20,20,21,21,22,22,23,23],"right_children":[2,4,6,8,10,12,14,-1,16,18,20,22,-1,-1,24,26,28,-1,30,32,34,36,38,40,-1,-1,-1,-1,-1,-1,-1,-1,-1,-1,-1,-1,-1,-1,-1,-1,-1],"split_conditions":[1.78479E3,7.6605E2,2.985E3,2.4533E2,1.19E3,2.50933E3,2.3194725E6,-7.4923816E0,5.35E2,7.943E2,1.63584E3,2.53078E3,-2.311846E0,1.1896027E0,5.680094E6,9.003138E5,1.104059E6,1.9451452E0,8.9E2,1.29015E3,1.65833E3,1.53101E3,2.32044E3,3.28366E3,2.180722E0,-4.437655E0,-5.9762716E0,-4.4860897E0,-8.518448E-1,-3.8053372E0,3.547115E-1,-9.733124E-2,4.2613316E0,1.9655304E-1,-3.7635484E0,-2.1843873E-1,5.9624166E0,1.4383405E1,6.0266848E0,1.2906626E1,2.3193867E1],"split_indices":[1,1,1,1,2,0,3,0,1,0,0,1,0,0,3,3,3,0,2,0,0,2,0,1,0,0,0,0,0,0,0,0,0,0,0,0,0,0,0,0,0],"split_type":[0,0,0,0,0,0,0,0,0,0,0,0,0,0,0,0,0,0,0,0,0,0,0,0,0,0,0,0,0,0,0,0,0,0,0,0,0,0,0,0,0],"sum_hessian":[2.72E2,1.85E2,8.7E1,1.36E2,4.9E1,5.5E1,3.2E1,6.3E1,7.3E1,2.5E1,2.4E1,5E1,5E0,3E0,2.9E1,5.8E1,1.5E1,5E0,2E1,1.8E1,6E0,4.2E1,8E0,2.6E1,3E0,1.9E1,3.9E1,1E1,5E0,7E0,1.3E1,3E0,1.5E1,3E0,3E0,4E0,3.8E1,5E0,3E0,7E0,1.9E1],"tree_param":{"num_deleted":"0","num_feature":"104","num_nodes":"41","size_leaf_vector":"1"}},{"base_weights":[9.6012235E-1,-9.485382E1,1.8520715E2,-1.2065687E2,1.3481477E0,9.767862E1,2.6870944E2,-1.3651865E2,-9.572139E1,2.1545023E1,-5.7357605E1,7.4533806E1,1.5704445E2,2.3686095E2,2.4124748E1,-7.6452737E0,-6.0185075E0,-8.938442E1,-7.8670015E0,-4.324519E1,5.2862877E1,-6.975792E0,-2.2160993E0,8.369529E0,6.059753E1,9.0349045E0,3.228131E0,2.588122E2,3.1009054E0,-4.9728937E0,-9.514942E-1,-5.7461E-1,-3.1249244E0,4.0420127E-1,4.102089E0,3.596663E0,-3.7905717E0,7.076966E-2,4.184711E0,7.7000804E0,1.5148061E1],"categories":[],"categories_nodes":[],"categories_segments":[],"categories_sizes":[],"default_left":[0,0,0,0,0,0,0,0,0,0,0,0,0,0,0,0,0,0,0,0,0,0,0,0,0,0,0,0,0,0,0,0,0,0,0,0,0,0,0,0,0],"id":41,"left_children":[1,3,5,7,9,11,13,15,17,19,21,23,25,27,-1,-1,-1,29,-1,31,33,-1,35,-1,37,-1,-1,39,-1,-1,-1,-1,-1,-1,-1,-1,-1,-1,-1,-1,-1],"loss_changes":[4.6957275E6,4.3456612E5,6.3885675E5,4.1514E4,4.6291336E4,5.1499375E4,1.9891825E5,3.29375E3,8.193375E3,6.1129688E4,4.4994105E4,3.5149266E4,1.4584031E4,1.4514575E5,0E0,0E0,0E0,3.6377812E4,0E0,5.39525E3,2.5468727E4,0E0,4.3652688E4,0E0,4.3622695E4,0E0,0E0,1.2455325E5,0E0,0E0,0E0,0E0,0E0,0E0,0E0,0E0,0E0,0E0,0E0,0E0,0E0],"parents":[2147483647,0,0,1,1,2,2,3,3,4,4,5,5,6,6,7,7,8,8,9,9,10,10,11,11,12,12,13,13,17,17,19,19,20,20,22,22,24,24,27,27],"right_children":[2,4,6,8,10,12,14,16,18,20,22,24,26,28,-1,-1,-1,30,-1,32,34,-1,36,-1,38,-1,-1,40,-1,-1,-1,-1,-1,-1,-1,-1,-1,-1,-1,-1,-1],"split_conditions":[1.518E3,9.112E2,2.04651E3,3.0622E2,1.56825E3,4.5012975E6,3.89017E3,1.9045E2,6.4E2,9.15E2,1.5977E3,1.54439E3,2.34315E3,4.12746E3,2.4124748E1,-7.6452737E0,-6.0185075E0,6.0159E2,-7.8670015E0,8.0746E2,1.37155E3,-6.975792E0,1.63285E3,8.369529E0,1.62601E3,9.0349045E0,3.228131E0,3.0016868E6,3.1009054E0,-4.9728937E0,-9.514942E-1,-5.7461E-1,-3.1249244E0,4.0420127E-1,4.102089E0,3.596663E0,-3.7905717E0,7.076966E-2,4.184711E0,7.7000804E0,1.5148061E1],"split_indices":[2,1,2,1,0,3,2,1,2,2,0,2,1,1,0,0,0,0,0,2,1,0,0,0,2,0,0,3,0,0,0,0,0,0,0,0,0,0,0,0,0],"split_type":[0,0,0,0,0,0,0,0,0,0,0,0,0,0,0,0,0,0,0,0,0,0,0,0,0,0,0,0,0,0,0,0,0,0,0,0,0,0,0,0,0],"sum_hessian":[2.64E2,1.74E2,9E1,1.37E2,3.7E1,4.5E1,4.5E1,8.1E1,5.6E1,2.8E1,9E0,3.4E1,1.1E1,4.1E1,4E0,3.6E1,4.5E1,5.3E1,3E0,9E0,1.9E1,3E0,6E0,3E0,3.1E1,8E0,3E0,3.6E1,5E0,4.6E1,7E0,4E0,5E0,8E0,1.1E1,3E0,3E0,9E0,2.2E1,1.2E1,2.4E1],"tree_param":{"num_deleted":"0","num_feature":"104","num_nodes":"41","size_leaf_vector":"1"}},{"base_weights":[4.994819E0,-8.907219E1,1.5440039E2,-1.13684814E2,-5.8399725E-1,8.081403E1,3.24343E2,-1.25623924E2,-7.931241E1,1.6687681E1,-4.774045E0,9.229856E1,-7.4491057E0,2.4710762E2,2.4713293E1,-7.226932E0,-5.6806307E0,3.095459E-1,-8.986405E1,-1.0352859E1,1.02483475E2,5.9684067E1,1.4258313E2,2.8734384E2,1.8370631E0,-4.996592E0,-1.3951846E0,1.4328322E-1,-4.1885576E0,2.7684596E0,6.787773E0,4.296629E0,1.6021203E0,9.888698E0,2.6257102E0,5.9022408E0,1.7573439E1],"categories":[],"categories_nodes":[],"categories_segments":[],"categories_sizes":[],"default_left":[0,0,0,0,0,0,0,0,0,0,0,0,0,0,0,0,0,0,0,0,0,0,0,0,0,0,0,0,0,0,0,0,0,0,0,0,0],"id":42,"left_children":[1,3,5,7,9,11,13,15,17,19,-1,21,-1,23,-1,-1,-1,-1,25,27,29,31,33,35,-1,-1,-1,-1,-1,-1,-1,-1,-1,-1,-1,-1,-1],"loss_changes":[3.8926938E6,3.7018112E5,1.3118728E6,4.461675E4,6.3876445E4,2.1432244E5,2.97833E5,5.616E3,3.3937734E4,7.761983E4,0E0,1.112105E5,0E0,1.9258688E5,0E0,0E0,0E0,0E0,1.7797062E4,2.5472574E4,5.0240156E3,3.0621922E4,1.2880144E5,1.7563662E5,0E0,0E0,0E0,0E0,0E0,0E0,0E0,0E0,0E0,0E0,0E0,0E0,0E0],"parents":[2147483647,0,0,1,1,2,2,3,3,4,4,5,5,6,6,7,7,8,8,9,9,11,11,13,13,18,18,19,19,20,20,21,21,22,22,23,23],"right_children":[2,4,6,8,10,12,14,16,18,20,-1,22,-1,24,-1,-1,-1,-1,26,28,30,32,34,36,-1,-1,-1,-1,-1,-1,-1,-1,-1,-1,-1,-1,-1],"split_conditions":[1.518E3,9.112E2,3.07456E3,3.6118E2,1.423E3,2.96585E3,4.375E3,1.9045E2,5.1807734E5,1.26999E3,-4.774045E0,2.146E3,-7.4491057E0,3.847E3,2.4713293E1,-7.226932E0,-5.6806307E0,3.095459E-1,6.9630425E6,1.33451E3,1.39219E3,1.7992E3,2.32044E3,3.0016868E6,1.8370631E0,-4.996592E0,-1.3951846E0,1.4328322E-1,-4.1885576E0,2.7684596E0,6.787773E0,4.296629E0,1.6021203E0,9.888698E0,2.6257102E0,5.9022408E0,1.7573439E1],"split_indices":[2,1,1,2,2,1,1,1,3,2,0,1,0,0,0,0,0,0,3,0,0,0,0,3,0,0,0,0,0,0,0,0,0,0,0,0,0],"split_type":[0,0,0,0,0,0,0,0,0,0,0,0,0,0,0,0,0,0,0,0,0,0,0,0,0,0,0,0,0,0,0,0,0,0,0,0,0],"sum_hessian":[2.75E2,1.69E2,1.06E2,1.32E2,3.7E1,7.5E1,3.1E1,9.6E1,3.6E1,3.2E1,5E0,7.2E1,3E0,2.3E1,8E0,3.3E1,6.3E1,4E0,3.2E1,2.5E1,7E0,4.5E1,2.7E1,1.9E1,4E0,2.7E1,5E0,2.2E1,3E0,4E0,3E0,2.2E1,2.3E1,1.6E1,1.1E1,6E0,1.3E1],"tree_param":{"num_deleted":"0","num_feature":"104","num_nodes":"37","size_leaf_vector":"1"}},{"base_weights":[6.4261637E0,-7.915057E1,1.676031E2,-1.07687614E2,3.287242E0,1.23669044E2,3.1652936E2,-1.2886752E2,-8.851416E1,1.1590051E1,-3.4387186E0,8.242687E1,2.2579526E2,7.8733745E0,3.5639447E2,-7.287739E0,-5.558508E0,-8.293741E1,-7.388527E0,-1.6981518E1,4.857422E1,9.9180984E1,-3.5464265E0,1.5425175E2,2.1194204E1,2.1190739E1,8.669577E0,-4.6769013E0,-5.519971E-1,3.536478E-1,-2.6885264E0,3.9807534E0,-8.006121E-1,6.4296107E0,-1.566156E0,9.20408E0,5.642212E-1],"categories":[],"categories_nodes":[],"categories_segments":[],"categories_sizes":[],"default_left":[0,0,0,0,0,0,0,0,0,0,0,0,0,0,0,0,0,0,0,0,0,0,0,0,0,0,0,0,0,0,0,0,0,0,0,0,0],"id":43,"left_children":[1,3,5,7,9,11,13,15,17,19,-1,21,23,-1,25,-1,-1,27,-1,29,31,33,-1,35,-1,-1,-1,-1,-1,-1,-1,-1,-1,-1,-1,-1,-1],"loss_changes":[3.7787538E6,4.2145712E5,5.82434E5,4.2603625E4,2.8917846E4,2.9728125E5,7.704075E4,2.0268125E3,1.186775E4,4.626278E4,0E0,1.483481E5,2.322265E5,0E0,1.23924E5,0E0,0E0,5.155628E4,0E0,2.2503822E4,3.936636E4,1.9594216E5,0E0,7.04225E4,0E0,0E0,0E0,0E0,0E0,0E0,0E0,0E0,0E0,0E0,0E0,0E0,0E0],"parents":[2147483647,0,0,1,1,2,2,3,3,4,4,5,5,6,6,7,7,8,8,9,9,11,11,12,12,14,14,17,17,19,19,20,20,21,21,23,23],"right_children":[2,4,6,8,10,12,14,16,18,20,-1,22,24,-1,26,-1,-1,28,-1,30,32,34,-1,36,-1,-1,-1,-1,-1,-1,-1,-1,-1,-1,-1,-1,-1],"split_conditions":[1.53692E3,9.112E2,2.94932E3,2.4533E2,1.65833E3,4.9090095E6,2.9484315E6,1.4421E2,7.21E2,1.25265E3,-3.4387186E0,4.414708E6,2.30364E3,7.8733745E0,3.4263322E6,-7.287739E0,-5.558508E0,6.4349E2,-7.388527E0,1.2215E3,1.49066E3,2.5555E3,-3.5464265E0,2.159E3,2.1194204E1,2.1190739E1,8.669577E0,-4.6769013E0,-5.519971E-1,3.536478E-1,-2.6885264E0,3.9807534E0,-8.006121E-1,6.4296107E0,-1.566156E0,9.20408E0,5.642212E-1],"split_indices":[2,1,2,1,0,3,3,2,0,2,0,3,2,0,3,0,0,1,0,0,2,0,0,2,0,0,0,0,0,0,0,0,0,0,0,0,0],"split_type":[0,0,0,0,0,0,0,0,0,0,0,0,0,0,0,0,0,0,0,0,0,0,0,0,0,0,0,0,0,0,0,0,0,0,0,0,0],"sum_hessian":[2.72E2,1.78E2,9.4E1,1.32E2,4.6E1,7.4E1,2E1,6E1,7.2E1,4.2E1,4E0,5.4E1,2E1,5E0,1.5E1,2.7E1,3.3E1,6.8E1,4E0,2.4E1,1.8E1,4.9E1,5E0,1.6E1,4E0,1E1,5E0,5.9E1,9E0,1.5E1,9E0,1.2E1,6E0,4E1,9E0,1.3E1,3E0],"tree_param":{"num_deleted":"0","num_feature":"104","num_nodes":"37","size_leaf_vector":"1"}},{"base_weights":[1.4401377E1,-6.116195E1,2.5003233E2,-1.0207385E2,3.5505592E1,1.7890936E2,3.9391922E2,-1.100913E2,-3.9390118E1,2.2452475E1,1.2080759E2,1.3011208E2,2.4758781E2,8.663584E0,2.1053381E1,-6.98889E0,-1.0115378E2,3.806058E0,-9.386109E1,3.8115124E1,-9.0393555E1,8.054288E0,3.2211769E0,1.8719377E2,-4.3126587E1,1.7299547E2,2.0346441E1,-5.132024E0,-1.9534825E0,3.8061967E0,-1.6414318E0,-6.172825E0,-2.5706275E0,1.113953E0,4.012753E0,-7.287454E0,-6.219818E-1,5.364014E0,1.3618097E1,2.2386963E0,-7.111029E0,1.1078753E1,2.0618591E0],"categories":[],"categories_nodes":[],"categories_segments":[],"categories_sizes":[],"default_left":[0,0,0,0,0,0,0,0,0,0,0,0,0,0,0,0,0,0,0,0,0,0,0,0,0,0,0,0,0,0,0,0,0,0,0,0,0,0,0,0,0,0,0],"id":44,"left_children":[1,3,5,7,9,11,13,15,17,19,21,23,25,-1,-1,-1,27,29,31,33,35,-1,-1,37,39,41,-1,-1,-1,-1,-1,-1,-1,-1,-1,-1,-1,-1,-1,-1,-1,-1,-1],"loss_changes":[4.8404635E6,8.183239E5,6.04946E5,6.853525E4,6.6321914E4,1.21946625E5,5.28355E4,1.9822375E4,4.2710117E4,1.0065608E5,7.790664E3,2.94847E5,1.4354438E5,0E0,0E0,0E0,5.4045E3,3.164182E4,3.7030469E3,3.0911203E4,2.8393191E4,0E0,0E0,1.2051481E5,7.605108E4,8.047359E4,0E0,0E0,0E0,0E0,0E0,0E0,0E0,0E0,0E0,0E0,0E0,0E0,0E0,0E0,0E0,0E0,0E0],"parents":[2147483647,0,0,1,1,2,2,3,3,4,4,5,5,6,6,7,7,8,8,9,9,10,10,11,11,12,12,16,16,17,17,18,18,19,19,20,20,23,23,24,24,25,25],"right_children":[2,4,6,8,10,12,14,16,18,20,22,24,26,-1,-1,-1,28,30,32,34,36,-1,-1,38,40,42,-1,-1,-1,-1,-1,-1,-1,-1,-1,-1,-1,-1,-1,-1,-1,-1,-1],"split_conditions":[1.89165E3,8.9E2,2.92883E3,6.0159E2,1.76141E3,4.697376E6,2.5234748E6,1.3957E2,7.943E2,1.79514E3,1.80622E3,3.373184E6,2.30364E3,8.663584E0,2.1053381E1,-6.98889E0,8.341893E6,6.791147E5,9.11E2,6.1003785E6,1.83028E3,8.054288E0,3.2211769E0,2.2338E3,2.5513E3,2.2569E3,2.0346441E1,-5.132024E0,-1.9534825E0,3.8061967E0,-1.6414318E0,-6.172825E0,-2.5706275E0,1.113953E0,4.012753E0,-7.287454E0,-6.219818E-1,5.364014E0,1.3618097E1,2.2386963E0,-7.111029E0,1.1078753E1,2.0618591E0],"split_indices":[0,2,2,0,2,3,3,2,0,0,0,3,2,0,0,0,3,3,0,3,0,0,0,2,0,0,0,0,0,0,0,0,0,0,0,0,0,0,0,0,0,0,0],"split_type":[0,0,0,0,0,0,0,0,0,0,0,0,0,0,0,0,0,0,0,0,0,0,0,0,0,0,0,0,0,0,0,0,0,0,0,0,0,0,0,0,0,0,0],"sum_hessian":[2.7E2,2.05E2,6.5E1,1.44E2,6.1E1,4.5E1,2E1,1.27E2,1.7E1,5.4E1,7E0,2.8E1,1.7E1,3E0,1.7E1,2.6E1,1.01E2,1E1,7E0,4.8E1,6E0,3E0,4E0,2.1E1,7E0,1.3E1,4E0,9.8E1,3E0,3E0,7E0,3E0,4E0,3.6E1,1.2E1,3E0,3E0,1.2E1,9E0,4E0,3E0,9E0,4E0],"tree_param":{"num_deleted":"0","num_feature":"104","num_nodes":"43","size_leaf_vector":"1"}},{"base_weights":[4.660942E0,-7.593964E1,1.6152525E2,-1.01490875E2,1.2255974E1,8.029741E1,2.9016183E2,-6.7204523E0,-9.365659E1,3.364915E1,-3.8055664E1,9.3757965E1,-3.3089268E1,3.1921216E2,-1.1021881E0,-6.2507885E1,-9.9003235E1,1.5778729E1,4.505607E0,3.1039429E0,-7.430391E1,6.4089615E1,1.6464514E2,-3.99944E0,1.1041291E0,3.493683E-1,3.5020172E2,-4.0802317E0,5.551642E-1,-5.027339E0,-1.860376E0,2.7934387E0,-5.999941E-1,-6.1402893E0,1.457518E0,4.8965282E0,1.3522092E0,1.2085792E1,6.2617245E0,1.0126105E1,2.1870178E1],"categories":[],"categories_nodes":[],"categories_segments":[],"categories_sizes":[],"default_left":[0,0,0,0,0,0,0,0,0,0,0,0,0,0,0,0,0,0,0,0,0,0,0,0,0,0,0,0,0,0,0,0,0,0,0,0,0,0,0,0,0],"id":45,"left_children":[1,3,5,7,9,11,13,-1,15,17,19,21,23,25,-1,27,29,31,-1,-1,33,35,37,-1,-1,-1,39,-1,-1,-1,-1,-1,-1,-1,-1,-1,-1,-1,-1,-1,-1],"loss_changes":[3.501832E6,4.1363562E5,9.5889475E5,2.4032125E4,4.6486223E4,9.3151E4,3.3354475E5,0E0,1.34633125E4,2.8848672E4,5.179881E4,1.0091253E5,1.9879094E4,3.1685125E5,0E0,2.9020766E4,5.7019375E3,2.7397916E4,0E0,0E0,5.3757098E4,4.6243984E4,1.52899375E4,0E0,0E0,0E0,2.9775425E5,0E0,0E0,0E0,0E0,0E0,0E0,0E0,0E0,0E0,0E0,0E0,0E0,0E0,0E0],"parents":[2147483647,0,0,1,1,2,2,3,3,4,4,5,5,6,6,8,8,9,9,10,10,11,11,12,12,13,13,15,15,16,16,17,17,20,20,21,21,22,22,26,26],"right_children":[2,4,6,8,10,12,14,-1,16,18,20,22,24,26,-1,28,30,32,-1,-1,34,36,38,-1,-1,-1,40,-1,-1,-1,-1,-1,-1,-1,-1,-1,-1,-1,-1,-1,-1],"split_conditions":[1.535E3,1.01107E3,2.722E3,1.3486E2,1.56825E3,2.32044E3,8.341893E6,-6.7204523E0,5.1807734E5,1.59419E3,3.4559308E6,2.146E3,2.07994E3,2.3194725E6,-1.1021881E0,2.4645447E5,8.9749E2,1.21852E3,4.505607E0,3.1039429E0,7.473809E6,1.80003E3,2.1959895E6,-3.99944E0,1.1041291E0,3.493683E-1,3.21363E3,-4.0802317E0,5.551642E-1,-5.027339E0,-1.860376E0,2.7934387E0,-5.999941E-1,-6.1402893E0,1.457518E0,4.8965282E0,1.3522092E0,1.2085792E1,6.2617245E0,1.0126105E1,2.1870178E1],"split_indices":[2,1,1,2,0,0,3,0,3,1,3,1,2,3,0,3,1,0,0,0,3,0,3,0,0,0,1,0,0,0,0,0,0,0,0,0,0,0,0,0,0],"split_type":[0,0,0,0,0,0,0,0,0,0,0,0,0,0,0,0,0,0,0,0,0,0,0,0,0,0,0,0,0,0,0,0,0,0,0,0,0,0,0,0,0],"sum_hessian":[2.75E2,1.82E2,9.3E1,1.41E2,4.1E1,5.8E1,3.5E1,2.4E1,1.17E2,2.9E1,1.2E1,5.2E1,6E0,3.2E1,3E0,1.9E1,9.8E1,2.3E1,6E0,3E0,9E0,3.8E1,1.4E1,3E0,3E0,3E0,2.9E1,1.5E1,4E0,9.5E1,3E0,9E0,1.4E1,6E0,3E0,1.9E1,1.9E1,3E0,1.1E1,1.2E1,1.7E1],"tree_param":{"num_deleted":"0","num_feature":"104","num_nodes":"41","size_leaf_vector":"1"}},{"base_weights":[1.2606759E1,-3.695021E1,2.7853824E2,-9.4329185E1,3.7837868E1,3.0893417E2,-7.12887E-1,-1.0229594E2,-5.454841E1,8.252412E0,6.2432026E1,1.7628812E2,3.6135876E2,-6.6125956E0,-9.39849E1,-6.956796E1,-1.5813293E1,-4.6728773E0,7.1847305E1,8.7559927E-1,7.6091774E1,1.32379675E1,1.4472575E0,1.8824696E2,2.0092756E1,-1.7509625E0,-4.782703E0,-1.0552491E0,-4.14281E0,-2.807617E-4,-1.5809784E0,5.179933E-1,-4.579253E0,5.4847655E0,3.287735E-1,1.5837911E0,-1.5035279E0,6.7544594E0,2.8794973E0,3.9675202E0,1.2504089E1],"categories":[],"categories_nodes":[],"categories_segments":[],"categories_sizes":[],"default_left":[0,0,0,0,0,0,0,0,0,0,0,0,0,0,0,0,0,0,0,0,0,0,0,0,0,0,0,0,0,0,0,0,0,0,0,0,0,0,0,0,0],"id":46,"left_children":[1,3,5,7,9,11,-1,13,15,17,19,21,23,-1,25,27,29,31,33,35,37,-1,-1,39,-1,-1,-1,-1,-1,-1,-1,-1,-1,-1,-1,-1,-1,-1,-1,-1,-1],"loss_changes":[3.6080928E6,9.9485106E5,3.870965E5,3.5936875E4,7.297536E4,2.074995E5,0E0,1.4458625E4,1.2862734E4,3.8968902E4,4.617986E4,1.6179947E5,1.13633E5,0E0,5.3115E3,9.199094E3,1.9987064E3,5.320995E4,1.9041969E4,1.1437143E4,4.134042E4,0E0,0E0,2.7291078E4,0E0,0E0,0E0,0E0,0E0,0E0,0E0,0E0,0E0,0E0,0E0,0E0,0E0,0E0,0E0,0E0,0E0],"parents":[2147483647,0,0,1,1,2,2,3,3,4,4,5,5,7,7,8,8,9,9,10,10,11,11,12,12,14,14,15,15,16,16,17,17,18,18,19,19,20,20,23,23],"right_children":[2,4,6,8,10,12,-1,14,16,18,20,22,24,-1,26,28,30,32,34,36,38,-1,-1,40,-1,-1,-1,-1,-1,-1,-1,-1,-1,-1,-1,-1,-1,-1,-1,-1,-1],"split_conditions":[2.53078E3,7.6605E2,9.665838E6,4.7447E2,1.53692E3,2.985E3,-7.12887E-1,1.3121E2,1.234833E6,9.506416E6,1.8241509E6,2.84755E3,2.9484315E6,-6.6125956E0,5.8259633E4,3.9661E2,7.546049E6,1.744E3,1.1531694E7,1.4896068E6,2.4668522E6,1.32379675E1,1.4472575E0,3.97E3,2.0092756E1,-1.7509625E0,-4.782703E0,-1.0552491E0,-4.14281E0,-2.807617E-4,-1.5809784E0,5.179933E-1,-4.579253E0,5.4847655E0,3.287735E-1,1.5837911E0,-1.5035279E0,6.7544594E0,2.8794973E0,3.9675202E0,1.2504089E1],"split_indices":[1,1,3,1,2,1,0,2,3,3,3,1,3,0,3,2,3,1,3,3,3,0,0,1,0,0,0,0,0,0,0,0,0,0,0,0,0,0,0,0,0],"split_type":[0,0,0,0,0,0,0,0,0,0,0,0,0,0,0,0,0,0,0,0,0,0,0,0,0,0,0,0,0,0,0,0,0,0,0,0,0,0,0,0,0],"sum_hessian":[2.72E2,2.3E2,4.2E1,1.3E2,1E2,3.8E1,4E0,1.07E2,2.3E1,4.6E1,5.4E1,1.2E1,2.6E1,2E1,8.7E1,1.6E1,7E0,3.9E1,7E0,1E1,4.4E1,7E0,5E0,6E0,2E1,3E0,8.4E1,4E0,1.2E1,4E0,3E0,3.4E1,5E0,4E0,3E0,5E0,5E0,9E0,3.5E1,3E0,3E0],"tree_param":{"num_deleted":"0","num_feature":"104","num_nodes":"41","size_leaf_vector":"1"}},{"base_weights":[4.9670067E0,-7.441381E1,1.17836555E2,-8.844996E1,4.0275245E0,5.6703968E1,2.1658298E2,-5.557542E0,-7.82581E1,2.8077604E1,-1.8592373E1,7.602813E1,2.293199E1,2.344483E2,-1.0341187E0,-8.076039E1,-3.938673E1,-1.0836258E0,3.1139822E0,-3.5026867E0,8.997546E0,3.0961557E1,9.28434E1,7.490625E1,-2.710612E1,1.25181114E2,2.7034024E2,-2.10568E0,-4.1012073E0,-2.9641988E0,-2.3342438E-1,4.0906005E0,-3.3591707E0,2.191306E0,-1.0762929E0,3.1290798E0,-1.0814382E0,6.597863E0,3.5050054E0,4.7312937E0,1.6421225E0,-5.967855E0,1.5477539E0,9.48233E0,-1.4999512E-1,1.8439873E1,9.696416E0],"categories":[],"categories_nodes":[],"categories_segments":[],"categories_sizes":[],"default_left":[0,0,0,0,0,0,0,0,0,0,0,0,0,0,0,0,0,0,0,0,0,0,0,